334 64
970157141611851776 0.18937464 -0.08239857 -0.02488093 0.1179315 -0.17648907 -0.1337261 -0.006344494 -0.078964666 -0.2991854 -0.19117142 -0.062317442 -0.12336527 -0.2271655 -0.05890297 0.14985369 0.2063437 0.009700126 0.039592803 0.05746402 0.17803776 0.11281905 0.20408332 0.29108453 -0.27145892 0.012656278 0.0054621627 -0.08075831 -0.09795578 0.14019859 -0.05397245 0.09897416 0.010401298 -0.024390737 0.124383226 -0.13463816 -0.031479046 0.025389655 0.0034909858 0.06883344 0.045405418 0.11297459 -0.010189643 -0.09678893 0.040572036 0.14031193 -0.017177457 -0.022279792 -0.068960816 -0.06965435 0.24655196 -0.029415343 -0.0752871 0.0612191 -0.046931505 0.12338441 0.08973608 0.25236854 -0.07285251 -0.17990986 0.13089548 0.014974345 -0.10665256 -0.031124307 -0.09950468
970206519747751936 0.08534061 -0.13933401 0.2105199 0.12071797 -0.267362 -0.11625823 -0.08232358 -0.062362816 -0.32119977 -0.11706801 -0.022122266 0.008722872 -0.11819201 -0.12991075 0.090446785 0.2927535 0.02948368 0.076148756 0.08419066 0.17405644 0.03384075 0.24060434 0.040100694 -0.1846224 -0.0096416045 0.107819304 -0.07919823 -0.038358893 0.1230446 -0.063862994 0.22591703 -0.054844502 -0.07608598 0.10881734 -0.17364742 -0.105710365 -0.027400766 -0.021005826 0.20741345 0.12653023 0.32332826 -0.06837093 -0.009020063 0.062061425 0.107378475 -0.04178461 0.16594724 -0.1184745 -0.06483997 0.093680434 0.035930376 0.061388385 0.07527769 0.013428411 0.10529912 0.034751285 0.16782248 -0.040910713 -0.028006112 -0.23918475 0.06230724 -0.1976777 -0.072795674 -0.036778547
970127884688834560 0.12912504 -0.13922697 0.07311187 0.18063535 -0.0017827845 -0.09261239 -0.1664975 -0.104642145 -0.32638332 -0.18750641 0.016547993 -0.07042645 -0.030387808 0.050753076 0.0017458473 0.17382687 -0.056585915 -0.11023441 0.04574969 0.16402918 0.023208402 0.16505311 0.2065981 -0.32243618 0.045877043 0.08594403 -0.054909896 -0.012148918 0.08884822 0.028589591 -0.03320471 0.038165387 -0.26490176 0.15534975 -0.29090655 -0.01378488 -0.074478075 0.034205765 0.14409576 0.14651383 0.16388054 0.025686992 -0.053385224 -0.07661838 0.13151857 -0.08864634 -0.060078617 -0.23858592 0.05539799 0.020008812 -0.048540227 -0.0054901484 0.19388515 0.108213514 0.28987038 0.052446287 0.13917217 0.02933299 0.13662133 -0.022611892 -0.08647927 -0.15757883 0.029610649 0.06642277
970094564605272064 0.06953972 -0.15501605 -0.043531924 0.117597185 0.07069219 -0.18816535 -0.16818608 -0.16423386 -0.33233023 -0.13525721 0.008137833 -0.17585266 -0.17397268 0.017258013 0.08605304 0.41975817 -0.018659992 0.05184759 0.10623175 0.04459587 0.15201384 0.22322069 0.051139172 -0.11906158 0.118970565 0.05382103 0.115146585 -0.11335478 0.1616514 -0.20628147 0.044600558 0.09831336 -0.009178907 0.12090288 -0.13549508 0.07692544 0.20074242 0.09500777 0.077252485 0.021302547 0.012761691 -0.059430365 -0.14387284 0.09425659 0.13644415 0.04195177 0.28673938 -0.11867063 -0.072578415 0.054761756 0.02134132 0.10311145 0.13369046 -0.0021689855 0.17341268 -0.017474908 0.074227095 -0.043082934 -0.08602938 0.09813929 0.08932713 -0.21368408 0.10484162 -0.06432371
970162397200629761 0.077208675 -0.04498758 0.13008885 0.19682145 -0.021217898 -0.3125697 -0.0056225616 -0.1227019 -0.32834768 -0.083893694 0.11486889 -0.031563774 -0.36803383 -0.011814282 0.08144521 0.3300705 -0.08460447 0.033247933 0.07344582 0.14094183 0.086962834 0.11564673 0.02208603 -0.31062156 0.16736357 -0.096629 -0.03870561 -0.1512488 0.012844144 -0.16310345 -0.032995984 -0.06595547 -0.15870872 -0.013606372 -0.15750693 -0.0036030444 0.14309737 -0.1044193 0.0466227 0.0859217 0.19468445 0.1887346 -0.0031891323 -0.054075874 0.14008744 0.1104886 -0.06594791 -0.16464694 0.0010443954 -0.007960795 0.05207186 0.03723193 0.051075537 0.04578787 0.23288494 0.17406534 0.269061 -0.0634238 -0.117508695 0.05479834 -0.057171352 0.025668938 -0.09086241 0.048296977
970140289246494720 0.08995206 -0.23807772 -0.07161435 0.105911426 0.040427133 -0.22545642 -0.032835327 -0.08382739 -0.30672398 -0.23822081 -0.11975585 -0.0014953691 -0.12502283 0.012090202 0.1575337 0.35415357 0.004222338 -0.040180974 0.019804996 0.13840263 0.11556716 0.18091081 0.20594014 -0.29975548 0.0022892198 0.10456723 -0.10886946 -0.17630304 -0.05131166 -0.117452994 0.08589051 0.007139463 -0.24424207 -0.12844902 -0.14920479 -0.023635516 0.03527518 -0.021491027 0.02816366 -0.006904216 0.3421405 0.071175046 -0.031837553 -0.05884904 0.23835206 -0.15668625 -0.043154683 -0.21670549 0.068433136 -0.006685912 0.063861415 0.085678644 -0.05636147 0.025519788 0.16236484 0.19389021 0.04110455 -0.028664678 -0.05369157 -0.018954953 -0.067908704 -0.13702294 -0.03844264 -0.0821776
970157427093057536 0.1241902 -0.12861124 0.028163182 0.020228852 -0.012217781 -0.192375 -0.15975228 -0.19893508 -0.2840795 -0.0799733 0.039949615 0.03448329 -0.1519292 -0.18617637 0.15492915 0.2014121 0.02111106 -0.042790428 0.067075714 0.20030147 0.0052310782 0.19196407 0.23745768 -0.31206518 -0.04971294 0.06910926 -0.0749004 0.07427548 0.074618034 -0.07746393 0.18433052 0.04588912 -0.08324634 0.044095453 -0.24967286 -0.013598034 -0.020871386 -0.01096187 0.024119757 0.06577739 0.23161255 0.056421105 0.09949779 0.07829554 0.16953763 -0.009621189 0.16697472 -0.1375877 -0.04154836 0.17800091 0.05169605 -0.10271868 -0.052555155 0.10570604 0.08669386 0.09692323 0.12185053 -0.07312696 -0.20416602 0.012303852 -0.004728094 -0.111586906 -0.009879156 -0.07570568
970124048087728128 0.19152944 -0.18542182 -0.06598175 0.2557903 0.03785186 -0.21515734 -0.08491127 -0.11478344 -0.29538804 -0.27746844 0.04990038 -0.13551483 -0.32530463 0.013047172 0.06961889 0.27612868 -0.0063013863 -0.008469132 0.037110418 0.08101409 0.0051744166 0.17401828 0.18331116 -0.21192703 0.026806852 -0.08383357 -0.06062338 -0.05000417 0.16565897 -0.077576965 -0.069362566 0.013484352 -0.2780358 -0.030585648 -0.2166306 -0.12099689 0.13492642 -0.051902868 0.07980566 -0.06627115 0.017776297 -0.094539925 0.057187833 -0.070104904 0.10693536 -0.011670691 -0.13752083 -0.09827463 0.15166295 0.08325532 0.009784187 -0.08198223 0.05869539 0.10051632 0.14533079 0.1267852 0.13690715 -0.013862947 -0.005226427 -0.008888934 -0.24578093 -0.07281171 -0.013827273 -0.048973676
970127418852704256 0.078674436 -0.058995184 0.08680453 0.18758702 -0.07897394 -0.36103705 0.08073399 -0.14346223 -0.36943865 -0.13037601 0.019911842 -0.0446199 -0.12750302 -0.14676219 0.058337986 0.318033 -0.040668543 0.05541764 -0.0013152836 0.0952345 0.026291702 0.06904655 0.06480635 -0.26305234 0.053857576 -0.059965573 -0.18851401 -0.105909415 0.097939 -0.23696268 -0.14646097 0.08479847 -0.20792675 0.12724684 -0.1826962 0.05186321 -0.0364799 -0.0457601 -0.01840804 0.17349517 0.17445762 0.15964858 -0.17618093 0.008365108 0.17009671 0.021960534 -0.06496665 -0.12482452 -0.047979504 0.0397521 -0.039397154 -0.14821999 0.1514028 0.07120357 0.24596608 0.18175787 0.2888128 0.03841573 -0.033939738 0.02314398 -0.089337505 -0.11777772 -0.12907653 -0.0070767556
970222806741889025 0.023642436 -0.111536965 0.11139138 0.195796 0.033899136 -0.11872389 -0.04648975 -0.21997444 -0.39759767 -0.2081637 -0.13174266 -0.14752534 -0.2868075 0.008570116 0.20806302 0.25906405 0.06712936 -0.10540189 -0.075757205 0.11241288 0.009315031 0.07641013 0.24811974 -0.19364016 0.13011414 -0.07272266 -0.07158647 -0.02298625 0.081229456 -0.12735571 -0.075625926 -0.0102645885 -0.25361842 -0.0014991012 -0.13680045 0.0024005983 0.13975778 -0.018015198 0.044426456 0.1144071 0.2320853 0.09367425 -0.070777096 -0.10037726 0.0564903 -0.0012545343 -0.021825394 -0.17095837 0.014437224 -0.07324949 -0.020214438 0.039477717 0.02592999 0.029259054 0.22375333 0.114571296 0.12375116 -0.09344681 -0.24814194 -0.03277874 -0.19535281 -0.05915574 -0.12552814 -0.004839488
970166614803935232 0.15492584 -0.34142363 0.06711375 -0.0726777 -0.17219284 -0.0022794518 -0.21997225 -0.0883323 -0.3600913 -0.1943625 0.085227996 -0.15326539 -0.14967108 0.05927369 0.0394102 0.34216192 -0.077727765 -0.2147762 -0.05616779 -0.011228127 0.10510065 0.14590374 0.0962742 -0.05209988 -0.061661776 0.16176927 -0.0064886953 0.068849765 0.12720154 -0.067406535 -0.07898653 0.116320714 -0.08854587 -0.013242895 -0.118162625 -0.044891085 0.2661468 -0.06544574 0.096061826 0.0978857 0.21554464 0.017137634 -0.15241542 -0.07969208 0.17354397 0.0049050204 0.08480175 -0.08783106 0.19290824 0.16488054 0.014131182 -0.0057160743 0.02964021 -0.072922155 0.014690708 -0.25907585 0.2635159 0.07235893 -0.076848924 -0.005269651 -0.014990149 -0.24834841 0.17811784 -0.07333856
970203253160865793 -0.025314724 -0.06401156 0.026651168 0.20691569 -0.13980831 -0.24408853 -0.06804176 -0.3109049 -0.36451784 -0.25810733 -0.059557203 -0.0129194595 -0.11492063 -0.059325144 0.097718425 0.24118444 -0.122057304 0.04531436 0.024756527 0.1300338 0.04622489 0.26659015 0.08223996 -0.21821284 0.09701959 -0.17335235 -0.19815503 -0.025400136 0.104971245 -0.04543171 -0.040273078 0.046878222 -0.13917834 -0.035589848 -0.19612928 -0.01691921 0.07640661 -0.10012009 0.08030325 0.2422243 0.31928417 0.008066071 -0.12606522 -0.11631286 0.110821 -0.04281377 -0.02195613 -0.091572665 0.022698857 0.13766964 -0.08225849 0.008869553 0.045558218 -0.012884127 0.20824488 0.14311804 0.18135175 -0.049220275 -0.029035594 0.01570187 -0.008713165 -0.020795306 -0.120394684 0.11927987
970154269667049472 0.12744832 -0.23113957 -0.01698588 0.031898864 -0.1107304 -0.11118049 -0.29005858 -0.11893444 -0.3259064 -0.23971923 0.09958433 -0.24196698 -0.20388408 0.04718878 -0.10463404 0.12581755 -0.14681499 0.06569826 -0.11907767 0.14589795 0.065266825 0.09159593 0.24272524 -0.08744783 -0.20872013 0.055186357 -0.042867836 0.09104759 0.1917478 -0.07623633 -0.014684672 0.20560813 -0.14130908 0.13137996 -0.16007002 0.025411665 0.111722395 -0.023043448 0.11502949 0.15373813 0.027747491 0.061000083 -0.088256985 -0.0804591 0.1203804 0.0020306592 0.07958534 -0.10783487 0.06769257 0.07903057 -0.050944638 -0.056368727 0.15364043 -0.010015639 0.18821618 0.18445605 0.11031796 -0.0040152264 -0.0047033476 0.008000574 -0.035041608 -0.1654132 0.1876212 -0.038488556
970223628359839744 0.12664379 -0.240247 0.06626332 0.17035125 -0.026653482 -0.14385225 -0.0462 -0.16773522 -0.35520914 -0.37706375 0.11656695 -0.028091395 -0.07573979 0.094181195 0.204698 0.24100706 -0.1482881 -0.057359837 -0.21564062 0.16295232 -0.005172708 0.1655422 0.21260948 -0.24396685 0.09385505 -0.04370783 -0.16159503 -0.033305794 0.028099868 -0.0859162 -0.055931848 0.067819625 -0.27731055 -0.106282175 -0.20414339 -0.09893958 -0.0899052 0.015323638 0.09991552 0.049564984 0.08301321 0.050266206 -0.012592066 -0.053470638 0.12615393 -0.0540308 -0.08189137 -0.15568282 0.0069856476 -0.053962655 0.09159895 -0.072601855 0.09481268 0.06127722 0.111338794 0.1509223 0.17095333 -0.07872515 -0.06089846 -0.018007997 -0.12345703 -0.13224947 -0.066991776 0.11267192
970103880909340674 0.07869922 -0.16126683 0.10898209 0.16192606 0.03731223 -0.18199375 -0.06452531 -0.05797933 -0.2228417 -0.24742962 0.04284487 -0.12294007 -0.1911799 -0.059569005 0.09883225 0.5006101 -0.02814298 0.055096924 -0.1456578 0.045739684 -0.036685254 -0.012426694 0.12097363 -0.09068883 0.09798099 0.04350692 -0.031626638 -0.18169343 0.1578513 -0.09330644 -0.07289127 0.012830489 -0.03843947 0.059552148 -0.16252631 0.10323179 0.056572616 0.10389863 0.025367798 -0.032347966 0.17511247 -0.022965724 -0.16250211 0.21157452 0.16945286 0.0012163614 0.14015797 -0.058498885 -0.12649916 -0.09612553 -0.044528387 0.09961205 0.28911367 -0.042626455 0.19888623 0.11094001 0.16985843 0.11254526 -0.10261074 -0.040841743 -0.11997218 -0.2399414 0.13364075 -0.056585748
970141922076475393 0.062890016 -0.10028755 0.12335823 0.13119707 -0.023614518 -0.24930236 -0.00927521 -0.17902821 -0.35053852 -0.23374775 -0.063111685 -0.077845104 -0.119709745 -0.16852102 0.17668955 0.22406186 -0.1813862 -0.004738781 0.029601932 0.15371208 0.08763787 0.09913617 0.15729502 -0.27591667 0.055178136 -0.038764343 -0.061435774 -0.19556215 0.10280628 -0.06337763 0.018612558 0.117076315 -0.16784845 0.0027979654 -0.18524383 -0.061426118 -0.01791638 0.017076705 0.04765348 0.021321647 0.1992256 0.04561684 -0.0029617655 -0.11413569 0.044394277 0.08173763 -0.04102073 -0.09138579 -0.027913561 -0.059756596 -0.006810079 0.08936341 0.18307929 0.01563531 0.25622106 0.21740831 0.095288046 0.03314921 -0.095695384 0.067093186 -0.20652805 -0.11270956 -0.10720918 0.10018312
970403105291436033 0.08693233 -0.20796274 0.15888312 -0.020070674 -0.09609383 -0.14832953 0.10486556 -0.23772605 -0.3807126 -0.053064585 0.008470109 -0.06547996 -0.20948733 0.060983457 -0.009091568 0.28718433 0.06872056 0.008182713 -0.18402794 0.28665274 0.022336217 0.18389054 0.15334012 -0.14838576 -0.01358685 0.09233332 -0.067995675 -0.018776933 0.08522702 -0.024835233 0.046143092 -0.059800424 0.010177083 0.06452291 -0.03466041 -0.032967303 0.06804624 -0.049992822 0.0015710187 0.09155671 0.20081793 -0.0073047234 -0.042770848 -0.039381746 0.077104025 0.07823101 0.08587653 -0.16898116 -0.017019643 0.091207646 -0.14589147 0.06477126 0.10482109 0.047643844 -0.03333523 -0.005581266 0.10418307 0.054680616 -0.024243448 0.0116634155 -0.21818271 -0.15809698 0.0028532285 -0.08578459
970175431478398977 0.2217148 -0.18495797 -0.04021869 0.2485993 -0.05869188 -0.21363948 -0.07985845 -0.15994419 -0.2012372 -0.32246026 -0.027413974 -0.25412905 -0.066448115 -0.008411604 0.12854055 0.24114706 0.025988823 -0.049198244 -0.008369712 0.19804437 0.01689559 0.24458475 0.15081568 -0.17132643 -0.009268106 0.0039012562 -0.08559099 0.01264535 0.10903015 -0.069117926 -0.16784851 0.06337126 -0.1509043 0.007665535 -0.18731627 -0.13094021 -0.049973723 -0.033734385 0.0130936885 0.20697977 0.29840764 0.06430938 0.026081301 -0.119981304 0.19155484 0.09529576 -0.06813058 -0.09606172 -0.06457732 -0.04741161 0.029735079 -0.044493206 0.08869069 -0.12562156 0.18027924 0.10739987 0.14699122 -0.16204394 0.101340786 0.14083402 -0.1781409 -0.03570978 -0.03759191 -0.12880471
970149521828167680 0.109419145 -0.27797762 0.0957783 0.11835941 0.09850549 0.0012258724 -0.032811638 -0.15542957 -0.13002199 -0.1837867 0.061351236 -0.33459035 -0.1667906 0.09124315 -0.0060807774 0.20995842 -0.13109784 -0.054909613 0.09286863 0.25136098 0.14646442 0.14054653 0.12056261 -0.30599198 -0.03589451 0.19352905 -0.1305808 -0.1955347 0.090716206 -0.12289943 -0.0058097825 0.18877497 -0.1519944 0.051778514 -0.22345051 -0.029260177 0.104235746 0.09792374 -0.01533028 0.063153595 0.062178638 0.11669755 0.07197063 -0.19637485 0.14879388 -0.030907385 -0.08186036 -0.20307037 -0.03544817 -0.013815052 0.047930855 -0.022961741 0.10654975 -0.1318893 -0.028056305 0.19896466 0.16798323 0.05004139 0.04552901 0.006431905 -0.022927372 -0.019321391 0.0032048195 0.021638667
970387079875080192 0.091391444 -0.12616798 0.03393891 0.06682591 -0.060874883 -0.084153675 -0.08811028 -0.23971622 -0.29999247 -0.20622791 -0.006568485 -0.08047018 -0.23878644 0.09011872 0.22069305 0.15494283 0.09643147 -0.039958224 0.012277752 0.24544875 0.07732659 0.16614936 0.19605368 -0.17171082 0.087349914 0.07561216 -0.121085696 -0.19434422 0.073127285 -0.3187885 0.09701309 0.10108843 -0.23511773 0.018968103 -0.20234637 -0.13062643 0.11712799 -0.084399186 0.038734376 0.026188234 0.17068964 0.05409535 -0.08603364 -0.15405531 0.1486648 0.06634788 -0.033141755 -0.11374265 -0.021077324 0.12585089 0.024586074 0.016410373 0.021280792 -0.023338152 0.234977 0.20390688 0.055929292 0.0228611 -0.06024832 0.11875782 -0.030074254 -0.11403133 -0.03667637 -0.09711272
970194343398010880 0.043479417 -0.15841086 0.018273797 0.14769857 -0.2437675 -0.13922743 -0.038475566 -0.061943572 -0.45652035 -0.2110316 0.024066608 -0.07262508 -0.13020729 0.12258876 0.042011596 0.2554363 -0.04161825 0.0043403837 -0.06202194 0.19727948 0.09838827 0.15609674 0.120796755 -0.20862094 0.023109723 0.026616978 -0.10250542 -0.27156162 0.19470356 -0.08891255 -0.12368019 0.014652995 -0.20970166 0.020947238 -0.045435622 0.07105205 0.046929207 0.06646986 0.08707232 -0.07139215 0.20144178 0.07311426 -0.079103194 -0.02185321 0.17353827 0.010863753 -0.029624864 -0.18529364 -0.032908585 0.04553544 -0.06406311 0.0340421 0.086296394 0.12809908 0.15731716 0.1036737 0.12549022 0.065862976 -0.0773279 0.026042191 -0.02525989 -0.17886853 0.06609956 0.035994627
970250859077513218 0.115797855 -0.27214494 0.098458804 0.095189795 -0.18834189 -0.31213042 -0.047666855 -0.013936299 -0.1818993 -0.16391124 0.0692018 -0.08052526 -0.23008831 0.0053493907 0.039490644 0.20199953 -0.01832145 -0.057485163 -0.04874227 0.182602 0.05804598 0.174047 0.1884691 -0.09880425 -0.011365583 0.12294958 -0.21988937 -0.17056943 0.22935238 -0.06383042 0.09602684 0.123885706 -0.28032607 0.082642004 -0.019704135 0.008730933 0.054377884 0.15080555 0.16169825 0.042584673 0.05338498 -0.0016066489 0.11437686 -0.10850328 0.19106211 0.004589071 0.03109309 -0.053309772 0.13527703 0.06336775 -0.117636666 -0.18274325 0.26195627 0.27459225 0.25704286 0.17785795 0.21398187 0.0833767 -0.06995139 -0.024614615 0.02586581 -0.14157 0.1500322 0.22488663
970172254125408257 0.0992681 -0.10522533 0.039109234 0.116705574 0.03224986 -0.26063293 -0.14321326 -0.19164084 -0.22178468 -0.23104417 0.07196862 -0.07164331 -0.028514275 0.05356353 0.111696795 0.29388678 -0.07421622 -0.06523618 -0.013722205 0.17746496 0.10099138 0.18913157 0.14474632 -0.18164158 0.16529162 0.041662194 -0.03434649 -0.14206825 0.17298087 -0.08026752 0.021523973 0.10398502 -0.15825467 0.00033035685 -0.14193712 -0.08614774 0.07684341 -0.115310416 -0.027968848 -0.021045733 0.12459835 -0.018110996 0.014572791 -0.13865404 0.16658977 0.023481458 -0.026835106 -0.25076914 0.07034892 0.021324277 -0.1035167 -0.017582856 0.105621696 0.018055366 0.39270034 0.05332607 0.15550368 0.019540705 -0.20407423 -0.012803561 -0.07961073 -0.05158148 -0.12630117 -0.06586273
970127910710345728 0.07517863 -0.28938812 -0.01637882 0.04585599 -0.02485738 -0.19595847 -0.039195277 -0.22010764 -0.22341555 -0.29925683 -0.0036755195 -0.13657154 -0.076130114 -0.032535527 0.06788347 0.28842363 0.0038105086 -0.073345535 -0.021317607 0.16905355 0.034548867 0.16733721 0.23961721 -0.26071715 0.08543106 -0.09568457 -0.04115136 -0.2566772 0.04502602 -0.11718692 -0.048335638 0.1282571 -0.34334373 -0.0065250183 -0.29409337 -0.10069781 0.22997935 0.022607598 0.06085564 -0.060557574 0.24712104 0.16221966 -0.13920704 -0.12013944 0.104657724 0.029664477 -0.0660027 -0.099468425 -0.0035564983 0.04599366 -0.082307704 -0.024498403 -0.07781147 0.21495393 0.2580846 0.2822754 0.052507963 -0.084228724 -0.21239041 -0.16414243 0.101153076 0.08991172 0.002902966 0.1691454
970167007826989056 0.19529183 -0.17233965 0.18449256 0.09502956 0.026317898 0.051922545 0.048638165 -0.10459007 -0.20803212 -0.18629286 0.03018353 -0.04514299 -0.08477716 -0.17665593 0.023877256 0.17748684 -0.08704825 -0.12691502 -0.052720368 0.2780943 0.12901247 -0.120814756 0.32069975 -0.12358995 -0.13912353 0.09183966 0.1114483 -0.10230579 0.2715475 -0.026479783 0.17833455 0.095572494 -0.14456125 -0.08035631 -0.25270662 0.034406766 -0.0038240964 0.023793204 -0.043124545 0.1719927 0.112095855 -0.022531336 -0.11234739 -0.04978043 0.23489465 0.024600092 -0.10067197 -0.17062765 -0.022479292 0.053012826 -0.07502795 0.020995868 0.12217411 0.14966534 0.15292065 0.10703473 0.18200816 -0.15899187 0.018975144 -0.09639161 -0.13176711 -0.028226433 0.16676714 -0.07647619
970232559568273408 0.1553682 -0.3154837 0.100017935 0.09259516 -0.07187229 -0.16177791 -0.1772123 0.009901216 -0.13043018 -0.16479152 -0.16853873 -0.12445891 -0.28434137 -0.11370179 0.17616637 0.29692033 0.0048034694 0.07598492 -0.05214698 0.13324082 0.21759614 0.37865952 0.20362459 -0.33350226 -0.016057247 0.07732932 -0.2701401 0.10313832 0.06840886 -0.0989542 0.08578782 0.005324823 -0.14785103 -0.059575655 -0.20243879 0.034088984 -0.0911269 0.07157497 0.09949827 0.0011053355 0.121300526 -0.05635964 0.008059852 -0.14413653 -0.017016279 -0.01299848 -0.09146927 -0.072501644 0.045623917 0.14369583 0.03321783 -0.08952701 0.11619553 0.14929381 0.15603326 0.18261446 0.08818325 -0.005227409 -0.15180163 -0.087496206 -0.016110621 -0.07353828 0.18158011 0.058389343
970438888564011009 0.19259402 -0.13534963 0.009109382 0.31351104 -0.19394834 -0.18714792 -0.14255877 0.051029444 -0.18615937 -0.1898355 0.019127531 -0.00895389 -0.20757334 0.023632739 0.24791619 0.36752918 0.15831952 -0.08398536 -0.013980058 0.049544625 -0.077179894 0.2774121 0.13651645 -0.18744788 0.041207597 0.20232347 -0.049920745 -0.08200065 0.2691965 -0.10585738 -0.034836136 0.059259903 -0.2700669 -0.008240724 -0.13793007 -0.025549207 0.055198923 0.15589458 0.20665248 0.14881398 0.14365892 -0.08732842 0.22117274 0.003201963 0.029421998 -0.06696843 -0.016200267 -0.1043081 -0.10686144 0.09284507 0.25206336 -0.12686272 0.1288623 0.07216807 0.26837364 0.0581592 0.15459056 -0.0054864106 -0.14490132 0.013110611 -0.036256958 -0.08401804 0.07734101 0.02223402
970147799135240192 0.09601629 -0.31699455 0.059025623 0.16267267 -0.095279515 -0.023542602 -0.15290989 -0.14361931 -0.3844152 -0.14779098 0.01865283 -0.07716884 -0.097580194 0.07245972 -0.053283524 0.18345703 -0.07817373 -0.12998775 -0.08020012 0.22270274 0.04022994 0.068811595 0.163713 -0.1913538 -0.022386795 0.2129788 -0.008147094 -0.07822994 0.23907463 -0.01378176 8.4235566e-05 0.025304558 -0.1602539 -0.07235214 -0.23497161 0.10363858 0.14021224 0.059310846 -0.0031034718 0.0202822 0.06340621 -0.026515463 -0.023412691 0.1008905 0.17628041 0.08300397 0.085347205 -0.08424937 0.093318366 0.12013346 0.007762311 -0.014706504 -0.021127818 0.08170858 0.021110235 0.04734637 0.11710576 -0.0038251707 -0.021179998 0.06118778 0.025069412 0.006387876 0.090921074 -0.062595844
970177506497126401 0.15896833 -0.30385575 0.07844789 0.20059064 -0.085582934 -0.10538839 -0.17189337 -0.18953152 -0.34627375 -0.102329776 0.026971735 0.009837611 -0.15243143 0.037397787 0.037674196 0.36152825 0.009757258 -0.058758706 -0.053911313 0.23988584 -0.08527053 0.081977904 0.20109558 -0.06817017 0.015027664 -0.029357981 0.049997885 -0.023654968 -0.043415334 -0.13553785 -0.008388001 0.14273784 -0.10028253 0.054565825 -0.21695437 0.025267206 0.09067904 0.08998347 0.25223947 0.06351654 0.053877242 -0.006716703 -0.07313384 0.03803919 0.08263049 0.07241194 0.17065042 -0.083691575 -0.04528208 0.22233772 -0.009481973 0.0013654333 0.050990567 0.09402542 0.06903768 0.018420124 0.10926168 -0.108566254 -0.16320467 -0.029979583 0.036429342 -0.11495723 0.036063705 0.04819381
970238635546161152 0.08102093 -0.29573575 -0.0008014532 0.17353132 -0.2017277 -0.24020725 -0.061508395 -0.18624172 -0.1087704 -0.26958063 -0.11670937 0.06659339 -0.2542548 -0.005877219 0.16681118 0.1879002 0.15712519 -0.26191717 0.044362668 0.16875418 -0.051507756 0.20903222 0.19416413 -0.18341249 0.13634199 0.20697594 -0.15019156 0.069579594 0.17058246 -0.07090622 0.07930877 0.14991154 -0.2128231 -0.020576606 -0.10614378 -0.0272579 0.06807287 -0.015663851 0.11080609 0.12505294 0.14251499 -0.058219127 0.08900063 0.021168893 0.13684152 -0.040459763 0.013650641 -0.15355627 0.13093427 0.046732888 -0.018006299 -0.06516011 0.14043288 0.16734678 0.26924962 0.078414105 0.15135016 0.032591935 -0.13501348 -0.032850407 -0.012720727 -0.09858886 -0.005233897 0.033390556
970250819823050752 0.21746597 -0.2248414 -0.0021099253 0.10171111 -0.0042444794 -0.2319022 -0.017836496 -0.1654692 -0.18538414 -0.058834694 -0.07215295 -0.16335753 -0.13307594 -0.060040478 -0.14859475 0.21582827 -0.15475696 -0.18900998 -0.06670421 0.16704415 0.08045975 0.39911628 0.12469965 -0.15891008 0.17974903 0.07396037 -0.12197155 -0.20513625 0.1904024 -0.12119724 -0.068785764 0.025483882 -0.16697614 0.020672988 -0.05307248 -0.015985906 0.010055418 0.07782742 0.24809067 0.14671351 0.25076002 -0.15540536 -0.16355613 -0.05771692 0.042276394 0.0048184847 0.04089564 -0.2266955 -0.014282946 0.080316335 -0.031228643 0.029490078 -0.010372745 -0.15000933 0.18086532 0.2297973 0.12236969 -0.005394268 -0.16839625 -0.09709325 -0.1806414 0.010962361 -0.15843529 0.0016521633
970249307919065088 0.097423725 -0.24734426 0.022470478 0.2679552 -0.05120427 -0.18002358 -0.09360268 -0.15793522 -0.30163023 -0.25016072 -0.069758676 -0.051111374 -0.3660488 -0.007271691 0.14156131 0.23291634 0.020059587 -0.051207703 -0.13385434 0.09114609 0.027989214 0.19627509 0.0023998537 -0.2185749 -0.009211097 0.08872668 -0.0752885 0.05559281 0.20980032 -0.19246124 -0.030611565 0.07128303 -0.10243938 -0.050758213 -0.27574563 -0.09025693 -0.017903762 0.13244215 0.04513671 0.07517072 -0.010405773 -0.0764089 0.06983327 -0.10838129 -0.07976278 -0.008098356 -0.034020294 -0.1039079 0.05261526 -0.0016383961 0.05516111 -0.14318635 0.19287571 0.18890287 0.19418977 0.17324139 0.053734507 0.03989282 -0.19135651 -0.027243417 -0.024208007 -0.11805597 0.061492745 0.1431764
970263880814309377 0.04189825 -0.21595177 0.046197686 0.26894808 -0.053817756 -0.1961437 -0.08176399 -0.17117044 -0.10940798 -0.1868586 -0.07960797 -0.08184178 -0.346814 -0.040290713 0.12189995 0.14391795 0.07685871 -0.0275128 0.00732253 0.15135555 0.02359834 0.21443155 0.34078133 -0.22259092 -0.079718895 0.12717088 -0.15175031 0.0803015 0.2771553 0.02920495 -0.051248055 0.025083661 -0.18561171 -0.008784366 -0.17023687 0.06540568 -0.13100058 0.12561938 0.13969308 0.08554875 0.17096716 -0.020362984 0.026880328 -0.11129496 0.08811389 0.024315476 -0.062571555 -0.31150153 0.06727119 0.023847964 -0.024847401 -0.01471846 0.12645364 0.06048895 0.16772325 0.21941692 0.1362462 -0.015503291 -0.09103234 -0.07510115 -0.032952763 -0.08175665 -0.03274263 0.08243905
970155913142136833 0.22810549 -0.28364164 0.10302203 0.16781415 -0.009268951 -0.119957626 -0.07049996 -0.08124192 -0.32809895 -0.29571724 -0.0049522677 0.097070284 -0.020948939 0.0015150154 0.060137466 0.30330464 0.037889052 -0.09011928 -0.03979958 0.24663381 -0.109574296 0.049497966 0.1611244 -0.13827029 -0.04738068 -0.075556874 0.076807246 -0.094240226 0.0808596 -0.09972866 0.19661154 0.24924803 -0.05919428 0.16045696 0.0055257906 0.044322614 0.07847085 -0.0035172803 0.0935871 0.11768947 0.09996864 0.01992174 0.04136481 0.03862459 0.09624631 0.014627335 0.15714234 -0.16241385 -0.0032270832 0.15545745 0.16557588 -0.049355228 0.11980691 -0.11754038 0.026149685 -0.014012136 0.18290183 -0.12522393 -0.029863553 0.0099673085 -0.063186646 -0.25352776 0.092644416 -0.059151348
970140985253535746 0.1282329 -0.16978872 0.05860815 0.02408862 -0.18448456 -0.20535427 -0.1289287 -0.19452235 -0.27568117 -0.10999848 0.051732164 -0.061640948 -0.30322367 -0.03669856 0.04442016 0.29250255 0.0018185907 0.024894375 -0.17423326 0.16102594 0.096649416 0.2611644 0.1646443 -0.015180773 -0.05719017 0.061530642 -0.044785842 0.046694715 0.15136895 -0.035019 0.102084756 0.235734 0.035915125 0.11784822 0.018994765 -0.0992054 0.154812 -0.0826972 0.054569837 0.2166695 -0.0038126947 -0.08976016 -0.06962518 0.048417028 0.121122636 0.078559615 0.061191898 -0.124567404 -0.011352151 0.16474412 -0.04296382 0.087187 0.11453765 -0.03766524 0.06951234 0.07760155 0.042239834 0.0020706968 -0.0044147386 0.07477116 0.0070373057 -0.09543941 0.11072829 0.046432175
970158165059760132 0.08789783 -0.3219901 0.15751696 0.07886769 -0.08551984 -0.06414113 -0.12627152 -0.14476176 -0.19891961 -0.16804601 -0.050949715 -0.032517474 -0.028550629 -0.107667014 0.14315544 0.28741106 -0.0033724217 0.015064404 -0.09135603 0.26988196 0.03250369 0.29447782 0.20165442 -0.10891502 -0.066403136 0.10422188 -0.028092813 0.04064458 0.0680475 -0.20473507 0.005565804 0.086883426 -0.005957326 0.053906117 -0.082111456 -0.122797586 0.16965403 -0.010095522 0.21397457 0.20607376 0.004307668 0.0029310037 0.029609043 0.052994717 0.10420656 -0.004915224 0.20956568 -0.06603146 0.035987854 0.15793853 0.046855535 -0.052509274 0.100689024 0.048533622 0.07043229 -0.016049093 0.12988362 -0.12184024 -0.09196422 -0.074058115 -0.030655736 -0.29895523 0.07046765 -0.079378776
970387361988190208 0.057603497 -0.017639743 0.1452652 0.040946767 -0.08550419 -0.29921174 -0.028579304 -0.119260415 -0.36755863 -0.12864345 0.019614944 -0.053345542 -0.23877688 -0.089556806 0.2629879 0.18704008 0.053072788 -0.10713236 0.00091128034 0.13665552 -0.07738298 0.2425279 0.13878927 -0.30067393 0.07919738 0.039063603 -0.07354443 -0.059708185 0.013376662 -0.17786925 0.031947028 0.021444147 -0.29025277 0.04261431 -0.21473306 -0.005048654 0.09644112 -0.0035234983 0.14904556 -0.059396714 0.22996126 0.07504456 -0.051239375 -0.19405414 0.07904287 0.111205325 -0.038562156 -0.14025928 0.07668671 0.08837396 -0.12941375 0.015024105 0.0969138 -0.12376353 0.31169024 0.2928497 0.14307976 0.10852797 -0.104508236 0.024642259 -0.008652034 -0.044214934 -0.035264906 0.09419209
970163441724870657 0.061673228 -0.1992965 0.10906969 0.2191829 -0.088602 -0.07755414 -0.078969106 -0.097697094 -0.30134937 -0.1232668 0.050833456 0.019238064 -0.11239519 -0.08077435 0.006189994 0.26525924 -0.01268833 0.053084064 -0.035097748 0.22713389 0.0067149294 0.19377425 0.3735108 -0.2085099 0.033212554 0.006543796 0.002360046 -0.0024375003 0.04315606 -0.1261953 0.04257857 0.21239616 -0.036455147 0.058957737 -0.0509012 0.024830496 0.15404204 -0.0061191176 0.3012883 0.1566497 0.12064758 -0.016717194 -0.10965989 0.09908609 0.08836575 0.065914065 0.04109793 -0.09005992 -0.017007045 0.16284956 0.024849301 -0.056074094 0.09476377 0.12598546 0.06558919 0.08232965 0.16719086 -0.08395742 0.03361781 -0.08564834 -0.01138524 -0.18833134 0.110193275 -0.102998756
970163675037224960 0.17029294 -0.3088505 -0.03800944 0.061255928 -0.020812945 -0.045473978 -0.043731306 -0.21440428 -0.21413669 -0.15945317 -0.05124494 -0.078589305 -0.20049484 -0.058743764 0.11605897 0.15771785 0.021487813 -0.12886733 -0.075949 0.23865987 0.090253115 0.032064635 0.27299213 -0.18964073 0.24576592 0.054144435 0.07263237 -0.20676923 0.26518682 -0.104565814 0.093513295 0.04485603 -0.070489526 0.12497264 -0.11419786 -0.16298111 0.046579476 0.12855706 0.14840029 0.022651829 0.07868709 -0.11407355 -0.08363655 0.11966665 0.008964299 0.05432743 -0.016548598 -0.10615036 0.01305321 0.13247171 -0.21515399 0.04206794 0.051273916 0.07064306 -0.07334801 0.03600124 0.28641084 -0.089144886 -0.010419308 -0.043590654 -0.16951679 -0.025108721 0.15978372 0.0028565954
970140289464598528 0.10463608 -0.27449098 0.17827503 0.10818795 -0.055855624 -0.12119831 0.04091734 -0.21016163 -0.3594102 -0.117997766 -0.0022027341 -0.1558254 -0.08833705 0.10283536 -0.024378678 0.27883112 -0.14570193 -0.021408482 0.026660392 0.20052607 0.113878876 0.17703843 0.096677795 -0.1355426 -0.03936723 0.08408235 -0.0062279426 -0.18116108 0.023231724 -0.08554198 0.010470687 -0.054987986 -0.05196692 0.09024054 -0.009927719 -0.12272735 0.09852803 0.105635956 0.08147279 0.018227471 0.25559983 0.055598147 -0.07523285 -0.004527348 0.05530399 0.04319508 0.16443227 -0.209554 -0.13790177 0.0791979 -0.09493996 -0.10672963 0.15317723 0.03034887 0.15094055 0.050888307 0.09325764 0.0116097685 -0.07182038 -0.06725911 -0.19485043 -0.109500736 -0.06656775 -0.014458967
970155606823772161 0.153524 -0.22682755 -0.0010722037 0.2645664 -0.03881523 -0.18681568 -0.13879281 0.0023720074 -0.29545757 -0.24521343 -0.0077458443 -0.074305594 -0.2521308 0.012750228 -0.01572578 0.16699433 -0.032940492 0.12357992 0.0862807 0.18356653 0.12923218 0.11484554 0.1364971 -0.17864399 -0.06047428 0.025200263 0.15929686 -0.049248677 0.20586841 0.0036890556 -0.027691318 0.038553275 -0.030175837 -3.2473356e-05 -0.095122464 -0.15327112 0.14561675 0.101124376 0.2236545 -0.008347995 0.16896799 -0.082708865 -0.077403784 0.19422533 0.14429502 0.0095450785 0.10263754 -0.22030462 0.049245723 0.19989875 -0.018960055 -0.09937274 0.00967088 0.030104913 0.07265367 -0.058909953 0.19160995 -0.15172905 -0.17710353 0.012812476 0.0067144083 -0.24617545 0.18361877 -0.24521329
970246040627560448 0.10325952 -0.31314892 -0.016517749 0.21016768 -0.1523273 -0.046596494 -0.14041314 -0.22250555 -0.21782956 -0.15914564 -0.094578765 -0.101515666 -0.30979595 -0.057601735 0.08815135 0.22359988 0.06713573 -0.14091377 -0.11304671 0.2004587 0.08392847 0.2030497 0.18281883 -0.18940932 0.058629617 0.31719184 -0.06079517 -0.038117897 0.113969564 -0.13684466 -0.05225969 -0.033962984 -0.19240808 -0.011342649 -0.0109334765 -0.037325345 0.14676915 0.105407745 0.15844513 0.05720057 0.11217049 0.039856758 -0.005246172 -0.013965189 0.06250173 0.06866884 -0.08300192 -0.06556899 0.04844262 0.0852405 0.018780833 -0.06609549 0.10432045 0.14781295 0.24859454 0.20718378 0.1365622 0.06427668 -0.024687475 -0.033101592 -0.016375456 -0.14895819 -0.04234103 0.0810797
970132884156645376 0.16217571 -0.33191797 0.18761486 0.12702654 -0.15327863 -0.004949337 -0.14982378 -0.22085445 -0.29879683 -0.12375968 0.12616722 -0.20184313 -0.09336189 0.036458857 0.09089342 0.3082609 0.073539086 0.054905117 -0.0927902 0.10061401 0.25166672 0.20976862 -0.007190617 -0.22468822 0.09912105 0.05852707 0.10994456 -0.015953429 0.13367061 -0.1155787 0.13924845 0.30078298 0.045990173 0.06865924 -0.16641538 -0.02599562 0.19506782 -0.04463854 -0.10664892 0.0143788075 0.092481956 0.029431807 0.034729984 -0.017589642 0.04643585 -0.122462615 0.041319165 -0.022935849 0.10628719 0.11963438 0.05807673 0.028626582 0.10526457 -0.04796267 -0.010048639 -0.049822766 0.009114013 -0.1762591 -0.026624842 -0.050742526 0.059147667 -0.11848736 -0.013426472 0.07793078
970440225829806080 0.23282734 -0.12221356 0.2947661 0.065099485 0.0424429 -0.16679877 -0.17215584 -0.19543006 -0.36584523 -0.03303117 0.0096428245 -0.001760092 -0.014270895 0.0073625483 0.11745025 0.114581816 -0.060545847 0.02994783 -0.2285967 0.29115894 0.25605035 0.19399063 0.17831953 -0.23371702 -0.0031068216 -0.007966002 0.11304209 0.027585879 0.29979137 -0.18135643 -0.09614939 0.056976385 -0.15787196 0.117172115 -0.051281776 -0.064219795 -0.013921698 0.109270185 0.000523581 0.12708433 0.08576555 0.06163334 -0.05002334 0.13886592 0.13836643 0.053871818 0.14330317 -0.19180915 0.0799547 0.15500496 -0.047921702 0.007955405 -0.017282736 -0.01768301 -0.10650273 0.08772305 0.035812315 0.048779186 0.10338199 -0.008911355 -0.12673233 0.054378446 -0.13079855 0.074160405
970216106458664960 0.25728032 -0.16215068 0.1582735 0.14013682 -0.11107191 -0.18078814 0.11998083 -0.11762722 -0.2811176 -0.11878648 -0.09988535 0.012684715 -0.10801002 -0.0045037256 0.04107938 0.22414416 -0.010704142 0.00718207 -0.10627286 0.20114674 -0.1485526 0.23642513 0.05490851 -0.09430757 -0.014886278 -0.038830977 0.0055376347 -0.12739676 0.24296914 -0.026258523 0.09453402 0.095563225 -0.138501 0.18899 -0.14684634 -0.030543676 0.09307543 -0.08237919 -0.036083873 0.109133385 0.04898878 -0.01692417 -0.024239907 0.24435142 0.22218253 0.09604269 0.049657818 -0.1706256 -0.009865384 0.025716946 0.03419563 -0.07016467 0.111406624 -0.033695284 0.101899974 0.04365142 0.15401854 0.057521373 -0.12507045 -0.1352283 0.028865902 -0.007178672 -0.09425044 -0.13626814
970168598978117634 0.20599018 -0.21047026 0.11415594 0.14267738 -0.08858184 -0.28027222 -0.14564574 -0.15239894 -0.47553802 -0.084039405 0.14527386 -0.10223203 -0.008183554 0.021889484 0.096691675 0.15060137 -0.0014724721 0.084784724 0.034387335 0.27516705 -0.053237367 -0.06880637 0.068725094 -0.20795238 -0.0157683 -0.03668615 0.024513451 -0.14532049 0.16785295 -0.17373523 0.07515614 -0.009068009 -0.120135106 0.19357382 -0.17180578 -0.0035769152 0.10076973 -0.01790863 0.14439112 0.061547432 0.087352656 -0.00664774 -0.110492855 0.03851736 0.20254797 0.015757494 0.07998857 -0.0386686 0.07555121 0.2008857 -0.04184499 0.12252136 -0.03406507 0.012877507 0.046785884 0.036795214 0.24364264 -0.11300741 0.08310704 0.16824186 -0.08075549 0.03222907 0.020457352 -0.01679683
970227630371782656 0.20460129 -0.21691519 -0.034412406 0.21107127 -0.16018312 -0.21519169 -0.028201919 -0.10185437 -0.25408 -0.17590901 -0.15647462 -0.11585036 -0.3123485 0.008413123 0.16400498 0.23227988 0.12355365 -0.123059645 -0.0138753895 0.2283376 0.12897117 0.09993568 0.24896029 -0.05435797 -0.12689765 0.20204341 -0.10720159 -0.03677666 0.123588376 -0.1354962 -0.08177178 0.121744685 -0.2638564 0.07315021 -0.014713517 0.024343483 0.0137128495 0.21539262 0.01306829 0.0072281905 0.08988928 -0.019497292 0.03041156 -0.14674701 0.06417803 0.057114623 0.052994303 -0.12739018 0.1194942 0.058432076 0.028300343 -0.10751325 0.1718818 0.08511035 0.17638215 0.23685385 0.2931772 0.02507833 -0.04208372 -0.034494177 -0.0633935 -0.12834623 0.10882583 0.072377354
970126974797594624 0.11010099 -0.17842922 0.10088432 0.11425561 0.006922638 -0.19268805 -0.04473806 -0.23555994 -0.4790051 -0.1079502 0.041920047 -0.13370176 -0.26390046 -0.037488412 0.072999194 0.21243797 -0.055734 -0.122730345 -0.11116834 0.051984042 -0.0078226095 0.114687756 0.10104324 -0.3518118 0.011473556 0.0756561 -0.1348139 -0.15140209 0.01245615 -0.07565685 -0.07378674 0.035323 -0.17910571 -0.027609048 -0.21986978 -0.12586498 0.0056732777 -0.11736257 0.052570146 0.021257976 0.25867268 0.123095855 -0.021254616 -0.17513965 0.015976984 0.026887884 -0.0749412 -0.22722201 0.002775341 0.08417474 0.08320049 -0.014329816 0.04010751 -0.13282135 0.17385204 -0.072415195 0.031776737 0.03269238 0.04170781 0.14892924 -0.11326059 -0.11731981 0.011179856 0.082775146
970178866487599104 0.06238965 -0.17525485 0.11397837 0.05408997 -0.021109192 -0.018496701 -0.25651205 -0.21592964 -0.387055 -0.082355805 0.0881004 -0.1028863 -0.045150325 -0.12033309 0.109223574 0.31598526 -0.213568 -0.013898084 0.003963829 0.13132168 0.07207783 0.26872775 0.14182569 -0.086633794 -0.061451107 -0.12597339 -0.2010522 -0.15239145 0.119771935 -0.2518671 -0.060910314 -0.06720287 0.0068467394 0.010680223 -0.28381386 -0.04546488 -0.06151091 -0.03466901 0.14083318 0.17405042 0.1350561 -0.11550276 -0.15059659 0.008025401 0.16716845 1.5091464e-05 0.26805925 -0.15846618 -0.1681404 0.11675619 0.04835219 -0.0870346 0.19820583 -0.080946915 0.12787099 0.039014444 0.152465 -0.06718003 -0.07746835 -0.018225642 0.11620265 -0.04601319 -0.13737035 -0.030260198
970140317746778113 0.18038018 -0.2114191 0.12921923 0.08181149 -0.08724595 -0.07999446 -0.04673445 -0.15543514 -0.24499744 -0.0036343678 0.13582908 -0.13874894 -0.073481336 -0.021264797 0.07579745 0.40161487 0.01857597 -0.029657556 -0.077449806 0.17104715 -0.026355857 0.25544137 0.20289978 -0.0830678 0.1444989 -0.09227918 0.03431839 -0.109773785 0.29153824 -0.13759162 0.040155455 0.19087154 -0.03484988 0.04913787 -0.15592566 -0.046240266 0.13926232 -0.001777326 -0.0117092775 0.06404519 0.19176894 0.030730376 -0.07223555 0.0027852657 0.19004343 0.065578386 0.05617801 -0.010962838 -0.000584945 0.0675949 -0.17766616 -0.123423964 0.085993394 -0.1778823 0.07704276 0.059635226 -0.06569883 0.05629304 0.04057496 -0.13055706 -0.026570857 -0.080922775 -0.14004987 0.032817274
970167150643093506 0.18942644 -0.08156645 -0.043850463 0.08253487 -0.19775923 -0.1536432 -0.09631737 -0.14760575 -0.31018257 -0.06631848 0.20361844 0.06161888 -0.2756942 -0.1398801 -0.04369843 0.29986152 -0.10954482 -0.032221448 -9.2218615e-05 0.15568961 -0.014401564 0.32988897 0.083309576 -0.062028337 0.16845775 -0.038165197 0.07701438 -0.2079921 0.05435154 -0.006712057 0.054227997 0.14450586 -0.05712144 0.07789845 -0.12905185 -0.12610531 0.1833549 -0.1586959 0.151009 0.14761472 0.11162335 -0.041640542 -0.17223625 0.2584247 0.25816983 0.07848886 0.09703996 -0.106987126 -0.015641248 0.33529115 -0.03072699 -0.011497135 -0.05126276 0.0891612 0.29984155 -0.12235741 0.15390337 0.096688636 0.051631548 0.073290184 -0.075982586 -0.024489984 -0.09821402 0.046023276
970431248286990336 0.038434625 -0.22588402 0.20955017 -0.026919095 -0.083802894 -0.15603666 -0.011950598 -0.12210111 -0.37906393 -0.044535372 -0.038594317 -0.037056122 -0.21350406 0.094475254 0.13669384 0.15297963 0.0026072336 -0.03259558 -0.011586368 0.24329534 0.07726502 0.11031312 0.25779474 -0.07967782 0.040560897 0.09330606 -0.003600114 -0.14911295 0.14867027 -0.078085035 0.13497172 0.21648902 -0.21883728 0.030751882 -0.005117033 -0.06424231 0.15640904 -0.076419026 0.053016737 0.043507006 0.1308633 0.012087947 -0.13790174 0.26404718 0.14726269 -0.049075898 0.025893427 -0.061741505 0.009026252 0.20880193 -0.095031925 0.09933884 0.08196158 -0.0720467 -0.003120492 0.17485976 0.16970858 -0.20014356 -0.08098476 0.19096272 -0.072376914 -0.061445463 0.043482497 0.08268909
970407622103900160 0.1346461 -0.17569698 0.11177471 0.14425658 0.021215089 0.048332464 -0.15087621 0.014293156 -0.15023035 -0.107143916 0.11331328 -0.20068558 -0.23236917 -0.17315017 -0.025530636 0.44622743 -0.07672739 -0.037481554 -0.02397655 0.05770025 0.24011154 0.052838914 0.19023727 -0.032250427 0.053517282 -0.19400497 0.050649498 -0.20920466 -0.035487566 -0.18838333 0.03987798 0.13834573 -0.1507472 0.06613177 -0.27704525 0.15881166 0.15806438 -0.025889812 0.020563474 0.13119242 0.13283765 0.033057798 -0.008200425 -0.0037652995 0.19467509 -0.10119991 0.031874847 -0.25988832 -0.015191302 0.10863558 -0.049988534 0.028042993 0.18642516 0.083233245 0.06184049 0.10178511 0.31452364 -0.06774153 -0.024360867 -0.084678195 -0.003960687 -0.18732464 -0.00607313 -0.042505633
970168913068662785 0.13477886 -0.23433298 0.06535283 0.13513823 0.026257178 -0.060742512 -0.13274056 -0.0053877584 -0.21006598 -0.22930753 0.1759853 -0.12520581 -0.2516484 0.12855718 0.02013991 0.41054225 0.21127671 -0.044083424 0.028904201 0.21824306 0.15161078 0.100384824 0.17290053 -0.18548712 0.022688728 0.028982548 0.157524 -0.026835755 0.22066112 -0.09171459 0.05879141 -0.15148172 -0.05391547 -0.0040680594 -0.20733316 0.15101607 0.11164683 0.122495845 0.05291559 0.11650575 0.134434 -0.07937738 -0.18699047 -0.010055072 -0.047545154 -0.16242166 0.011451338 -0.37669727 -0.019887358 0.08985502 0.115612775 0.039216742 0.040300943 0.03942676 0.083327726 -0.16304934 0.25320825 0.008219806 -0.097538576 -0.0076034227 0.027597073 0.081755534 0.19087815 0.0061542774
970252693896876037 0.05150903 -0.1760966 -0.03425206 -0.006480353 -0.033332158 -0.024979655 -0.16141936 -0.20578635 -0.29493317 -0.104361 -0.05209984 -0.014208804 -0.13672702 -0.0726081 0.25562474 0.09435922 -0.07032619 0.014577282 -0.13689986 0.24301754 0.10615797 0.22432885 0.12355953 -0.1074433 -0.053091347 -0.07401873 0.11416186 0.046668213 0.121447764 0.054673254 0.2374986 0.08335575 -0.044479333 -0.058464672 -0.20124061 -0.09292645 0.0661773 0.10554434 -0.026394006 -0.02510493 0.27502707 -0.048113447 -0.027077015 0.20226444 0.108233236 0.019771347 0.098998055 -0.19507036 0.036230773 0.29139078 -0.095558144 0.06752287 0.122055806 -0.16718762 0.067461416 0.035358284 0.20896493 -0.102574624 -0.14870949 0.10466483 -0.047854442 -0.1579662 0.021160876 -0.04722592
970178387158319104 0.016024213 -0.24692164 -0.14286886 0.2760765 -0.0511827 0.03361691 -0.10709882 -0.24958178 -0.13043728 -0.12813759 0.15557589 0.016085366 -0.17647032 -0.081229374 0.12607375 0.3981619 -0.18474734 -0.06749059 -0.15550047 -0.13015245 0.04133461 0.28055945 0.2001332 -0.041125823 -0.005485881 -0.03638246 0.078127995 -0.06698022 0.08674351 -0.037163302 0.098715015 0.18968192 0.078127794 0.17842454 -0.20882097 0.12748255 0.3197013 0.055345885 0.08059263 -0.10325346 0.23498839 -0.15081355 0.10398506 -5.732242e-05 0.02593183 -0.035160527 -0.0883228 -0.20997417 -0.11910436 -0.061628673 -0.017011251 0.080466345 0.3066507 -0.18017371 0.16144931 -0.11613373 0.27674854 0.022033244 -0.08686144 0.030919027 -0.23419915 -0.16193934 -0.21797323 -0.025483932
970170884248883202 0.07637486 -0.20564617 0.19523428 0.15978774 0.14448054 0.040475123 -0.28177214 -0.036953926 -0.23136757 0.115619525 0.08185554 -0.04963579 -0.06203875 0.18614678 0.022645675 0.25344706 -0.15348981 0.04707321 -0.013361582 0.07175591 0.03328567 0.22406296 0.11514257 -0.15232188 -0.028936304 -0.020323507 0.18638146 -0.075012244 0.07324082 -0.0628502 0.21328507 0.17265426 -0.057012334 0.24246429 -0.2529846 0.0658802 0.12119436 0.035765424 0.15152605 0.14754108 0.18981929 -0.16491798 -0.038317434 0.08109092 0.14018215 0.17294881 0.07347303 -0.236431 -0.09625511 0.08182604 -0.077699944 0.22907424 0.16664562 -0.063695036 -0.08841748 0.14210054 0.15710084 -0.036382105 -0.013061684 0.06858466 -0.040237878 -0.21060559 0.029179312 -0.08361723
970193865566167042 0.13182658 -0.057055485 0.12465608 0.04229968 -0.041846402 -0.2006211 -0.05762757 -0.2846576 -0.23147348 0.050334863 -0.056828655 -0.17999668 -0.061156493 -0.06597135 0.1668745 0.2117638 -0.13873324 0.072965614 -0.16781297 0.17207436 0.2531157 0.0824674 0.17116132 -0.31805262 -0.1892931 0.16289297 -0.0980111 0.10147165 0.17151031 -0.18582706 0.24595463 0.16145898 0.005509545 0.06611542 -0.1376954 -0.27892086 0.04981163 0.058600586 -0.13694808 0.25528687 0.124178916 0.006009278 -0.1615243 0.113867484 0.17882541 0.064052254 0.13695256 0.023922103 -0.0119366925 0.13144478 -0.08302504 -0.1072876 0.19262214 -0.19569093 0.0656252 0.0028284504 -0.15055487 -0.109407835 -0.049273156 0.03829799 0.029585892 -0.021146674 0.07750129 0.0063989414
970195611910791168 0.30883288 -0.21652986 0.13246436 0.0033866784 0.07035868 -0.023633873 0.14425474 -0.123197965 -0.32735386 0.13694523 -0.054790866 -0.1617658 -0.08720775 -0.0011622797 -0.04678592 0.24247123 -0.18331099 0.16465542 -0.17344135 0.49397263 0.047878332 0.10518037 0.044655327 -0.17460869 -0.04503716 -0.07779806 -0.23678705 0.006828471 0.19518498 -0.068339184 0.22087082 0.2204509 0.12696749 -0.09495696 -0.30068037 -0.12809844 0.15497324 0.105411515 -0.058086827 0.1106145 0.09318805 -0.06529 -0.05829379 0.16619058 0.2179847 -0.005906577 0.04883369 0.014419229 0.028681397 0.11403043 0.056422196 0.039051637 0.028449837 -0.1283383 -0.03584504 -0.13251002 -0.08773551 -0.25258067 -0.09629865 0.075435475 -0.015064431 -0.110244185 0.042159867 -0.1035119
970227444887113729 0.061294705 -0.26608872 -0.0685269 0.23154527 -0.19585843 -0.1219492 -0.16757973 -0.09900152 -0.22966611 -0.17199613 0.049094908 -0.16065796 -0.34501812 -0.26100075 0.12480658 0.28614897 0.14979614 -0.09003998 0.027254703 0.19317487 0.073143356 0.12270142 0.19909818 -0.117000654 -0.0023186447 0.19103816 -0.09353509 -0.035665188 0.16584915 -0.08579539 0.114375204 0.06100381 -0.2516465 -0.08716425 -0.18434228 -0.04984768 -0.11402825 0.06634551 0.1305427 0.053653043 0.097024776 -0.017111 0.025300073 0.023760844 0.09658791 -0.031938385 -0.13311069 -0.09845835 0.14162545 0.08380876 -0.016111366 -0.068891585 0.22464742 0.19896732 0.08067376 0.08190726 0.11576235 0.24335653 0.060493004 -0.019080693 0.027849784 -0.060016096 0.09101564 -0.0020950022
970135998129582080 0.09219898 -0.22241841 0.25722826 0.07487591 -0.10455296 -0.1541292 -0.026735513 -0.27694133 -0.2188561 -0.08971971 0.055665776 -0.13443416 -0.16477415 0.09618799 0.047936548 0.2577407 -0.1071958 0.10721851 -0.19269428 0.16587257 0.09253714 -0.035322774 0.030564295 -0.23394439 -0.2524054 -0.07178639 -0.032520592 0.06872095 0.13951872 -0.13703573 0.21123987 0.12455368 0.05996484 -0.016630068 -0.17626925 -0.04566678 0.15153612 0.055398326 -0.19396088 0.10678679 0.11757081 -0.05952953 0.034754384 -0.026703877 0.18241647 0.06887086 0.07457117 -0.15764223 0.14375049 0.14175855 -0.04387098 0.17000315 -0.061711248 -0.026766278 -0.027874218 0.14531817 0.11763117 -0.16136153 -0.16556872 0.036408965 -0.01485294 -0.0010810388 0.049553044 -0.066910975
970141726848385024 0.060215212 -0.21839955 0.074326776 -0.100677595 -0.09164715 -0.10083255 -0.06770818 -0.29313034 -0.39555448 -0.07768932 0.24013072 -0.16415812 -0.14891267 0.13830234 0.0008088108 0.28890407 -0.18532833 -0.0032071753 -0.055671252 0.06876985 0.0020727047 0.20213307 0.11817133 -0.19917133 -0.09079671 0.017952552 0.024462314 0.09892014 0.10425638 -0.07679711 0.15690227 -0.032559283 0.027804403 0.11302389 -0.26173803 -0.031252034 0.1338849 -0.06742684 -0.0654377 0.06490363 -0.01693482 -0.09071578 0.016000438 0.05422038 0.13570954 0.093256034 0.025016658 -0.18916748 -0.016742734 0.2567967 -0.018228766 0.13507873 0.12675491 -0.04241835 -0.0686469 -0.055961385 0.029055055 -0.023102043 -0.06327724 -0.053629577 0.062108696 -0.06798191 0.02638516 -0.1196379
970101886194892800 0.0012230254 -0.16556327 0.14879698 0.1344376 -0.07731853 -0.2762517 -0.052332725 -0.11134378 -0.34337246 -0.097473525 -0.098360874 -0.07193322 -0.16350523 -0.0010395675 0.026859235 0.16384582 0.092402846 0.23710369 -0.00013253314 0.1662373 -0.081868604 0.2235862 0.11644336 -0.047999125 -0.17098798 0.021711003 0.058023617 0.0071245357 0.22247921 -0.17316253 0.21990512 -0.12688325 -0.02935661 0.12659687 -0.27163553 -0.11335113 -0.012133788 0.00465998 -0.056603912 0.034547836 0.20731787 -0.040317927 -0.023539247 0.08404744 0.093197346 0.112240955 0.070873365 -0.22177696 0.08760655 0.18480065 -0.13207422 0.09760437 0.2375204 0.09498697 0.122920804 0.062343013 0.1653604 -0.07824361 0.050422404 0.0759774 0.05058897 -0.16835037 0.1696798 -0.21323371
970173286318456832 0.014649321 -0.13514093 0.07056066 0.20472713 -0.026765946 0.032436866 -0.012891832 -0.13857567 -0.30645657 -0.28531036 0.18643379 -0.067201465 -0.26564565 -0.17462087 -0.060922075 0.43329647 -0.2403272 -0.0058337636 -0.016909348 0.0773557 0.049645185 0.14164722 0.18126146 0.056418777 -0.076507956 -0.014210271 -0.09410994 -0.15806495 0.11488495 -0.19477141 0.08298955 -0.015212474 0.029410789 0.15908447 -0.27392876 0.15961586 0.0575046 -0.046222232 0.032802157 0.24455021 0.072072655 -0.002432509 -0.113014184 -0.09673502 0.06625089 -0.050332874 -0.12930234 -0.2653199 0.006525716 0.04702157 -0.074301414 0.0333798 0.19901411 0.11003263 0.054522187 0.083481885 0.19803734 0.03985532 -0.003104678 0.121442296 -0.015287166 -0.15794523 -0.07021887 -0.1876226
970403995821813761 0.074594565 -0.09049005 0.036986727 0.16408299 -0.0179197 -0.20606318 -0.0010495514 -0.28883296 -0.29270062 -0.106282674 0.045886803 0.020837456 -0.042491503 0.006086722 0.11924045 0.18068099 -0.050943345 -0.03866272 -0.11420378 0.20003156 0.13519219 0.23066124 -0.06284816 -0.26332906 0.06832244 0.101521574 -0.16517556 -0.12698814 0.2523636 -0.11330789 -0.033781987 0.010389828 -0.1619084 0.08855201 -0.13907371 -0.029492443 0.07704312 -0.01886255 0.18157856 0.032642998 0.16725017 0.11110851 0.043778144 -0.13046728 0.147246 0.017524268 0.07167367 -0.23542406 -0.14834021 -0.037610646 -0.006531134 -0.13373594 0.16990195 -0.016090726 0.15139934 0.123205245 0.15662701 -0.18598697 -0.14458682 -0.0015702421 -0.12589681 -0.2420362 -0.073919535 -0.06349318
970165265043304448 0.048523445 -0.3374004 0.12877545 0.16338906 -0.09091618 -0.12400601 -0.20900449 0.045671996 -0.2435124 -0.18487468 0.1464737 -0.044109546 0.02267183 0.061466154 -0.07276061 0.27293417 0.0782485 -0.12576832 -0.066591725 0.18492843 0.21703753 0.19170555 0.23732041 -0.24603222 -0.0014986545 0.09714871 -0.03192031 -0.124577865 0.12225693 0.010264672 0.20421024 -0.03013757 -0.13195886 0.12490183 -0.1994237 0.048644036 -0.022521634 -0.073944144 0.35763147 0.11447523 0.16907527 -0.21668361 0.09363949 -0.008572007 -0.027966559 -0.056688093 0.12412469 -0.3381548 0.14549595 0.037967186 0.15077752 -0.055581946 0.13065897 -0.034600955 0.010742302 -0.06569812 0.10821885 -0.058115788 -0.0082458975 -0.03718776 -0.049807224 -0.20975345 0.19248097 -0.047695443
970189406706458624 0.022192335 -0.38873586 0.2736472 0.18588653 -0.12643565 -0.1313694 -0.10624448 -0.10366113 -0.45884913 -0.2094858 0.036650315 0.0042959573 -0.18082352 -0.08105497 0.14910024 0.3006585 0.04222729 -0.1580412 -0.013212891 -0.10458264 0.17424926 0.1575084 0.10665391 -0.1791982 -0.08021945 0.17025496 -0.01297952 0.03434775 -0.010712902 -0.06855439 0.030378496 0.038165025 0.08446533 0.19838926 -0.11537831 0.030558787 0.21049823 -0.11307339 0.0036003408 0.13402781 0.23876028 0.10438616 -0.037739903 -0.020396324 0.111808695 -0.112133704 -0.06990786 0.015632968 -0.112058304 0.08339918 0.059754446 0.010612058 0.18888724 -0.12142012 0.1691164 0.036092866 0.041709807 -0.014077767 -0.033699695 0.05840237 0.044443775 -0.21867539 0.15441664 -0.019541372
970142659674177536 0.09343342 -0.23659518 0.057959225 0.158174 0.024375482 -0.08736 -0.22416487 -0.07233938 -0.34665036 -0.107681856 0.16651331 -0.069429584 -0.07459731 -0.04326993 0.05911027 0.053803504 0.12094287 -0.082842246 -0.1490823 0.08511002 0.11090829 0.3092811 0.27008694 -0.18731771 0.15546098 0.018260367 0.013094346 -0.10091942 0.07452746 -0.07201595 0.13809437 0.18636177 -0.11261069 0.18590122 -0.05274152 0.066304885 0.09972171 -0.24499424 0.18743071 0.24849811 0.099815376 -0.23885825 -0.056748193 0.23415516 0.089410394 -0.015834332 0.0674525 -0.10155004 -0.014142298 0.06027242 -0.2176226 0.079249255 0.07434353 -0.017023247 0.009336205 0.05698092 0.17153335 -0.01847193 -0.034337457 0.028961668 -0.057069097 -0.24589783 0.14488724 -0.12463291
970122173108043776 0.17804118 -0.24004366 0.24081683 0.28178096 -0.05079304 -0.04163983 -0.09748959 -0.072910406 -0.25637445 -0.154298 0.1549873 -0.059690114 -0.2457641 -0.064322114 0.020346347 0.26157528 -0.04281642 0.040334642 -0.05664407 0.15594572 0.27776337 0.2454309 -0.008331341 -0.28732023 0.03256051 -0.014465629 -0.11542215 0.018313412 0.04623065 -0.055868242 0.22278094 0.1271708 0.06894376 0.07612794 -0.12277998 0.055931382 0.08375966 -0.038429867 0.06561861 0.021837246 0.2489326 0.05537315 0.1156075 -0.01924893 0.032030057 -0.02416328 0.06894141 -0.0006458443 0.028447352 -0.034325175 -0.0076600425 -0.036857918 0.057454217 -0.09351044 0.13849892 0.1222657 0.19070482 -0.066080034 0.05696621 0.078725606 0.012320974 -0.13797213 -0.025654336 0.24686342
970103849275944961 -0.015904695 -0.2222304 0.048021313 0.2546122 -0.13388182 0.0049135312 0.021229008 -0.074744634 -0.16804689 -0.19889209 -0.009213449 -0.119948134 -0.3467487 -0.06406198 -0.21285495 0.16422443 -0.12782334 -0.026647117 -0.048480537 0.25074252 0.042394165 0.23816888 0.13603699 -0.11824686 -0.098973714 0.21569908 -0.13735613 0.11469079 0.18201016 -0.06758891 0.18353717 0.059868593 -0.003914632 -0.0355718 -0.34150043 -0.06257457 0.086157 0.17438658 0.03629338 0.056983713 0.07280436 -0.009897708 0.17655635 -0.01918614 0.22394773 0.23440589 -0.039940115 -0.12021831 -0.016706908 0.07959979 0.005884321 0.11743576 0.10926647 0.045046106 0.03615642 0.014045705 0.12396359 0.017812833 0.0077359295 -0.017827054 0.17067447 -0.114266805 0.07259915 -0.045250133
970443770209607680 0.17111132 -0.14854968 0.00803928 0.22653057 -0.17928535 0.057969425 -0.1842968 -0.13544643 -0.30411062 -0.20459616 0.02675398 0.005036931 -0.13170172 -0.086196125 0.26702714 0.24655265 -0.20946145 -0.05954406 -0.09153813 0.048649047 0.18894549 0.10760781 0.097054146 -0.3963665 0.094550475 0.06752225 -0.051031653 0.005382385 0.13889556 -0.08969932 0.07005337 0.32406172 0.084340446 0.310836 -0.16264969 0.07805918 0.18795523 0.0044010817 -0.028986687 0.12126707 0.1011533 0.0634447 0.09362876 -0.064601675 -0.08233047 -0.1900687 0.16473468 -0.14766254 0.08830329 0.035107438 -0.03569453 -0.02965992 0.06839595 -0.095721826 -0.026059607 0.2187013 0.0634004 -0.08820832 -0.10901604 -0.02191666 0.025780773 -0.19103107 -0.030809991 0.08262821
970133333924458496 0.1563684 -0.186638 0.2017976 0.13007063 -0.23841648 -0.039071366 -0.050622746 -0.0664431 -0.27096903 -0.13451152 0.22240166 -0.13494131 -0.11915111 -0.008369175 0.014937686 0.2648712 -0.1428466 -0.16014597 0.016787084 0.22318622 0.080553085 0.105317704 0.1393484 -0.24219134 -0.124585815 -0.10830083 0.017563963 0.016714633 0.08606152 -0.07572742 0.21677467 0.13068046 0.0037933367 0.050593037 -0.3480598 -0.15739219 0.14356326 0.07268343 -0.047640525 0.100091286 0.2926138 0.08408049 0.051629454 -0.11919234 0.16732723 0.013855888 0.14969225 -0.08240344 0.06909613 0.15291807 -0.09246932 -0.08430815 -0.045791492 -0.046646293 -0.045858707 0.058596436 -0.09174002 -0.09497947 -0.014152888 0.086010076 0.08807746 -0.15958403 -0.06374516 -0.022932682
970136826508800000 0.026849084 -0.2641277 0.12515374 0.18888374 0.035206 -0.11432244 -0.015058962 -0.18413505 -0.31225598 -0.22409913 0.07724997 -0.090047866 -0.1434343 0.049720533 0.08495724 0.3162657 -0.14563392 -0.060088217 -0.06704426 0.1428283 0.046093967 0.1347244 0.11091871 -0.17264503 -0.14941983 0.032947373 0.18580824 -0.14140163 -0.021410005 -0.103021026 0.05965373 0.20468839 0.10498518 0.20632571 -0.092579484 -0.10212938 0.18164465 0.09381627 0.08572868 0.0072309985 0.22658993 0.0048257723 -0.0072632744 -0.14600167 0.08694753 0.032912936 0.23480393 -0.12490473 -0.039363887 0.20123194 -0.09272943 0.08167774 -0.0028150359 -0.007796477 -0.056639995 0.016421368 0.12260415 -0.060286663 -0.10353563 -0.020471537 0.026888112 -0.068121746 0.0076359273 -0.039807845
970178291993788416 0.08755472 -0.23460011 -0.0055815354 0.14561814 -0.16031706 -0.0985798 -0.112450555 -0.18677609 -0.33228585 -0.19455668 0.08635889 0.005460225 -0.2748877 -0.08327974 0.23624752 0.39828718 -0.25897676 0.02811058 -0.032402016 0.031155596 -0.115889885 0.18006933 0.08837601 -0.21877512 -0.05979558 0.10786691 0.01483695 -0.069011256 0.19768018 0.07275651 0.058085043 -0.040967874 -0.019433083 0.30495933 -0.16134341 0.12507004 0.07721936 0.019137224 -0.01937598 -0.095962144 -0.09904731 -0.059762836 0.020503072 -0.09996517 0.05665786 -0.1153574 0.21729414 -0.06827107 -0.078922614 0.0596558 0.080600254 0.0735569 0.37240764 0.047706887 0.12175054 -0.09140655 0.059482485 0.2265068 -0.06338015 -0.029253047 -0.13853595 -0.082087934 -0.12087767 0.01748065
970202669120856066 -0.06716412 -0.25215858 0.063091 0.049442176 -0.13500033 -0.1630405 -0.1659463 -0.21280669 -0.37086502 -0.22489077 0.01874839 -0.18695138 -0.3087505 0.11359533 0.07603059 0.11486119 -0.18026163 -0.17319332 0.055458132 0.062293846 0.08503427 0.112577684 0.1375573 0.050797153 0.10918153 0.040395945 -0.056189895 -0.22534084 0.10932647 -0.17127308 0.014495481 -0.0700809 -0.27608645 0.17641118 -0.22151293 0.05320156 0.30836427 -0.1457844 0.12394173 0.12751779 0.21274848 0.06668107 0.090940736 -0.010484013 0.17671569 0.07965316 -0.150594 -0.11784683 0.026851246 0.09308678 0.06342665 0.082993425 0.14290121 -0.16788827 -0.025264615 0.019896703 0.1323644 -0.06159467 -0.008419719 0.103651315 -0.14860708 -0.10956119 0.010956281 -0.16236573
970167271912910849 0.14208432 -0.1377389 0.088023365 0.033152696 -0.108957484 -0.1708027 -0.2375478 -0.17995131 -0.4211912 -0.2474741 0.09889195 -0.089449525 -0.14069845 -0.02638086 0.25902447 0.23091668 -0.046753675 -0.0021459167 -0.032118246 0.0051392703 -0.07782048 0.26779798 0.28650287 -0.19383875 -0.34414726 -0.049192276 -0.035633434 0.006954911 -0.014026855 -0.1731606 -0.0040534753 0.07655552 -0.034408517 0.107373886 -0.11920684 0.054953627 0.20422323 0.0660389 -0.03098786 0.14475079 0.001037144 0.004871043 0.14147623 -0.13291743 0.07867511 0.0034564594 0.14678831 -0.06670484 -0.03364593 0.27346206 0.067332186 0.054427452 0.039422054 0.10926405 0.1267174 0.18066506 0.18638338 -0.06519376 0.05865639 0.032168206 0.022507358 -0.195101 0.10483799 -0.15323783
970207698573668352 0.16960295 -0.2425571 -0.0128816115 0.20706616 0.074178435 -0.086324394 0.07191312 -0.13146643 -0.27815834 -0.07443995 -0.10543301 0.067325324 -0.32590598 -0.011633719 -0.049970526 0.27632838 -0.07513809 -0.18503909 -0.04648127 0.17021583 0.023754224 0.27246833 0.30791378 -0.18506694 0.20488213 0.22602291 -0.15132272 -0.11468537 0.085983045 -0.1138983 0.01866587 0.15781055 -0.22809418 0.16712494 -0.081075884 -0.16550374 0.063360944 0.06475162 0.23487979 -0.016968843 0.16575274 0.025183763 0.08711724 -0.056604132 0.066932015 0.06139368 -0.12610196 -0.12491124 0.057281796 0.11363992 0.21676335 0.00022461178 0.044872828 0.0033544349 0.17314415 0.07388421 0.080212675 0.0015274028 -0.023936095 0.07966581 -0.2360773 -0.08855564 -0.017819133 0.031225935
970218572743024641 0.071794786 -0.13395526 -0.075153664 0.20287253 0.03281125 -0.10114282 -0.030596437 -0.10267416 -0.23358285 -0.13644555 0.02156928 -0.112841226 -0.20199715 0.10116472 -0.043286145 0.19154274 -0.18707436 -0.052598678 0.06861484 0.15413189 0.20010647 0.25299546 0.1618615 -0.21706536 0.11680539 0.17206615 -0.12567113 -0.23627919 0.06270137 -0.05274631 -0.038108386 0.23518988 -0.36651716 0.10536909 -0.20387335 0.022478512 0.1632621 0.031897318 0.27810913 0.13656303 0.17604882 0.0848083 0.079272814 -0.017681362 0.14157909 -0.029694676 -0.17793535 -0.24602064 0.05115176 -0.048445884 0.2438287 -0.11891155 0.2509626 0.10953869 0.0804915 -0.014253852 0.16199681 -0.13337278 0.013090875 0.22977304 -0.20661563 -0.08256793 -0.018266574 0.0023359777
970124316590333952 0.14104906 -0.15128595 0.055997618 0.031123642 0.063490495 -0.053569704 -0.017859947 -0.2445938 -0.26934975 0.00655318 -0.06274148 -0.016823478 -0.026299022 -0.13849752 0.08462352 0.2440316 -0.14468624 0.08579093 0.044448547 0.27014515 0.0074727945 0.20193364 0.04945586 -0.1036536 0.16254921 -0.20404589 -0.024639545 -0.14140086 0.20867611 -0.08275886 0.19615974 0.27028528 0.0003405319 0.06587726 -0.1972709 -0.18989228 0.12715691 0.06401651 0.096379876 0.055711538 0.22821845 0.10968437 -0.12142944 0.09354586 0.20577355 0.035099965 0.17462483 -0.17719243 -0.009137938 0.09564314 -0.13034594 -0.035067413 0.009588608 -0.096054524 0.10182728 0.106784984 0.074105784 -0.083431825 -0.028875353 -0.028131634 -0.18128113 -0.3372158 -0.08399386 0.018186204
970217253261033472 0.07057488 -0.27877003 -0.0075538983 0.21914858 -0.010253271 -0.23926334 -0.20710677 -0.17823805 -0.37348962 -0.047944214 -0.030172491 -0.16378985 -0.12602797 0.15003982 0.043278217 0.19770524 -0.0087226955 -0.031011539 0.023813237 0.14257011 0.1792888 0.07717996 0.12733817 -0.085432574 0.08728082 0.16949749 -0.098509036 -0.26394144 0.019928444 -0.060339365 0.01507266 -0.0046669887 -0.25440663 0.19813257 -0.1616116 -0.060483612 0.15871753 -0.049430046 0.1706848 0.08024483 0.23115125 0.04419326 -0.03991376 -0.12421859 0.17326838 0.055032037 0.007459229 -0.10272696 0.019217104 0.18918519 -0.118626684 -0.20830895 0.12536015 -0.1000394 -0.060820226 0.060836326 0.23733321 0.042359702 -0.03728174 0.18881471 -0.044597354 -0.10392805 -0.06980592 0.09502709
970207489307295744 0.20176823 -0.21522526 -0.08776061 0.19968407 0.028765436 -0.32096273 -0.031385656 -0.23192902 -0.18920931 -0.21029902 -0.044254422 -0.16570552 -0.26124343 -0.007642664 0.038229298 0.20323265 -0.22507434 -0.05399702 0.18396926 0.24335176 0.2704517 0.15258926 0.12975945 -0.09650114 0.26622316 0.08600708 -0.0987291 -0.05511989 0.2070292 0.006432695 -0.15676686 0.27331263 -0.25480247 0.005315394 -0.13742152 -0.07306194 -0.015871726 -0.077859625 0.27799267 0.0708208 0.09670174 0.028953576 0.013011924 0.085087344 0.06116629 0.07518396 -0.11141675 -0.21298154 0.24090163 0.1293839 0.20620455 0.00988545 0.10105483 0.075754836 -0.028039582 -0.046107963 0.19921614 -0.12870029 -0.1379663 0.2913393 -0.30615062 -0.043494437 -0.07383829 -0.01056821
970181064223203329 0.12825786 -0.2294311 -0.08712312 0.034348536 0.07866919 -0.2618166 -0.20495932 -0.08168015 -0.18059641 -0.1670778 0.10474836 0.050737686 -0.15709378 -0.07207376 -0.11505021 0.21082973 -0.10345519 -0.088871576 -0.25000265 0.26001278 0.074705906 0.15511322 0.020332936 -0.19572443 -0.17800894 0.07759813 -0.031308442 0.14101975 0.26557386 -0.18856192 -0.0584331 0.3373682 0.02319514 0.0078861965 -0.10167029 0.022550931 0.20071056 -0.032207318 0.22819868 0.16736019 0.07760922 -0.0292434 -0.03192398 -0.100440435 0.10029181 0.21938495 0.051913574 -0.03390692 -0.06923737 0.11345512 0.0360715 0.0076464205 0.08117379 -0.029879041 0.11052034 0.10014549 0.1611904 0.10279463 -0.078179576 -0.088780865 -0.09623918 -0.10466313 0.032467566 -0.15626892
970190600413655048 0.15340866 -0.24673747 0.1826047 0.0853855 -0.12533034 -0.14689352 -0.029515237 -0.051362354 -0.1448634 -0.19005586 0.03945622 0.036654774 -0.13891809 -0.10989218 0.23424692 0.43184438 -0.073266484 -0.09514026 -0.10692664 0.040018912 0.2916491 0.1359548 0.069729604 -0.25793564 0.048951108 -0.03378953 0.036983963 -0.10888146 0.23620111 -0.23624243 -0.076879755 0.2006777 0.047980778 0.13888413 -0.1285239 -0.057802163 0.13208567 -0.062481366 0.0017688158 -0.039793532 0.2614782 0.089710936 -0.078102194 -0.02620194 0.026555052 -0.05996111 0.16150616 0.0002663132 0.030631483 -0.01607473 -0.10670874 0.0142771 0.11143453 -0.15581617 0.11132606 0.072481774 0.09181566 -0.023811426 -0.08365866 0.059413586 -0.12160761 -0.15179974 0.13698773 -0.05663213
970243355798990849 -0.17321962 -0.25590044 0.12986515 0.37498096 -0.004235451 -0.113964185 0.0147424275 -0.1712366 -0.34743676 -0.13182905 -0.027537048 -0.066464506 -0.020549348 -0.0009489374 0.0057855276 0.3222294 0.0010379582 -0.05520458 0.058933944 0.17356578 -0.057456955 0.16717085 0.21099627 -0.1047969 0.25790206 -0.0054590837 -0.09735004 -0.20869529 0.2270478 0.1134786 0.24336898 0.1250903 -0.0128860315 0.098455325 -0.14119634 -0.08350349 -0.10661337 -0.033393644 -0.07966577 0.051991127 0.14739415 -0.08867186 0.07169999 -0.0029893639 0.14276794 0.0933603 -0.064268045 -0.30218047 0.008287715 -0.010993253 -0.12258691 -0.010533377 0.23915417 0.060552616 0.063988455 -0.062683456 0.16235524 -0.028098695 -0.031315032 0.008416834 -0.07470466 -0.07255424 -0.04881231 -0.11854787
970437979905826816 0.26687777 -0.19583558 0.13184777 0.14149208 -0.010502928 0.016328735 -0.11265325 -0.07346524 -0.25421596 0.012079273 0.12576893 -0.05663376 -0.23688382 -0.15495412 0.1190977 0.3045099 -0.005444793 -0.04677281 0.14412397 0.23483534 -0.038788315 0.08948437 0.27645385 -0.24459322 -0.06493221 -0.056971796 -0.032735378 -0.0020766894 0.16313896 -0.033796433 0.10870066 0.061052375 0.054699313 0.03725462 -0.11061415 -0.026432356 0.04015142 -0.07271752 0.08133476 0.016730946 0.010797258 -0.024308572 0.039497115 -0.01374602 0.13095216 0.046166334 0.003248134 -0.123807445 0.04251975 0.15942118 -0.13127658 -0.08161293 0.07428355 0.13187546 0.09673342 0.06762577 0.309564 -0.0070535587 -0.04424586 0.096291974 -0.111941665 -0.19830321 0.08544763 0.0018106884
970208977299451905 0.15837096 -0.13700245 -0.11917341 0.12842758 0.07552338 -0.18816544 0.014532984 -0.17364214 -0.1059997 -0.18752176 -0.013967284 -0.05095548 -0.2818181 -0.057443872 -0.008336458 0.42909437 -0.06407385 0.0023245628 0.017741319 0.27246457 0.10642575 0.2276969 0.44937053 -0.060676746 0.17731564 0.23348579 -0.09415349 -0.2827895 0.080346204 -0.13602687 0.040650234 0.25386664 -0.16158521 0.12072138 -0.14679168 -0.0042408654 0.13793547 -0.051896982 0.32828832 -0.0147678135 0.04390765 0.029999293 0.051160328 -0.04106153 0.09956705 0.022457108 -0.13321808 -0.16124889 0.07165816 0.085484564 0.10872826 -0.042849038 -0.0105832135 0.0009976372 -0.11608887 0.07755057 0.13373704 -0.023863068 0.0071000014 0.20767471 -0.25749537 -0.14916106 -0.20953774 0.010730566
970132093756833792 0.023362387 -0.08848238 0.13856657 0.017975178 -0.1364789 -0.03704684 0.011905636 -0.3045748 -0.3177204 -0.18590075 0.026461393 -0.099726655 -0.14701697 0.029511917 0.29042876 0.3255504 0.0009718825 0.06611734 -0.0394456 0.0795045 0.060904525 0.24019215 0.13132435 -0.24374318 -0.101969115 0.012193218 -0.13699178 0.09747496 0.18312116 -0.14763974 -0.046326697 -0.03642959 -0.059430275 0.20785303 -0.31361902 0.06903823 0.31160352 0.22678998 -0.05044411 0.13973764 0.07476825 -0.010832372 -0.08996703 0.06768041 0.16995396 -0.045234863 0.045094114 -0.08046511 0.051782172 -0.012457195 -0.2069276 -0.0568986 0.043099735 -0.1000418 -0.050067693 0.077569716 0.05934785 -0.08600207 0.009992065 -0.041681644 0.2414426 -0.11302556 -0.06171686 0.036959156
970173165606326272 0.1951201 -0.38201904 0.0802591 0.21505201 0.1157642 0.03446842 -0.1172203 -0.09524228 -0.2891477 -0.23185362 0.079107724 0.046796948 -0.1771542 0.04323226 0.010757196 0.37929308 -0.13607213 -0.2019194 -0.0065675247 0.087200545 0.12220914 0.103791445 0.2756617 -0.1404626 0.0010469813 -0.073519856 0.07431459 -0.11779027 -0.21145163 -0.18400937 0.0916725 -0.04776241 -0.0117223095 -0.057530876 -0.07096523 -0.015674023 0.118670605 -0.12993678 0.0007253208 0.10429103 0.14388283 0.049693 -0.14499474 0.048941016 0.1986976 -0.14077997 0.02273693 -0.18073572 -0.02164953 0.12712462 0.014808054 -0.14096591 0.15193862 0.123339534 0.12812501 0.16057453 0.2741675 0.052315574 -0.07898971 -0.056601927 -0.11500696 -0.14012018 0.042522565 -0.19175608
970209827803688962 0.09501051 -0.20529538 0.09912547 0.01808235 0.10079279 -0.04961497 -0.21926448 -0.26694462 -0.23913467 -0.19369628 0.03323831 -0.11624065 -0.2130563 0.07097814 0.023698471 0.32665747 -0.14420037 -0.1545699 0.13684842 0.31430486 0.083090514 -0.016142676 0.29036546 0.06775425 0.08560997 -0.0068819337 0.019069776 -0.21873686 0.044598002 -0.22464333 0.16453198 0.030309008 -0.19674931 0.08499144 -0.17719409 0.11698958 0.19567463 -0.045746394 0.10037653 0.0012631248 0.048009403 -0.040043965 -0.022537498 -0.03505681 0.02541111 0.110239856 0.0030678408 -0.14059146 0.09208783 0.13642325 0.0024068865 0.07352927 0.17044201 0.002426354 -0.029906137 0.10744145 0.21641526 0.013367258 0.005839729 0.024585316 -0.1763902 -0.15792906 0.016388938 -0.025220608
970177601959444480 -0.042758618 -0.3274603 -0.17504054 0.09678988 -0.22748695 -0.07233259 -0.10038149 -0.29070285 -0.3215272 -0.097012766 0.17959368 -0.12582663 -0.29149938 0.093624756 0.08862406 0.077281415 -0.17384453 -0.09040322 -0.09025142 0.27027124 0.065763146 0.07030523 0.053467073 -0.099538796 -0.1283991 0.13917784 0.04075102 0.007854374 0.18005608 0.012415125 0.3036317 0.16761601 -0.049927164 0.12626468 -0.2846142 -0.044311013 -0.0022168586 0.0964349 0.18730098 0.021790864 0.1268457 -0.27480137 -0.07932129 -0.010848659 0.02024228 0.06315909 0.07670844 -0.012610162 0.07103684 0.13073231 0.03295413 0.26998892 0.10529577 -0.021808118 0.02801794 -0.04632174 0.08303704 0.06889655 -0.005461701 0.08682056 -0.112463094 -0.00611659 -0.04810197 0.020315014
970448505398484992 0.16238008 -0.22382864 -0.08130547 0.0075011584 -0.23328066 -0.11960298 -0.052793756 0.06978748 -0.18450509 -0.32267162 0.09268838 0.014160515 -0.23949105 -0.00213445 0.14095843 0.26956218 0.016715543 -0.23290677 -0.06008012 0.29442108 0.123210825 0.08392985 0.12742339 -0.074936114 0.049562983 0.22729667 0.043498274 -0.16686885 0.28710082 -0.11525134 0.1042999 -0.05886918 -0.16415843 -0.021950541 -0.118871234 0.09331769 -0.0035130626 -0.02788923 0.24651037 0.083148524 0.14257567 0.06344521 -0.03079477 0.1587568 0.141217 0.16041322 -0.03844934 -0.0046654586 0.118178345 -0.031132123 0.072625674 0.03708854 0.16011901 -0.009461379 0.22777304 0.0076630977 0.30372477 0.07968439 0.081642166 -0.036662288 -0.08149025 -0.10395431 0.26372787 0.0029802439
970119918808006656 0.018056719 -0.27957603 0.17590393 0.06584532 0.11310266 -0.010771368 -0.035022717 -0.054159466 -0.24586806 -0.067111075 -0.1368575 -0.21368988 -0.12311664 0.06350875 0.11071021 0.15362772 -0.12458421 0.03069025 0.013753061 0.2564809 0.18776393 0.33985457 0.1640599 -0.27451476 -0.07248251 0.14739716 0.0900352 -0.19991201 0.22934987 -0.13951847 0.09839067 0.008302621 -0.094511636 0.10944883 -0.15795872 -0.06460475 -0.029275313 0.07019294 0.20766388 0.087640174 0.16990896 -0.060619004 -0.12174812 0.13261254 0.10559282 0.008682299 0.06999214 -0.17204385 0.10477872 0.13176347 -0.029389381 -0.025781862 0.053756323 0.03293547 0.06424524 0.039174296 0.06606884 0.03729861 -0.00788969 0.063226715 0.15347524 -0.07568006 -0.007917044 0.054201566
970189212237508608 0.22208312 -0.03992733 0.06332461 -0.0145799685 0.025188418 -0.105929315 -0.15246168 -0.1282052 -0.35801166 -0.10225313 0.076279856 -0.108291425 -0.20358886 -0.08942508 0.08797693 0.26112399 -0.1519832 0.02918801 -0.06414584 -0.043277815 0.058925826 0.08299784 0.26662353 -0.11867772 0.03315511 -0.11350884 0.039611068 -0.14514513 0.11660297 -0.29891002 -0.047634814 -0.034254055 -0.12410679 0.23302875 -0.16337775 -0.0738239 0.2970111 0.0035697331 0.11835224 0.10257534 0.21832658 -0.11952523 -0.29148638 0.08278139 0.10044862 0.08288677 0.17725775 -0.16571805 -0.07774175 0.039449647 -0.03170562 0.200253 0.16945693 -0.11808618 0.13960454 0.13953874 0.19649325 -0.08013287 0.053684738 -0.020932388 -0.08782223 -0.08674949 -0.04155302 -0.012297502
970441496821297152 0.11482169 -0.1729198 0.15814303 0.11598949 -0.1918877 0.02460551 -0.24921833 -0.05219296 -0.31571 -0.2446106 0.10690387 -0.073416784 -0.3502644 -0.03301239 0.18498677 0.18840624 -0.10387484 0.034730848 -0.07365369 -0.008938204 0.16576661 0.20858298 0.12166766 -0.26337415 -0.12224408 -0.08499957 0.13356206 -0.00844295 0.11837599 -0.09109835 -0.09991848 0.314376 0.14299525 0.1962399 -0.110537454 0.16124405 0.31996334 -0.12879987 0.02387152 0.121501535 0.16957451 0.1663838 0.09802696 0.021139069 -0.1326256 0.0041401666 0.17504291 -0.23344454 -0.050924063 -0.15802659 0.007055053 0.035404358 -0.0014817863 -0.105233945 0.08334962 0.24329315 0.2170038 -0.03197579 -0.15952758 -0.020162906 0.052653976 -0.1921305 0.010647553 0.094172426
970208308178006017 -0.10598395 -0.3110924 0.14873648 0.15810929 -0.1311787 0.009424071 -0.15415028 -0.12180063 -0.34008104 -0.17938899 0.118603796 0.055306833 -0.31088227 0.018191405 0.08748156 0.30331218 0.060168795 -0.098917365 -0.08337063 0.21542071 0.06431999 0.09261926 0.108405314 -0.1225249 -0.030064294 0.08575373 0.12912093 -0.22724251 0.27618426 -0.044649124 0.1358232 -0.0033635183 -0.06354939 -0.040651176 -0.1643933 0.044443727 0.07088588 -0.06772543 0.05774053 0.14595845 0.18426456 -0.014931622 0.088417046 -0.18275541 0.13421361 -0.004481969 -0.059130125 -0.11795553 0.02449834 0.16880807 0.02097206 0.00023058767 0.14627264 0.11315811 -0.00998764 -0.05535006 0.05083952 -0.12063239 -0.04239066 0.01994592 0.07137763 0.017548302 -0.0046078223 -0.093233176
970207358809853952 0.21746463 -0.10132689 0.11676039 0.1560203 0.1476444 -0.23805988 0.06104405 -0.12258757 -0.15870596 -0.12514614 -0.0523789 0.07762401 -0.37181875 -0.032096237 -0.08657223 0.35976368 -0.08825708 0.025628606 0.04142737 0.16694996 0.18805014 0.16021279 0.42783085 -0.22005224 0.109692454 0.06422223 -0.103227325 -0.23642364 0.08415849 -0.0030278638 0.063037895 0.1284346 -0.16737603 0.10566727 -0.11963863 0.10543035 0.08204898 -0.17542909 0.08404223 -0.13414702 0.24042974 0.050057802 0.013781795 0.050693594 0.090165876 0.040468175 -0.24010848 -0.26291564 0.16131772 0.011773732 0.009849208 0.036577553 0.060862496 0.08638213 0.09912887 0.09223517 0.14974207 -0.09008506 0.035765868 0.16970496 -0.106545135 -0.0883849 -0.076353885 0.1318022
970134594895847424 0.22614063 -0.2399805 0.12875575 -0.026417587 0.19038239 -0.017658086 -0.0028211365 -0.049534466 -0.2247726 -0.14308843 0.023394585 -0.044900753 -0.03293079 -0.015819559 0.22462294 0.38866374 -0.12694618 0.04683478 0.1858454 0.22029616 -0.010668298 0.105479896 0.2725227 -0.08877625 -0.1224914 0.17918341 0.04267234 0.05541783 0.12856288 -0.07132878 0.11994658 -0.12579608 0.07760916 -0.0025991322 -0.121257566 0.09065081 -0.082195975 -0.08823053 -0.0018304869 0.19962025 -0.03801363 -0.06173899 0.13707392 0.26007777 0.33204293 0.07408557 -0.120106496 -0.1071359 -0.11998259 0.067505516 -0.28309643 0.051912412 0.29647854 0.13743597 -0.031216564 0.14208642 0.33678693 0.023539815 -0.044000104 -0.11087676 0.082225025 -0.28812942 0.0695095 -0.12996967
970205609877368833 -0.028824242 -0.33259833 0.012129091 0.038592607 -0.04820967 0.0985564 -0.047675893 -0.17962083 -0.4124427 0.03633111 -0.0065093087 -0.118534096 -0.19089344 0.0946314 0.12182378 0.29719353 -0.062480573 0.0182903 -0.06796499 0.19928834 0.18668702 0.16925445 0.17485303 -0.24366936 0.03607397 -0.020535037 -0.07034604 -0.113621235 0.008046584 0.032429498 0.019650057 0.20687689 -0.09443491 0.015111316 -0.16485788 0.08332618 0.07810244 0.08225515 0.0055335797 -0.05238955 0.061267007 0.08465833 -0.065860085 0.12593243 0.14812677 -0.16662043 -0.20992956 -0.09365373 -0.1273903 0.1906079 -0.08047276 0.15008868 0.07176479 0.040718697 -0.046092328 -0.049015276 0.2625208 -0.06103662 0.10158113 0.19082215 -0.12585874 -0.18161562 0.16423844 0.09586239
970177693886029824 0.0707 -0.21524271 0.010350373 -0.023582371 0.003142913 -0.16887827 -0.36272812 -0.1623531 -0.20277065 -0.083914205 0.03728366 -0.24866568 -0.03456919 0.042528957 0.22654958 0.21690677 -0.07051468 0.015081487 0.0012073583 0.23244566 0.27528578 0.020190625 0.29022318 -0.20828436 0.08758581 -0.07833298 -0.017098203 0.0097732525 0.19338214 -0.13551298 -0.030930169 -0.058341585 -0.057727933 0.13554893 -0.26350233 0.021485955 0.15083073 0.12950015 0.016601378 0.022726974 0.23934196 -0.07630838 -0.24273041 -0.0023591793 0.09361496 0.0030321272 0.16451953 -0.22145034 0.020207688 0.16515993 0.036975306 0.039250292 0.09907036 -0.14160793 0.20663288 0.124693476 0.2068498 -0.083853565 0.06332589 0.15291405 -0.06108497 0.031945612 0.02477512 -0.15994005
970392884158459904 0.17182383 -0.18971622 0.13248503 0.0025270244 -0.038204644 -0.101768486 0.03836379 -0.18695506 -0.2413346 -0.21224993 -0.06325251 -0.21101378 -0.1989996 0.020433152 0.04386227 0.26154345 -0.044716563 -0.014363225 -0.0010152032 0.21132076 0.19526416 0.07222075 0.07698966 -0.10791758 0.27418315 0.09000677 0.042599235 -0.19157168 0.26160815 -0.19767126 0.15256985 -0.07407472 -0.032418564 0.07218229 -0.1829514 -0.1363043 -0.039230164 0.084274605 -0.012471636 0.077337906 0.1519663 -0.04327122 -0.14906089 0.041892458 0.20595904 -0.02775338 0.10436153 -0.14117199 -0.024655882 0.052190628 -0.16070089 -0.03356981 0.18441471 0.060251743 0.11659015 0.10171868 0.102428116 -0.17130877 -0.12549718 -0.037134677 -0.007196169 -0.088499755 -0.13602376 0.08523067
970122900886859776 0.17939919 -0.15734096 -0.042521622 0.14486828 0.11144957 -0.30894324 0.14552657 -0.0068858317 -0.09689143 -0.12595211 0.035186235 -0.25259194 -0.0910444 -0.034885064 -0.1137607 0.35178775 -0.22779806 -0.038486365 -0.1158518 0.21574605 0.3084986 0.15456514 0.12029857 -0.47738627 0.26500148 0.26065344 -0.19662802 0.033075586 0.07202977 0.060369402 0.16006882 0.029287823 -0.18384007 -0.06456305 -0.3280822 0.09710383 0.049247496 -0.08151329 -0.012540315 0.043927513 0.018006505 0.076312765 -0.085869156 -0.063484 0.08359856 0.057336222 -0.26496848 -0.14857899 -0.010071754 0.13961317 0.028856535 -0.16216122 0.19761476 -0.09564285 0.060387857 0.016289113 0.113244675 0.100626506 -0.026685169 0.12159911 -0.086186185 -0.052110054 -0.0890756 0.017866418
970122744233787392 0.041385476 -0.11494962 -0.23004392 0.124236226 -0.06811124 -0.10485436 -0.12991577 -0.14529765 -0.24407382 -0.40013415 0.1968338 -0.1320592 -0.11875291 0.053966757 0.06784725 0.16882733 -0.03351944 -0.15546481 0.022192914 0.15244669 0.20899545 0.21436554 0.2697274 -0.19351742 0.07732919 0.14913107 -0.053512897 -0.19635478 0.18108836 -0.08606006 0.13470191 0.19380422 0.05367544 0.067803025 -0.156283 -0.085068755 -0.041349877 -0.01887332 0.13068512 0.27303162 0.05398964 -0.1932076 -0.03557369 0.040629003 -0.036429133 -0.017798182 0.03280312 -0.17266205 0.063503645 0.018201547 -0.21890219 -0.07496283 0.14674644 -0.089609995 0.015258378 0.05225587 0.21581161 -0.11223397 -0.06842764 0.00030919077 0.05289209 -0.12367366 0.2507102 -0.025091637
970189545600765952 -0.059216946 -0.19619244 -0.01936251 0.15602781 -0.34564456 0.12242894 0.04763367 -0.051866032 -0.38776752 -0.36294463 0.051474027 -0.10035148 -0.31837025 -0.12560266 0.08709393 0.21856242 -0.215347 -0.18146326 -0.068978526 0.092920214 0.20283557 0.22422117 0.13942996 -0.2876325 0.07267672 0.057009637 -0.10231896 -0.17466985 0.095112965 -0.15501073 0.08190995 -0.096391365 0.048697755 0.23211813 -0.16134542 0.1049736 0.021717682 -0.062419593 0.06520831 0.056246936 0.21145666 0.0696825 0.2079081 -0.14932337 0.0124884555 -0.13485207 0.1054116 -0.059839923 -0.011681349 -0.014210392 0.10581581 0.12680176 0.13301978 -0.052138522 0.011910265 0.050253484 0.32608074 -0.17342392 0.0030662431 -0.015839545 -0.07127901 -0.0117840795 0.2988346 -0.032496814
970160707244183552 0.1671324 -0.4184842 -0.10821639 0.16737999 0.12553349 0.0023319642 -0.26153085 -0.23721848 -0.30863914 -0.030664772 0.023864802 -0.1337869 -0.11853812 0.051491182 0.005157144 0.20139326 -0.0043562967 -0.14704491 -0.0841644 0.18744753 0.0077799917 0.016214617 0.011622137 -0.11126907 0.12433299 -0.10174678 0.18918198 -0.1479884 0.23806706 -0.22717057 0.09394994 -0.06188647 -0.3329916 0.11546232 -0.24436097 -0.0137931565 0.1334576 -0.14125542 0.03190112 0.16804981 -0.02725956 -0.068182394 0.02242285 0.28944066 0.17276405 -0.13398075 -0.09079452 0.031573623 0.07201534 0.09590418 -0.18879111 0.08582575 0.07400573 0.12785295 -0.039625835 -0.0054164645 0.14597471 -0.112280324 0.08564603 0.1712871 -0.16766515 -0.1639701 0.14946494 -0.0077010086
970422955581714432 0.17813572 -0.24200086 -0.059102457 0.18654962 0.051456213 -0.20042813 0.14580491 -0.16211972 -0.21314603 -0.13121538 0.10791671 -0.030118281 -0.16666314 0.027510663 0.01724742 0.4195977 -0.14220883 -0.13467595 0.062657125 0.2137797 0.3157499 0.1358737 0.3152582 -0.31427374 0.2053307 -0.05484457 -0.10831008 -0.0902625 0.058632176 -0.09094629 -0.029088965 0.18662131 -0.12562636 0.040721122 -0.094496876 0.006919994 0.17153811 -0.03816057 0.11764045 -0.13994873 0.055206854 0.04655053 0.07336202 0.050734904 0.0018886657 -0.03711371 -0.12960012 -0.28732556 0.12838392 -0.010347623 0.16630247 -0.08269296 -0.04953671 0.0476262 0.09402772 -0.027678475 0.21692249 -0.021463128 -0.06464431 0.22940421 -0.260153 -0.06438404 -0.051291637 0.072535455
970177689637146630 0.052661255 -0.13687831 -0.09562093 0.18980688 -0.2233338 0.101968475 -0.14103605 -0.2979782 -0.15507422 -0.04910453 -0.048848644 -0.02478609 -0.23436274 -0.36328995 0.22961307 0.3101666 -0.014410373 -0.0060937232 -0.08656471 0.18638279 0.24609879 0.26136225 -0.019591961 -0.054604795 -0.31655028 -0.11821201 -0.12590803 -0.021625059 0.11536989 -0.3058854 0.13267604 0.13710934 0.051247712 0.075648114 -0.20563345 0.028773867 0.15670978 0.09987529 0.08864867 0.12501784 0.16225635 -0.08471322 -0.06673602 -0.06525988 0.08278028 0.010269618 -0.08592839 -0.15977396 -0.1113075 0.026368232 -0.109525986 0.11416185 -0.10256687 -0.043978795 -0.04627847 -0.03579005 0.34217095 0.25606057 -0.14054205 -0.09585715 -4.3334094e-06 0.06179771 -0.027839974 -0.026120912
970189425723322368 0.16824482 -0.24138805 0.16668569 0.032289214 -0.00070632884 -0.03911245 0.006766071 -0.007973709 -0.3737551 -0.25164405 -0.054988492 -0.037289266 -0.24518612 0.04206977 0.1368339 0.32381114 -0.092004314 -0.08104631 -0.031755023 0.025193013 0.048096333 0.11738967 0.1549175 -0.0886269 0.0747184 -0.043467574 0.048288148 -0.19348 0.17385226 -0.13830039 -0.013147147 0.1843254 0.036582474 0.10191399 -0.20804696 -0.042276107 0.19448452 -0.059750307 -0.2547897 -0.050889526 0.11478963 0.057315577 -0.15900321 -0.034757424 0.11901271 -0.04915507 0.26263547 -0.20709969 0.04357453 -0.07521369 -0.10177801 0.1304635 0.18901479 -0.029605322 0.27059585 0.20632096 0.08535916 -0.24002373 -0.03959769 0.09864031 0.004744171 -0.08032168 0.18609262 0.08995685
970263860505583617 0.18716747 -0.37029016 0.4014422 -0.17029187 0.26007864 -0.3044692 -0.13611169 0.21795422 -0.33764577 -0.1341445 0.1552712 0.09003993 -0.079234 0.083776005 0.010241853 0.1720333 0.023509093 -0.123770595 -0.16335008 0.20712328 0.023078157 0.24019076 0.15390301 -0.28224966 -0.009499059 0.0083558485 0.061312485 0.1276729 0.07705589 -0.05074107 -0.0024353687 0.065960884 -0.21773659 -0.13129501 -0.09394822 0.06626792 -0.13283747 -0.008666124 0.16485755 0.20031276 0.23690554 -0.01861906 -0.19197354 -0.04392799 0.42974496 0.0037726862 0.14051884 -0.20204803 -0.05931696 0.12507954 0.021361697 0.26975885 0.1101888 -0.18290839 0.013149003 0.14594239 0.012073579 0.047737684 0.19290705 -0.16692995 -0.19575824 0.15790997 0.12521453 0.20373917
970167305215750144 -0.056584097 -0.24620165 -0.074218296 0.3060308 -0.05459044 0.1265581 -0.25118756 -0.24151696 -0.33425784 -0.21579884 0.20672287 -0.1517741 -0.25299707 0.01829439 -0.016494459 0.32650876 -0.08067936 -0.19513059 -0.17715563 0.23322278 0.29810965 -0.17087615 0.14035578 -0.070232764 -0.04357275 0.13596115 0.09835708 -0.0032419318 0.11703232 -0.05904222 0.008209209 -0.073074035 -0.11335849 0.21674211 -0.19606094 0.0714191 -0.0045778314 0.07079912 0.20490862 0.15060309 0.13315588 -0.047329158 -0.14606702 0.048642114 0.0033546495 0.0028105392 0.03989241 -0.090799905 -0.044039458 -0.033015564 -0.07148669 -0.017205536 0.32161304 0.05996506 0.024785873 0.19165866 0.2156933 -0.112264216 0.009190337 0.049118016 -0.060137816 -0.10739921 0.0136110345 0.010237221
970212009433182209 0.13182135 -0.06501191 0.0014110175 0.057122003 0.07600223 0.057749502 0.009484359 -0.30162585 -0.24859604 -0.2899688 0.19467315 -0.09840907 -0.20428108 0.1573002 0.17860357 0.42853957 -0.002803652 -0.20801756 0.08035985 0.22601959 0.36443764 -0.13855483 0.17094159 -0.08589373 0.08859694 0.2122224 -0.045420293 -0.21587835 0.2049851 -0.20152605 -0.0024701112 -0.12901358 -0.16744025 0.2402578 -0.30520412 0.141048 0.012307111 -0.031485654 0.12579997 0.15204103 0.11675607 0.002198452 -0.20717159 -0.07884332 0.05599747 -0.08188844 0.004888095 0.029356126 -0.08011316 -0.01153905 -0.06980772 0.1429899 0.2768505 0.06577491 0.028408747 -0.032032665 0.2967716 -0.0013600049 0.028014222 0.105239585 -0.06633396 -0.08186992 0.09734584 0.05442717
970099697355542528 0.24611746 -0.3176139 0.076514244 0.15926655 -0.14033374 -0.023029618 -0.21569967 -0.095545426 -0.20677628 -0.22810115 -0.039628953 -0.15391506 -0.20231493 -0.16513768 -0.047806315 0.30510738 0.013266031 -0.09741943 0.021765167 0.19109036 0.19199225 0.29637787 0.14390321 -0.053033184 0.008557477 -0.111301795 0.023659373 -0.18530166 0.07224921 -0.060376305 0.018184707 -0.010504359 0.033065002 0.09787483 -0.18594304 0.10067991 0.053649034 0.015939718 0.124769725 -0.0028534676 0.18777096 -0.11051465 0.07073873 -0.14212172 -0.022921076 0.07392465 -0.015838685 -0.13983947 -0.03527689 0.02656864 -0.076059796 -0.08948495 0.000326296 0.00031550915 0.26204205 0.018058205 0.38109478 0.11520228 0.0014176007 -0.14673676 0.04087626 -0.10142021 0.04135973 -0.101708554
970335823706054656 0.103205994 -0.11979282 0.18874946 0.27474132 -0.002892984 0.008530542 -0.2382175 -0.16380979 -0.34324595 -0.1181857 0.1481859 -0.15332678 -0.06797004 -0.04555611 0.09498912 0.30895472 -0.07167985 0.24680042 0.025386006 0.29536992 0.2537656 0.15417814 0.29353762 -0.043414198 0.008005154 -0.09243581 -0.045592383 0.023693614 0.017496316 -0.074023545 0.015685167 0.08289859 0.15846272 0.01571189 -0.1623405 -0.10430324 0.06496902 0.1849744 0.08216451 0.1073979 0.11760996 0.016462937 0.09850034 -0.07702359 0.12018079 0.08362103 0.16771969 -0.043837707 -0.096465506 0.20770125 -0.10745367 -0.10052618 0.17581901 0.01669957 0.21603295 0.19114394 0.25957602 -0.10184485 -0.078102075 0.026593352 0.06982403 -0.12253024 -0.14448015 -0.0011506953
970153934454112256 0.23354404 -0.0888021 0.06800709 -0.011987664 0.021619145 -0.054728296 -0.07517265 -0.05605158 -0.29236725 -0.1797771 -0.00075758045 -0.025542464 0.08030441 -0.012556973 0.042858217 0.041635595 -0.124552086 -0.08441754 -0.07456069 0.28695577 0.052633174 0.07283726 0.19891596 -0.26209283 0.11499292 0.16311087 0.09344931 0.024288652 0.33080202 -0.11220629 0.14845507 0.04967205 -0.20554288 0.023082107 -0.20422894 0.0584092 0.05741886 -0.02749869 -0.0219458 0.077737935 0.25326228 -0.031489532 -0.17665277 0.15867619 0.19254129 0.123533115 0.04262678 -0.28723004 0.19067852 0.1946438 -0.12641644 0.12572369 0.1101445 -0.2586602 0.11772924 0.023782738 0.026546923 -0.0131399995 0.088476606 0.1902516 -0.04845776 -0.18944508 -0.018889738 -0.004189372
970143198864527361 0.15721464 -0.34415492 0.0025351432 0.11580299 0.12297585 -0.09042734 0.12288743 -0.26727882 -0.27665752 -0.1670456 0.17942265 0.004446173 -0.021099167 -0.07322948 0.09870906 0.22636934 -0.15095067 -0.12469487 -0.05010314 0.12760666 0.26376575 0.32525095 0.14029849 -0.19555949 0.20742677 -0.087978564 -0.14485677 0.01893952 0.15340032 -0.3438402 -0.028296264 -0.003631368 -0.15426248 0.13735035 -0.16514258 -0.11210925 -0.15231328 0.08302779 0.060820937 0.016296085 0.119683184 -0.051593315 -0.024624022 -0.18289576 0.048322387 0.1150582 -0.12361303 -0.3233111 0.04221064 -0.05157571 -0.18813151 0.20638838 0.05831249 0.01741466 0.17950821 0.10012968 0.17365673 -0.015715659 -0.14709735 -0.03466145 -0.092491634 0.004417715 -0.16453008 0.1534648
970401250951938048 -0.0068426174 -0.20356226 0.2628783 -0.021914242 0.23839402 0.01879276 -0.039859913 -0.17164649 -0.2026475 -0.18705662 0.25313985 -0.08894288 -0.09115754 0.04659105 -0.05503513 0.3377995 -0.22511712 -0.080724806 0.20503606 0.14736211 -0.022393866 0.106169514 0.34224147 -0.15511543 -0.15555711 0.30904567 0.116033785 -0.049639728 0.22865422 -0.2098982 0.03274896 -0.22361723 -0.031555824 0.06857374 -0.08698703 0.007319484 -0.040735133 -0.01605256 0.0373512 0.5051405 -0.022569789 0.003958573 0.2718402 0.18925712 0.30550605 0.22126092 0.001728389 -0.15430777 -0.16489421 -0.09344002 -0.2907582 -0.041118935 0.15162392 0.25254285 -0.25087214 0.016298758 0.24564342 0.16241603 -0.17212915 -0.11705507 -0.035064664 -0.007754062 0.0524073 -0.16876844
970442432146894848 0.39667064 -0.15100549 -0.027241115 -0.13448282 0.06631882 0.025253002 -0.20264813 -0.11092648 -0.51663196 -0.2650177 -0.15206818 -0.10377478 -0.14482577 -0.0019252204 0.16764444 0.23357381 -0.16867745 0.080116205 -0.047788944 0.10099446 0.031206451 0.19751963 0.08179145 -0.10389975 -0.044196926 -0.06657849 0.0067681484 -0.1776428 0.1539203 -0.19762985 0.066545896 0.07615567 -0.15536848 -0.106622905 -0.12695444 -0.054570686 0.11444541 0.046265237 -0.005752967 0.15835641 0.026985597 -0.06925106 -0.059381116 0.099332236 0.116464645 0.00030035398 -0.10596903 0.08067366 -0.033367377 0.12818591 -0.066404186 0.14242278 0.050296437 -0.03812191 0.02808036 0.06898353 0.23430212 -0.22893265 0.015256085 -0.029493593 -0.0687934 0.002148206 0.055339705 0.15912879
970263842285535233 0.15094651 -0.24643727 0.021631125 0.22483158 -0.26614037 0.017214525 -0.18452777 -0.109549806 -0.32613197 -0.36238915 -0.03189232 -0.11419236 -0.013540336 0.15307356 0.1452341 0.2704264 0.05892133 -0.0018635168 -0.013241083 0.27780166 0.14071015 0.19075894 0.34573695 -0.10666455 -0.05832274 0.04233201 0.05204625 -0.21106619 0.14580986 0.13611314 0.15311539 0.102676935 0.0025295236 0.18792804 0.032169033 -0.052138217 -0.011796457 -0.005375231 0.058844984 -0.09324899 0.095135495 -0.17235743 -0.04925152 -0.08862511 -0.05002696 0.060772642 0.030695658 -0.11686387 -0.15145177 0.08648914 -0.17868134 0.12302587 0.14990437 -0.023968698 0.113878354 0.11182363 0.20635289 -0.052331466 -0.061040055 -0.20098524 -0.0953789 0.03232949 -0.17201047 0.18969718
970426767226953728 -0.01557114 -0.12799607 0.15496881 0.21575953 -0.12592027 -0.07537359 -0.06898036 -0.11837715 -0.52836734 -0.29402748 -0.0019509358 -0.14704402 -0.091910586 0.05455267 0.19210035 0.25909823 0.0071058082 -0.064037755 0.17860368 0.1247499 0.0005464714 0.21117018 0.27247116 -0.10909243 0.009200903 -0.026817447 0.10185434 -0.16184676 0.1575233 -0.057317205 0.08716243 0.032444656 -0.07153489 0.043859452 -0.092146195 -0.12204821 -0.0471564 0.16298115 0.053946435 -0.028655555 0.042558063 -0.23157507 -0.030901052 -0.14365393 -0.070157446 0.08563916 0.014708283 -0.26741233 -0.20466146 -0.03991015 -0.014062897 -0.03964054 0.2401218 0.066990376 0.16769361 -0.29692242 0.25562322 0.14334436 -0.118552566 -0.109900974 -0.14526482 -0.06449659 -0.08784916 0.09639242
970190586538967040 0.0011150639 -0.23219559 0.14326009 0.31009236 -0.093919024 0.057115406 -0.23796865 -0.0656233 -0.31024316 -0.21686251 0.054739036 -0.1399623 -0.3597153 -0.07642002 0.13160278 0.29206547 -0.14163205 -0.0075858627 -0.042532023 -0.0036160448 0.089282975 0.32426107 -0.008940022 -0.12657717 -0.022788417 0.022398308 0.06905863 -0.067962684 0.057470392 -0.108694255 0.041999213 0.18092772 0.0062849424 0.21022394 -0.24347362 0.15513201 0.12410301 -0.22065605 -0.035991155 0.07830225 0.22571102 0.016212098 0.10484486 -0.07756362 0.01018186 -0.19074541 -0.10908107 -0.18918706 -0.04046064 -0.12414957 0.007959739 -0.004780255 0.18961877 -0.0589077 0.029531414 0.16933788 0.06199897 0.013923145 -0.07393359 0.06526044 0.07375773 -0.05226542 0.16692016 0.04963961
970448105706373120 0.034358453 -0.12349402 0.07473388 0.042471197 -0.3615086 -0.14198817 -0.061675563 -0.13407041 -0.38483575 -0.11753368 0.032636046 0.02579054 -0.028511664 -0.029740965 0.19716494 0.27409768 0.11193455 0.0405955 -0.10265877 0.16954233 -0.00060403417 0.33606598 0.1965915 -0.19320442 -0.16359979 0.01582588 -0.07819347 0.07047791 0.035499316 -0.14640406 -0.11796866 0.14332828 0.015062663 0.0015260888 -0.11861823 0.09209212 0.16312005 0.15029258 0.041538894 0.05093466 0.16029595 -0.03619941 0.13825235 0.052502267 0.032533683 0.10464847 0.08382191 -0.121069685 -0.2115479 0.043918256 -0.19934158 0.039026346 0.116461635 0.08878807 0.325076 -0.020808024 0.1850377 0.01139685 -0.099027865 -0.0843894 -0.04718048 -0.042147353 0.107877344 0.0139506925
970093341609156608 0.17228612 -0.27767748 0.28347266 0.13638285 -0.07433907 -0.18840802 -0.08123516 -0.040020313 -0.3218071 -0.026135134 0.08423169 -0.0015486273 -0.096415795 0.13678443 0.0760527 0.13592856 0.12827268 0.06850669 0.038829327 0.06836085 0.071657 0.37385985 0.17262082 -0.22133937 -0.017093204 -0.047759775 -0.112700306 -0.03631418 0.17979448 -0.14164227 -0.023774698 0.00023875077 -0.06531749 0.12821127 -0.028372763 -0.11721309 0.05851709 -0.026834667 0.19716209 0.09041153 0.064548306 -0.21141292 -0.23220468 0.07962734 0.20655568 0.14657767 0.13351265 -0.20354068 0.0684807 0.2727605 -0.13215256 0.24125388 -0.05550085 -0.09252123 0.032102156 0.18801354 0.21563408 -0.2345256 -0.0350886 -0.06539214 -0.065041 -0.02004978 0.1900398 -0.0060898196
970199130768261120 -0.020367566 -0.13717142 -0.15930963 0.17097966 0.119062044 -0.10728929 -0.07455016 -0.3127139 -0.25321317 -0.2727214 0.25193855 -0.1382632 -0.20790704 -0.008109388 0.035242718 0.2096121 0.16815272 0.02109601 0.00151913 0.28219005 0.20098631 -0.012840541 0.01656885 -0.12554488 0.07355886 0.30911463 0.0053995186 -0.17949146 0.2520523 -0.29852635 0.0384367 -0.096207656 -0.117008165 0.17899404 -0.3750555 0.16173878 -0.012116114 0.08103645 0.13337661 0.06204781 0.1336481 -0.042302728 -0.07363015 -0.13001016 0.12592295 -0.031298794 0.0036869603 -0.16015677 -0.015575537 0.048818465 -0.07387838 -0.02400819 0.20862609 0.1300941 -0.09560019 0.09920916 0.24905895 0.10625758 0.056012925 -0.09722844 0.03500508 -0.09259138 0.05997484 -0.16445197
970406671678783488 0.3408882 -0.23384719 0.20783591 -0.09016782 0.12410452 -0.12490638 -0.1851154 -0.070142195 -0.30286396 -0.15826201 -0.04400304 -0.18660936 0.06376926 -0.10112559 0.13237762 0.26590016 -0.23600644 0.04972744 -0.10367252 0.06211553 0.16022128 0.20974335 -0.054335326 -0.050083485 0.09537337 0.06513642 0.058022384 0.065940045 0.19665274 -0.1569372 -0.044698462 -0.12208801 -0.28974634 0.17675804 -0.3678456 -0.1717254 0.22279 0.08236471 0.07277004 -0.01922133 0.20874728 0.063572556 -0.050208256 -0.06342989 0.13772888 0.16494179 0.122912735 0.04315423 -0.18431215 0.13819969 -0.21140254 0.068552 0.112727694 -0.06551478 0.020354446 0.13183239 0.025667964 -0.06708976 -0.10397182 -0.16520245 -0.23596177 0.01237047 0.057056695 -0.08777216
970301274716385280 0.13437685 -0.27932593 -0.11089501 0.34693366 -0.2824005 -0.14365393 -0.109251544 -0.22338732 -0.2842478 -0.17823151 -0.10933362 -0.0016990071 -0.03281009 -0.021386158 0.071155705 0.32196686 -0.13122076 0.003652003 0.07472477 0.08016204 0.12864593 0.41482133 -0.011431237 -0.19309478 0.19664937 0.083404526 -0.009171733 -0.22772191 0.24575621 -0.028335972 0.14481606 0.046972137 -0.027892843 0.2695747 0.07260342 -0.05174991 0.019373465 -0.0936684 -0.094554946 -0.056820575 0.041725215 -0.16642319 0.26903218 0.1715332 0.011363682 -0.049779363 -0.001851197 -0.17158733 -0.10230817 -0.15851136 -0.053649575 0.11587359 -0.016108666 0.0010333455 0.20856607 -0.068777174 0.31142 0.13026841 -0.14373118 -0.0070886123 -0.11320739 0.08190244 -0.17224729 0.060002424
970236257539309568 -0.015672663 -0.16640493 -0.051475115 0.23867585 -0.22136472 -0.11513394 0.04679824 -0.12834185 -0.20558153 -0.0363879 0.041016202 -0.32071978 -0.23536411 0.06920421 0.11848453 0.14846238 -0.06571272 -0.20207131 -0.24295428 0.29116642 0.13093428 0.27630475 0.034894314 -0.11026334 -0.059657216 0.0364483 0.12539381 -0.014382543 0.22010396 0.013068555 0.028791538 -0.08585166 -0.105493866 -0.15782146 -0.020095743 -0.038338766 0.07479665 0.041448392 -0.0377557 0.16097446 0.236989 -0.023818387 0.07009352 0.12688462 0.031683385 0.12096155 -0.0150859095 -0.19811083 0.13181539 -0.15490907 -0.06798422 0.03069968 0.14235966 -0.17530356 0.3023326 0.05894787 0.20706475 0.15206532 0.024463447 -0.10582892 -0.23060374 0.12803295 0.2047352 0.2452976
970248322354204672 0.18041939 -0.24289954 0.15096323 -0.06269464 0.16642621 -0.22743993 -0.13532786 0.1000974 -0.4074856 -0.14550455 -0.008324202 0.0054289564 -0.03506169 0.023832135 -0.07495077 0.09026016 -0.00058801926 0.05089649 -0.21061818 0.32968098 0.07162218 0.06031835 0.10992243 -0.3411615 -0.16717507 0.124621294 0.07827089 -0.031906765 0.16255169 -0.1347699 0.0067755305 0.11288444 -0.10526271 0.011433827 6.8485024e-05 -0.09162124 0.17411862 -0.13208236 0.08841675 0.10693384 0.16533636 0.13081613 -0.21180442 -0.062299453 0.3783411 0.068182416 -0.017839536 -0.16955413 -0.0038023752 0.12696894 0.087357424 0.25846407 0.07485503 -0.27513415 0.13088894 0.07724309 0.08748578 -0.11503935 0.28325585 0.07052269 -0.21706882 -0.07157799 -0.036731403 -0.12086973
970239553712799745 0.09686437 -0.11304411 0.16721039 0.34185648 -0.1368186 -0.01538347 -0.17143358 -0.17426181 -0.37238535 -0.33312142 -0.07226941 0.015139694 -0.09301059 -0.1835096 0.1980901 0.2043307 0.15221934 0.050827626 -0.044414524 0.050867487 0.045235932 -0.026748663 0.13587278 -0.23809618 -0.059868842 0.13174455 0.052780785 -0.004063124 0.15117669 -0.06018827 0.2024398 0.059979975 0.029121567 0.20819251 -0.20430383 -0.08386207 -0.052417126 -0.054454286 -0.1222651 0.29681113 0.014250288 0.064308755 -0.05028333 0.16948165 0.08699068 0.15900771 0.07155058 -0.008928375 -0.26136202 0.053972863 -0.19478838 -0.08276715 0.1465928 0.09440283 0.20692822 0.10553421 0.068082415 0.034151874 -0.055707365 0.044889744 -0.038428675 -0.2048752 0.06581455 -0.034691222
970101283993436160 -0.049141765 -0.15043585 -0.09827595 0.048049368 -0.08554636 -0.03096826 -0.09505462 -0.17888325 -0.21132542 -0.04945096 -0.10046579 -0.1965094 -0.21468319 -0.11604966 0.13902858 0.14536631 -0.24282266 -0.03547652 -0.12461857 0.17204341 0.18137155 0.12666135 0.18056369 -0.201667 -0.056122668 0.11652263 -0.05154054 -0.052026737 0.24874753 -0.07197301 0.088744886 0.03829614 -0.13877857 0.084117785 -0.30270952 0.04412581 0.016958969 0.12249614 -0.18085463 0.11873127 -0.005341717 -0.07487217 -0.1168141 0.096355714 0.10357999 0.07331004 0.073827535 -0.22176027 0.10319427 0.10855647 -0.17140017 0.0527707 0.23608834 0.10589572 0.009951008 -0.07144242 0.23790778 0.1062523 -0.17662765 0.1390332 0.015606066 0.12315144 -0.02761658 0.10580341
970134933246111744 0.02139797 -0.24921568 0.16596518 0.21931133 0.30957448 -0.09849969 0.010577696 -0.12977892 -0.047789276 -0.26306257 0.13608313 -0.032392293 0.0039147157 0.14615333 0.07289445 0.32849708 -0.2359951 0.02173687 0.07325242 0.16273122 0.05983744 -0.027648844 0.21317342 -0.112923354 -0.28278688 0.23987933 0.19502048 -0.13559067 0.24048668 -0.16164142 0.07750949 -0.16825852 0.080880396 0.21852295 -0.080796175 -0.070089534 -0.07322006 -0.02128151 0.047851343 0.2516236 -0.026437465 -0.037676018 0.04716142 0.27045512 0.4240108 0.27455044 -0.067688435 -0.26962733 -0.07715134 -0.028704278 -0.37956902 -0.03880877 0.23112053 0.19653998 -0.24135213 0.19755036 0.37340975 -0.08190079 -0.12784654 0.022363978 -0.007593777 -0.14984335 0.029523203 -0.15115447
