352 64
969922690185244673 -0.00083785504 0.00036942214 0.007973984 0.014076989 -0.014535859 -0.011120014 0.0100919865 0.014020294 -0.007836606 -0.00588027 0.011532038 -0.0023960508 -0.00708846 0.010240704 -0.0075940005 -0.0028375275 0.004494656 0.0015498027 -0.012945648 -0.01476378 0.011424635 0.007922284 0.010558896 0.0011919774 0.009923264 -0.0053208843 -0.001478754 0.009013396 -0.011752561 -0.0061501637 -0.011736847 -0.001453191 0.014903311 -0.011436198 -0.0036465153 -0.0030277222 0.012620993 -0.009267025 7.056445e-05 -0.007427711 -0.015005548 0.007823896 -0.013686854 -0.006862227 -5.4843724e-05 -0.00046278536 -0.011970688 0.015023034 0.0077844635 0.014426786 -0.012746748 0.007024683 -0.0064641833 0.0012883358 0.013279092 -0.0069721527 0.0070585944 -0.010604627 -0.0055445135 0.014685169 -0.0024650842 0.00050214306 -0.006469734 -0.0120042
969776097037402112 -0.0023562647 0.0038590543 -0.001387544 0.008646347 -0.004285902 0.0035313517 0.008524679 0.01304055 -0.0022714697 -0.014387723 0.006828986 0.000893414 0.01162798 -0.0012707561 -0.0041225217 -0.013676576 -0.0013383701 0.004416503 0.008439731 0.011019774 -0.008911129 0.002904404 0.0095138475 -0.0074969567 -0.0048550963 0.010621294 0.002549179 0.00029674545 0.005427558 0.00034027547 0.0150294155 0.007907193 -0.013933424 -0.01100244 0.0014085248 0.009988334 -0.013468262 0.005727716 0.008109193 0.008971777 0.011667058 -0.009636994 0.0017275214 0.0094488785 -0.0044375807 -0.009646129 -0.00064097345 -0.013076484 -0.008750021 0.01110084 0.005238343 0.011290107 0.010625385 0.011766784 -0.0059205554 -0.0008778237 0.0036693364 -0.0070609897 0.013107393 -0.0154033825 0.010569751 0.0045537762 -0.007707551 0.006872166
970028719384358912 -0.0027180873 0.010486536 0.015570078 -0.00681632 -0.0009364672 -0.008899435 0.00601691 0.0043541044 0.010767307 0.009532962 0.014903899 0.014489714 0.012340732 -0.010921102 -0.014306039 -0.00055586547 -0.0048435032 0.012334868 0.00927902 -0.0024150982 0.0023608804 0.0027969368 0.012214955 -0.014859669 -0.00032114238 0.0054206178 -0.001467146 0.013096519 0.014079347 0.010213289 -0.0011119097 0.012047507 -0.0133349 0.005011104 -0.0072468705 -0.007951494 0.0056087784 0.008391153 0.012139864 -0.009010166 0.011614624 0.010352336 -0.005796563 -0.013665065 0.008496042 0.010171492 -0.0012305491 -0.010484152 -0.01107176 -0.0039016567 0.008036334 -0.0057269335 -0.014640719 0.005979281 0.0076319985 -0.010044631 0.001888372 -0.0032419972 3.8128346e-05 -0.015442982 0.004206255 -0.007422041 0.0016994476 -0.0024628527
969881427880767488 0.0034323 -0.012314964 -0.0042456016 0.004161246 0.008354191 -0.0037367418 -0.014859524 0.0070404336 0.00014775619 0.0048083104 -0.01064476 -0.0021491647 0.011982158 0.011478763 -0.0057395287 0.00412922 -0.012995515 0.00969607 -0.0072458163 -0.0049439184 0.014548995 0.0013646632 0.011704221 -0.009490725 0.00806329 0.015504409 -0.013214674 -0.008024517 -0.01103881 -0.0075978935 -0.0059040077 -0.013337813 0.012430634 -0.0075686537 0.013161894 0.008222766 -0.0102344155 0.006184172 0.008547109 -0.011603963 -0.011571437 -0.003867548 -0.013477698 -0.0024712086 -0.0006303638 0.005155757 0.0022529364 -0.0013772212 -0.008740716 0.0027036965 -0.0014021434 0.01061514 0.0062087327 0.007077299 0.002241101 -0.004218526 -0.006823145 -0.0016126186 0.0022453554 -0.0041343905 -0.011052787 -0.012195792 -0.014252793 -0.009273704
970038242866163713 -0.0028866008 -0.0067560486 -0.010094799 -0.005808316 0.0067018084 -0.0058422573 0.013090897 0.002396863 -0.011316124 0.014740311 0.011923768 0.008583251 -0.010701321 0.009097934 0.006264206 0.008102138 0.0066498443 0.0030308664 -0.0049533807 0.013052881 0.015019029 0.005925942 -0.004432805 1.1134893e-05 0.0019044019 -0.013216134 -0.012849916 -0.000360962 0.0019332618 -0.008974034 -0.0073832422 -0.0114782415 0.01301346 0.00018952787 -0.007045936 0.008908913 0.014343772 -0.00640605 0.012444813 0.008399114 0.00918613 0.0008009225 0.012832943 -0.010967251 -0.012879185 0.0145302415 -0.0003088452 -0.0030738711 0.0071931705 -0.006398931 0.004286114 0.010843698 0.009477228 -0.011735618 0.014659923 0.007299699 0.0061970614 -0.009755477 0.013218716 -0.0033596344 0.013789356 -0.008378129 -0.012702219 0.0106633715
969859654166528001 0.0026112385 -0.0034351721 0.014865 0.014834147 -0.0152719505 0.0039144196 0.009619832 0.0060507134 0.0031606033 0.00067265704 0.0010525472 -0.005969744 -0.011156641 -0.0032638647 0.00613109 0.013779193 0.014467422 -0.009337403 -0.014691673 0.015256837 0.0053590387 0.008072056 0.009816162 -0.0043816604 0.0114417225 0.0044222996 0.0044859424 -0.0037193298 -0.00488789 -0.0037033483 0.0066819303 0.000118840486 -0.014975436 -0.015102413 -0.009606555 -0.00020089 0.0031209625 0.01473745 0.008725546 -0.006704215 0.00043486804 0.0077568106 0.0120286085 -0.0017878488 0.0067553446 -0.00908497 -0.0012565479 0.012656327 -0.0036876015 -0.015099149 0.0090300925 -0.0061403476 -0.0019107386 0.015594557 -0.0035255477 -0.0074329153 -0.0083271675 0.010907639 -0.0089201145 0.0033025965 -0.00821197 0.009563614 0.006808292 0.0040724277
969803911799259136 -0.002329819 -0.004290726 0.014051463 0.008149646 -0.0033789389 -0.01479736 -0.011603206 -0.0016620979 -0.0012421049 -0.0040045455 0.01512925 -0.0007164404 0.009177752 -0.011636857 -0.003915742 -0.008671664 -0.011154711 0.0019391105 -0.011213619 -0.0035072155 0.005811412 0.009114254 0.0018721595 0.003285516 -0.006422486 0.011289582 -0.009854753 0.0072612725 -0.012843709 0.003181979 -0.007776644 -0.0066370144 -0.0048577897 0.008836262 0.009059999 -0.007772889 0.0012083277 -0.013274655 0.012202822 0.014464516 -0.0042848885 0.001250349 0.0011666417 0.008559193 -0.013446998 0.0009132102 0.01073347 0.0034868643 0.0017573051 -0.01456587 0.013253696 -0.009787701 -0.004675586 0.0054590404 -0.0012072325 0.002205141 0.0027843602 -0.010670155 -0.01519502 0.014125913 0.009684458 -0.010801449 0.0053179413 0.00032197312
969813251738382337 0.007427726 -0.011124913 0.006292116 0.0067928657 0.015558388 -0.0069902204 -0.0021707267 -0.0114333145 -0.01515286 -0.014187902 -0.0015980564 -0.010161392 0.0075776987 -0.009631291 0.0039362274 0.0011553764 -0.0053002425 -0.0015300363 0.015592381 0.014290448 -0.006971609 0.014192227 -0.008815255 0.009267066 -0.0048394054 0.005362112 0.0047144145 0.01078197 -0.0037091933 0.013710994 0.011858482 -0.014918197 -0.012512829 -0.011934213 0.0045675896 -0.0043667555 -0.010827377 -0.012700412 0.012983091 0.0031101368 -0.014575027 -0.0074886195 0.004901152 -0.007364385 0.008251317 -0.006614752 0.004127804 -0.012571387 0.009702947 0.007529512 0.0012299865 0.00470851 -0.013636693 0.0033283755 -0.0013649128 -0.014561076 -0.014731474 -0.0022042468 0.0069256388 0.005787611 -0.01015421 -0.01073917 -0.0078115836 -0.0035731941
969795030129889280 -0.011328574 -0.015005186 -0.0042869225 -0.01306694 -0.009435743 -0.0088608265 -0.0036627166 -0.002667185 -0.013995312 -0.0011487491 0.012738291 0.012016296 -0.011259556 -0.0057294257 0.0048727356 -0.014954254 0.0023069344 0.010194477 0.00897878 -0.013692286 -0.0070580393 -0.012719002 7.180497e-05 0.014474425 0.00933329 0.007917669 0.007907908 -0.005067058 0.014925286 -0.011494413 -0.011359982 -0.0035396703 -0.001216501 -0.0050251633 -0.0009259172 0.011701286 -0.0010898747 -0.0025389716 0.004288122 -0.013061095 0.012274694 0.013337661 -0.014975138 0.0038222894 0.015476517 -0.011977818 -0.010885812 -0.01208831 0.013118628 -0.0010645874 0.014288139 -0.012747221 0.005848568 0.004117254 0.0011604875 0.0036369935 -0.011670459 -0.014622461 0.003679026 0.009606961 0.012477636 0.008962333 -0.0012145899 0.012978382
969841897244995584 -0.014587991 0.00532208 0.00041680038 0.0060269423 0.011540286 -0.010508075 0.008725751 -0.014878478 -0.0012569688 -0.013576154 -0.007966679 0.014514416 -0.002903536 0.004553791 0.014173873 0.01396583 -0.012825679 -0.0047067404 0.0154478215 0.007975671 -0.002481386 -0.013581283 0.0046273693 -0.010431092 0.012706675 -0.0069645867 -0.00166931 0.001572445 -0.00029861555 0.0017940253 0.009552907 -3.1676143e-05 -0.0050718226 -0.0023605153 0.009214528 0.0023657829 -0.0011316612 0.0145831965 -0.007689506 -0.001310017 0.014336579 0.01054598 0.0023482107 -0.013879001 0.0017949156 -0.0035753995 0.014637869 0.0018905103 0.0023282245 0.0037600137 -0.0028687604 -0.00781193 0.0003631711 -0.0031471588 0.010313958 0.013968941 -0.0010543056 0.0046515837 -0.00954321 0.0026551932 -0.01082224 -0.013584416 -0.009219069 -0.013994493
969777685353254912 0.01137124 -0.009018801 0.012931798 -0.011318039 0.0053463653 0.015117183 -0.012164764 -0.015539154 -0.0067642927 -0.0041923933 -0.0004238896 -0.013799299 -0.013464935 0.0043753274 -0.012822513 -0.01417084 -0.0036569797 -0.013487201 -0.011026017 -0.013126798 -0.00047082826 -0.007131718 0.0103549585 0.0023861863 -0.0052210577 0.009545267 -0.00939576 -0.0072752647 -0.011261735 -0.006775908 -0.002827078 0.010140065 -0.004328739 0.007685885 0.010788191 -0.01166204 0.0071325786 0.009573404 -0.0046163686 0.010351595 0.009571686 -0.010067947 -0.010569613 0.0039671212 -0.002537217 -0.009476762 0.014842514 -0.008015856 -0.010240778 -0.0001873225 -0.004220981 0.0006943755 -0.0055272803 -0.00065520406 -0.0011072122 0.0012856573 0.0128044 -0.008963607 -0.0025930144 0.008705635 0.012762688 -0.0069422387 0.01403974 0.0128963515
969802399886921728 -0.0069300346 0.00047359988 0.0066788904 -0.006134875 -0.008687448 -0.010175504 -0.0010480285 -0.0004623793 0.0069735684 -0.0038657114 -0.00026970357 0.0038466789 0.0076056235 -4.81382e-05 -0.009905327 -0.014470011 4.165247e-05 0.01040921 0.0022906587 -0.014010191 -0.012404069 0.010237347 -0.0059151277 0.009773426 -0.010439113 0.013249472 -0.010181759 0.005137529 -0.0016515404 -0.010605514 -0.00513687 -0.0018147081 -0.008548345 -0.0018927306 -0.011817679 0.004135404 0.014172107 -0.0037144534 -0.001525797 0.005489938 0.013539199 -0.009252895 -0.010761842 -0.004582789 0.014293276 0.0013535433 -0.013560001 -0.0022609048 0.014811665 -0.011796076 -0.008372031 0.014557127 -0.014021449 0.005977981 0.0010397509 0.0104073435 0.012988675 -0.004454352 -0.006237991 0.013902996 0.0032650717 0.009763971 -0.01475893 0.014984567
969850428048384000 -0.0021067336 -0.00945643 0.0046758354 -0.0007134564 0.0073538944 -0.0035672225 -0.006465379 0.0035592169 0.013053723 -0.0078056343 0.0041698106 -0.012485243 -0.010583356 -0.0007307343 -0.013699576 0.0043584965 0.0024978034 -0.0036245212 0.007818423 0.015232477 0.013209794 -0.0029378533 0.0032158606 -0.0062557645 -0.012877196 0.009809304 -0.0030455962 -0.0010409467 -0.0027677082 -0.0070869774 0.0063464195 -0.006672159 -0.01496648 0.013973616 0.0065079182 0.014429271 0.010380473 0.0045698993 0.015318781 -0.006913502 -0.0106301755 0.0066052824 0.0058265626 -0.0088509545 0.015163686 -0.005559854 0.014920946 0.0013042577 -0.009903841 -0.0030892454 -0.011526648 -0.0046555065 0.0016276501 0.014816698 0.014618512 -0.01030606 0.0054299235 0.0035555772 -0.0038896129 -0.014420584 0.0016048849 -0.012758918 0.009875294 -0.0090626255
969813293773697024 0.008649122 0.015365191 -0.0002500005 0.007075768 -0.0028271899 0.011501189 0.0061564 -0.014078632 -0.0037476644 0.0056699514 -0.00015557557 -0.0018769875 -0.0016491227 -0.0026118793 0.00094523653 0.006507959 -0.0066449866 -0.005990036 -8.2526356e-05 0.0004208684 -0.00026376173 -0.0074773543 0.006739691 -0.003393624 0.003286779 0.0010414422 0.00932762 -0.010691222 -0.010649547 -0.0069941543 0.014743481 -0.0024873167 -0.014733192 -0.00085162744 -0.006951444 0.009375121 -0.014974508 0.0044671893 -0.01445755 0.0019528121 0.009373747 0.011558354 -0.011908539 -0.009457849 -0.010685064 -0.012372408 -0.014842313 -0.0033210889 -0.0013061464 -0.011337817 0.010604743 0.0017494038 0.009107605 0.002301354 0.001233384 -0.011512704 -0.0034010299 0.0067516863 -0.007945806 0.0017668568 0.0045052543 -0.002400566 0.015519209 0.013046302
970084699572920320 0.003774479 0.0111222565 0.009205371 -0.008719716 -0.008056629 -0.010419279 -0.012151305 0.012985513 -0.0030974112 -0.01071088 -0.0064912327 0.0080376975 -0.0044830255 -0.005858846 0.0025334768 -0.004337959 -0.0024755634 0.0016788915 -0.0046530403 0.013311379 0.006110836 -0.015560724 0.009780623 -0.010553524 0.0012022369 0.006881617 -0.007974025 -0.0032979213 0.012649186 -0.0066309273 -0.011931658 0.0144654885 -0.0033679642 -0.0073741153 0.013391875 0.006692715 0.0067575574 0.014507052 -0.0132079385 0.008211438 0.0031864867 0.0065441877 0.0026529692 0.0069752075 0.0070098266 0.009538315 -0.005003277 -0.007149577 -0.0006664321 0.003958959 -0.0050987005 0.009465184 0.0064908266 0.012132175 0.0040144883 0.012682315 -0.0021675155 0.01262176 0.0058078356 -0.012573946 -0.0061462745 -0.0038623102 0.0076453798 -0.0013627484
969889576230596608 -0.004423294 0.012240168 0.014567032 -0.0025233254 -0.008061327 -0.0073464997 -0.0075719543 -0.015004415 0.0021437816 -0.0066014305 0.0039479807 0.00877263 -0.0063529797 -0.0149946585 0.002416715 -0.010468941 0.00389871 -0.0059072375 0.011060033 0.0010003448 0.005563967 -0.0042798966 -0.0026727319 0.011957489 0.002199497 -0.009141326 -0.012241401 0.001926072 0.010085359 0.0086817965 -0.014026642 0.013425257 0.006323401 0.011671256 0.015228648 -0.011389971 -0.014124941 0.009118751 0.0146737695 0.0054795705 0.011076245 -0.0024498925 0.012417965 -0.01482603 -0.012546092 -0.010375582 -0.0062553994 0.0077956505 -0.0059586875 -0.012999851 0.013143402 -0.0058546923 0.013451088 -0.0076496117 0.0061228015 0.0076906495 0.0037384517 -0.004404381 0.0044517554 -0.012900371 -0.004321158 -0.0040486865 0.01132657 -0.005411569
969894900257890304 -0.010312036 0.006781917 -0.0007413849 -0.0056211837 0.010753863 0.006050486 -0.0060940646 0.0012060739 0.014286723 0.012116648 0.009940423 0.007292658 0.0037257634 -0.002877541 -0.009955145 -0.00047158077 -0.0024459213 -0.00089419633 -0.009785738 0.011615697 -0.0102992095 -0.011311371 -0.004308041 -0.0023678131 -0.011930808 0.0010909997 -0.008322049 -0.0019930378 -0.011507988 0.0030633882 0.005114373 -3.6153942e-05 -0.0085130595 -0.0026970096 0.011070181 0.0058379024 -0.013876639 -0.005333673 0.0036782846 0.003340654 -0.014787514 0.007142447 -0.013526559 -0.011542294 0.0054423623 -0.0054233745 0.005569484 0.013897017 -0.0055848807 0.014563162 0.0026734956 0.015387148 0.008914128 -0.01429607 -0.0051995814 0.010203399 0.008754343 0.0136023685 0.010822035 0.012560762 -0.015348453 0.0067169145 -0.007859495 0.0054881014
969801062835142656 0.009463575 0.0068627037 0.011738062 0.002340179 -0.0019764714 0.009013124 -0.008811824 6.029755e-05 0.014775917 -0.008564454 0.005959809 -0.012676597 0.015266083 0.0127579905 0.0020015165 0.007964965 0.0022002012 -0.01008619 -0.0022313297 0.010076821 -0.0072145425 -0.0062391646 0.007694382 0.0042392164 -0.0028874613 -0.004495226 0.009391766 -0.008932404 -0.00505735 -0.010137226 -0.0066166148 -0.013407804 -0.0069840476 -0.013298798 0.0021934025 -0.0134659335 -0.015494775 -0.01281504 -0.010582291 0.010438412 0.0059133694 0.00055650994 -0.0046218485 -0.011606753 0.00083346665 0.0007810816 0.00030565262 0.0013321787 0.0012286417 -0.000106502324 -0.012511022 -0.009172302 -0.0130982995 -0.0020500682 0.0028447434 0.011589263 -0.0030678548 -0.0036332682 0.014823679 0.00012453645 -0.003757067 0.013445072 0.004198443 -0.008349959
970048614054559744 0.010293916 0.007047113 -0.011022605 -0.0005049594 0.0013038851 0.008980244 -0.002683837 -0.004385203 0.002731923 0.0013237037 0.0018637925 -0.004116066 -0.009352788 0.011442162 0.011855274 0.012963057 -0.013435699 0.004119415 -0.0055624433 0.015031882 0.0045371354 0.0072517395 0.0037275217 0.010325745 -0.008973893 0.012335017 -0.0037670657 -0.007127948 -0.0032202974 0.015208684 -0.0107134245 -0.0034245625 0.010939062 -8.710846e-05 -0.009835888 -0.009989884 0.0139693655 0.01004621 0.007458739 -0.0050969496 -0.014480658 0.0059170127 0.011188358 -0.0088013895 -0.0122890845 -0.004644908 -0.007706091 -0.0036173612 -0.0030378401 -0.008230504 0.014761113 -0.014529269 0.007037416 0.008444026 -0.0022019744 0.0140735805 0.015445873 -0.008554757 -0.009407815 -0.010542147 -0.012335755 -0.00476237 -0.008740667 -0.0130385645
969873931002814465 0.0012232848 0.004679151 0.010023035 -0.004107736 -0.006958559 0.0019524544 0.00061165914 0.01268281 0.00028562546 0.011299353 -0.012913305 0.013177399 -0.0029514208 0.013595551 -0.011901308 0.0028068535 0.0016507581 7.18832e-05 -0.007973835 -0.014449529 -0.011350341 -0.012423709 0.0029901974 0.00074760243 -0.0028330274 0.011125259 -0.0038682707 -0.0021051727 -0.013907131 -0.015508458 0.013983432 -0.00899053 -0.009957809 0.008124072 0.010421865 -0.010674439 0.0014996231 -0.009388242 0.0025739744 -0.0067019984 -0.005376246 0.003415104 0.013533715 0.010512672 -0.015120402 -0.00878454 0.0123130195 0.003108371 -0.0066500828 0.0009356439 0.0148765 -0.0017229952 -0.014725998 0.0025131404 0.009738054 0.009816203 0.0063932016 -0.008828498 -0.00057920814 -8.6434186e-05 0.0071434304 -0.012564983 -0.0125286095 0.00041367114
969882692882857984 -0.01345047 0.009093992 -0.00065283105 0.015579965 -0.008349966 -0.00075959414 0.012119956 -0.006356146 -0.007837344 0.0024844855 0.004141707 -0.0040077493 0.010074262 -0.011968676 0.0053024366 0.00076557696 0.013644036 0.00934799 0.010649003 0.012222726 -0.014843937 0.014940973 -0.012141805 -0.004133608 -0.0076662637 -0.007760465 -0.012536861 -0.012161851 -0.0071143955 -0.0019927546 -0.007973421 0.009594597 -0.01486972 -0.008292351 0.014745548 0.010923952 0.01199346 0.0066167787 0.000792332 -0.009345539 0.009404339 0.0041172355 0.012030363 0.009990379 0.012410264 0.013527196 -0.015462119 -0.010555789 0.0020899586 0.010062974 0.011521585 0.008620281 0.011971287 -0.0080087 0.010288138 -0.0064193346 -0.014148973 0.014283873 0.0020803176 -0.004312001 -0.0038716309 -0.0065944977 0.007519275 0.0068753473
969738555613356033 -0.0041458793 -0.011471689 -0.0055716448 -0.00052596256 0.00952483 -0.0044333413 -0.0001888983 0.0013745725 -0.011086952 0.0032265633 -0.0022381619 0.004378356 0.0075659715 -0.0021125302 -0.0043439753 0.012091637 0.007883746 0.010489877 0.0070556924 0.013542429 0.011679638 -0.001690451 0.013668183 0.007190183 0.0085009895 -0.0021657571 -0.00318956 -0.00691304 -0.013304997 0.0047464482 0.013879988 0.013937097 -0.0030349307 0.009509619 0.005905818 -0.006712448 0.0031920671 -0.008496698 0.012826394 0.00848892 0.0049756765 0.0064102635 0.013526797 0.011362553 -0.0013023019 -0.0110512 0.0130944885 0.011302475 0.0027038604 -0.0021054558 -0.00920327 -0.007082954 0.0135124475 -0.0048986077 -0.009904407 0.015421994 0.012026008 0.014251001 0.0017742217 -0.013007939 0.013164088 -0.0057753623 0.008972146 0.006861843
969844757408043008 0.015140537 -0.014521092 0.014388133 -0.0145023875 -0.010793302 -0.014222179 -0.008667361 0.0115139 0.014319494 -0.0051958635 0.0058172643 -0.005664382 0.012314796 0.009166993 3.2410026e-07 -0.005669806 -0.01128798 0.0074509606 0.0022702776 -0.0040831044 0.0122465715 -0.006327525 -0.014295291 -0.003524173 0.00019554049 -0.010373838 -0.008572839 -0.013280902 0.014421675 0.011600044 -0.0004613176 0.011511974 0.012423106 -0.0012243353 0.010331392 0.005886756 0.007932566 0.011332799 -0.007405296 -0.0034148954 0.0013642535 0.0066190697 0.0051630177 0.007962231 0.007166382 -0.01318517 -0.004974749 -0.011307437 0.015127223 0.007822812 0.0002669394 0.006426528 -0.011962704 -0.009835392 0.004806865 0.0102103725 0.0061716773 0.009403158 -0.0031033307 -0.005226765 0.00032370165 -0.0049911886 -0.008620165 -0.012169626
969790225961558017 0.010211784 -0.0017036535 -0.0029545017 -0.012194961 0.014589958 0.0013564713 0.0027650557 0.0038932264 -0.011540614 0.0025606602 0.0046508797 -0.013385985 0.0077434406 0.003802199 0.011715487 0.007881716 -0.004737057 -0.011192091 0.011087831 0.0029711463 0.008123804 0.009970482 0.0029879361 -0.009574395 -9.838492e-06 0.012919214 -0.009528983 0.014747314 -0.011235848 0.0066138916 0.0033803023 0.011626117 -0.007639479 -0.0071317926 -0.0095283985 0.0051552616 -0.0070304126 0.013317008 -0.0067012943 -0.014227219 -0.007525556 0.010025766 -0.009955194 -0.008221153 -0.011413142 0.009409782 0.0052462406 0.004450608 -0.004903987 0.009423267 -0.009613667 -0.0030939095 -0.009348568 -0.001555752 -0.0031577908 0.013259288 0.0001218766 -0.013398949 -0.008482967 -0.01074373 0.0042068437 0.01477601 -0.0090874955 0.0129141025
969737822478336000 0.013331331 -0.011035375 -0.013880022 0.014795598 0.013084944 -0.00732952 -0.010509439 0.012253337 0.0058802254 0.012649223 -0.011830542 -0.0148829445 0.0024646968 -0.015321512 -0.0076341964 -0.005406413 0.01503269 0.013474327 -0.0044306368 0.009104487 0.012870461 -0.0035359077 0.014888346 0.0111878365 0.0031898431 -0.006013695 -0.0079402365 -0.0047682077 0.012324788 -0.009672556 -0.0045547225 0.014360972 0.0054010227 0.009488456 -0.012551278 -0.0011742264 0.008628823 -0.0073663592 0.011685144 0.014561862 -0.0006396398 -0.0032243766 -0.0009271242 -0.009040453 -0.013103567 -0.0023544915 -0.003995601 0.006847553 -0.010730498 0.0084588975 -0.010539196 -0.012219202 0.013237048 0.013935335 -0.005439438 0.0054553337 -0.009055838 -0.013672009 -0.008618083 0.010544889 0.010027748 0.01474699 0.011023883 0.010554612
969892597064859648 0.0020315088 -0.015319224 0.0071683787 -0.0008409731 0.009893898 0.0027866773 -0.0048903115 0.012124956 0.002429165 8.626282e-05 -0.00720774 -0.013208631 -0.012135677 0.01354767 -0.013945252 0.014116742 -0.01450159 -0.0004324317 -0.0029797629 -0.013954915 0.013484467 0.0105903335 0.0047178715 0.00755227 0.00017529726 0.014726061 0.01097076 -0.01539645 -0.006926909 -0.0020157993 0.0047620647 -0.0067561753 0.0022643209 -0.012259219 0.004340738 0.0073479563 0.007714551 -0.0049620345 -0.013167251 -0.0144072175 -0.0011295304 -0.011449166 -0.010648381 0.009562507 0.011206724 0.0033084676 -0.012342814 -0.008904669 0.012581006 0.006126318 -0.0081882365 -0.011549853 0.0012055524 0.0054121166 0.00324874 0.0048450045 -0.008782033 -0.015452322 -0.01097006 0.0003598556 0.0072166845 0.0070723556 0.0029372051 0.008079179
969852732189286405 -0.00016462803 0.0064283833 -0.0142550655 0.012032673 0.009605426 0.0080064945 0.01126042 0.013187181 0.0011542104 -0.0026622824 0.00081035495 -0.01455747 0.0131347105 -0.009968646 0.013168503 -0.0066318065 0.0010106899 -0.014319014 -0.0149352625 -0.012245018 -0.012079775 0.000586845 -0.011291347 -0.0077347085 -0.0082370415 -0.006702028 0.010956734 0.007545922 0.013566829 0.011083737 -0.008897509 0.011313744 -0.014523286 -0.004043076 -0.012120575 0.006550938 0.0028128587 0.011009518 0.004601091 -0.010907579 0.012051057 -0.009357698 0.014058918 0.004623756 -0.0062738955 -0.0073265545 -0.00690113 -0.009603839 0.0146542825 -0.0041399933 0.012144435 -0.015125524 0.0032949857 -0.0019275248 0.011787858 -0.014147814 0.011621192 -0.007977806 -0.009396523 -0.008826807 -0.0052799545 -0.00532984 -0.0049932264 -0.011706565
969745657345929216 0.0011074618 -0.0009001121 -0.0026312508 0.0058705173 -0.011906546 -0.0050334744 0.008055221 0.013349786 -0.015328031 0.011242714 0.0082960725 -0.006062027 0.013400245 -0.014409363 0.011326063 0.0083809905 0.002021242 -0.008124616 -0.006529145 -0.0052449703 0.0025129467 0.0024792254 0.011544131 0.01558999 0.013855215 -0.0062600784 0.015070923 -0.0009836592 0.007602237 0.0039828382 -0.0009840801 0.005730387 -0.008311585 -0.00899481 -0.011882257 0.0029788017 0.010196671 0.0013783239 0.0019639805 0.0049556196 0.012710415 -0.012031347 0.0035324246 -0.011678297 0.0057965815 0.014860231 0.011750404 0.010040671 0.012523085 0.010236163 0.010713555 0.01356576 -0.0077313147 0.014395241 0.007905003 -0.003328517 0.013261639 0.007939596 0.015076492 0.0044256262 0.015418027 0.0018703192 0.014264349 0.005604636
970059357852352512 0.010257509 -0.0056427047 0.010613918 0.011318084 -0.003333535 -0.002905555 0.005643353 -0.010994419 0.0152117945 -0.015281849 -0.010155454 0.004349664 0.01004998 -0.008386511 0.0043007694 0.014252048 -0.010649096 -0.009531114 -0.0077963173 -0.005744394 0.0028901808 0.015129112 0.010059025 0.00062045455 0.0038605742 0.013188265 0.0142640285 0.008794926 0.009291034 -0.011907324 -0.0059807375 -0.008875519 0.009659022 -0.0035257041 -0.013717867 0.01190488 0.013124503 -0.005187869 0.01424478 -0.0011536889 -0.0056664385 -0.0006010793 0.00030378997 -0.0054764003 0.00439569 0.008952662 0.010732826 -0.013911668 -0.0034261383 -0.00856531 0.011751719 0.010158911 -0.0068136305 0.0036356747 -0.0093025975 0.00036952272 0.014783997 -0.004077878 -0.008105811 -0.011558142 -0.0045499094 -0.0013504922 0.0055122823 0.0152217
969829481346080769 -0.0052957423 0.0029715113 0.015126575 0.0023931041 0.0015413985 0.015316203 0.014524154 0.012043852 -0.00964145 0.015599977 0.009139042 0.014176041 -0.003117498 0.005234275 0.010677431 -0.006083995 0.010379452 0.004004471 0.014552701 -0.0047434457 -0.0048583895 0.009711545 -0.014184758 -0.011334363 -0.0101562925 -0.0011704303 -0.003692221 0.010649249 0.014432173 -0.0014215 0.0022075363 0.0031568073 -0.0031559356 -0.012553658 0.0116266385 -0.006715473 0.00715081 0.014202662 0.004755035 0.0049043596 0.0063466057 -0.0042206533 0.0059762 0.00052753463 0.008791737 0.00858964 0.002857998 0.008983448 -0.014012624 0.010248996 0.014415611 -0.0065736696 0.0025117956 -0.00817794 0.0016534664 0.0043283887 0.012751151 0.0008500181 0.0039954036 0.002027709 0.01312894 -0.008918285 -0.00978411 -0.0056679994
969808107680366592 -0.0035946108 0.007876661 -0.012688059 -0.0044273995 -0.012808479 0.008046422 -0.0040125996 -0.014167357 0.006362077 0.014089566 -0.004746344 -0.009122718 0.0047185756 -0.00068101287 -0.015592869 0.013152663 -0.0114670135 -0.0077037625 -0.0041516908 -0.008519243 0.002682045 0.01517627 0.0071441755 0.012638442 -0.0007350929 0.001007691 -0.0041693 -0.013718065 0.0053614117 0.0032708943 -0.014721647 -0.0077631846 -0.01520953 -0.008937176 0.006350845 0.013504468 0.006424453 0.0037319735 0.012726214 -0.0017487668 -0.002183929 -0.013666913 -0.00019655004 -0.004011832 0.0006032437 0.01137447 -0.011002284 -0.0061663687 -0.0104134455 -0.0055376813 -0.0051809885 0.0033392496 0.005200263 -0.007745605 -0.007103581 0.0017792098 0.008521065 0.0083963275 -0.0046383403 -0.006666448 -0.008776013 -0.00085153803 0.0030412078 0.0023833513
969895672525635584 0.011488326 -0.0042708963 -0.000103008 -0.008636929 -0.0018282272 -0.012049943 -0.0014989525 0.0020463653 -0.013429288 0.013669662 -0.014387291 -0.015038557 -0.013299413 0.011426982 0.008539949 0.014452282 0.0040159 0.0013227016 -0.0039678775 0.014621355 0.0043086074 0.006399449 -0.0018483363 0.0014132857 0.010350481 -0.0011351593 0.005221106 -0.0010500327 0.008200619 0.005687397 0.004035201 -0.0082967095 -0.007356409 0.006731283 -0.009229954 -0.00028157234 -0.0009898692 0.005458191 -0.013191041 0.013776928 -0.0022636652 -0.008329574 0.0063351057 -0.0030242056 -0.0121335685 -0.0070262477 -0.00060582533 -0.013978865 0.00089150295 0.0038153008 -0.0050394908 0.0040162504 0.0038762465 0.015606586 0.002235163 0.0031570904 0.0043430626 -0.0032466762 -0.013591588 0.012536209 -0.0030854642 -0.01514424 -0.0102375075 -0.0061654076
970053594874462208 0.006178666 0.007872783 0.009509392 -0.010578532 0.0010763071 -0.0043363795 -0.008139372 0.010908239 0.006174948 -0.004853919 -0.012932669 -0.008032478 -0.0010148995 0.01220588 0.009444039 -0.0132057145 -0.014943026 0.011146616 -0.003636822 -0.005769234 0.008984111 -0.00913173 0.0079593025 -0.00037879124 -0.010742445 -0.00051818416 0.009935923 0.014521778 0.003470175 0.007890768 -0.0077726953 -0.0012461767 -0.0083088055 0.0018577538 -0.0028018989 -0.005675994 -0.010959968 0.015085049 0.0046497285 -0.0035644136 -0.0065376423 0.012052793 -0.010127898 0.004877411 0.0012302436 0.0130045 0.010681525 -0.004544761 0.0039610937 -0.0026032403 -0.014772911 -0.004083533 0.0020820685 0.010220088 0.015600942 0.0141600855 -0.012524001 0.010142788 -0.008929279 -0.0015180856 0.00075440854 0.010284271 0.006984599 0.007193323
970082829173313536 0.014817379 0.0005979128 -0.00943549 -0.009890784 0.010049671 -0.008191533 -0.004452832 0.0063676313 -0.0035784952 -0.009414397 -0.0036307126 0.001885809 0.003411498 0.009505894 -0.008146878 0.0048093125 0.011313554 0.0034298636 0.008433577 -0.007570833 0.009613454 -0.011877004 0.0054576024 -0.014565319 -0.004069235 -0.014176875 -0.0024816692 -0.008382425 -0.006162375 0.0018025823 0.0043755434 -0.0023849942 -0.012766432 -0.009246912 0.0012801476 -0.0061660297 -0.014735077 -0.0012108982 0.01036448 0.009341944 -0.0154957175 0.004872784 -0.009355158 -0.014346704 0.00026595592 -0.00057753175 -0.010893751 -0.00981259 -0.0037907586 0.011088524 -0.011790436 0.012028255 -0.0007428825 0.0017082691 0.014816657 0.00738775 -0.005582448 0.005836904 0.0054988824 0.009901088 0.00010834262 -0.0069120117 0.0020597987 -0.008459743
969857358150230016 0.002205871 0.0076971576 0.00805445 0.014346309 -0.011738539 -0.008443195 0.010108393 0.0021179356 -0.0103309415 0.0013818592 0.004182875 -0.0039513074 -0.0077502504 0.007819928 0.015034094 -0.0115073025 -0.00018019229 -0.004006967 -0.009945534 -0.002154149 -0.008204352 0.014156241 -0.009048078 0.0057594925 -0.00037107244 0.0065924637 0.0033033527 0.01561847 0.0009835623 -0.008538168 -0.0018432699 0.003235206 -0.0052704215 -0.012260575 -0.008748848 -0.010546982 0.009927072 0.006128993 0.012836773 0.010186981 -0.009574752 0.004243672 0.013237696 0.0024932139 0.004794106 0.009082209 -0.0138115175 0.014257416 0.01065544 0.013297565 -0.012853537 0.00964928 0.010357924 -0.0021213181 -0.009834167 0.008322936 -0.010718092 -0.0083177425 0.0054870136 0.012626518 0.013582334 -0.0068833046 -0.014357455 0.015012022
969806592571928576 0.009828605 -0.0061974004 -0.013218328 -0.007372398 -0.00618317 -0.0051147677 0.0012798309 -0.00046431646 -0.004863091 -0.009368733 0.014719561 -0.007383652 -0.011347029 0.012007389 0.003933899 0.013478741 -0.006976746 -0.010769382 0.00153891 -0.0018327758 -0.014682915 -0.0025048032 0.004766561 0.010259032 0.010695688 0.005012933 -0.006942615 -0.0028737 -0.006156653 0.00902174 -0.009935483 0.0032859668 -0.002101928 -0.009082466 -0.011322208 0.009144627 -0.013059694 -0.0010738298 0.0044178516 0.012092203 -0.011402983 0.005163394 0.015325777 -0.010901686 -0.005523216 0.0080211125 0.008184977 0.002537679 0.012454897 0.0012993552 0.002923932 -0.0025082044 -0.012759808 0.0050903186 0.0030724443 -0.013647195 -0.0010547005 0.000119797885 -9.313226e-06 0.013609584 -0.003919948 -0.009222902 0.011692714 -0.011343334
969838108521807873 -0.014009561 -0.0027962402 -0.013074122 0.00060969964 0.0030402094 -0.00385857 -0.010075018 -0.00050184503 -0.0017164126 0.0054583773 0.012698457 0.009149328 0.013189044 -0.014012769 0.014753886 -0.0036964938 0.013589144 0.0037259646 0.005601939 -0.014971387 -0.014822584 0.014037374 -0.0045262016 0.004400652 0.010030378 -0.0004686378 0.0151904635 -0.0016151816 -0.015113868 -0.011023201 -0.0016299337 -0.013554532 0.011596013 0.0056552067 -0.013667103 0.013249565 0.013952561 0.009136513 0.010796644 -0.014954552 0.00076948106 -0.014407236 -0.0057281516 0.0003955774 -0.00043813512 0.0022895038 0.0051211603 0.003323324 0.008312259 0.011750773 -0.0091963895 0.012433305 0.009361729 0.01529045 0.007224776 -0.00519887 -0.005853761 -0.0009830073 -0.0025862493 0.015425913 0.0017550066 0.006261334 0.0053414926 -0.013830163
969801454520123392 0.010500964 0.012798484 -0.002602879 0.0036460198 -0.010123774 -0.009571493 0.01283757 -0.0047584698 0.010531299 0.0024268515 -0.003096193 0.0047739483 -0.0062828995 -0.0027897358 0.0021573901 0.0076362193 -0.0021956638 0.0010258257 -0.012394454 0.014836181 -0.013691485 0.011046749 0.006101776 -0.010934483 -0.008273717 -0.0124035105 -0.008016061 0.011047799 0.015063465 0.003366582 0.0010006316 0.014881983 -0.0077711977 -0.0020051636 0.0051259957 -0.010021929 -0.015158735 -0.014469117 0.014094837 0.008393269 -0.007481605 -0.013015065 0.002021797 0.004496973 -0.0019457564 0.0019857362 -0.0067520365 0.0074865073 0.002304975 0.013871599 -0.015588302 -0.008233704 -0.014223192 -0.00054362416 -0.012277041 0.0078613125 -0.009995088 -0.009301309 0.007923298 -0.012749638 0.0022737533 -0.011311784 0.015410032 0.0134902485
969898778873352192 0.0027639866 0.009044535 0.007181585 -0.009362161 0.015245229 -0.015128449 0.012576964 0.0043068416 -0.004773628 -0.0055654123 0.014174927 -0.008501422 0.0127919875 -0.009388886 0.013111524 -0.0008679591 0.012410309 -0.004929643 0.009342521 0.013756789 0.003974747 0.0020589828 0.007873736 0.012503941 0.01338752 0.013269957 0.011019573 0.012504138 0.013437092 -5.170703e-05 -0.0015683323 0.002602797 5.1148236e-06 0.0010705888 -0.013438966 -0.014991768 -0.0036166832 0.013950311 -0.005699355 -0.010903429 0.007624034 0.0016704947 0.0028922185 0.0057077445 0.0055010505 0.008947063 0.001928594 0.0013194717 0.014133204 0.0043472126 -0.0073482133 0.010222167 0.008145798 0.0044852607 -0.0049028657 0.0052138045 0.009944215 0.011064123 0.0014705695 -0.013330888 0.0004027523 0.0005787797 0.0061609074 -0.014795251
969830857790824449 0.015168548 -0.010894183 0.00900225 -0.014734175 0.015075825 0.0114450455 0.001971338 -0.005320683 -0.0007041581 0.0006603487 -0.010014385 0.00897681 0.0037053153 0.005903024 -0.011335965 0.013322327 0.0007941462 -0.00031863526 -0.014174387 0.00632618 0.010567866 0.011492331 -0.0100273825 -0.012275096 -0.008630805 -0.00094202906 -0.013028096 -0.012875181 -0.0029962026 0.0017801337 -0.01485398 -0.0058327094 0.0010074675 0.010640569 0.0027109236 -0.0009880997 -0.011689682 -0.010534525 -0.0010850467 0.011668097 0.008504484 -0.0023167059 0.0018317327 -0.015009027 -0.002163276 -0.007228475 0.009077046 -0.0036531463 -0.0074438527 -0.014804866 -0.0018754937 -0.011246517 -0.0026331544 -0.0063591003 -0.0037095882 -0.0050755255 -0.01274449 -0.001950644 0.0026420988 -0.006324444 -0.0119397715 -0.005604118 -0.014136147 -0.0011850409
969817583196160002 0.009192195 -0.004627105 0.0049402453 0.0078058094 0.013231918 0.00878346 0.014857102 -0.015072942 -0.01244168 -0.0105596185 -0.011668295 -0.012443155 -0.012169015 -0.004597854 0.0021815002 -0.004491858 -0.013775393 0.007790409 0.0014076419 0.0071725026 0.011242714 0.011950459 -0.0012572631 0.0057186857 -0.008005589 0.0029854402 0.0070910454 0.015447911 -0.0049804524 0.0044364594 -0.008963048 -0.003454011 0.0126954615 -0.006101027 -0.0018571578 -0.014507774 -0.014807463 0.0138793215 -0.008910816 0.007894985 -0.010880638 -0.0038414262 -0.01253584 0.011719573 0.0095740855 0.008216359 0.013090402 -0.0010883324 -0.01455114 0.0142432265 -0.007700838 0.012262482 0.008646656 -0.0016860589 -0.011975337 -0.002280943 0.00977115 -0.010884505 0.0022532754 -0.012424778 0.013627104 -0.0044621713 0.014745783 -0.0089188665
969821294819553285 -0.015183944 -0.013481099 -0.006366931 0.007358741 -0.00037803128 0.014411736 0.0048581474 0.0058558844 0.004681796 0.012732264 -0.0037448667 0.011573967 -0.0149011165 0.004564196 -0.0010651089 0.0007066503 0.010692202 -0.0044405833 -0.003682468 -0.00015699491 -0.0007776432 -0.005585879 0.009757005 -0.01024792 0.012331247 -0.00014603138 0.004076313 0.0050361715 -0.00044008344 0.0026660971 -0.0049072728 0.0074319616 0.00037970394 -0.0051259324 -0.013616525 -0.015622001 0.0004887134 -0.008979391 -0.0017338432 -0.006572023 -0.013498165 0.0016595237 0.009236079 -0.0034546405 -0.011204403 0.004927244 -0.00060107186 -0.008626785 -0.0017275475 -0.0009994619 -0.004973579 -0.015554808 0.011935301 0.0058218874 -0.003951896 0.01141746 0.0007102974 0.01120805 -0.0024180673 0.011708856 -6.6611916e-05 -0.009495877 -0.007368516 0.0150444135
969756327919538177 0.0009079091 0.0016053133 0.0132035725 -0.009825632 -0.0027560294 -0.012779564 -0.010429304 -0.013407011 0.006141577 0.004280228 0.008774083 0.00401837 0.0033023655 0.008961178 -0.003306888 0.004956715 0.013193376 0.0006063618 0.009835284 -0.010536827 0.010274719 0.007327307 0.007938042 -0.015498102 -0.00067100674 0.0050095506 -0.009103108 -0.010459043 0.009943601 -0.010662112 -0.008097656 0.012690373 -0.010969214 0.013352148 0.0010228455 0.0068839155 -0.004706938 -0.008480836 -0.013980523 -0.0009569898 -0.007972248 -0.004806306 0.012674145 -0.01194986 -0.009858251 -0.0082244985 -0.010318346 -0.013813473 -0.0017344393 0.014759339 0.012557089 -0.008240778 -0.012714855 -0.0035271794 -0.014479347 -0.007918343 -0.009293448 0.0047267526 -0.011826631 0.0019540377 0.0035732836 0.008302055 -0.0031568706 -0.0152682215
969849840380256256 0.008158855 -0.009228896 0.0076339915 0.0030855536 0.013777219 0.002392713 -0.0028554127 0.010138702 -0.011046752 -0.013107911 0.005920578 -0.0040264875 -0.006537251 -0.0030076243 -0.015429832 0.00040708855 -0.0016510226 -0.0046428405 0.003907256 0.0073334277 0.009910323 -0.012365229 -0.007795304 -0.013730422 -0.01398287 -0.0058282204 -0.0019901656 -0.012832239 -0.0084005 -0.003362149 0.009910449 0.0024509504 0.0129917 -0.012994077 -0.0071498044 -0.0012563802 0.013750277 0.0017286725 0.0024062134 0.0020168498 0.004566595 -0.014681168 0.0050850026 0.00853857 0.008259885 0.006937325 -0.012634952 -0.006343402 0.013045173 -0.0008954555 -0.014744967 0.0074744336 -0.009445529 0.010439832 0.008396529 -0.007883865 0.0040147305 0.008463502 -0.0056020394 -0.002368804 0.014327455 0.014161263 -0.014676508 0.011823919
969804964032757760 0.015450075 -0.004437767 0.0038427263 -0.0043802373 0.013508506 -0.00044263154 0.008806732 0.014395148 0.006422259 -0.011125609 -0.0030091107 0.0015281625 0.0031782426 0.004615959 0.014764622 0.0068767183 0.015490469 -0.013527662 -0.008991275 0.0031036027 0.00571277 -0.0015487187 -0.010799453 -0.005018223 -0.0133243315 0.014704239 0.0058194287 -0.012311593 0.0049796365 0.006521616 -0.008810915 -0.009238739 0.0016224459 0.014003195 -0.015072316 9.827316e-06 -0.010726478 -0.0014566407 0.004751563 -0.007859323 -0.004337508 0.0010556057 -0.009940971 0.011385277 0.0068412833 -0.013372712 -0.003357768 0.004944578 -0.013011865 -0.011045177 -0.01320897 -0.008591551 0.01383765 0.011057887 0.0045089275 -0.013366517 0.0089738 0.0072397143 0.00018589944 -0.013817091 -0.0029433295 0.0002982244 -0.012121785 0.0038596243
969786586970783747 0.00075588375 -0.011031296 -0.012920953 0.009440921 -0.013047643 -0.008718416 0.008718945 -0.0007599257 -0.004772447 -0.0081162155 -0.0018717945 0.008237056 -0.009291314 -0.007776834 -0.0077322237 -0.007431794 -0.012468897 -0.0152444765 0.011847135 0.012494922 -0.006694246 -0.014575098 -0.0029258057 -0.005794175 0.014216576 0.004593972 -0.0093408525 -0.005247321 -0.015472632 0.0030376874 -0.006231826 -0.0042323507 0.008088265 0.0118734725 0.0068497285 -0.010656901 0.010466628 -0.015049677 -0.0109176375 -0.012509376 -0.0035358295 0.0007497482 -0.0058941916 0.0028833933 0.0143862255 0.01043446 -0.0016481653 0.014207747 0.002432648 -0.0030842386 -0.010304611 0.010115471 -0.014171254 -0.002963446 0.01201937 -0.00404197 0.002509676 -0.011478305 0.0077782497 0.011520416 -0.014544595 -0.0051216483 0.012332402 0.0045840964
969815308914618368 2.2720546e-05 0.00053641945 -0.015414733 0.015526172 -0.0031270944 -0.007636439 0.004295688 0.0016093291 -0.009268109 0.009051006 -0.0039116666 -0.009653721 0.011305794 0.01009918 0.013781689 0.0018178038 0.00079687685 -0.012390032 0.00726388 0.014626771 -0.0010619387 -0.0027546398 -0.0059580766 -0.0007685572 -0.011902243 0.008889444 0.0023295097 0.014519915 -0.010038134 -0.007951923 -0.009741642 -0.011369832 0.004307136 0.0076478384 0.002096828 0.005532421 -0.01466918 -0.001671236 -0.01209826 0.004612714 -0.004197087 0.013879687 -0.0053661577 0.010684717 0.0064294823 0.0021318644 -6.32219e-05 0.012769584 0.003690213 0.012903482 0.0052115396 0.008473612 0.0079717375 -0.011919972 -0.009044688 0.0019284002 0.00030360743 0.003352087 0.0016650669 0.011854209 -0.0069088973 0.0005071834 0.010947712 0.0035184287
969847984631328768 0.0066292956 0.0067238696 -0.001977574 -0.013004024 0.004756648 -0.013864286 -0.0041575953 -0.01467507 -0.00072190166 -0.012286395 0.011584338 -0.0076411217 0.015497342 -0.014112916 -0.006737776 0.003013946 -0.004683487 0.0022590347 -0.005751319 -0.001397144 -0.008949012 -0.015345335 0.009904996 0.0005994588 0.010171119 -0.011675984 0.005724296 -0.01546545 0.011891767 0.009257104 -0.009558562 0.012832906 -0.008718826 -0.0133650005 0.0023441948 0.0049686916 -0.012650941 -0.013959788 0.01433019 0.0025683977 0.0013661347 0.003872238 -0.005479913 0.002710998 0.0030595027 0.015321877 -0.008762706 0.0035516024 0.009854909 -0.010433331 -0.013959046 0.013525341 0.010684453 -0.006280899 0.008972414 0.0012320615 -0.007829193 -0.0021089949 -0.0076536946 0.009585589 0.0030654147 -0.012999907 -0.00022853166 -0.004137095
969804823280287744 0.010322697 -0.0017901398 0.0119782835 0.0030441806 -0.005985189 0.01274712 0.0046086498 -0.0062031858 -0.008749753 -0.0048269816 -0.008022767 0.005375188 -0.014504116 -0.009095084 0.005220659 0.00030882657 0.009367347 -0.0056337193 -9.3355775e-06 0.0038671903 0.0085322745 0.0025177933 0.015337646 0.0058097057 -0.011222154 -0.0021969937 -0.013075203 -0.008323554 -0.0034303106 -0.015168205 0.01452389 0.0031749494 -0.0018143468 -0.008599542 -0.013296612 -0.015474182 0.013975602 -0.0039053522 0.007175587 -0.007058382 0.015559465 0.005710501 0.001602646 -0.006318912 0.0018915944 -0.004135631 0.011485528 0.0069972686 0.001541689 0.005442325 0.0058036707 -0.01060215 0.013954315 0.0027128607 -0.009042915 0.013526067 -0.0020179339 0.012792245 -0.0023544878 0.010918204 0.0042599924 -0.006812077 -0.0058561377 0.01436216
970063757161345024 0.0024872907 -0.009385955 0.000546284 -0.0030662492 0.0024758205 -0.01205831 0.011537634 0.0020503514 0.012304995 0.006957881 -0.006865427 0.005863562 -0.0009976327 -0.015400391 0.012878329 0.015077144 0.015083421 -0.0059371963 -0.013202537 0.007543288 -0.011961691 0.013331331 0.0043128915 0.0087552145 0.00955702 0.00072626024 -0.0032732747 0.0012080818 0.015368685 -0.011132088 -0.0024257116 -0.003685221 0.007603135 0.010078184 -0.006456312 0.005661983 -0.0070017613 0.0051101036 0.012763239 0.005669698 -0.0071450174 -0.0047018193 0.012291256 0.015006345 0.009089209 -0.0051156804 -0.002852004 -0.009777177 -0.006711837 0.0052724406 -0.0101371035 -0.010337751 0.012674093 0.014852282 0.012719661 0.0023600534 -0.013743579 -0.011870574 0.0024563707 -0.014886923 -0.011578452 0.0031626932 -0.0045643263 -0.0143078305
970057619795689472 0.010024112 -0.013986159 -0.011477303 -0.0027361624 0.0026531368 -0.0016159713 -0.008131679 0.01028008 0.013723142 -0.011581402 0.015321195 0.011510387 -0.011657383 -0.0029686838 0.0066438094 0.011030633 -0.005724512 -0.010895442 0.007382553 -0.014122825 -0.009141099 -0.0020054393 0.008563932 -0.008885846 0.0074762255 -0.0006796047 0.0041675977 0.010006137 0.0022150464 0.012044646 -0.0005037524 -0.012912039 0.014341403 -0.007590942 0.0073779784 -0.006098099 -0.011452373 -0.010176014 0.007308334 -0.0010303631 0.0022816695 -0.013950437 -0.00804149 -0.009460036 0.013144981 -0.01358974 0.0078513175 -0.0013458617 0.0002958998 0.013749622 -0.005602248 -0.010839593 0.0011930913 0.012098178 0.014251348 -0.0057573617 0.0042700097 0.0077228285 -0.008268826 0.010707084 -0.010082766 0.0032825656 0.007167589 0.0068517365
970048231290781696 -0.007291071 0.004128784 0.011421818 0.013455763 -0.014863331 0.008710541 0.0077625997 -0.0024918094 0.014354505 -0.0065328293 -0.0027323812 -0.010723919 -0.0059010573 0.00037917867 -0.0051117726 -0.008464474 0.010263864 -0.008285712 -0.009877548 0.0119390115 0.015079975 0.006242059 4.1134655e-05 0.0012332685 -0.0015024282 0.010722894 -0.009770304 0.0007931404 0.0067064837 -0.0032990836 0.0013966896 0.0057970956 0.015171956 0.0033996254 0.014844004 -0.009109132 0.007501032 -0.0056693405 -0.0066637658 0.0019058697 -0.006448906 -0.00879246 0.004910957 0.01302759 -0.010227602 -0.014240537 -0.0052058883 0.011761304 -0.015139088 0.014997307 -0.0006535128 0.0036012568 -0.002890095 -0.0090032965 0.004844837 0.009679824 -0.011020165 -0.0018333085 0.0024365932 0.0066390187 0.011158358 -0.005541712 0.011367794 -0.008704644
969894904204685312 -0.0034294166 0.014194939 0.00840988 -0.013257902 -0.002586946 -0.013809722 -0.002565436 0.008836903 -0.011591092 0.008609481 0.009515718 -0.0058913752 -0.01508721 -0.0039356537 -0.0039891005 0.0058727115 0.0139385685 0.003118597 -0.0032992773 0.004639946 -0.0106308125 -0.002020862 -0.0023175552 0.0150076 -0.009077445 -0.01100038 0.0036892928 0.0041168258 -0.011165582 -0.009183992 -0.0018484741 -0.0051606633 -0.014024578 -0.006327376 -0.004633993 0.010160413 0.001521714 0.0024981424 0.0004349053 -0.005287718 0.004847452 0.0011119768 0.009348184 -0.0012112819 -0.01390823 0.0013793036 0.015505966 -0.008201834 -0.00815073 -0.0039355494 0.013411637 -0.0012994446 0.014716197 -0.013025172 0.014089126 -0.015176754 0.014374312 0.002926115 0.004156951 -0.009154066 0.0131862275 0.009443171 -0.008573655 -0.014841907
969725294553677826 0.010888126 -0.008649893 -0.014564566 0.0040583685 -0.0077781416 -0.011500079 0.0152039975 -0.0024778508 -0.0023609586 -0.006303914 -0.006873209 -0.007233415 -0.008743305 -0.00828407 -0.012534849 0.014873195 0.009998538 -0.005635459 0.003872566 -0.011941399 0.011754844 0.012976147 0.0012334846 -0.010676548 -0.00462145 0.0073968247 -0.0045927875 0.004963238 0.014701117 0.006801728 -0.0080398135 0.008542333 -0.004498739 -0.009990532 0.01094969 -0.014459271 -0.0017666519 -0.0021645948 -0.013149917 -0.0017224997 0.008745715 -0.008230709 -0.010978337 0.009687919 -0.005353812 -0.012218058 0.00045838952 -7.781759e-05 0.011782665 0.00088953227 0.012316342 -0.015332472 0.0063019805 0.0097157955 0.0016085058 -0.004431892 0.0016040839 -0.0013111271 -0.012669172 -0.010599177 0.0018752404 -0.0031529292 0.014920965 -0.0014834814
969766172370464768 0.009560462 0.0031970888 0.012655765 -0.014516439 0.003738638 -0.0022675917 0.0033671856 -0.00034343824 -0.010375988 0.014141336 -0.004442811 0.0029911138 -0.010065153 0.005803466 0.0156184435 -0.0018691495 0.010281589 -0.00019425154 0.012387782 0.0150795765 -0.0006113872 -0.002653662 -0.014877524 0.015429489 -0.0039577596 0.00342061 -0.0026545115 0.013011482 0.013037153 0.0024013817 0.004508853 0.010053225 0.0035120323 0.010069244 0.00022928044 -0.0035710484 0.008292582 -0.0053363666 -0.004086893 0.013737075 -0.0143042095 -0.0053338185 -0.0045689493 0.008857701 0.012411714 -0.010080636 0.009053953 -0.00034011528 -0.014112286 -0.0038166717 -0.0024755187 -0.0070012845 -0.0012402833 -0.008185055 0.009282179 0.01453653 -0.0024807267 0.0052761585 -0.0011687763 -0.0010931753 -0.010954004 0.0022764131 0.0060979575 0.0107969865
969769083703980032 0.0102169365 0.005525943 0.007283859 -0.011612672 -0.0021664053 -0.009035379 0.010626636 0.01222913 -0.0066781603 0.0018025897 0.007983442 0.0028273202 0.0012279935 -0.0105315 0.015363559 -0.011343285 -0.009427741 -0.008853253 -0.009918693 -0.0054547824 -0.014687963 0.0018408336 -0.005859744 -0.0039863884 0.00903897 0.005547628 0.002845183 -0.0021469556 0.015433557 0.0004477501 0.007836647 0.014121484 -0.015260279 -0.014305271 0.015504416 0.004276231 -0.0029462203 0.00738135 -0.00674282 -0.00999631 -0.0129022 0.011265811 -0.0038271435 -0.0117862 -0.00923498 0.009649254 -0.003874518 -0.009602796 -0.0025280975 -0.0023024268 -0.0050856955 -0.0032644346 0.006415207 0.0022603124 -0.005453661 0.0042068325 0.008170221 -0.014360644 -0.011809904 0.009838074 -0.013965789 0.00082534924 -0.014052842 0.013077855
969880764014673921 -0.006708652 -0.010344528 -0.0021621436 -0.0017401166 0.011770353 0.01423363 -0.00054808334 0.004208714 0.0074018687 0.00022305176 -0.009031255 -0.0009287819 0.0034108981 0.012971427 -0.0056130104 -0.0153836645 0.008410823 0.015329201 -0.011023086 -0.00091016665 -0.007913336 0.010054726 0.015089534 -0.0005204119 0.008031946 0.010216687 0.006889127 -0.012548804 0.0048478805 -0.00232248 -0.0033766888 0.008440755 -0.0020579062 0.015511669 -0.0009987168 0.00041192025 -0.0035838112 -0.013302337 -0.0153299235 0.007735569 -0.010345057 0.004633587 0.0043349713 -0.010948099 -0.004900027 -0.009074315 -0.013382118 5.9634447e-05 0.015292272 -0.010431066 -0.0068153962 0.0130161345 0.014528926 0.015336569 -0.015456747 0.007887427 -0.010378268 0.010749757 0.009595152 -0.005274389 0.010756463 -0.012291238 0.007108696 0.0071568303
969863576004341760 0.009255126 0.009186722 -0.004161481 0.0060868785 -0.009544574 -0.010092143 0.0042859614 -0.014790919 -0.00046733022 0.0017049015 0.012506969 -0.010939982 -0.0036296174 -0.0064158402 -0.008168656 -0.00073732436 0.0072050206 -0.00778424 -0.0025713407 0.01352559 -0.0020444319 -0.0055809617 0.011611931 0.0019050054 -0.0005319901 0.014780898 0.012696259 0.0053403974 0.0052472726 -0.0035698637 0.012647688 0.007907633 -0.008477725 -0.009576779 -0.00093648955 -0.012375712 0.0052604824 -0.014413156 -0.0024133883 0.0052440204 0.0047590993 0.004937127 -0.014161982 0.0053424723 0.008353651 0.0054186396 0.012176432 0.0025867932 0.009797215 0.013804864 -0.0014729016 -0.0012550652 0.003479708 -0.011771087 0.008794304 -0.007812683 -0.005111076 -0.0028634667 0.012837917 0.0035100095 -0.0014181994 -0.004445743 -0.003299918 -0.0020090677
969812716444516352 -0.007942062 -0.006450519 0.00029288232 0.007116668 0.0028064735 0.010785442 0.000999555 -0.0050380155 -0.011520803 0.009385947 0.010890521 -0.009466104 0.0073187314 0.014841471 -0.009969819 -0.004495226 -0.014203597 0.005043924 -0.0053754076 0.0031940788 0.014749188 -0.013057709 -0.01455164 0.0026823133 -0.012553774 -0.014167979 -0.0146175325 -0.00045062602 -0.001721412 0.0011621341 -0.0020934753 0.014124922 0.013730828 -0.009933323 0.013587259 -0.014106419 -0.002091296 0.003968492 -0.00017213821 -0.005938828 0.0007325448 0.0015711449 -0.014701519 -0.0076404437 -0.012048218 0.005948581 -0.0013826564 -0.011693101 0.008805711 0.0003714636 0.0042154454 0.00848569 -0.00660982 0.012257725 -0.012277663 -0.0053796284 -0.011510175 0.0015219152 -0.011547305 0.014160451 0.0086473 -0.011298578 0.009647537 0.010319192
969740723632226304 -0.011586383 0.0072731078 -0.012064841 0.014563546 0.0073287636 -0.00035789236 -0.013971496 -0.0013978519 -0.00042343885 0.0014167167 0.013534788 -0.0043377616 -0.013565652 -0.013802718 -0.0016524196 0.0021435395 0.00013630465 -0.00344209 0.013355572 0.00016630068 0.010029174 0.0062359795 -0.011254981 -0.0033181831 -0.012150608 -0.010558795 -0.004928086 0.010336246 -0.0013034791 0.013881493 -0.003580913 -0.008287992 0.0061176643 0.0034632385 -0.00043809786 -0.003832627 -0.009378962 0.0063088574 -0.011893079 -0.01391647 -0.014314886 0.013106357 0.0062509105 0.011081509 0.015453279 -0.011290371 0.0062945373 0.0044080243 0.009616848 -0.0052936785 0.014579084 -0.009061601 0.010987826 0.010858975 -0.0006124452 0.007906225 0.010382265 0.0024117865 0.011513315 0.0037635528 -0.0023762025 0.011553753 0.0073239803 -0.0049566254
969907497573040128 0.0025720522 -0.00021873042 0.0077550896 -0.008456927 -0.0065384544 -0.0014655516 0.0059716925 -0.010283679 0.012258798 -0.00482475 0.008968718 0.004475057 0.0106601305 -0.0069785416 -0.00500321 0.0047769397 -0.0043356493 0.009285193 -0.00930348 0.00404945 -0.0011293255 -0.0009597987 0.0039664246 -0.0034145303 -0.0066523775 -0.013363432 0.0038879365 0.008319855 -0.009167522 0.014232986 0.0063069277 -0.008086603 -0.0020519197 0.006134957 -0.010945953 0.0032114498 0.008604009 0.00977318 0.008479051 0.00571879 -0.004300136 -0.009497657 0.012749877 -0.011408821 -0.0025313646 -0.005099632 0.010138616 -0.009808492 0.00530548 0.003199257 -0.006373465 -0.012879204 -0.012558948 0.0054775774 -0.014939494 0.00891687 -0.0045506693 -0.014332909 -0.008025184 0.012100421 -0.002689708 0.010009587 -0.01449459 -0.014291458
970077002832084992 -0.008128405 0.0014878735 -0.011211898 -0.014759414 -0.013883859 -0.0007234588 0.011583611 -0.013091546 -0.008332845 0.0023710988 0.005186457 -0.013215885 0.012293376 -0.012838088 0.0074004717 0.014711421 0.008844022 0.009645097 0.012869734 0.005395174 -0.011163216 0.008979794 -0.01298897 -0.008943539 0.009227619 -0.012389693 -0.009172469 -0.0055599436 0.0053016543 0.008155774 0.0032113679 0.0079821125 -0.0041048042 0.0067999735 -0.01101312 -0.002594132 -0.012101252 0.00027156994 0.007340871 0.0075000487 -0.0072738603 0.0027351119 0.012205042 -0.008709092 -0.0059183687 -0.00093365833 -0.0073746257 0.013588842 0.011784576 0.014408458 0.014629509 -0.013204437 -0.00074959546 -0.011884972 -0.007515263 -0.013812043 0.005337145 0.00016632676 -0.010805752 0.012442317 0.0014890321 0.0004665181 -0.0055688545 -0.0052290745
969842169455394816 -0.00412881 0.011909649 0.0037415512 -0.008079581 0.007390529 0.0015476495 -0.004270546 0.012046013 -0.006167561 0.0116117485 -0.0065866187 -0.011494473 -0.007025834 -0.0060914047 -0.0011006296 -0.0028820485 0.007986277 0.008516513 -0.0027169324 0.005833894 -0.003169477 0.0011478215 -0.0021350607 -0.0038481653 -0.007370036 -0.006659042 0.00019847229 0.0025772639 -0.014763609 0.009494308 -0.0026259646 -0.0046474673 -0.007490743 -0.0067446083 -0.0075009353 -0.015318707 -0.0012147091 -0.012175605 -0.0075187907 -0.011523407 0.015524503 -0.0021185875 -0.012116004 0.008619826 -0.012603682 -0.0029879473 0.0042741634 -0.0110611655 -0.013646137 -0.010377459 0.011669286 0.01415265 0.0062367134 0.0037557557 0.0064653903 -0.0063600466 0.015246931 0.010764562 0.006427709 0.013982639 -0.013115257 0.0014595091 0.013894077 -0.0014673993
969765810997673984 -0.010527931 -0.0035449713 -0.004356902 -0.0039034784 -0.0028815381 0.011379167 -0.00046948344 0.006628651 -0.0058617666 0.012863085 -0.010159619 -0.014591061 -0.0064679496 -0.011509061 -0.0076197125 0.0007731207 0.0037263297 0.0027185418 0.007824343 -0.0021806955 0.0035659373 0.00054913014 0.01225844 0.012541857 -0.003083583 0.0019647367 -0.0094248615 -0.007435292 -0.010891914 -4.950911e-06 -0.0076792203 -0.006322339 0.0023510978 0.004078135 -0.014247205 0.0027303286 0.008015953 0.006500881 -0.0045421273 0.014813434 0.0147644915 -4.245341e-05 0.0013363995 -0.014450423 -0.0075076744 -0.00015859678 0.0063179545 0.0002475828 -0.013632245 0.009085733 -0.011586059 0.01336528 0.008619353 -0.010586634 0.004441384 0.012059815 -0.009545371 -0.010229554 0.014373492 0.0028199852 0.015172575 -0.015479121 -0.0023459531 0.010780983
969725494026358784 -0.0022862218 -0.0027446523 -0.011060961 -0.008852765 -0.010189235 0.013942603 -0.0024760664 -0.012942962 0.012524933 -0.0046263896 -0.00208126 -0.0010559484 0.004416898 -0.007369969 -0.000402838 -0.004446119 0.013712406 0.010748282 0.0017180368 -0.009478584 0.0048947036 0.0017757602 -0.009569343 -0.008988 -0.0048384108 0.0037289076 -0.012679715 -0.007799756 0.012653947 -0.005769234 0.012434259 0.0008371994 -0.008647457 -0.0077564046 -0.00033622235 0.00717606 -0.009505432 -0.008606564 -0.010642175 0.010541342 -0.0037558936 0.00627508 -0.0025412329 -0.011586677 -0.00198178 0.00062984973 0.005603738 -0.013556261 -0.010633379 -0.010245174 0.004675448 -0.0058471225 0.0015892759 0.0064953864 0.0070606694 0.0036962777 -0.004489187 0.0010010079 -0.008424487 -0.009926137 0.013618324 -0.0063291863 -0.0145593695 0.005830016
970020271808692224 0.013209637 -0.0002941899 0.003538657 -0.0055424944 -0.0065506324 -0.013468493 -0.01227032 -0.014186304 -0.009329066 0.013262335 0.014744781 -0.0026238002 2.3867935e-05 0.0122700855 0.0019727424 -0.008039489 0.0041063316 0.0028215386 -0.005822476 -0.007640861 0.015068315 0.011951152 -0.013390847 -0.008633025 0.0022209547 0.0014298372 -0.013048444 0.014575265 -0.008409061 0.007189546 0.014423609 0.0017035827 0.0065946616 -0.004242964 -0.015128668 0.0009372942 -0.0016935728 -0.015501108 0.0109462775 -0.011540607 0.008001335 -0.0069031566 -0.014361057 -0.0141613 0.009740155 -0.008180216 0.008207604 -0.0024657622 0.015157133 0.011192661 0.0154543035 0.01309504 -0.012289818 -0.014979787 -0.008704357 -0.0012531839 0.007825289 0.005734097 -0.003164418 0.007885721 -0.005311791 -0.010646533 0.007360205 -0.015398856
969740585576816640 0.0013904087 -0.007831849 0.011867009 -0.0058062486 0.004401535 -0.009776164 0.015023779 -0.00873499 0.00557727 0.0050625093 0.013955567 -0.008695975 -0.006833706 -0.009723537 0.009609122 -0.0071611293 0.007517565 -0.0013938174 0.011363637 -0.009431772 -0.00015341863 -0.00013693422 -0.01334789 0.013655279 -0.0032884218 0.010055069 0.00014292449 0.007855006 0.0034588203 0.013827838 -0.013015009 0.01317716 0.013514377 0.0016574338 0.0069113 0.005991429 0.0063371807 -0.004603792 0.004444625 0.001197692 0.0075411014 0.013145465 -0.012103304 0.00023812056 -0.013644092 -0.002460409 -0.014112905 0.004941944 -0.0024647452 -0.0010915957 0.010042321 -0.012653902 0.0017962083 -0.003783118 -0.0058289655 -0.011379596 -0.012461875 0.012956988 -0.011621635 0.007527571 -0.005916871 -0.001896549 0.00438945 -0.013413224
969821887546081280 -0.008836094 -0.012092877 -0.014703963 -0.0074245147 -0.004937973 0.0007589273 -0.0010897145 -0.012306996 -0.005917687 -0.004284892 -0.009976078 -0.009966034 -0.004074894 -0.012372829 -0.01290584 -0.011852641 0.0055532455 -0.011856962 -0.005798064 0.010357313 0.011561818 -0.009996757 0.010622345 -0.012142308 0.00020594895 0.01033837 -0.0044371374 0.014406592 -0.00050712004 0.007319618 0.010863125 -0.013344929 -0.009485047 -0.011399139 -0.001829613 -0.011077382 0.00017074496 -0.0125681795 0.00079759955 -0.0006079599 0.010112844 -0.013877571 -0.004958518 0.009216178 0.0144287385 -0.002789341 0.0012144484 -0.009522673 0.0012830012 -0.012717932 -0.011935331 0.0021608248 -0.00012725219 0.008690067 -0.015213497 0.002586171 0.0024610646 -0.008199368 0.000111136585 0.009465713 -0.010312304 0.000451833 0.0060861856 0.0026647747
969878515712577538 0.004469525 0.01274161 0.010453485 0.005478207 0.012462191 -0.011979405 0.0117709115 0.006077368 -0.009220488 -0.006550189 0.009990443 0.009062786 -0.015406877 0.0019499436 -0.00062594935 0.0012713857 0.011059128 -0.011207692 0.015064262 -0.014777437 0.00971812 0.014838021 -0.0059775338 -0.014676314 0.009662639 -0.014006034 -0.012961339 -0.0012962967 -0.0103819445 0.013668343 0.012268074 0.0012949929 0.012503177 0.015382342 0.008109063 0.006748151 0.008402601 0.010020912 0.007388491 0.009978421 -0.011640247 0.013843942 0.012941416 0.014653951 -0.014090344 -0.0053859577 -0.00053476915 0.0065108053 -0.012839023 0.00026264414 0.009414721 0.014961321 -0.004440751 0.0028530993 0.009881888 -0.0031240582 0.003057044 -0.014570139 0.0011100806 0.00715461 0.007028442 -0.015229154 -0.008045863 0.0046417937
969856045546848256 0.0024869516 -0.007344138 0.0090926215 0.005487133 -0.012226302 0.015369371 -0.012057494 -0.004734494 0.015223201 0.0017868541 -0.008664232 0.0017603487 -0.0063928664 -0.010535184 -0.012122355 0.0074346215 -0.014113866 0.0063458234 -0.008634165 0.008481067 -0.006821107 -0.008724559 0.009923808 -0.0135082975 0.0020827837 -0.0033210553 -0.010446787 -0.011961371 0.010557964 -0.0069761537 0.007165469 -0.015094701 0.002980154 -0.0030547231 -0.009215783 -0.0043538325 -0.013526648 -0.005430296 -0.0040282905 -0.0035762563 -0.00797911 -0.014367294 0.008349385 -0.002032008 0.009646229 0.0048035793 0.0133581795 -0.005493425 -0.013898179 0.0020831525 -0.014042921 0.009441834 0.013191521 0.000784453 0.012035143 0.013339434 0.0065636113 0.008460894 0.014263421 0.0017923936 -0.01289212 -0.01300906 -0.0027856044 -0.0009779371
969772046627385344 0.013783317 -0.014548089 -0.0040514134 0.014239255 -0.0022535026 -0.01418265 0.0031480566 -0.009123679 -0.00856638 -0.009909734 0.00019699335 0.01128922 0.006436426 0.012739725 0.013824627 0.007064063 -0.009454988 0.011044871 -0.014886443 -0.0074863695 0.012500551 0.012355607 -0.008471668 -0.012464333 0.012617778 -0.005956445 -0.006352175 0.0112256445 0.008474726 0.0059652217 -0.0019213222 0.013545323 0.013206493 0.010896534 0.014166247 -0.009028193 0.0015604608 -0.0025480539 0.00990615 0.015278436 0.008074265 0.0063433796 0.010206688 0.009184547 0.00015991554 -0.013036404 -0.0033910125 0.014179729 -0.007937435 0.0015764125 0.007616721 -0.010825016 0.012798239 0.0023022592 0.0037933588 0.012980856 0.0022759773 0.0013900809 -0.014725216 0.01541004 -0.015415702 0.013360366 0.007894758 -8.838251e-05
969827937502478336 -0.01230206 0.014596339 -0.0021531843 0.008354105 -0.0047340207 -0.0076638497 0.00025623664 -0.012547184 -0.010376859 -0.014773987 0.008359242 0.000670325 -0.0014309175 0.007967528 -0.0030786581 -0.011538692 0.004482001 -0.009315025 0.0007642135 0.014807053 -0.0014915615 0.009593904 0.0069736764 -0.0055229515 -0.00816619 0.013833318 0.0032887869 -0.0007068999 0.0013990588 -0.007689569 0.005526744 -0.004843492 0.00658419 -0.0071196593 -0.0012389421 0.006096974 -0.011170737 -0.0039418116 -0.013627835 0.0024316125 0.0031417161 0.0037614368 0.0016885772 0.00014094636 0.0034577325 -0.0014784448 0.009252515 -0.004616361 -0.007945135 -0.0083245 -0.015107639 -0.01267644 0.003309343 0.006225776 -0.009024616 -0.0151277 -0.0096178055 0.0072943605 -0.014173321 0.00793843 0.00992474 0.009563886 -0.011923004 0.004426345
969801058686939138 -0.008520186 0.014136102 -0.0067385808 -0.0036737025 0.008158099 -0.0012865514 0.007957436 -0.006593734 0.0077829733 -0.015304714 0.009492088 -0.001942791 -0.008761 -3.158301e-05 -0.0019118711 -0.0011281334 -0.0027527474 -0.014489371 -0.012192495 -0.010625217 -0.013481524 -0.0070890337 0.014356397 -0.0028314516 -0.011870049 -0.009209178 0.005633194 -0.004244931 -0.0024355724 -0.006646674 0.009315472 -0.012237664 -0.011715304 0.01175905 -0.010875866 0.0033699311 0.000578057 0.015105743 0.006626047 0.0032298528 0.004305508 0.0035992004 0.0034372695 -0.00425335 0.006392479 0.009531584 0.01396485 -0.0011694357 -0.0019097216 0.010104552 -0.013226435 -0.0010253824 -0.010426946 0.007473916 -0.013980065 0.0050778165 0.014069904 -0.00323046 -0.013796866 -0.012779117 0.005071979 -0.008353412 0.010074463 -0.0018576123
969853477143719936 0.012271363 -0.0007860474 -0.0097134225 -0.008908551 0.001201503 -0.007465031 0.010252252 -0.0054979175 -0.008791864 0.0014897138 -0.007608667 -0.012830906 -0.008199785 -0.0029089302 0.000681106 0.0056850687 0.010732643 0.010512445 0.009158373 0.0005004518 -0.009096086 0.014061853 -0.0010199882 0.00735943 -0.002225656 0.009059638 0.008285988 -0.011401989 -0.004285358 0.00017020479 0.003178995 -0.014515132 0.0075611696 0.005268935 -0.00027176738 -0.0054645836 -0.0118822865 0.0118688345 -0.013442479 -0.011537805 0.006955713 -0.013299111 -0.0051314794 -0.0032664947 -0.0029730946 -0.010680143 0.0067133196 0.0015607215 0.005713422 -0.002075512 0.010835972 -0.014896229 0.009134714 -0.008017879 0.0026613772 -0.010845408 -0.0038769133 -0.010045074 -0.0052359253 0.015202388 0.0042026825 0.0025083423 -0.009505987 0.008707769
969796455828541440 -0.012700964 -0.0035835542 -0.010106891 -0.009972278 0.0035891011 -0.0051354878 0.0037969984 0.006119434 -0.009796899 -0.0027264133 -0.004316397 -0.015306737 -0.015372805 0.0017343871 0.006845113 0.00036326423 -0.007612493 0.005668413 0.0026384778 -0.014752515 0.0112319365 0.012145549 -0.012080565 -0.0011945106 0.009423923 -0.0043444745 -0.0005267523 -0.0065934993 0.009554107 0.010930557 0.0032597594 -0.0073430575 -0.0028595515 -0.0062481053 -0.015260842 0.012204673 -0.0009565875 -0.000943847 0.011069704 -0.0141191 0.009884957 -0.011821002 -0.008372199 0.007930614 -0.0054603443 -0.0054484233 -0.009856392 -0.0061092116 -0.004157167 -0.006398406 0.01477186 0.014772527 -0.0005962141 -0.00044436008 -0.008815344 0.012371227 -0.0077258497 0.009203795 0.014238991 0.00899167 -0.0014814846 0.00865759 0.010851573 -0.0060637295
969785114166149121 0.0010448396 0.010138724 0.0091718845 -0.00027715042 0.0037189052 -0.010177925 -0.014625557 -0.0077306516 -0.008418579 0.0009172261 -0.0062003657 -0.0005774833 0.011928987 0.015212011 0.012306064 0.0037331507 -0.0042395815 0.0037995614 -0.0042029954 -0.013984602 0.010770377 -0.013513345 0.0059182495 -0.0061816163 -0.008661028 -0.0016305968 -0.010254659 0.013412669 -0.010746773 -0.014000855 0.0090097785 0.00697501 0.007392898 0.003792096 -0.005821105 -0.007995784 0.0027689897 0.013041507 -0.008831684 -0.003722567 0.002888061 0.010503426 -0.009995934 -0.007074617 -0.0041227676 0.0020856708 0.008392621 0.008670893 -0.013608601 0.01136345 -0.0039097257 -0.0044416264 -0.013841495 -0.009023566 0.014763448 0.004824266 -0.0125668235 0.004386563 -0.011051185 -0.014152948 0.0060402863 0.0031827614 0.0019603893 0.013822384
969835199239344128 0.009782344 -0.007922862 0.0042622313 0.0039767213 0.0037466027 0.0130204 -0.010802213 -0.0035928637 0.0015764832 0.009965245 -0.0010136478 0.0123876855 -0.007268619 -0.014111564 -0.011022031 -0.006465148 0.014973905 -0.008011352 -0.007575564 0.012771066 -0.01165029 0.0031402484 0.008931316 -0.011766151 -0.00041090325 -0.0037002973 0.008696284 -0.007125709 -0.010319982 0.015455842 -0.0072236694 0.011881661 -0.013210569 0.0109645985 -0.0052965134 -0.012210719 -0.0018296652 -0.0037037544 -0.002841495 -0.0018396191 -0.010182988 -0.0055388846 -0.0049958415 0.012066085 0.009167049 -0.0013972707 -0.00752588 0.008269224 -0.0138088055 0.0025773272 0.00626719 -0.0030432753 -0.00706926 -0.012855772 -0.012949087 0.011136532 0.0056829713 -0.00060378015 0.015173037 -0.013350215 0.000920739 -0.0006942153 -0.012610104 -0.014218498
969725427110432768 0.011232439 -0.005676396 -0.012345385 0.01242606 -0.009772308 -0.0048779026 0.0027744062 -0.0052365847 -0.012444872 -0.006126981 -0.014084566 0.0021839961 -0.0072323456 -3.1381845e-05 0.004256483 -0.003707923 0.013778385 0.011003975 -0.0008607656 -0.000992205 0.0013286658 0.010547388 0.013981853 -0.003012497 -0.0024883673 -0.0046436973 0.00078600645 -0.010117151 -0.0029179305 -0.013512652 0.0010281876 0.0022409447 0.0058247633 -0.004490562 0.009266514 -0.011059128 0.015338596 0.00083296746 0.003586743 0.0068066195 0.0006552525 0.0040557683 0.0025228858 -0.015026495 -0.0049178824 -0.004054025 -0.014473159 0.005367689 0.0074996836 -0.0032523721 0.011590034 -0.0018919036 -0.00043541566 0.009035055 -0.013239466 -0.010798212 0.011486266 -0.010284893 0.013231162 0.008359373 -0.012572367 0.013126731 0.009872243 -0.010491885
969738093120008192 -0.013223011 -0.013804153 0.0059862733 0.009901248 -0.003335502 0.0020958371 -0.01311503 -0.007999025 0.0073503703 -0.014162261 -0.014433138 0.0015751831 -0.013413891 -0.010840472 0.0074267015 0.012508679 -0.011498719 0.012665786 0.0146552585 0.0073623396 -0.006886352 0.015109763 -0.0120737925 -0.006079316 0.0030218586 -0.011924244 -0.015427694 0.0044751503 0.012782954 -0.007989682 -0.0067046843 0.0061083697 0.0010822192 -0.013335891 0.010240227 -0.0049244277 0.0055985376 0.0049260333 0.0138717145 0.013654098 0.011424124 -0.01294934 0.0018886887 -0.0015065111 0.0013705082 0.013942808 0.007452566 -0.013944443 0.015330967 -0.0013924912 0.0006226525 0.007744003 -0.0097108595 -0.0006325692 0.0021496303 0.011017583 0.006688975 -0.0030297674 -0.013230335 -0.006060876 0.013717275 -0.014829904 0.015385725 -0.0002402626
970048734338797569 -0.0017662644 0.015006617 0.014957178 0.012924049 0.014061075 -0.015600994 0.011726245 -0.014628775 -0.01205093 -0.013793942 0.0033712238 0.011222165 -0.0098516345 -0.0042411014 -0.0036837459 -0.0069965124 -0.0020500235 0.0075875074 0.005801022 -0.005062826 -0.005800862 -0.003656499 -0.005044535 0.006175842 0.015222505 0.012271967 -0.011811975 -0.010076124 -0.014268648 -0.009265788 0.0056801513 -0.009405099 0.0026489533 0.013885222 0.005212445 0.0018607564 0.013941843 0.01002083 -0.002249226 -0.00970488 -0.0016508438 0.011368431 0.011688329 -0.0063015446 0.0155321285 0.0037529394 0.008012656 -0.008857761 0.006842237 0.000401102 -0.014983635 0.007918764 -0.014077168 -0.0101083815 0.004354432 0.014504377 -0.0033123717 0.010904599 0.007918853 0.0063566156 -0.009677593 0.007929359 -0.012981076 -0.006745193
969859093467836416 0.008511633 -0.012729377 0.008952573 -0.005457118 4.163012e-05 -0.0114826225 -0.009754933 -0.005173415 0.013442457 0.008354276 -0.015152235 -0.010270469 0.0053588226 -0.013308052 0.010398012 0.009616718 -0.014537834 0.01351653 0.012252215 -0.0028017275 0.0027841255 -0.008899119 0.009715758 0.012034383 0.006322261 -0.013846103 0.0077275746 -0.004782174 -0.0034486242 0.009539623 0.0028832778 0.007229876 -0.009809472 0.008185171 -0.0055298693 -0.00059938803 0.009721603 0.006370306 0.01167471 -0.0061210208 0.0055440925 0.011420038 -0.005135048 0.008998029 -0.014707327 0.013816562 0.0058646277 0.008298647 0.007263139 0.0071358643 -0.00517061 -0.0097035915 -0.0035664588 0.002164621 -0.004596617 -0.013257071 -0.009826474 0.013033669 0.014596473 0.009313852 -0.006411407 0.0010855757 -0.013400324 0.010401599
969795947310989312 0.0007309653 0.011525918 -0.008395433 -0.0044487156 0.004467141 0.0054059513 -0.01022673 -0.011509784 0.0031747594 -0.014079094 0.009044588 0.00854598 -0.0059655383 -0.008814238 -0.013010316 -0.002963487 0.010904834 -0.0003273636 -0.012417205 0.013891555 -0.013361931 0.008687325 0.010106016 0.0015246533 -0.013582129 0.009648938 -0.0122623 -0.007840265 0.015038729 -0.012940846 -0.011919614 -0.007657122 0.0054112375 0.0029912814 -0.008685183 -0.0051193684 0.013411801 0.015261874 0.015491743 0.0016335845 0.006309375 0.0021341443 0.002613645 0.00755997 0.003443811 0.00046959892 -0.004920054 -0.010194909 0.012483582 -0.009331193 0.004348986 -0.001445964 -0.005701363 -0.0077209286 0.005031593 -0.009152532 -0.011710618 -0.0041314103 0.0073271543 0.0094439015 -0.0022760518 0.011404086 -0.011864487 -0.0073949583
970060693025128448 -0.012282617 -0.00944861 0.011407528 -0.014501102 -0.013518684 -0.015335217 0.014379393 -0.004164193 0.0015583523 -0.009574238 -0.003959816 0.000113382936 -0.00390663 -0.011518132 -0.009676471 0.0039612167 -0.014834903 0.0017910451 -0.0031068064 0.0129347965 -0.0006215684 0.009709168 -0.01107318 -0.011824548 0.008666031 0.0014683753 -0.007953633 -0.0041559227 0.013704926 -0.014339738 -0.0057445504 0.0015663765 -0.00033763424 0.014865022 -0.0030286498 -0.011086453 -0.011998031 -0.015469588 -0.012224451 -0.009426344 -0.009292185 -0.0021956004 -0.0008455813 -0.0073676445 0.0033451803 0.006040424 0.014109667 -0.007273052 0.0080133155 0.011334285 -0.0058701076 -0.011616692 -0.0052167214 -0.010768712 0.01014908 0.01466804 0.012926374 -0.013334643 0.00788714 0.007968742 0.008794941 -0.013007261 2.7373433e-05 -0.010664374
969842169086320641 -0.013931822 0.0038971677 0.01551595 0.010151137 -0.011042837 0.0036511198 -0.0060992762 0.0155097805 -0.013752647 0.015195783 -0.010183904 -0.010947421 0.0025414415 -0.0010511242 -0.013303313 -0.0009570159 -0.0005598739 -0.00979244 0.008979451 0.0049601234 0.013125677 0.01156009 -0.010377165 0.0074785836 0.008896444 0.009028498 0.008134555 -0.0074720234 0.006743774 0.0020592995 0.000109151006 -0.010087751 0.0023799762 0.0082263015 -0.014392301 0.013448615 0.0046762526 -6.22645e-05 -0.00525596 0.0005625412 0.009506669 0.0074573234 -0.009300139 0.01230263 -0.0009974577 -0.012748949 0.013857495 0.007923529 0.0056674257 0.012358643 -0.011762947 -0.0091107115 -0.0031338483 -0.006403677 -0.0025031418 -0.00091897696 -0.013101634 0.0029701479 0.003997769 -0.001314681 0.0076082125 0.0022892207 0.0093555 -0.0034941733
970084851440271360 0.013319321 -0.002445165 0.0048091 -0.0059171766 0.009577464 0.00480818 0.0008508861 0.013682492 -0.012246028 0.015179411 0.0012207888 -0.0036787726 -0.0064491816 -0.014225509 -0.0034698546 0.004201688 0.010278624 0.01417236 -0.013669688 0.014151383 -0.0138125345 0.005832456 0.012542978 -0.003919646 -0.012274258 -0.013024375 0.0018018782 -0.0011903755 -0.01486155 0.004844196 0.0035241581 0.006957013 0.006920282 0.005052626 -0.015338339 0.008959819 0.006660085 -0.012103833 -0.0033148117 0.0005534403 -0.0010021143 -0.0015105344 -0.008657947 3.580749e-05 0.0069070086 -0.0010637678 0.0012504719 0.0032712035 -0.006210521 -0.012293525 0.014325146 -0.015292268 -0.0038705766 -0.0019785836 -0.011985753 0.002767846 0.012411751 -0.0023693666 0.012664285 0.00046026707 -0.009019129 -0.0030972399 -0.0011342689 0.009773582
970054570264023040 0.011126172 0.009692509 -0.009365208 -0.010904364 0.00951957 0.0038685538 0.008347847 0.0007260181 0.012291454 -0.013874333 0.0154251605 -0.0128726885 -0.0026656464 0.009815607 -0.014423903 0.0067474246 -0.010901958 -0.010693125 0.0035997853 0.0027125329 -0.0043565705 0.012299553 -0.010964107 0.00072511286 0.013643235 0.0031641908 -0.010706916 0.005530674 -0.007859468 0.00092126057 0.00446786 0.011853304 0.011534531 -0.007646907 0.014875241 -0.008572686 0.01191603 -0.012472857 -0.012220718 -0.001737304 -0.012723327 -0.0054181702 -0.0008035861 -5.9194863e-06 -0.0155649185 -0.010167122 -0.0115900785 -0.00060579926 0.008107342 -0.000121798366 0.015562814 -0.006072946 0.012592424 0.009509612 0.012909386 0.00016634166 -0.0006717108 0.0029565208 -0.0155087635 0.014132518 -0.0037313402 0.011779837 0.0031902157 0.0045304075
969862839669178368 -0.0019418783 -0.015459266 0.002185952 0.0045091324 -0.015320644 -0.0060961545 -0.0036692396 -0.007905804 0.006186351 0.0032893345 0.006774973 -0.01012123 -0.009379495 0.0073731877 0.010592271 0.008635957 0.0074949674 -0.011317726 0.012754731 -0.010876052 -0.011981517 0.013290156 -0.00386085 -0.014670458 -0.0048185103 0.009316206 -0.0045208298 0.007716097 0.00015806407 0.006352745 0.0018514879 -0.014568679 -0.0057030767 0.013807137 0.002406519 -0.009204116 0.010959871 0.011650242 0.0113202855 2.3111701e-05 -0.014290839 -0.005448565 0.008024894 -0.010161433 0.015224483 -0.015266355 -0.012701411 -0.008303419 0.009403165 -0.011991881 0.01349603 -0.015416991 0.005459685 0.0051500425 8.50074e-05 0.014911555 0.007985286 0.00045047328 0.007528994 0.010013066 0.0046980493 0.014699612 -0.0020919219 -0.013101671
969779228408295425 -0.0069938153 -0.0023302548 -0.011356462 -0.0024441145 0.012397863 -0.0078509785 0.00796954 0.0067988858 -0.0010921173 0.0016797744 0.008945029 -0.010377362 0.006089002 0.013930708 -0.0054902956 -0.011897389 -0.014377657 -0.014072407 0.0060478896 0.007994823 0.010998782 -0.0022696964 0.0015132353 0.0047687143 -0.015434828 -0.0147085 0.0071711503 -0.01312444 -0.0049651153 -0.0067346357 0.009241402 -0.00538389 0.015597209 0.00086914 -0.008042935 -0.005683236 0.0019653626 -0.008388143 0.011553541 0.0140993185 0.0067073554 -0.011478197 -0.0092907995 7.8991055e-05 -0.0015916638 -0.008635379 0.012399681 0.009745583 -0.0065372363 0.003722418 0.008017611 0.00376549 0.013388801 -0.0020174794 -0.010198429 -0.0013034269 -0.01300424 0.015380785 -0.013463706 -0.0023491345 -0.004452605 0.0049208477 0.007766973 -0.012869645
970050201984450560 -0.006887883 0.00076822937 0.0062491037 0.007994421 -0.002163846 -0.00097345933 -0.012228034 0.0071036518 -0.011952251 0.0051331446 -0.005356163 -0.012190945 0.010755967 -0.0007146336 -0.014914483 -0.014649957 0.00092362985 -0.012783036 0.0058411323 0.0054133423 0.0052392147 -0.008754119 0.012474224 -0.014042504 0.011651378 -0.0009875111 -0.0023018718 0.006194137 -0.0038882978 -0.0068690516 -0.0037766509 -0.009668734 -0.0005500205 -0.008412577 0.0071942843 -0.014903471 -0.0067994297 -0.014320642 -0.015026767 -0.0011740066 -0.012630824 -0.008893814 0.0043373406 -0.0022506304 0.004851073 0.0129142925 -0.015047312 0.0095074475 -0.012415875 0.010210227 0.011669412 0.0134069845 -0.0124242045 0.005218029 -0.012253482 -0.0019467361 -0.008156668 -0.013333257 0.0077094696 0.006928321 -0.006340392 -0.012150656 0.005556926 -0.0061441697
969848400568086528 -0.013857804 -0.0068559833 -0.0033938028 0.013682924 -0.010088228 0.011456858 0.009567052 -0.0076689646 -0.0027482063 -0.0039139055 0.004879132 -0.00070786104 -0.0043181404 -0.014133818 0.010053799 -0.015024047 -0.013516322 0.0021593384 0.0046459883 7.4096024e-06 0.00057828054 0.004045736 0.002816517 0.011825487 -0.005384989 -0.011302173 -0.012319032 0.012374397 0.0030410513 -0.009074777 0.009986237 0.013208717 0.012416571 -0.010668721 -0.008033499 -0.0031411536 -0.010340113 0.0073887855 0.0088506825 -0.009368628 0.011248838 -0.011963367 0.009692036 -0.007227078 0.003064774 -0.0051114634 0.005296346 0.0120601095 -0.0021789111 -0.007789355 -0.013377581 0.005683519 0.0066109635 0.010464411 -0.0067027546 -0.015207797 0.010658618 -0.007069912 0.006905891 0.012585208 -0.0061606467 0.002553396 -0.0056080557 -0.010333981
969803232317882369 -0.008881781 -0.00021342188 -0.011739492 -0.003118448 -0.0038873702 0.010481935 0.0021308511 0.009144057 0.005967688 -0.005494442 -0.007955428 0.01509577 0.011047494 -0.014131613 0.008196536 0.012801614 0.0143629685 -0.012585405 -0.0031455867 0.0016960911 0.0045443363 -0.0025343113 -0.007351447 0.010106903 0.010832153 -0.00060918555 -0.009129908 -0.0068308786 -0.008045118 0.0066504665 0.0008027181 -0.003686972 -0.0141951665 -0.0023382157 0.010048978 0.009882808 0.0065992847 -0.0044935904 0.014143139 0.00093902275 0.0017730035 0.009648219 -0.010302331 0.010209683 0.015303619 0.0057386905 0.005363185 0.0065571032 -0.0030413754 -0.012650434 0.0023126453 0.0014134459 -0.010620777 0.0030615479 0.008506097 -0.011215489 0.003924966 0.01213558 -0.013470653 0.0054899454 -0.0133822 -0.012401652 0.011079725 -0.011820935
969754352213618689 -0.0021383576 -0.012388568 -0.012289677 -0.011099383 0.00063431263 0.0028045028 -0.012353938 -0.012576684 -0.004968956 -0.002850633 -0.009641349 -0.006604336 0.005636029 0.0047986954 0.010304179 0.0066354424 -0.001385387 0.0043237507 0.014140606 0.002981525 0.0028432012 0.0017562509 -0.014510777 0.008362379 0.007881168 3.989786e-05 0.014394134 -0.008934513 0.005076807 -0.012205917 -0.013969634 0.0031265058 0.0074139386 0.009531867 -0.013574351 0.0068016723 0.0037476644 0.00649368 -0.0010539405 0.008662045 0.011393182 -0.013104584 -0.0155191645 0.010960791 -0.0014874563 -0.014647827 -0.0063841976 0.001861319 0.013166584 -0.0026413426 -0.0015962981 -0.011507291 -0.011957206 0.0022851005 -0.0007397793 -0.012031615 0.0013748817 -0.014044493 -0.0038703643 0.006589476 0.0017453358 0.0122354515 0.010289647 -0.0018579289
969789900399587329 0.0077444613 0.009576939 0.013643395 0.014185194 0.0077002645 0.007205408 0.011226606 -0.0024474896 -0.008827653 0.013856355 0.0018914901 -0.00789801 -0.0013570152 -0.008170038 0.014245849 0.0053089447 0.006689839 0.010163635 0.012772143 -0.007470172 -0.009913318 -0.005822558 -0.0058010817 -0.014756709 -0.00095495954 -0.012660209 0.015266582 -0.005320955 -0.009868089 -0.0126638375 -0.00556561 -0.014928799 0.0012241974 0.008455321 -0.004492007 0.011979964 -0.0029288307 -0.0113583505 -0.004882198 -0.004907042 -0.011087522 -0.01512881 -0.006354317 -0.0024821162 0.007819008 -0.011892263 -0.0077723786 0.0021277033 -0.0026180148 0.0055432953 -0.0029288717 0.006754957 0.012487058 -0.012365416 0.0058850273 0.009349912 -0.0009013936 0.010572884 -0.008463133 -0.007150233 -0.012262251 0.014798358 -0.014698178 -0.00507766
970035159733972992 -0.0006776415 -0.0075764805 0.014800165 -0.0106772855 -0.012529675 0.014444899 -0.01296775 0.015140839 -0.0064025484 0.008855052 -0.0006468892 -0.006245028 -0.011726599 -0.0098025985 0.010693237 0.009877987 0.00025694072 0.009987082 0.0060234033 0.005990837 0.00418406 -0.015183482 0.014470134 -0.012819681 -0.00469774 0.0022282675 0.008199811 -0.014390774 0.0026461855 0.0099351555 -0.013683919 0.014930125 -0.008152794 0.0149243325 -0.010197774 0.010301441 0.014629051 -0.01441789 0.00045394897 -0.01207995 0.0127010085 0.014965609 -0.009456892 0.0013169907 -0.0035008974 -0.012119267 0.0012804754 -0.015475042 0.00408433 -0.012022909 0.008890573 0.011831168 -0.0039910674 -0.006270662 -0.015015032 0.0076852813 0.0045485906 0.013667695 0.0051567145 -0.004534386 0.0055594593 0.013479888 0.014426373 0.011944532
969762363111952386 -0.013365779 -0.011824448 0.0113454275 -0.011630256 0.0050793886 0.0125384 -0.0050109625 0.010561317 -0.012741726 0.010138202 0.008737352 0.005214229 -0.012695257 0.014313687 0.012856837 -0.0024441034 0.006417848 0.009960026 -0.002718322 0.008574221 -0.006303478 -0.0019922145 -0.0018871389 -0.006502509 -0.0011065863 -0.012034468 0.0056926794 0.014153127 0.0074714907 0.009974588 -0.0074000955 0.007596936 -0.0104418285 -0.0077663884 0.01542329 0.010003418 -0.00779381 -0.00949271 0.0112931095 0.004227888 0.010292545 -0.010558356 -0.0015174635 -0.0014779121 -0.00034333393 0.0034709051 -0.010548428 0.006848555 -0.0042914674 0.013044748 -0.0016118363 0.014307309 -0.0013114475 0.008142054 -0.011867117 -0.014219772 -0.00053490326 -0.003529705 0.015576407 0.007073641 -0.008700829 0.011507973 0.0009223819 -0.01492577
969837268880863233 0.008933108 -0.0031408519 -0.014718249 0.013602704 0.011325594 0.013363037 0.0005671494 0.012004532 0.008103482 -0.010839615 0.014508799 -0.0055619627 -0.015224069 0.013374038 -0.008293398 0.013120554 -0.012270872 0.014490645 -0.009242058 0.006248139 0.015287641 0.006565865 -0.0033235066 -0.0077425726 -0.015188586 0.0065723322 0.011618581 -0.007400349 0.009251509 0.010688517 -0.014088944 0.003278207 -0.010686841 -0.0067654476 0.0013388172 -0.010982763 -0.0064668097 -0.0117384605 -0.01098083 -0.010840844 0.015491139 0.013004553 -0.0002882108 -0.004101325 0.009763464 0.0020924844 -0.01405295 -0.01103067 0.0016062893 0.012397226 0.004997611 0.015375063 0.010237634 0.0004609041 0.013518706 0.01406214 0.012592424 0.014691051 -0.014660347 0.0054892227 -0.012207683 -0.011158362 -0.013166022 0.005003903
969858799841374208 -1.642853e-05 -0.009924073 0.008665215 0.012350343 0.0067144334 0.0122388005 -0.0066842884 -0.009982925 0.006217487 -0.0045711547 -0.011211257 0.005735159 -0.0051912963 -0.008122347 0.004107766 0.010709155 0.010002144 0.00023287162 0.013515715 0.004598696 0.010262802 -0.0014055781 0.0032953508 0.009630859 -0.01530258 0.009107377 0.0020109564 0.009507433 -0.0022587478 -0.0042135864 -0.008720625 -0.00444749 -0.0040171556 -0.008042313 0.0015166067 0.012485024 0.008028716 -0.01195325 -0.011592407 -0.0045211576 0.0061049424 -0.014559481 0.009565212 0.0048697665 -0.004408881 0.014365766 0.012595441 0.0011168234 0.0075440034 -0.014535736 -0.01373167 -0.00460393 0.01449424 0.0050536655 0.008769672 -0.010579143 0.006632272 0.0006160028 -0.0014198609 -0.005073257 0.0077577643 -0.014218867 0.007995691 0.008851245
970043142014513152 -0.0038006045 -0.006563276 -0.011550248 -0.009959575 -0.007979862 0.004919626 -0.0074935183 -0.0018729866 -0.013942383 -0.005484227 -0.0012234785 -0.012411851 0.0050802156 0.015240457 0.006859742 0.0029183477 -0.0076058395 -0.0017719753 0.0035062358 0.0027146451 0.013769783 -0.0014589131 0.0109283775 0.009039618 0.004751131 0.011441451 -0.0077249445 -0.006183587 0.010898922 0.013457134 0.004929453 -0.006399002 0.01193792 0.0042538904 -0.00035750866 0.013849091 0.0067290887 0.0061741285 -1.4316291e-05 -0.013944376 -0.0048750862 0.0038047135 -0.008762192 0.011127971 0.011634413 -0.013981827 -0.008409809 -0.009351179 -0.0010271333 -0.0028092675 -0.0031924956 -0.0034516342 0.005577583 0.015023056 -0.0071730055 -0.012942519 0.005846206 -0.010093953 0.010446712 0.004162807 -0.012285069 -0.012117967 -0.014452644 0.0036751255
970052951455686656 0.0042795055 0.004094042 0.00027224794 0.0016306005 0.0048015453 -0.0024395958 -0.012551434 -0.0009728968 0.0057915226 -0.004052967 -0.00333089 -0.003516093 0.011357602 -0.004750658 0.014755581 -0.0060650334 -0.015580952 -0.010235816 -0.006832529 0.0019449815 0.008005347 0.0033271015 0.014131088 0.0014073774 0.0088029355 0.0002516918 -0.0033079833 0.009715829 0.0031551681 0.012905773 -0.012964882 -0.013675187 -0.00084523857 -0.0029575452 -0.0036683455 -0.00093018264 -0.007922929 -0.012531579 0.012897536 -0.005220555 -0.0044426173 -0.0025706291 -0.0019230619 -0.014358062 -0.0028113537 -0.002106294 0.013512958 -0.012438193 -0.0074214116 -0.0029469617 0.0045085736 -0.009406377 -0.008667901 -0.012445543 0.008643873 -0.013620462 -0.005075291 0.0004591085 0.0022641383 -0.015533011 0.013531104 -0.0032115206 0.00055041537 -0.01373937
969834311624015872 -0.0127623975 0.0058915615 0.006269656 0.0046643354 0.009134021 -0.010828376 -0.0019464754 -0.004256889 -0.0021977462 0.0069960617 0.002143085 -0.011624005 0.005060196 0.009775721 -0.009535417 0.0050464123 -0.0067376643 0.013791811 0.006453447 0.0031827874 -0.0015928 -0.014231555 0.013522953 -0.0028398633 0.011523273 0.005894117 -0.012904312 -0.0009635724 0.004290197 -0.0040078573 0.015206847 -0.0077939853 -0.011194754 0.0059339963 -0.005577773 -0.010762874 0.0031795464 0.008235689 -0.008589983 -0.0068444572 -0.011213344 0.002420999 -0.007432021 0.013180479 0.0011284053 0.0029114 -0.0052145384 0.011529982 -0.0010318384 -0.012832012 -0.011472058 0.0003222525 0.012087911 0.0048236772 -0.008315988 -0.010551788 -0.015397631 0.006129667 -0.01487226 0.004975632 0.0025979392 -0.0012839809 -0.015551753 0.00919411
969787141394870272 -0.00013977662 -0.015525017 -0.011771187 0.013388764 0.0029540472 -0.012782227 -0.0012791194 0.008445594 -0.0145609975 -0.010742139 -0.0015995465 -0.01525674 0.0007504858 0.003040284 0.0133444965 0.0015374534 0.002035547 0.0076241717 -0.006705098 0.011298142 0.00025065988 -0.0010607727 -0.015152652 0.0007911846 0.010607973 0.0027515963 -0.012641616 -0.005201649 -0.009433903 0.009406332 -0.010105591 0.008213904 -0.0082152635 -0.010663297 -0.011852894 0.005955022 -0.013751209 -0.008922223 -0.0110324025 -0.006745372 -0.006304089 0.0023211539 0.010132935 -0.0018699989 -0.0085737035 0.0024342164 0.008806549 -0.008237556 -0.00834313 0.008077957 0.009790398 -0.012140814 0.012832485 -0.015383724 -0.011589326 -0.009187076 0.0028353892 8.7533146e-05 0.0054177158 0.0109590255 0.00748834 -0.005004924 -0.010053825 -0.012890782
969870076588441600 -0.0007517338 0.0152048655 -0.011991009 0.0057016537 0.00685174 -0.006778896 -0.010884035 -0.008505125 -0.007871736 -0.010936417 0.0092745535 -0.01213887 -0.004584521 0.006842844 0.0002810657 -0.012009125 -0.007324692 0.0056126416 0.00397221 -0.0030585006 -0.001130823 0.0039836913 0.00222411 -0.0041311122 0.008345816 -0.0119675845 0.009948432 -0.015613228 -0.0035217889 0.010441549 -0.00562983 0.010209959 0.008487776 -0.011557329 -0.0003793724 -0.0070237927 -0.012594938 -0.0013935007 0.009982869 0.01365092 -0.007878739 -0.0041530766 -0.009434029 0.0018153042 0.0041629225 -0.01537155 0.0037682578 -0.013771128 0.0006229356 0.0074375942 -0.008212633 0.00040299818 -0.0034100227 -0.013573851 -0.003765516 0.0069637634 -0.013399728 -0.00927699 -0.000853356 0.01255846 0.0021970905 0.015251271 -0.0119849965 0.014049839
969861371906048004 -0.0073888935 -0.00993064 -0.012244433 0.0028837398 -0.004305538 0.011800721 -0.0008033775 0.0039210506 0.009313114 -0.013512842 -0.0032166988 -0.0074707344 -0.013546471 0.005339533 0.0037715808 -0.0037534237 -0.0029916465 -0.010517139 -0.005094681 0.0020477884 0.012091164 0.0110423975 -0.005615238 0.005638037 -0.004030291 -0.0073748194 -0.005663909 -0.009604126 0.0054708757 -0.012171838 -0.011731513 -0.007036969 0.011559784 0.0028550774 0.008529633 0.012838017 -0.009741742 -0.007229168 0.012000576 0.007719625 0.007283982 0.014050715 0.013768811 -0.0041814446 0.0016240701 0.008565266 0.013893023 0.015386246 -0.0129141435 -0.008008525 0.007798288 0.00149367 0.0002549775 0.011725467 0.010005139 -0.011307973 -0.0040529445 -0.013255835 0.0110062845 0.0043227077 -0.0034822077 0.0029371604 0.011974923 0.012705568
969815535906013184 0.0096472055 0.004945796 0.002420567 0.012717858 0.0020567663 0.0006913245 -0.014926784 0.003943898 -0.013216265 0.010103028 -0.009045314 -0.002733983 0.001524549 -0.0029391386 -0.0142550655 0.0062245093 -0.010267299 -0.013736665 0.006111987 -0.0011870898 0.010172784 -0.010959469 0.0012187548 -0.0010724552 0.008973692 -0.015204158 0.009266179 -0.014030676 -0.012162022 0.0011371337 -0.0041620247 -0.0060814954 -0.008286223 0.0064230934 -0.014569957 0.0018527023 0.006574817 -0.00043883547 -0.00077705085 0.011199065 -0.0149504915 -0.014082678 0.006939329 0.013619684 -0.012180276 -0.012983546 -0.0010033511 -0.014118608 0.0033134036 0.014430229 -0.0095558055 -0.010557111 0.0139257945 -0.0011872016 -0.005850073 -0.004235849 -0.013673808 -0.0072305463 -0.0064889565 0.00038849562 0.0010789894 0.011914685 0.010667231 -0.0023651347
969806186592722944 -0.015589558 0.00405379 -0.009550732 0.0142310485 0.005944878 -0.0015717447 0.010320589 -0.0054578707 -0.0057595335 -0.000515949 0.013147108 0.009276535 0.0024559423 0.005890619 -0.004660517 0.01446797 -0.011143271 -0.0050588585 -0.008281436 0.01363083 -0.004882898 -0.003729187 0.01116908 -0.0151653215 -0.0045325756 0.0045123473 -0.009786148 0.013689455 0.0018242411 -0.008171238 0.0077029318 0.012471136 0.0014503933 0.010652363 -0.010666039 -0.005654495 0.015526541 0.008868821 0.0024931096 -0.005458977 0.0069008395 0.003956992 0.013059717 -2.4698675e-06 0.013432689 -0.009154733 -0.011884298 -0.0021915436 0.0046476014 -0.0030986182 0.009200275 -0.013144188 -0.014072027 0.011842493 0.009899437 -0.0063837804 -0.0062817074 -0.0055546053 -8.096546e-05 0.014179762 0.0014873222 -0.0032016337 -0.0053373165 -0.0032607354
969859084026458112 -0.014367748 0.010668002 -0.014113806 -0.004829034 -0.011124261 0.014158171 0.009049755 -0.0007482469 0.0061229803 -0.003800761 0.0153266005 -0.0056668 0.0075929686 -0.0059291422 0.014923416 0.014839571 0.009736665 -0.00038767233 -0.00263476 -0.013525773 0.014585402 -0.013191115 -0.01024406 0.008720327 -0.0035668015 0.012461651 -0.0122925155 0.0143695995 0.0035174526 -0.013368946 0.0061631054 -0.007743165 0.00997559 0.010291789 -0.013689864 0.010098875 0.008220065 0.010129839 -0.0110236555 -0.010246348 -0.013846628 0.00822356 -0.0062794387 0.0074998476 0.007492561 0.012630016 0.003508944 -0.0016930737 0.0022852868 0.0046555623 -0.013703637 -0.009332892 -0.0014826395 0.007636737 -0.00025237352 -0.015101887 -0.0009835474 0.011166461 0.0098967515 0.0054190233 -0.0071856193 -0.005813703 -0.0032474175 -0.009379096
970083208569135104 -0.013433166 -0.0008781627 0.0028164648 0.0075467005 0.0056091845 0.01336699 -0.010573216 0.014495261 -0.005221069 0.0012672357 -0.006658919 -0.0063231587 -0.0023240969 -0.011733666 0.014013071 0.0071242787 -0.0035322197 0.0029919446 0.012209639 -0.008773569 0.0059607066 0.0011022165 0.0045288317 -0.0033392794 -0.015428368 0.009191293 -0.0022220798 -0.012996286 0.0011138655 -0.009643123 0.0119961575 -0.009995323 -0.0025736429 -0.0006174296 -0.006702479 -0.005347315 0.011476517 0.0028932765 -0.0146529935 -0.0004434958 -0.014893122 -0.004939072 0.0077482946 0.0057814084 -0.008969225 0.0022787303 0.009077944 -0.01171447 -0.005281914 -0.003852211 -0.013898566 0.0032847933 0.010169085 0.0038182214 0.0037122294 -0.0012626387 -0.0012639575 -0.009796131 -0.00077097863 0.010301333 0.004641615 0.000852406 0.012235358 0.0043733455
969859963861458945 -0.011597127 0.011417717 0.014926143 -0.014190007 0.011291187 -0.011864111 -0.00056082755 0.0072041675 -0.008973882 -0.012429569 -0.011386663 -0.015459452 -0.010417748 0.0149271265 0.0045709275 -0.014162656 0.013290424 0.011271726 0.012282457 0.015015662 -0.013548523 -0.0034306534 0.0032762215 0.003776569 0.007552676 -0.01207535 0.0075237826 0.0155236535 -0.014005959 0.012334302 0.0050131567 -0.0064980537 -0.0024020113 -0.01330119 -0.011693623 0.008621044 -0.0048915967 0.015609864 -0.012530778 -0.0110127255 0.009599928 0.012314282 0.0057598427 0.011309598 0.010138001 -0.009026706 0.013599146 -0.009900078 -0.0044976063 -0.009348679 0.009514604 -0.0068524703 0.004805889 -0.0024753995 -0.0018692613 -0.009137176 -0.009012032 -0.005597759 0.00049582124 0.0022952221 -0.0051606186 0.0030307919 -0.0088586435 0.015603576
969811742481006592 -0.001281511 -0.010857768 -0.002903521 0.012400534 -0.0017195344 -0.008052919 -0.012572009 -0.009171404 -0.004994452 0.012062874 -0.011287086 0.0022501536 -0.000119164586 0.0061542727 -0.01241323 0.012422621 -0.0043576993 0.008280624 -0.0148541145 0.007951446 -0.012889028 -0.005080905 -0.0018551238 -0.005690947 -0.0011443272 3.6675483e-05 0.007046379 -0.0035020225 -0.0062632523 -0.009645283 0.013006762 0.007207595 0.014221381 0.008568026 -0.0072049648 0.012935493 -0.0108728 0.0047568046 -0.0052431934 0.00041842088 0.0058751404 -0.004409071 -0.0069067627 -0.0030457675 0.00081307814 0.01008603 -0.0091487765 0.0072914474 -0.0057954863 -0.012415707 -0.008757569 0.0028998256 0.013731953 0.012302674 0.014338996 0.010765567 -0.004634749 -0.0037829503 0.0137745775 0.010126807 0.009394355 0.010749888 0.002533596 0.0037415512
969739584035680256 -0.012823928 0.0117760785 0.014756668 -0.011065185 0.0018179901 0.013658043 0.0057109892 0.010860287 0.011921242 -0.0029975846 0.0138490945 0.00935407 -0.0029642805 9.6037984e-05 0.015168335 0.009095818 -0.01044656 -0.0054539777 -0.0054514036 0.0048769116 0.0017266162 -0.013442222 0.0033922195 0.01502933 0.0036809482 0.006694127 0.0030660145 0.012686748 0.013871342 0.0049376786 -0.003810566 0.005632855 -0.01205422 0.01252415 -0.0062627085 0.015502557 -0.01498216 -0.003999766 0.01388501 -0.0063703954 -0.00306049 0.007866979 0.014508098 -0.0005709529 -0.010623354 0.01560948 -0.014884125 0.0019462742 0.0086966865 -0.012237161 -0.0087992735 -0.014251221 -0.00011212379 0.007816184 -0.012852423 -0.0048146956 0.0131094605 -0.006970953 0.0049613565 0.005491782 -0.005588442 -0.008083805 0.013007712 -0.003935661
970046810105393152 0.014001507 -0.0037791692 0.004766021 0.008743245 0.0008806847 0.006867189 -0.009317812 0.013146196 -0.002569493 -0.0068988204 0.00798469 0.015503354 -0.008845344 0.001312431 0.0067764595 -0.004296791 0.0009998642 0.013784945 0.012065329 -0.010088775 -0.005010534 0.014403358 -0.0004988201 -0.014939807 -0.0011206307 -0.010637026 0.0014469214 0.0012819879 -0.006871242 -0.0071698762 0.01374419 0.007162437 0.0040251166 0.002881948 0.012858383 -0.0078030266 0.009537376 -0.0015407875 -0.011963885 -0.015148785 -0.0026190244 0.012683254 0.0034480132 -0.01402884 0.001911819 -0.0056632943 -0.0063410215 0.01270292 0.009097785 0.0005629994 0.0038288087 0.0014073402 -0.0155042 0.0046727434 0.011223543 0.0062326863 0.0038620755 -0.0055432543 0.0036567189 -0.011925969 0.0065832064 0.003744077 -0.0006395243 -0.0009345673
970071392807919616 0.0041146986 0.0034736022 0.0023110695 0.014267154 0.005518809 0.0021765009 -0.0045840256 -0.009483103 -0.014551528 -0.005093947 0.006795913 0.01183657 0.0009931512 -0.0074694194 0.0056240857 -0.0060938746 -0.0011865646 0.013849281 0.01276204 -0.00065380335 -0.009235356 0.005770609 0.015331544 0.013545837 -0.0029813088 0.011168864 0.0144856125 -0.0149351545 0.013883669 3.4622848e-05 -0.008118063 0.005749561 0.014007162 -0.011315059 0.010735963 -0.010045242 -0.012164317 0.008602012 -0.0071438737 0.0074415505 0.011513669 0.015082043 0.008923795 -0.01385235 0.0050673857 -0.014047138 -0.00057542324 0.01528424 -0.007990606 0.006402962 -0.008957215 -0.012573816 0.012523863 0.005070526 0.01152613 0.0045829676 0.0018186867 0.005816467 -0.013159838 0.010299627 -0.0070085526 0.007204674 -0.00853565 0.0016274825
969881733347737600 0.0062796623 -0.0038755946 -0.011766434 -0.009431906 -0.015531559 0.01513144 -0.0068601556 -0.0016489998 -0.014097061 -0.007147908 -0.007637143 0.004714694 0.008836873 0.005468115 0.015401248 0.0029606894 0.015431214 0.011804879 0.0043176822 0.0033499748 -0.011740439 -0.003690932 0.008812938 -0.012715269 0.0035331585 -0.011853527 0.01507603 -0.00019421428 0.0014294423 -0.0074658766 0.009559862 -0.0111351535 -0.01157869 0.010341026 -0.0052693933 -0.0014291629 0.008373573 0.007140521 0.009700175 0.0109808 0.008775622 -0.013935674 0.008038323 0.014258314 -0.0062599406 0.0016900003 -0.0051237643 -0.0053170994 0.013583276 -0.00043722987 0.005324159 -0.008645076 0.009021826 -0.005242031 -0.007763792 0.0034247935 0.015189894 -0.009579945 0.00558424 -0.0015512519 -0.01123596 -0.0067665055 -0.012842692 0.008734286
969885488487088128 -0.00430109 -0.008124005 0.0015593991 0.007170219 0.014840793 -0.015211269 -0.00043087453 -0.0019213781 -0.004218865 -0.00082816556 0.012703013 -0.0029322207 0.014584895 0.0005907081 -0.0016634874 0.010788437 0.01084787 0.00071705505 -0.00047327206 0.009910807 -0.0060068145 0.0071770884 -0.00013284758 -0.009496938 0.010068413 -0.0063019916 0.0034635067 -0.010696705 0.0041980445 0.008712716 0.007986784 -0.012615424 -0.009230837 0.011138633 0.0048681274 0.0017169006 -0.009667899 -0.0021613464 -0.014413476 0.0019645728 -0.0071385875 0.001180049 0.007008396 0.003736861 -0.011123415 0.0013292283 -0.010499891 -0.006061744 0.002968099 0.01245673 -0.010174051 0.0036504716 0.012725279 0.015482526 0.009635307 -0.011544801 0.00603329 0.013793424 0.006480828 0.003930837 -0.00248456 0.0055911504 0.006489679 0.013787933
969877901733650432 -0.00595513 -0.0136730075 0.010160785 -0.009717833 -0.00094433874 0.0022085272 -0.0018577054 -0.0063166805 0.0013458319 -0.015111256 0.0021817796 -0.006523475 -0.00905361 0.0059569515 0.0022717193 0.0057023354 0.001402691 -0.014864147 0.015595324 -0.0055194646 -0.0034264363 0.0111590475 0.00012590736 0.004773356 0.0035281554 0.0037243888 0.0105660595 0.014805414 -0.0008737445 -0.005353853 0.007119961 -0.013023801 0.013232395 0.0037508607 0.009374056 0.004379172 -0.002075769 0.001502838 -0.007493116 0.014200047 0.007862695 0.0056402013 -0.007827088 -0.013506189 0.012398612 0.0046137385 -0.0066390745 -0.013547275 -0.0061932616 0.002201002 -0.01435902 8.330867e-05 0.0043756515 -0.0155347735 -0.00023081526 -0.009483829 -0.0056369267 -0.002545502 -0.015588768 -0.005644735 -0.010973666 -0.011471197 0.0024876148 0.0036510564
969741011718057984 0.014512025 0.013851207 -0.0100241415 -0.014402993 0.012329042 0.008457564 0.01082924 -0.0045935735 -0.008170571 -0.0071375966 -0.013021857 0.0091816485 -0.005399581 0.01349036 -0.008881666 0.015050076 -0.0070345253 0.013535887 -0.008452199 -0.011732046 0.01197141 -0.015272066 -0.013721183 0.007736258 -0.015237816 0.008251775 0.0057073385 -0.010968719 0.00491821 0.0022719204 0.013503388 0.0045029074 -0.008004062 -0.00367352 0.010703228 -0.010341335 0.014523316 -0.005003128 -0.007263731 -0.0068244897 0.004817106 -0.015385028 0.005034197 -0.007008996 0.0151060745 -0.0078551285 -0.012520589 0.00548869 0.014010366 0.0042928904 -0.0035439841 0.0054882728 -0.013939071 -0.0064693354 -0.0068548582 0.0029554293 -0.009856403 -0.011861283 -0.010204397 0.008266646 0.004293829 0.01374821 0.0036263987 0.0082839355
970063714287153152 0.006777115 0.00723036 -0.0077450015 0.0022428408 0.00046125054 0.008204311 -0.0103212595 -0.0011206456 0.006277483 -0.00757578 -0.013294458 0.008707993 -0.001339525 0.000531435 -0.009490311 0.013286315 0.0014102273 0.0027095936 -0.00061653554 0.0010623261 0.009047821 -0.014412377 0.0036704913 -0.008714359 0.014762208 0.006833166 -0.008601151 -0.0019099712 -0.008661214 0.0133032985 0.0141984485 0.0035995878 0.015071165 -0.0073776357 0.004394196 -0.007965829 -0.013708536 -0.0065146536 -0.002160538 -0.008840565 -0.0071023367 0.0009878874 -0.00019810349 -0.012981039 0.010821812 0.0024502836 -0.014848579 -0.0022197478 -0.01187453 0.01183857 -0.0016358458 0.0122108385 0.007854085 -0.006338991 -0.014169835 -0.009662479 0.013878126 -0.0024380237 -0.0004786104 0.00019775331 -0.01288113 0.006593071 -0.012822848 0.014710158
969894861510815744 -0.012691151 0.012343142 -0.0030943342 -0.0032218844 -0.0035743192 0.0015337616 0.003837604 0.0025356114 -0.0009161718 0.011847109 -0.010044124 -0.012326289 -0.0112359375 0.009866595 -0.0030942224 -0.0074193105 0.0077335984 -0.012265623 0.0045370013 0.01500494 0.010829035 -0.0047719292 0.0037644133 0.0077451766 0.01500009 -0.00426808 0.002075769 -0.0065413266 -0.004948247 0.0013537817 0.0034354292 -0.008345418 0.006620977 -0.007986747 -0.007180348 -0.01403556 0.011960115 0.0067066737 -0.0034309328 0.013167363 0.003078144 -0.015470654 -0.012124874 -0.0066142753 -0.011382911 0.011556502 0.007912446 0.003155034 -0.0010053851 -0.011607114 0.009571064 -0.008112647 -0.0042023696 -0.009142265 -0.003401436 -0.014567263 0.005127579 -0.01160638 0.01055681 -0.011653431 -0.009199131 0.00011867285 -0.012431368 0.008382726
