334 64
970227630371782656 0.09460201 -0.16341358 0.11168702 0.3699471 0.11461949 -0.10845071 -0.1305499 0.029364232 -0.049065456 -0.1793672 0.24390997 0.07391943 -0.021709885 0.14457814 0.11874501 0.33139843 -0.10632803 0.09539803 0.12854789 0.16708888 0.17706995 0.2920925 0.11211656 -0.2406351 0.112380445 0.18563697 -0.019111916 0.15532377 -0.023385834 0.10864604 0.130961 0.09446983 -0.11098696 -0.029184641 -0.14157023 0.04331353 0.2917759 0.08743277 0.2261388 0.17436567 -0.12669997 0.24815303 0.06850877 -0.2012556 0.11644776 0.021438338 -0.018277971 0.16889267 -0.054468878 0.47683334 -0.045115337 0.020949641 0.21550046 0.17163524 0.09229504 0.10284825 0.12817293 -0.09804478 -0.05276335 0.03785849 -0.18781486 -0.17921072 -0.10768051 0.0036442648
970238635546161152 0.15376844 -0.27628157 0.034809824 0.38941514 0.08765591 -0.093662515 0.023287527 0.09661191 -0.13425937 -0.17117324 0.26853672 0.07518199 -0.024269175 0.12709045 0.1165811 0.24352726 -0.1967957 0.04280562 0.08211405 0.3063342 0.16000082 0.2002593 0.124368705 -0.24858615 0.109143406 -0.011240354 -0.14319213 0.013231832 -0.015638215 -0.057888914 0.19593485 0.039157443 -0.033168994 -0.025623923 -0.08640312 0.12814169 0.30129632 0.18784598 0.21802834 0.1831765 -0.012963505 0.1339844 0.06944084 -0.18923864 -0.1594108 0.13594149 0.206188 0.09847746 0.01160525 0.33699888 -0.079341576 0.19445753 0.15024613 0.03392136 0.27937552 0.08714403 0.09585537 -0.061209172 -0.11559298 -0.011128724 -0.10729829 0.043705896 -0.17757069 0.06421405
970232559568273408 0.24201815 -0.3349446 0.030207694 0.3818629 0.08853245 -0.043264825 0.099695526 -0.04847556 -0.19743036 -0.18005314 0.16022865 -0.0041887276 -0.094979875 0.025354706 0.026633518 0.1973821 -0.10534168 0.08757396 0.08833733 0.15278144 0.22338279 0.30546227 0.22872433 -0.24410354 0.0153679475 0.0885409 -0.1136803 0.16428366 0.14083152 -0.0980956 0.1790274 0.1704125 -0.03752418 -0.014685012 -0.052125115 -0.007930127 0.23590578 0.17169036 0.13112988 0.14174107 -0.09486614 0.18222807 0.25687134 -0.19446658 -0.11657946 0.10503741 0.12690085 0.09522382 -0.046969164 0.23074907 0.010348896 0.073319115 0.15951213 0.07103812 0.2567174 -0.105331995 0.056904383 0.02020565 -0.17816143 0.11445533 0.00095625146 -0.07018112 -0.09341356 0.013077582
970246040627560448 0.08102872 -0.22859778 0.047480162 0.32641038 0.06076147 -0.1908651 -0.0022482967 0.06419298 -0.21096613 -0.116086826 0.26907486 0.103595436 -0.102757536 0.11713694 -0.02014109 0.23138028 -0.059255596 0.19001143 0.19994782 0.15840702 0.29446718 0.19662938 0.120707616 -0.32600954 0.12407756 0.08455053 -0.13601846 0.14371806 0.15561436 -0.06108856 0.15317653 0.118279226 -0.01787197 -0.11123101 0.011892503 0.025716744 0.25278836 0.30383015 0.12887074 0.10369581 -0.13225673 0.07296262 0.10341313 -0.21798603 0.08112862 0.014900608 0.14325531 0.009148512 -0.038123444 0.38517994 -0.058951605 0.10489304 -0.030923136 0.1689167 0.34390828 0.14020623 0.20523052 -0.009203638 -0.19938217 -0.1008022 -0.110522695 -0.07641719 -0.10695015 -0.121478006
970250859077513218 0.21254893 -0.2690014 -0.04311984 0.3171959 0.0640771 -0.2031618 0.043436993 -0.012466317 -0.1327745 -0.08583247 0.3676289 0.016956212 -0.004094149 -0.032451592 0.16927505 0.25228256 -0.15787996 0.068502925 0.1472093 0.23571223 0.167669 0.11706519 0.12720738 -0.31730437 0.059685647 0.115274996 -0.08265499 0.16320871 -0.11740668 -0.123624444 0.25449404 0.004731976 -0.08584641 -0.082599826 -0.16413495 0.037291966 0.23385678 0.22335342 0.1565128 0.071329445 0.041549988 0.07637916 0.15114617 -0.27588132 -0.041906558 0.14472127 0.16280867 0.01768751 -0.16110313 0.30841568 -0.042229056 0.15228099 0.089962535 0.049343184 0.35886538 0.0052922475 0.12438004 -0.028906355 -0.021019693 -0.026393065 -0.18286239 -0.10184816 -0.0041750018 -0.045686256
970263880814309377 0.14655459 -0.19460101 0.110591315 0.39152208 -0.012377668 -0.10998945 0.029959144 0.07915871 -0.19520062 -0.12780763 0.36064887 0.15985988 -0.08118518 0.023697441 0.13924627 0.303796 0.03137866 0.19727643 0.107818626 0.3088029 0.1653555 0.2120413 0.14605196 -0.20868132 0.24303995 0.02110739 -0.05995479 0.23010309 -0.10745849 0.06927982 0.14323243 0.12601824 -0.083482206 0.12797019 -0.027371177 0.012812213 0.15895882 0.1698405 0.22373438 0.18515028 0.04337372 0.06926906 0.03799093 -0.22258256 0.10053107 0.120544165 0.09298082 0.10499642 -0.21141501 0.30779874 -0.0036062708 0.22688739 0.19610466 0.13179146 0.35871267 -0.0036869925 0.07555399 -0.014173383 -0.122178786 -0.091318116 -0.21844533 -0.050034396 -0.089741714 0.0008062097
970401250951938048 0.39494646 -0.29602364 0.23147157 -0.058668517 -0.36303705 -0.19848235 -0.19066575 -0.057628322 -0.26503515 -0.11855496 0.267665 0.14602846 0.05302366 0.1024713 0.33238652 0.16317649 -0.2813656 0.010670402 -0.31222922 -0.08051021 -0.030364823 0.19594866 -0.1719347 -0.19908355 -0.045346085 0.16386886 -0.059590798 -0.10148831 0.2771417 0.028994441 0.1513506 0.17037007 -0.13973086 -0.16295555 0.18323022 -0.02983843 0.08388662 0.03609896 0.16230509 0.08191073 0.14394225 0.29276922 -0.04310966 0.058279146 0.14078675 -0.17836422 0.07762431 -0.0038567146 0.0009602639 0.01271845 -0.048286807 -0.113999166 0.18860772 0.37614334 0.2423002 0.35072494 0.11871704 -0.057616796 -0.19733885 0.4362368 -0.077757515 -0.18523447 0.019696385 0.15443772
970249307919065088 0.1199284 -0.26174247 0.04615835 0.44397426 -0.07476208 -0.26174504 0.14066738 0.031752754 -0.32788628 -0.18685102 0.19384402 0.19566955 -0.06001953 -0.07386869 0.08599657 0.31270924 -0.19153021 0.19319263 0.32041264 0.24051514 0.029022958 0.09993516 0.15150535 -0.23329148 0.06492277 -0.05023006 -0.11364017 0.25537816 0.005547357 0.050828807 0.075254105 0.1197068 -0.05168312 0.04027035 -0.13398759 0.076616876 0.115425296 0.24564828 0.24541183 0.120224886 -0.052394893 0.12805486 0.15429701 -0.15532437 -0.029552836 0.06257503 0.04128687 0.105175085 0.14906068 0.27596703 -0.08781605 0.17471752 0.05595979 0.022742637 0.23012178 0.078638084 0.055819742 -0.0998987 -0.16456516 -0.031973835 -0.21294437 -0.3016979 -0.12373256 0.112444006
970134594895847424 0.20080717 -0.39057422 0.2017285 -0.052013844 -0.2718731 -0.23659152 -0.15605205 -0.086578 -0.30730197 -0.10416447 0.06566502 0.02487973 0.118003055 0.1555473 0.26965395 0.22131301 -0.20958126 0.14585185 -0.23012185 -0.005087278 -0.042479273 0.3419416 -0.18029329 -0.25658697 0.020974157 0.24869436 0.050545536 -0.07184479 0.15304673 -0.07620558 0.03597733 0.31813723 -0.2740107 0.12845281 0.15180124 -0.02133966 0.088535674 0.14084521 0.3328227 0.1862633 0.06900171 0.17100537 -0.058321096 -0.09315956 0.05453871 -0.082605176 0.070796944 -0.22229348 -0.00888289 -0.111439355 0.042282183 -0.13814312 0.2804595 0.23649706 0.24664341 0.25780818 0.038749468 0.13953744 0.046406366 0.40402746 -0.2264173 -0.08442936 -0.20376654 0.3796896
970438888564011009 0.1620777 -0.2366919 -0.070423305 0.38990638 0.07409113 -0.09217228 0.13599506 -0.034327246 -0.11373864 -0.13708565 0.3481507 0.12357619 -0.074107006 0.10744744 0.16105777 0.3298567 -0.05928762 0.046047527 0.17257088 0.23689182 0.13016638 0.26992851 0.19098875 -0.24290396 0.021498328 0.110626295 -0.21137987 0.117964484 -0.051187456 0.03169971 0.21446843 0.14496362 -0.035309892 -0.04323917 -0.10320466 0.12936081 0.08941293 0.17700683 0.107349746 0.14946285 -0.007101984 0.018515622 0.07272106 -0.15607597 -0.03325317 0.05084134 0.12061764 0.13453242 -0.052526467 0.221923 0.020618048 0.07006096 0.16163355 0.12726809 0.34597233 0.06076328 -0.011406858 -0.0837945 -0.075896665 0.11198749 -0.20799735 -0.19825059 -0.09755415 0.011801196
970223628359839744 0.24138832 -0.23885122 0.23679379 -0.13005233 0.009028546 0.15889186 -0.04327071 0.0039615654 -0.21294594 -0.10104821 0.31220043 -0.08071607 -0.17788239 0.021163221 -0.1439414 0.24697064 -0.15987526 0.08406092 -0.02064226 0.2727273 0.2395254 0.1687106 0.11598913 -0.15633067 0.16575585 -0.24092767 -0.13309273 -0.17161925 -0.09600241 -0.18096253 0.28914636 0.20294559 -0.27318624 0.05860328 0.099899165 -0.12377997 0.04296822 0.11475116 0.07640966 0.1362373 0.0028397997 0.09371686 0.29441297 -0.24190351 0.008826042 -0.16293505 0.15544236 -0.042461295 -0.14469999 0.35408446 0.06865407 0.0031796482 0.24817368 0.33273217 0.24168792 0.14818314 0.36989745 -0.13185921 -0.10914654 0.037585773 -0.11634259 -0.32027194 0.0011503065 0.11348221
970134933246111744 0.24890792 -0.3220883 0.2804852 -0.1834023 -0.29584944 -0.1630991 -0.07598087 -0.12347732 -0.22768198 -0.12098456 0.042291585 0.21959355 0.023198482 0.14233956 0.1596331 0.15824974 -0.40297332 0.02546041 -0.23297453 -0.15343507 -0.06616267 0.38202292 -0.08192441 -0.19727717 -0.03584769 0.112948865 0.15676123 -0.009163904 0.2990626 0.02008231 0.122630864 0.22339615 -0.11715841 -0.010255557 0.095589705 0.026555307 0.13581517 0.10225638 0.1472888 0.059999052 0.15319428 0.19078165 0.045489505 -0.18546507 0.16732307 -0.075252734 -0.05230583 -0.07286137 0.020836722 0.0187412 -0.16362424 0.060425285 0.18727553 0.26855958 0.26241165 0.27032843 0.1699485 -0.00821265 -0.09652337 0.33839798 -0.13565142 -0.05877439 -0.2351039 0.31379178
970203253160865793 0.2764381 -0.19132522 0.33582714 -0.021117857 -0.13176338 0.09686158 0.07920911 -0.089603335 -0.22213168 -0.05044204 0.23001611 -0.11728202 -0.0119585395 -0.089848295 -0.040435623 0.3103034 -0.11566693 0.21913618 0.07472145 0.39139175 0.17745422 0.18127139 0.095921814 -0.1580978 0.05655117 -0.22175577 -0.14314078 -0.17454357 -0.07312886 0.017083863 0.2685718 0.41928104 -0.24373181 0.074027106 0.0119671 0.010034002 0.16311036 0.031040225 0.115360774 0.12704577 0.0697783 0.092529215 0.14807738 -0.33228073 -0.057891812 -0.15139829 0.099926434 -0.07399628 -0.13435745 0.34966275 0.07412575 0.07245931 0.16500582 0.30685693 0.15478072 0.09143351 0.1964126 -0.1841276 0.19644795 0.081713 -0.10023874 -0.31650606 -0.0013152662 0.004774622
970162397200629761 0.34337685 -0.09869144 0.21325189 -0.013635204 -0.0051203463 -1.0991174e-05 -0.07211572 -0.061018527 -0.14326158 -0.10439538 0.32690784 -0.14558126 -0.080377385 -0.05885598 -0.23266156 0.3312601 -0.13788116 0.17337824 0.141583 0.40837812 0.39432308 0.21445715 0.07578664 -0.06081629 0.16174082 -0.07482802 -0.09705711 -0.18534945 -0.17050302 0.09556696 0.31811538 0.4067551 -0.1927835 -0.0058450415 0.0861467 -0.11926691 0.0392057 -0.025680518 0.067681946 0.34028742 0.0611146 0.12516525 0.20519449 -0.2875791 0.16391745 -0.2997476 0.022966208 -0.0415376 -0.070616856 0.120827466 0.10822958 0.034169253 0.23119143 0.23870511 0.19890916 0.10899267 0.2421136 -0.017937372 0.026964275 0.005429824 -0.14349413 -0.39649758 0.0058720163 0.05842959
970141716522004480 0.35622564 -0.071954 0.38113835 -0.04363658 -0.24347466 -0.20773682 -0.24191839 -0.07073445 -0.41964975 -0.1924584 0.22181217 0.14630325 0.18863806 0.14770353 0.14110582 0.07737186 -0.26336163 -0.10698079 -0.24083248 0.08251034 -0.113715135 0.109606765 -0.21632175 -0.31672192 -0.09233738 0.253159 -0.0031005163 0.034239873 0.22404477 -0.09653045 -0.0050122836 0.25580657 -0.21830226 -0.0032488268 0.22540703 -0.11904747 0.16296959 0.20430367 0.17881495 0.009904194 0.16352119 -0.008423047 0.01134729 -0.10385415 0.10791713 -0.16589409 0.05839888 -0.26714513 0.05814446 0.024456013 0.005690348 -0.009000034 0.20968261 0.25607476 0.27091423 0.35350275 0.11060952 0.07439102 -0.10752211 0.3501248 -0.18431811 0.03507738 -0.16851903 0.15176295
970172254125408257 0.26385435 -0.30304557 0.29821995 0.053780653 0.06973513 0.045120142 -0.19317834 -0.07912608 -0.12577482 -0.15248743 0.34288102 -0.143885 -0.058543824 -0.15688083 -0.088010885 0.40487275 -0.2282327 0.16746652 -0.06269233 0.30262628 0.29299718 0.2612845 -0.03495844 -0.04679738 0.09797895 -0.2862631 -0.011193653 0.024644185 -0.020978067 0.06910659 0.25916716 0.1833434 -0.25783765 -0.014800535 0.018555824 -0.0949185 0.07941654 0.011921569 0.15610428 0.23192751 -0.035171114 0.09543635 0.23284058 -0.2754439 -0.12056192 -0.28527096 0.05358696 -0.036263645 -0.21313241 0.1764465 -0.073736854 -0.0069450852 0.23234479 0.19906402 0.2587637 0.17120449 0.12619731 -0.16454558 0.124234214 0.15627171 -0.08426909 -0.26001486 0.06291162 0.12489564
970141922076475393 0.17388782 -0.12941962 0.24641944 -0.053308636 0.07353905 0.1286222 -0.12522098 -0.0756842 -0.123128116 -0.12885016 0.24214172 -0.12474937 -0.08800428 0.010333394 -0.07182994 0.2086179 -0.11402705 0.16360551 0.11533097 0.2992969 0.33446187 0.22001338 0.038298085 -0.25220987 0.099296525 -0.19566728 -0.08918114 -0.12976117 -0.104531705 0.046670657 0.36523885 0.4668895 -0.30754393 0.010528862 0.09404656 0.06237809 -0.0028799013 0.112953275 0.08887908 0.282276 0.15360294 0.008173233 0.27049688 -0.3539688 -0.10487688 -0.24346963 0.14175993 0.041599315 -0.16344842 0.32579768 0.08280001 0.036189165 0.19372867 0.15919694 0.23039854 0.18677917 0.17750098 -0.07713139 0.07374948 0.10185079 -0.16719161 -0.40170303 0.12650727 0.045760002
970135028184199168 0.3203614 -0.28349608 0.3247997 -0.066659965 -0.17986743 -0.1317511 -0.23464058 -0.05412773 -0.3480415 -0.11070337 0.2004684 0.033559598 0.2815337 0.1474776 0.23817806 0.31184125 -0.3785609 0.050794337 -0.27898103 0.11616053 -0.21429662 0.18332425 -0.17866531 -0.16601421 -0.04919814 0.07991012 0.07403673 -0.021504078 0.26429123 0.085170284 0.060543463 0.30549586 -0.09713122 -0.19606163 0.10775821 -0.09385886 0.083984904 0.050741285 0.17346911 0.078020036 0.20712268 0.20654166 0.02588589 -0.019538818 0.11735638 -0.07141725 0.17554508 -0.16589595 -0.078854784 -0.13492998 -0.048767988 -0.22479318 0.2553305 0.21671022 0.28186673 0.24020207 0.011060417 0.06283474 -0.016430393 0.26308158 -0.17452857 0.01181561 -0.28553998 0.14258954
970175431478398977 0.2775354 -0.19633584 0.119747765 -0.057213113 -0.22998016 0.083797276 -0.10848681 -0.031960897 -0.21309133 0.06201723 0.16653645 -0.1723697 -0.09737951 -0.12584035 -0.073203154 0.32757223 -0.16313018 0.22251457 -0.012967792 0.40691155 0.355178 0.21258059 0.23065192 -0.18546194 0.1753573 -0.07938695 -0.13079439 -0.11355418 -0.003785161 0.07618037 0.3332875 0.2015537 -0.20674029 0.06318611 0.06181034 -0.033075295 0.117634185 0.08429098 0.14076228 0.1321461 0.07493229 0.113475755 0.1830737 -0.32307735 -0.061577924 -0.21111941 0.07217078 0.027965387 -0.23420724 0.3801003 0.08245343 -0.10168374 0.26635912 0.19456406 0.26260054 0.09378608 0.24455334 -0.09782439 0.12884599 -0.014891849 -0.06965999 -0.24442305 -0.04726056 0.047455095
970127910710345728 0.33991757 -0.23878309 0.23528607 0.058407985 -0.08461834 0.10794826 -0.099909134 -0.19153091 -0.1942096 -0.057558488 0.26767394 -0.13708262 -0.03985725 -0.048302814 -0.1746861 0.26662642 -0.11574578 0.10741825 0.07048474 0.42591345 0.27613097 -0.040651076 0.016689502 -0.117560744 0.13943616 -0.1398842 -0.14155109 -0.19483511 -0.009163918 -0.0429485 0.31279427 0.25851 -0.23579009 -0.059730563 0.08966119 0.050211236 0.05411576 0.16835019 0.1322334 0.25210586 -0.08497387 0.12758538 0.2035168 -0.28707212 -0.004657011 -0.22155392 0.18048064 -0.03569026 -0.19192576 0.393175 0.17954998 0.17388538 0.18326306 0.13079849 0.15377913 0.1705454 0.14809689 -0.18049155 0.07279684 -0.009485391 -0.11260945 -0.20888579 -0.021917423 0.14749658
970222806741889025 0.31651807 -0.14174145 0.40331957 0.12508926 0.077285975 0.053655613 -0.033785492 0.0040509654 -0.3250542 -0.21272478 0.22516496 -0.20913504 0.013467272 -0.03359093 -0.23373915 0.25372484 -0.17027111 0.15324323 0.10269982 0.29587787 0.24644172 0.12746081 0.1433578 -0.1420197 0.049188673 -0.19091265 -0.13595513 -0.14215058 -0.094422005 -0.056756265 0.3135489 0.3551511 -0.25415263 -0.04311797 0.09895084 0.02158174 0.09848252 0.16492577 0.08611244 0.10066854 0.025175877 0.1585131 0.17730626 -0.2593152 -0.034363844 -0.1406648 0.114180036 -0.019043203 -0.23249085 0.30484477 0.09652219 0.04732473 0.34941906 0.33142272 0.17663361 0.1774441 0.17265141 -0.20656368 -0.023089333 0.024065882 -0.05445224 -0.37025964 -0.007961281 0.083862945
970127418852704256 0.17449142 -0.2536372 0.21355005 0.15886109 -0.17125413 0.095723175 0.04889064 -0.06782047 -0.11597185 -0.0006166697 0.3800134 -0.14087528 0.0054302956 -0.1222818 -0.16112807 0.34699535 -0.13311888 0.056042347 0.09706835 0.3708406 0.25245148 0.09789726 0.20249021 -0.14560905 0.14152353 -0.22431098 -0.20752586 -0.23696639 -0.11086279 0.02143413 0.35871273 0.33031932 -0.30399683 -0.071301416 0.12392737 -0.10027846 -0.08255503 0.1405355 0.12029041 0.3158842 0.028811252 0.14582098 0.2048571 -0.1860648 -0.03807148 -0.1869976 0.16395965 -0.09892942 -0.12680073 0.27510944 0.09079502 -0.058856264 0.15433365 0.20889696 0.1241362 0.09767326 0.321596 -0.11756097 0.0067329747 -0.011128105 -0.11157828 -0.260118 -0.038480207 -0.007501902
970140289246494720 0.32099196 -0.22454375 0.2343641 -0.18823327 -0.07960837 0.024939796 -0.09786472 -0.004732631 -0.174287 -0.12382313 0.31987038 -0.0633115 -0.03608202 -0.013300722 -0.11616186 0.26362932 -0.1293727 0.16309111 0.11124884 0.35106158 0.4163465 0.21934071 0.17019318 -0.11095965 0.03580569 -0.082425736 -0.11080081 -0.13537903 -0.16915362 0.17879258 0.39803556 0.3056354 -0.1835408 -0.01330238 0.13729277 -0.100833245 0.11431905 0.16645074 0.13964733 0.2564402 -0.07391391 0.18907613 0.33003643 -0.26334935 -0.06609467 -0.17446846 0.17621703 -0.09697063 -0.03657734 0.24499328 0.062116057 -0.09862908 0.20277277 0.16262405 0.20634182 0.16030213 0.26376063 -0.012393847 0.0037244658 -0.02396516 -0.12183469 -0.21845828 -0.11087276 0.03833152
970227444887113729 0.13591927 -0.19943611 0.03646011 0.34794378 0.07610023 -0.18557145 0.008702787 -0.004701303 -0.206285 -0.15430987 0.43283322 0.0043329136 0.0061504557 0.1425689 0.1838567 0.21623203 0.04239641 0.043504503 0.04495333 0.1761046 0.16934893 0.34015962 0.13134012 -0.15731312 0.14945057 0.10509027 -0.12810777 0.0945681 -0.011463136 0.24185224 0.15613736 0.23037978 -0.06469192 -0.04244807 -0.025995705 -0.051337782 0.19482331 0.084405705 0.17064191 0.20463398 -0.078540966 0.18994425 0.12916838 -0.35772708 0.11750868 0.13358136 0.12777899 0.06809858 -0.08006107 0.1789465 -0.014208647 0.19970411 0.21845786 0.06061902 0.19903882 -0.038359724 0.12383633 0.094971776 -0.047290295 -0.071826376 -0.15556127 0.0315733 -0.060966354 -0.0013882865
970181520634740736 0.21202408 -0.2674562 -0.013892183 0.25696692 0.1697847 0.0001377559 0.15644312 -0.025262434 -0.17874272 -0.0051241093 0.17796281 0.06934389 -0.06978225 0.05324989 0.15321888 0.22448306 -0.047061507 -0.043787464 0.24782683 0.32180706 0.14679888 0.1817179 0.1139535 -0.20539166 0.1766689 -0.10642029 0.03960515 -0.14794067 0.21472162 -0.04881019 -0.047422636 0.070097595 0.017429685 0.0452977 -0.18833117 -0.0032193905 0.14761561 0.29673648 -0.011585672 0.215757 0.058647674 0.050092395 0.16322245 0.1450819 0.21957386 0.035482984 0.1503562 0.19263783 -0.16779533 0.35521635 -0.16559309 0.24021459 0.34290543 -0.033548128 0.066972084 0.17580447 0.033282094 -0.10720417 -0.112352535 0.33775666 -0.020943986 0.048035234 -0.26569003 0.14641224
970407622103900160 0.2650108 0.042284552 0.19849479 0.113111086 -0.1682061 -0.17853606 0.1026759 0.05665401 -0.39480323 -0.065600276 0.06526449 -0.21454191 -0.16623123 -0.11916468 0.09677682 0.17513038 -0.18163642 -0.11852559 -0.28569132 -0.0041157524 -0.04623313 0.3971494 -0.0022112206 -0.30474418 -0.10402747 0.30904365 0.1531069 -0.18410085 0.28231362 -0.06563425 0.021219358 0.17530636 -0.09457742 -0.12650429 -0.33245653 0.17055303 -0.13399106 0.236061 -0.00039359182 -0.079002574 0.14929265 0.07845344 0.068225116 0.08016022 0.16803896 -0.18351777 -0.02241247 -0.25436693 0.059124015 0.19774167 -0.13379516 -0.19694126 0.11078621 -0.010511816 0.41293043 0.09133827 0.05231152 -0.15350513 -0.16065161 0.403833 -0.0021648516 -0.22096315 -0.12006754 0.2605411
970173286318456832 0.29976147 -0.054491673 0.20045353 0.13909629 -0.33455107 -0.1623292 0.027458724 0.11877777 -0.25548157 -0.1508318 0.18273908 0.00834769 -0.22430038 -0.12040664 0.06720774 0.04470915 -0.27866557 -0.24336323 -0.17005126 0.025607105 0.059639495 0.3140035 0.03093985 -0.466552 -0.092951775 0.20121536 0.31513974 -0.17113453 0.2780956 0.1398034 -0.10593092 0.18200245 0.026966566 -0.09871785 -0.21100478 0.23859482 -0.15309083 0.17440361 -0.16764063 -0.07132506 0.3591937 0.040500276 0.15574522 -0.006834855 0.0071593164 -0.19829139 0.10953981 -0.16768503 0.07776584 0.17721234 -0.045068447 -0.14254631 0.18214974 -0.077441104 0.19955531 0.072351925 0.17256124 -0.052180607 -0.0830417 0.28571793 0.025957895 -0.17437027 -0.23921776 0.18145342
970126974797594624 0.18528427 -0.26532054 0.33187142 0.017492602 -0.16856156 -0.040880036 -0.2081086 -0.083162054 -0.198578 -0.197615 0.13924271 -0.031023648 -0.06593255 -0.19609135 -0.19194101 0.3856603 -0.17065026 0.15005052 0.048761204 0.28956968 0.2502405 0.11928685 0.1634796 0.024711234 -0.01784189 -0.20134807 -0.054496687 0.037458543 -0.033439543 0.0422872 0.36538664 0.42108712 -0.25309244 0.07319956 0.064842984 -0.059676692 0.13259497 -0.009821854 0.023748308 0.25026193 0.13412505 0.21293405 0.27871507 -0.32082283 -0.07818167 -0.19990426 0.115531854 -0.0020888785 -0.2646201 0.2717703 0.15787596 -0.039214164 0.17592259 0.25211623 0.3024707 0.09427287 0.28784233 -0.04483455 -0.000948185 0.044722173 -0.038541835 -0.28720066 0.03960392 0.00021796445
970149521828167680 0.4020336 -0.04948511 0.28887329 -0.16344756 0.028595578 0.14978218 -0.22382165 -0.111885116 -0.3584765 -0.036580455 0.26621082 -0.10210305 -0.10572492 0.037858535 -0.011088862 0.40264285 -0.19895129 0.055173147 0.11907216 0.26460552 0.26689094 0.16341004 0.06984666 -0.0804175 0.08545828 -0.083543964 -0.2972341 -0.15134494 -0.0058091534 0.13716492 0.06942778 0.2075304 -0.09773522 0.04028602 -0.010278701 0.06501567 0.13454752 -0.07301558 -0.012336343 0.051106036 0.08480355 0.0941256 0.09700829 -0.15028234 -0.111078605 -0.0984637 0.108479336 -0.06673874 -0.055877015 0.08364715 0.065789625 0.27549118 0.2234937 0.31568563 0.01362875 0.1900404 0.24129248 -0.2462479 -0.042708177 0.2245301 -0.23429722 -0.099060245 -0.045642614 0.08975279
970103880909340674 0.38667586 0.05632547 0.32486966 0.18309678 -0.28506216 -0.056422297 -0.016240614 -0.021027653 -0.3668966 -0.05686264 0.15503874 -0.05218726 -0.023118142 0.20024085 0.19143096 0.19419622 -0.085371226 0.08484941 -0.02357112 -0.09223822 0.080723666 0.42725947 -0.064081915 -0.22784361 0.13523981 0.2774057 0.03329823 -0.11057714 0.14229162 -0.15211593 0.026631853 0.00578812 -0.09552317 -0.09284385 -0.11822976 0.21338353 0.07573355 0.24724759 -0.108290546 0.12935776 0.25701216 0.05685094 0.10616563 0.05917918 0.40712133 0.008284251 0.07321633 -0.10904828 0.10940992 0.28225243 0.20871224 -0.037033673 0.10183037 0.11003056 0.051079996 0.13709545 0.13631219 0.02783171 0.20010406 0.30663833 -0.08572278 -0.15831818 -0.10326848 0.0037476402
970348346748514305 0.10726433 -0.150679 0.051768523 0.20602694 -0.28633973 0.061132852 -0.12881973 -0.22488488 -0.21084574 0.25231624 0.04857814 0.04409252 -0.055603284 0.24444774 0.17336445 0.33001134 0.13406663 -0.07021599 0.04238068 0.2949027 0.292294 0.20614737 -0.19362111 -0.15887117 -0.32396606 0.12448654 -0.055857114 -0.08224433 0.39166158 0.074257605 0.15159465 0.12538026 -0.035173304 0.06174752 0.06599021 -0.008803891 -0.0029806353 -0.05283753 -0.021691253 -0.0067016506 0.13457893 0.09593331 0.11192058 -0.1549276 -0.13440607 0.025908627 -0.17055495 0.06905269 0.21475254 0.08482122 0.11445191 0.054863054 0.24256404 -0.11910316 0.07886963 -0.045237843 0.2539742 -0.014631775 -0.16559975 0.014203376 -0.0819035 -0.075356744 0.005436974 0.16646005
970206519747751936 0.23763984 -0.17915067 0.13760622 0.14989236 0.036551032 -0.24318334 -0.13418405 -0.14884871 -0.16897178 -0.05538493 0.16754049 -0.31209993 -0.21604493 0.064029135 0.0028211104 0.2543147 -0.12922643 -0.047526095 0.11651423 0.33289096 0.21643575 0.12907411 -0.01524336 -0.23332092 0.16134563 0.19312738 0.110729784 0.07045816 0.1158863 0.20909375 0.17631058 -0.02510598 -0.010445936 0.016566237 0.04012353 -0.17572637 0.15830784 -0.11688434 -0.12843667 0.332589 -0.18188068 -0.04168355 0.0886196 -0.06431566 0.07109697 -0.014518914 0.22997856 -0.0021787467 -0.027549617 0.47640824 -0.07265689 0.02245637 0.29065123 -0.08856509 0.35083273 0.20714225 0.011456563 -0.22562884 0.21870849 0.04763555 -0.27961463 -0.06211207 -0.1348473 -0.054682866
970094564605272064 0.30939537 0.045267146 0.51787466 0.0034294403 -0.24664383 -0.13674963 -0.029163046 -0.12216955 -0.4011837 -0.2434719 0.1770674 -0.004066837 0.078211814 0.21642703 0.014498305 0.09319709 -0.17182477 -0.020580754 0.008107095 -0.07503512 0.19673909 0.32533485 -0.062787086 -0.15246025 0.020600397 0.34213316 0.13033843 0.1376448 0.23058024 -0.08749014 0.119639665 0.125451 0.070907064 -0.029183857 -0.17263995 0.21682942 0.1375389 0.34270328 -0.15767053 -0.04453892 0.0044881958 0.097277105 0.046725042 -0.025580004 -0.009966023 -0.06985331 -0.10043168 -0.11075303 0.06663513 0.33318874 -0.013228523 -0.15178959 0.21909775 0.022586294 0.30693427 0.24748534 0.034121424 -0.0050040083 0.22225603 0.07954479 -0.24501249 0.046951424 -0.1017548 0.064235516
970122900886859776 0.15328838 -0.14020266 0.24714999 -0.1751339 -0.077434756 0.11148686 -0.101262964 -0.19424559 -0.3379497 -0.1694777 0.16059388 -0.22701083 -0.05343553 0.0703115 -5.0333896e-05 0.19133377 -0.28539228 0.12445534 0.14181694 0.3714174 0.15734692 0.18907428 0.093290776 -0.18441217 -0.06604767 -0.07333528 -0.11888602 -0.064202 0.009079021 0.15312663 0.18981048 0.35316232 -0.15094185 -0.13941102 -0.06522617 0.044887636 0.22693352 -0.1402682 0.06572382 0.048714314 -0.073931746 0.028527552 0.04279173 -0.17177069 -0.26171997 -0.12213916 -0.043202218 -0.23432577 -0.07533246 0.17736618 -0.028660448 0.29289708 0.14383604 0.2305125 0.041094873 0.036650814 0.2695687 -0.09868151 -0.021789039 0.21171664 -0.30928886 -0.13506651 0.059433863 0.081820585
970155913142136833 -0.07976447 -0.14527659 0.04345722 0.19625221 0.047552526 0.1482871 0.22201264 0.026582258 -0.23740551 0.068438485 0.29511803 -0.10702835 -0.36023244 0.094963215 0.29667053 0.09068674 -0.01225345 0.04342669 0.0071920063 0.19768797 0.14119525 0.12877369 -0.2066351 -0.2276173 -0.19483255 0.14758287 -0.103952646 0.09714709 0.13566902 -0.4299669 -0.057028685 0.43980023 0.060017325 -0.119574584 -0.22404161 -0.066965036 0.054625947 0.052528683 0.073890135 0.24137591 0.03214536 0.06498101 0.15856457 -0.14376776 0.056831896 -0.050303403 -0.08296067 0.21599907 0.22612968 0.4017431 -0.16413198 0.12982725 0.22815882 0.1765229 0.0014704046 -0.14147194 0.087637074 0.116901994 -0.12884939 0.22151522 -0.13652949 0.029481892 -0.053930793 0.34638965
970168913068662785 0.10576941 -0.1831824 0.09125235 0.24370156 -0.100717604 -0.050039254 0.15080014 -0.004138212 -0.3078741 0.030043472 0.2914801 -0.18845469 -0.24620348 0.09576513 0.31587228 0.2588824 -0.13224266 -0.24480382 0.12650897 0.14865689 0.33396024 0.13436958 0.19385965 -0.10990824 -0.09548052 0.25362426 0.3828218 -0.16941106 0.08683924 -0.21946518 0.17775515 0.11228949 -0.040690415 -0.18826431 -0.33110657 -0.0918724 -0.07478026 -0.024275063 -0.167111 0.18799567 0.013328291 -0.13840339 0.10412571 -0.010601739 0.090349615 0.09882705 0.29615146 0.041307643 0.17283244 0.14725983 -0.19970879 0.06323087 0.3213147 0.19444905 -0.05388539 -0.079800785 -0.20959166 -0.06404096 -0.048163485 0.09305252 -0.27715513 -0.104095496 0.025708605 -0.14454389
970161742180306944 0.015189263 -0.095876195 0.14193265 -0.00010925832 0.017759347 -0.003203472 -0.079861455 -0.056495428 -0.30637327 0.22130644 0.2776661 -0.040204316 -0.18054596 -0.027749384 0.16329028 0.25395548 0.13478538 -0.07999876 0.152796 0.23611091 0.1950451 0.13275799 -0.08101013 -0.10079046 0.12508072 0.04270115 0.13906226 0.07293153 0.12245009 0.002121834 0.18175149 0.012608163 -0.07100856 -0.0224008 -0.050892483 0.1799001 0.39596924 0.22552946 0.31004396 -0.06388314 0.51889765 0.28069124 -0.024496816 0.04941856 -0.0908362 0.005976118 -0.14626166 0.20406587 0.18399085 0.19308817 -0.02358803 0.0653068 0.30616525 0.25737566 0.043395117 0.20652114 0.17031884 0.11907972 -0.15821347 0.07854753 -0.23489337 0.17250116 -0.012293752 0.030236281
970237742293532672 -0.25682655 0.034656916 0.19226918 0.37247673 0.027543446 -0.14217669 0.16728947 0.06723976 -0.2038326 -0.20520188 0.082940176 -0.014823863 0.06762959 -0.088330135 0.17088072 0.5552052 0.04772434 -0.117329784 0.12701653 0.3125622 -0.009559825 0.29662544 -0.025945079 -0.24427031 -0.26488233 -0.036340464 0.08595499 -0.01608705 0.12499003 -0.08122274 0.010680946 0.27280274 0.013654752 -0.027841443 -0.19751924 0.04695506 0.1384534 0.07572348 -0.05315267 0.22259372 0.17237066 -0.014861798 0.086214885 0.11883545 0.27700785 0.033496577 0.18149264 -0.00823378 -0.062136516 0.0061482713 -0.17762144 0.029513612 0.22116198 -0.012261849 -0.08580311 -0.034110453 0.2750568 -0.09106119 -0.05223306 0.1338043 -0.31287155 0.19114953 0.03792794 0.28664792
970177506497126401 0.09091284 0.0016773667 -0.009605394 0.041506168 0.098862186 -0.06645981 -0.00060621154 0.055006336 -0.29990762 0.27173308 0.3984708 -0.12369807 -0.27061257 -0.1649442 0.44423276 0.13222937 0.13639021 -0.12296035 0.115934275 0.09860692 0.076184556 0.054501917 0.09086199 -0.2177475 -0.022419017 0.074875474 0.045738097 0.17135765 0.25133166 -0.12373298 0.07343909 0.5099395 0.1037712 -0.004994958 -0.21537298 0.013784335 0.07055393 0.10898425 -0.009118084 0.083178036 0.08627228 0.14924483 0.14787173 -0.107364945 -0.04872719 -0.004886309 -0.031997856 0.18586734 0.25177854 0.24664542 -0.10074919 0.26269266 0.2813485 0.26564747 -0.048752036 0.12419261 0.18011954 0.13597451 -0.10549547 0.30019906 -0.12422077 0.09896306 0.0214037 0.26836926
970127884688834560 0.37775496 -0.22504136 0.22166772 -0.068565115 0.03450818 0.19749908 -0.15288329 -0.20337181 -0.17446314 0.068560414 0.26106542 -0.21691011 -0.092318736 0.05305916 -0.10722593 0.38616207 -0.15643372 0.14235926 0.18137158 0.25319287 0.29387316 0.27944937 0.14799142 -0.13667378 0.08641099 -0.25572598 -0.2449198 -0.08468811 -0.14921251 0.017928667 0.060622096 0.14260657 -0.118976936 0.13105518 -0.0056354105 -0.20721231 0.10969988 -0.026078895 0.2234814 0.15688762 0.08288903 0.027063064 0.2131212 -0.17956093 0.025270553 -0.20649673 0.105910555 0.1167284 -0.19896793 0.2442036 0.072354086 -0.0007188926 0.41328776 0.15653875 0.327368 0.030478898 0.22810309 0.027068593 0.19301617 0.17866959 -0.28139994 -0.3605936 -0.12199235 0.06407999
970157427093057536 0.17726268 -0.0044977106 -0.08671735 0.003516215 -0.044461086 -0.044127326 0.18268286 -0.23536965 -0.26598808 -0.17615966 0.1321291 -0.1680625 -0.20282519 0.12719674 0.34226725 0.22012442 -0.2082347 7.801748e-05 0.325319 0.3944823 0.22910905 0.33419317 0.021509841 -0.15318379 0.07317179 0.2839435 -0.006026618 0.14032973 0.039846987 0.30383277 0.19780707 0.04908731 0.08189791 0.01665392 0.089852154 -0.17469485 -0.048461616 0.046239726 -0.037801027 0.17812397 -0.1318371 0.056199193 -0.04325355 -0.106489256 0.049120974 -0.024450792 0.13736647 -0.13949865 -0.14429872 0.44949242 -0.0026097337 0.0040895515 0.22085091 -0.084602766 0.18607183 0.24064253 0.068477444 -0.36227202 0.0427095 0.24618173 -0.25950482 -0.2994843 -0.082755774 -0.05704598
970163441724870657 -0.0041456237 -0.096138716 0.15428704 0.10348675 -0.018441098 -0.04286235 0.23974782 0.13692695 -0.24582513 0.25335655 0.382432 -0.115962 -0.20810987 0.0465107 0.33052543 0.038154304 0.0208558 0.017848112 0.120003834 0.1977498 0.19033806 0.008136091 -0.09103632 -0.3519377 -0.19363743 0.09155194 -0.027211124 0.22218782 0.07641831 -0.1866585 -0.07863853 0.51171017 0.100121826 -0.019293014 -0.27958673 -0.062738605 -0.08782336 0.088050604 -0.1348088 0.071412645 -0.06479529 0.2080836 0.07213786 -0.31611514 0.028451737 0.075989455 0.009714416 0.15052857 0.2897872 0.35384488 -0.10463394 0.1317489 0.2924215 0.22170715 -0.0031663505 -0.09093912 0.25008407 0.09426428 -0.1190156 0.3318361 -0.16572101 0.06156239 -0.0049380255 0.22715545
970217253261033472 -0.020794647 -0.115690544 0.05523824 0.13080579 -0.15459545 -0.4637582 0.067890085 -0.3083176 -0.34195125 0.045424815 0.2987944 0.17276128 0.09300798 -0.29872832 0.0831732 0.28735375 -0.15337157 -0.25651684 0.4363322 -0.011756631 0.026620492 0.19694442 -0.13739324 -0.26891527 -0.043619204 0.11302075 -0.07899714 -0.18739909 0.12968215 -0.13042979 0.23263563 0.27335456 0.051540956 0.15893479 -0.12362029 -0.18182844 -0.004309021 0.1466339 -0.082090415 0.15450954 0.058489874 0.27878097 0.20583199 0.13308778 0.20215884 -0.08414135 -0.33535016 -0.20125028 -0.13703787 -0.016107036 0.3450987 0.21857043 0.19790164 0.21610883 0.12738362 0.07196641 0.12375567 -0.11107053 -0.06057141 0.2711591 0.0041502626 -0.063006826 -0.17614551 0.14995526
970202669120856066 0.02372071 -0.18069205 0.11182152 0.21056432 -0.13122731 -0.26784012 0.010218547 0.05281339 -0.21243861 0.0018480885 0.30514786 -0.1462793 0.018715428 -0.063802965 0.06590393 0.28636155 -0.36495936 -0.0032059639 0.21406306 0.050174415 -0.027626196 0.03639479 -0.28022662 -0.50459856 -0.14635997 -0.04118054 -0.18510182 -0.36020476 0.14790826 -0.02471153 0.22445312 0.23517115 0.22836228 -0.108644724 -0.07416126 -0.08531569 0.21666701 -0.032295283 0.08538313 -0.06983395 0.2751479 0.113043696 0.18291682 0.14200698 0.27990985 -0.043255113 -0.09358616 -0.082837276 0.043222982 0.118375964 0.09590883 0.2763288 0.0856582 0.0458405 0.14374465 0.060197465 0.24369398 -0.12989978 -0.04564422 0.15744077 0.04396634 -0.013824421 -0.19416001 0.1475515
970173165606326272 0.2730173 -0.014735506 0.30870652 0.08667127 -0.04789605 -0.10307308 -0.02931331 0.04129997 -0.24179314 -0.13083917 0.15714662 -0.023091272 -0.1271414 -0.04279469 0.08076373 -0.17341293 -0.20178477 -0.2938033 -0.23561566 -0.076693244 -0.037379593 0.49525478 -0.0040591164 -0.34645084 -0.12330341 0.32033223 0.30354938 -0.10224953 0.31148615 0.014314574 -0.15613735 0.11001888 -0.00611444 0.028255278 -0.3832946 0.29920316 0.009147958 0.17593457 -0.069373176 0.08957587 0.26492292 0.06391714 0.115695134 0.06634288 0.10346964 -0.1867522 0.025053145 -0.20369656 0.17942673 0.21972227 -0.109265685 0.061007354 0.34230208 0.17713389 0.15460432 0.043179702 0.34580004 -0.010005408 -0.09722664 0.16374677 -0.111819625 -0.07302927 -0.30696952 0.27847487
970158165059760132 0.20037475 0.0073186164 0.14572167 0.29886287 -0.005500019 -0.059784062 0.2690758 0.0824383 -0.37378958 0.13867904 0.3936943 -0.05354191 -0.2478648 0.049476918 0.26687372 0.062312145 0.04465638 -0.03790462 0.11295096 0.16396093 0.2117107 -0.13502689 -0.04450883 -0.35286367 -0.076760046 0.14410186 -0.0068842554 0.12617545 0.25078332 -0.12318795 -0.18521518 0.5439915 0.2018389 -0.040386412 -0.16769743 -0.16322926 0.039305225 0.06833841 0.080456905 0.04260192 0.0365809 0.027677605 0.032713104 -0.09484485 -0.06193059 0.08657314 -0.04279349 0.19335182 0.23559229 0.34060153 -0.07266022 0.005612189 0.31322515 -0.0057637286 0.10026661 0.081228994 0.12671427 -0.010776495 0.11417174 0.24511307 -0.20270155 0.024199545 0.080442786 0.3014592
970209827803688962 -0.09260478 -0.24872793 0.14271991 0.18983388 -0.16571555 -0.36778972 0.035145212 -0.10095331 -0.33896923 -0.10966906 0.32994655 -0.06752748 0.068980515 -0.18881729 0.17885251 0.3619032 -0.21563683 -0.10630033 0.40960744 0.106312394 0.02876735 -0.06860793 -0.10408803 -0.25144848 -0.06611172 0.042560548 -0.014335323 -0.06360091 0.12223042 -0.07942055 0.17103511 0.17203496 0.060368992 0.08284292 -0.14193167 -0.09060323 0.12882894 -0.034061518 0.07474927 0.023677515 0.16348548 0.23766306 0.17911892 0.12380507 0.22386776 -0.086571835 -0.2664889 -0.14697836 -0.06407752 0.094340585 0.26539502 0.2168956 0.14647935 0.18876685 0.13342525 0.2172649 0.13753523 -0.08470952 -0.12546422 0.22761108 -0.006043589 -0.06428437 -0.2291852 0.11038962
970403995821813761 0.2742195 -0.31808048 0.18712462 -0.16200449 -0.016882751 0.1517152 -0.15737016 -0.032193314 -0.2111521 0.056068294 0.3091592 -0.2632505 -0.16505022 -0.049502876 -0.20639151 0.29949543 -0.16681898 0.12574112 0.041645374 0.42231488 0.09672466 0.124368064 0.13309138 -0.120569244 -0.10450508 -0.11168547 -0.16759376 -0.14575538 0.114201106 0.1489436 0.26167268 0.05334255 -0.116102226 -0.13584594 -0.06735575 0.0173286 0.1705181 0.17372201 0.104248814 0.032043338 0.29761115 0.14277889 0.09352692 -0.1287864 -0.020659305 -0.16744024 -0.13165106 -0.13614891 -0.13214026 0.16397592 0.113887 0.28358087 0.26830733 0.24609378 0.21971641 0.093538284 0.28865054 -0.06486064 0.07629716 0.15851647 -0.032971133 -0.307743 0.06781891 0.026868293
970133333924458496 0.35215494 -0.44450742 -0.15983382 0.015341252 -0.016122086 0.21753281 -0.062389534 -0.119855694 -0.6059869 0.021332337 -0.097915106 0.11292109 -0.29991093 -0.22971213 -0.011926852 0.24221426 -0.08745961 -0.16540861 -0.24647152 -0.045022987 0.10548149 -0.02076334 0.06985968 -0.12032243 -0.11820359 -0.008513148 -0.30066767 0.09456364 0.11182638 0.093927845 0.5564759 0.21969543 0.050682787 -0.4273899 -0.20580153 -0.17522137 0.002030547 -0.019998265 0.009186975 -0.3204201 0.052349284 0.23104116 0.112811446 0.1754215 0.061650634 0.12092937 0.22301824 0.056413144 -0.22250181 0.24264407 0.1673722 0.12983775 0.29223487 -0.10934285 -0.07574585 0.2265917 0.27665102 0.2110185 0.24422088 0.146989 -0.16148426 0.04006805 -0.21776584 0.2078648
970194343398010880 0.22082925 -0.16052988 0.03442051 -0.1119312 -0.11956773 0.11135081 -0.014289958 -0.009012368 -0.20443852 0.07809301 0.32967442 -0.26039812 -0.059273813 0.10947126 -0.18473461 0.31837794 0.14919683 0.1450474 0.26848638 0.35572827 0.30556318 0.31566572 0.19319335 -0.23718551 -0.00025592337 -0.2337636 -0.12681577 -0.06586196 0.10712031 0.11743752 0.27095115 0.21440944 -0.2104541 -0.06077491 -0.28985414 0.06264584 0.18224345 -0.031026244 0.012856699 0.06866894 0.17700835 0.12396055 0.16375908 -0.045530606 0.021422533 -0.107586205 -0.17055564 -0.0052413084 -0.012311264 0.0005401366 0.06618315 0.25649783 0.26410142 0.30531955 0.18634026 0.050228644 0.06953732 -0.024590751 0.007508953 -0.0017440422 -0.10682682 -0.31487155 -0.027972843 0.1421471
970252693896876037 0.20508763 -0.081599 0.0028183062 0.16357271 -0.10344371 -0.21418767 -0.14592232 -0.06939572 -0.101156935 -0.011166339 0.32885772 0.17514363 -0.23692188 -0.007907557 0.1248507 0.24526118 -0.13466598 0.26600447 0.021777373 0.409533 0.1050794 0.24688844 -0.016244546 -0.08580786 -0.3292323 -0.17079031 0.020010317 0.038579326 0.041683044 -0.04031043 0.21933933 0.034095384 0.0067455196 0.102316685 0.13211107 -0.0331803 -0.0331642 0.06802377 0.012796458 0.3022072 0.07214142 -0.013220476 0.041712176 -0.07011669 0.18691532 0.044364423 -0.009557952 -0.09367054 0.044191036 0.2829583 -0.082253195 0.02240523 0.12978911 -0.16933772 0.023418652 0.18437499 0.3287096 -0.14332415 0.15426292 0.28220353 -0.23652093 -0.117373474 -0.058761068 -0.18362872
970157141611851776 0.18186764 -0.045118235 0.052679352 0.1055231 0.032608688 -0.07443362 0.063661404 -0.23074828 -0.17675623 -0.09732015 0.14405768 -0.08331126 -0.2074191 0.09288362 0.110045165 0.14928958 -0.18155798 -0.06670044 0.2790965 0.39158618 0.22468495 0.19806904 0.020095898 -0.30523118 0.050574385 0.23148051 -0.06620502 0.2688123 0.09774043 0.040077724 0.1450097 0.019290797 -0.050695598 0.19286428 0.21229596 -0.16986728 0.052916914 0.08920925 -0.052039 0.30858645 -0.104970425 0.13020481 0.07312758 -0.05259968 0.059930712 -0.032707784 0.1645922 -0.12607774 -0.119111076 0.34958586 0.22718239 0.07469249 0.28332877 -0.13733172 0.40408117 0.23346192 0.06123395 -0.24862646 0.028425675 0.080360524 -0.1444676 -0.21279415 -0.20394541 -0.087950125
970212009433182209 0.25422722 0.25250128 0.33111146 0.14411677 -0.090947494 -0.32355294 0.09762386 0.013308239 -0.45280465 0.28705016 0.4085612 0.021452479 -0.17138456 0.17234942 -0.033766046 0.25787774 0.21654679 0.17536305 -0.029260652 0.030261913 -0.17472531 0.57921183 0.17174849 -0.4281826 -0.11723244 0.051703077 0.005841483 0.0012132279 -0.12261853 -0.40006337 0.21240562 0.14730474 -0.19923484 -0.07932752 -0.18891154 0.078526825 -0.0018982252 0.030690942 0.029656488 0.068716176 0.06686434 0.25472486 -0.011939549 0.035592794 -0.25315434 0.10586285 0.15296492 -0.13472396 -0.114846855 0.2447481 0.09346421 0.11405764 0.44074875 -0.52061313 0.18675114 0.092345044 0.08306398 0.017602976 0.07454938 -0.08483246 0.104262605 -0.03131514 -0.477787 -0.3587972
970132884156645376 0.23670633 -0.56557405 -0.2549696 -0.002366201 0.05975598 0.101122774 0.11605439 -0.10177946 -0.5921979 0.05117859 -0.08585375 0.23506396 -0.27646723 0.030276736 -0.0021159116 0.35429016 -0.005674496 -0.16467983 -0.25609717 0.04977362 0.14438784 0.2232651 0.07034456 -0.20047016 -0.12948768 0.037430685 -0.25710797 0.06920632 0.34679028 0.16877022 0.42993486 0.26836607 0.17885907 -0.33135498 0.12584724 -0.17200126 -0.16261764 0.10465254 0.14881387 -0.14312644 0.10211947 0.031633005 0.049002297 0.11804552 0.012728804 -0.2665999 0.2085941 0.2305428 0.017251128 0.13037345 0.3042122 0.22803426 0.25384405 -0.009059774 -0.1537529 0.06355429 0.21181202 -0.032966454 0.06862762 0.026739227 -0.22027214 0.123537324 -0.022967217 -0.06681547
970191345326288897 -0.16802457 -0.16516814 0.26960987 0.36395463 0.08463465 -0.160135 -0.2106031 -0.00027035872 -0.4596786 0.15566681 -0.018635675 0.026056912 -0.41959518 0.3043787 0.2222592 0.34687862 0.07293675 -0.10212186 0.008504938 0.1267738 -0.21848483 0.015439042 -0.22364178 -0.016314905 0.18381508 -0.24449836 -0.08137049 0.15998717 0.10603442 -0.12998413 0.43470293 0.009467626 0.1989292 0.053584848 -0.24562262 0.43066883 -0.022049343 0.05178579 -0.12617823 0.08359934 0.082920976 0.4788146 0.1858673 -0.020143753 0.40338692 0.008820843 0.3142175 -0.146924 0.037987135 -0.09863014 0.24011195 0.17739244 -0.12879823 -0.18008746 0.23235464 0.17552625 0.30599803 0.17444654 -0.17628063 -0.08735065 -0.50170064 -0.020598209 -0.042329673 0.117081605
970189406706458624 0.09204909 -0.22677825 0.26686788 0.075538 0.17975946 -0.16518344 -0.0954165 0.0025615373 -0.16775407 0.01840929 0.31160888 -0.071081035 -0.13288376 -0.059619144 0.04201457 0.18806851 -0.17806895 0.11048548 0.06438005 0.34938845 0.20756002 -0.05443319 -0.107802615 -0.14616114 -0.13722269 0.18625921 0.10018822 -0.070550635 0.20162298 -0.016688352 0.37747273 0.25836438 0.02207975 -0.011872134 -0.007952853 0.14727738 -0.10791916 0.2919281 0.019498127 0.16778213 0.1584429 0.30140132 -0.010264027 -0.09402518 0.068669274 0.023783175 -0.07804371 -0.06589741 0.120558605 0.16656864 -0.03558916 0.16108036 0.18408178 -0.07685437 0.026578723 0.095520005 0.09464487 -0.1311856 0.1426922 0.11055194 -0.037937943 -0.008974011 -0.05850322 -0.0065943375
970331873191673856 0.08424984 -0.16993292 0.13044158 0.37182975 -0.061389975 -0.059084713 0.06364378 -0.44357464 -0.2356517 0.1014502 0.25839344 0.0803023 0.0093650855 0.0011480422 0.124919444 0.09844095 0.13405427 0.028812107 -0.21826375 0.008423537 -0.033175703 0.28234732 -0.12638757 -0.31940436 -0.20414627 0.010068886 -0.16452102 -0.20857434 0.3492194 -0.20574729 0.29389313 0.112064674 -0.08482101 -0.04447149 -0.06315986 -0.07746906 0.10441423 -0.14585085 0.06915889 0.13052844 0.19837716 0.115203224 0.16772969 -0.14512005 -0.01826099 -0.05752181 -0.12142071 0.018491793 0.23122498 0.10688556 -0.021472339 0.24157602 0.11505547 -0.16890398 0.028938064 0.088228524 0.0015760112 0.04696047 -0.14233266 -0.010088144 -0.20620093 -0.114917226 -0.20274939 0.030517943
970397460257325056 0.16773236 -0.042764015 0.037193935 0.49794838 -0.08149393 -0.25977165 0.26647195 -0.1064064 -0.3703686 -0.3131423 0.2703003 0.07442196 -0.15800913 -0.007862979 -0.05993699 0.0036506655 -0.084288314 0.010370252 -0.034965824 0.2671764 0.11037726 0.25901574 0.04493753 -0.116029985 0.12881874 -0.03772072 0.117763385 -0.037031732 0.1853407 -0.09423666 0.20278999 0.05755703 -0.20250008 0.05909331 -0.059839617 0.05226122 0.06488637 0.21385804 0.029205738 0.18631491 0.18199138 0.13728003 0.21497872 -0.14034788 0.01598537 0.00090127246 0.13961953 0.047985826 -0.10971819 0.04204174 -0.30870092 -0.07120897 0.24083179 -0.21328251 -0.11945266 -0.039173596 0.11960495 -0.01824402 0.14320657 0.14833805 -0.22617789 -0.13554823 0.101560734 0.058506202
970240201317429248 0.08277021 -0.27619052 -0.2211652 0.13650702 -0.012359303 -0.16899113 -0.103616826 -0.05756966 -0.34618914 0.06168502 0.23978305 0.045787774 -0.017463762 0.0117853535 0.10568241 0.20998855 -0.35269505 -0.12846905 -0.044983007 0.245431 0.12562826 0.21060562 -0.06050523 -0.046687692 -0.11667573 0.045792792 -0.16174069 -0.13194104 0.17920162 -0.023186984 0.22957236 0.17508489 -0.06414747 -0.052283753 0.060658444 0.0081586335 0.119591 0.08153665 -0.068370365 0.11834395 0.09909007 0.28488532 0.16198605 -0.05244988 -0.10533444 0.06464757 -0.0075756744 0.00015749215 0.1834095 0.07663507 -0.07829476 -0.03887149 -0.039928526 0.101885 0.04754189 0.032809444 0.17581823 -0.012857156 -0.13857721 0.17730057 -0.18534179 0.039136402 -0.279832 0.10407829
970124316590333952 0.14137836 -0.18429555 -0.13317998 0.2556456 -0.13696298 -0.11899986 -0.15698466 -0.19903281 -0.19004764 0.0047535803 0.35179484 0.11062952 -0.0751536 0.17793952 0.20081902 0.027135843 -0.19446635 0.15408233 0.06742382 -0.01179213 0.17117037 0.12342269 0.18874808 -0.24377328 -0.21292207 -0.03892355 0.029219618 0.19939889 0.07460828 0.023383385 0.28236076 0.20046397 -0.22633806 0.12947594 -0.17741455 -0.03895475 -0.019438935 0.20635907 0.05438167 0.2609922 0.0873627 0.2576905 0.028337061 0.14764431 0.2748902 -0.034750376 0.0033152648 -0.10312909 0.17211023 0.13851102 0.13436309 0.0841274 0.20562488 -0.18862315 0.19139187 0.14788342 0.079708755 -0.069910176 0.056160428 0.21037619 -0.19743921 0.12728016 0.10860623 0.06713859
970387361988190208 0.11971933 -0.22522631 0.3285813 0.058210224 0.044553425 0.32463327 -0.07813819 -0.09458896 -0.19847475 -0.21609926 0.17303081 -0.08069786 -0.02156057 -0.052791253 -0.23955728 0.6067807 0.10766165 0.020570926 -0.010725902 0.4746508 0.44600773 -0.06422069 0.22840005 -0.36118555 0.09432387 -0.09258256 0.035173688 -0.00430241 -0.30212206 0.082642384 0.2036904 0.1976071 -0.055525728 -0.06371967 -0.11185148 0.16315193 0.23225114 0.17233345 0.27049148 0.18485998 0.11880443 0.42609486 0.11230948 -0.3058072 0.034661714 -0.33049077 -0.044334404 0.04059403 -0.030804453 0.3701402 0.019049829 -0.05645778 -0.017654683 0.17843492 0.03624921 0.05311207 0.15728408 -0.02124258 0.02393352 0.16871634 -0.074327976 -0.057949614 0.036449306 -0.020202199
970155606823772161 0.26900834 -0.01997962 0.13894719 0.13148451 -0.070429154 0.056769956 0.29313672 -0.008519609 -0.20390223 0.08071837 0.4763897 0.0023570526 -0.26724568 0.020300996 0.3502567 0.14874163 0.0008972029 -0.021371283 -0.08479546 0.09901404 0.06704767 0.06864074 0.02115667 -0.26121143 -0.2535445 -0.03987273 -0.079051256 0.110043205 0.26975545 -0.093514755 0.024069307 0.49485552 0.23096319 -0.060499735 -0.2677247 -0.1498501 0.03949063 0.026962781 0.06056337 0.07541882 -0.15982884 0.167388 0.18423791 -0.30868718 -0.106159426 0.092934676 0.04600092 0.16683596 0.28503498 0.30760717 0.08431563 0.09119357 0.3055301 0.03406983 0.019995471 -0.1462611 0.031649064 0.042381804 -0.10092131 0.18227367 -0.10361153 0.019776512 -0.067350246 0.15245517
970149549846253568 0.2609339 -0.26412374 0.2620826 -0.119671695 -0.16077101 0.20812725 -0.15058658 -0.023512945 -0.47826156 -0.1355439 0.08280213 -0.29112744 -0.093879476 0.043602716 -0.19529058 0.38689944 -0.27998462 0.14124629 0.037146363 0.239231 0.1665186 0.22746283 0.19268627 -0.1306329 -0.046418726 -0.29138535 -0.20097928 -0.093913354 -0.0065389993 -0.014458604 0.3602843 0.11456598 -0.17190689 -0.067596585 0.15825506 -0.20707434 0.14186965 0.12060137 0.10582388 0.07938597 0.07035599 0.092246324 0.018371908 -0.17354678 -0.03388517 -0.237324 -0.02433833 -0.1394904 -0.120287925 0.1570047 0.032695826 0.12844966 0.21307683 0.28060618 0.17288724 0.08191679 0.29714265 -0.044950124 0.0040100454 0.06615918 -0.092093475 -0.44318503 -0.0072123003 0.11962913
970387079875080192 0.11402593 -0.30052072 0.20809664 0.049481746 0.10995223 0.2707681 -0.07001491 -0.038659494 -0.17595917 -0.08371268 0.06720013 -0.03646333 -0.22070868 0.02103955 -0.22414842 0.5826717 -0.04723479 0.1031724 0.11410294 0.39142418 0.18403332 -0.04312695 0.18151516 -0.28200153 0.15142417 -0.1341372 -0.12609597 -0.023906691 -0.1076965 -0.014789341 0.08093693 0.16293643 -0.34940177 0.05870193 -0.08235738 0.1620519 0.244896 0.17481725 0.25107354 0.07481281 0.15960985 0.5581557 -0.0529735 -0.19168152 -0.10285712 -0.21659757 0.050430752 -0.035120428 -0.092031054 0.2942508 -0.056456897 0.23233584 0.17076002 0.112744786 -0.015239204 0.10884175 0.16480222 -0.13987221 -0.085959956 -0.106908426 -0.21109055 -0.30883914 -0.0024818531 -0.003056835
970241000395325440 -0.0126037765 -0.102355234 0.015069176 0.2703607 0.05237248 0.11625797 0.033868678 -0.23402695 -0.16162823 -0.07381634 0.3017349 0.21331649 -0.10454736 -0.18107378 0.17559464 0.38120714 -0.08723643 0.031813398 0.18141463 0.16291553 0.38356632 0.15120156 -0.25239068 -0.36440453 -0.14480391 -0.14903352 0.0696416 0.012628798 0.46454605 0.06666207 0.20855525 0.108396195 -0.1829154 -0.17450598 0.17163987 -0.09418899 -0.15422876 -0.06563077 -0.029380068 0.054393638 -0.095601685 0.06589629 0.041147955 -0.024002444 0.062122647 0.14186078 -0.07363746 -0.18199705 0.12237452 -0.08876267 -9.521795e-05 -0.24200411 0.013805609 -0.11146848 -0.03660226 0.0131081585 0.21732241 0.13883099 -0.15855837 -0.029546112 -0.29490492 -0.030120982 -0.21756417 -0.07543652
970167305215750144 0.16987541 0.3664607 0.30262578 0.024606222 -0.2643053 -0.44912922 0.0071781417 -0.050776362 -0.46419653 0.25873467 0.5755636 0.01038092 -0.12885043 0.23039964 0.16835509 0.18943341 0.12982659 -0.13012774 0.032075744 0.09280395 0.0015455671 0.42876643 -0.107850574 -0.33375186 0.0038411862 -0.12870552 -0.052387483 0.37963614 -0.053009097 -0.15019149 0.2472363 0.08156093 -0.12507163 -0.2209877 -0.41635114 0.17488715 -0.23457804 0.03290383 0.002874139 -0.13147984 0.08918256 0.009036607 -0.10735012 -0.17004293 -0.2243302 -0.052248985 0.2742731 -0.08283811 -0.044778313 0.26686764 0.082227536 0.2679236 0.24867642 -0.465005 -0.053686228 0.18893495 0.2089399 -0.14331496 0.04170554 0.17730494 0.051423967 -0.03914683 -0.29838815 -0.35672376
970446464852795393 -0.00047454174 -0.29666075 -0.022870908 0.29165813 -0.17862579 -0.08280879 -0.07749293 -0.21375561 -0.11687452 -0.010669373 0.47978935 0.024215728 -0.07369694 0.073496684 0.17830636 0.21156816 -0.09901399 -0.13557883 -0.05679316 0.09890098 0.1047788 0.11748061 -0.12850422 -0.2415803 -0.09629247 0.019481603 0.05157914 -0.012916667 0.17086838 -0.19835278 0.2584108 0.3462434 0.07669768 0.039344165 0.046937913 0.244863 0.06593777 -0.098935015 0.20323241 -0.08417234 -0.0058981576 0.16330428 0.018245876 -0.13186298 0.0006450875 -0.07700542 -0.00859027 -0.12490781 -0.05952975 0.13504687 -0.114507146 -0.055125386 0.11812625 -0.1372993 -0.22037402 0.16779162 0.29800662 0.10173244 -0.27426785 -0.022144858 -0.12580855 -0.036473706 -0.0056831227 -0.10618767
970224942628323328 0.09456625 -0.089850396 0.040088106 0.19473535 -0.019290598 -0.2754717 0.04876962 0.06586763 -0.2827924 -0.016536936 0.34234735 -0.07590804 -0.13376588 0.05459475 -0.0029524954 0.15481399 -0.06427349 -0.08474555 -0.106022194 0.28961843 0.22472847 0.16435963 0.026588859 -0.14349677 0.056143884 0.22086239 0.048576113 -0.0049628527 0.08588304 -0.18983999 0.40067452 -0.04586922 -0.20864843 0.022982685 0.043754525 0.0030652226 -0.02037 0.13889411 0.007696526 0.23922239 -0.013870133 0.07925051 0.26599953 -0.17636316 -0.07097088 0.03406575 0.2381102 0.13653739 -0.08442197 0.29912922 -0.119831204 0.011617237 0.0018060326 0.10703652 0.051873215 0.06398708 0.14855592 -0.08614834 0.007899713 0.0925609 -0.27106863 -0.0052700704 -0.19202918 -0.18110935
970199130768261120 0.18409146 0.36547977 0.27644804 0.1844066 -0.11362586 -0.42020234 0.08328102 0.041147213 -0.584298 0.16034104 0.51611656 0.2424305 -0.067447245 0.25593317 -0.17646341 0.09995331 0.3518067 -0.15427639 0.010190658 -0.08110289 -0.12660895 0.74944186 -0.007022905 -0.36166787 -0.13186659 -0.14825438 -0.09129821 0.26030573 -0.011039321 -0.23625016 0.2792219 0.12279139 -0.15291108 -0.032382563 -0.13614891 0.007808301 -0.15402201 -0.01779634 0.20027466 -0.02188039 -0.019948825 0.18626817 -0.085855916 0.034496617 -0.105350584 -0.029167473 -0.007955468 0.06563183 -0.25145298 0.22593558 0.032681316 0.20358554 0.3606401 -0.41361076 0.12927292 0.022168407 0.14893359 -0.23105061 0.12811087 0.10717979 -0.10955742 -0.1525676 -0.13439967 -0.06076082
970112983912214530 0.42143825 -0.31123346 0.3236775 -0.08029868 -0.32612783 -0.06540782 0.0759303 -0.187145 -0.044118863 0.071960576 -0.11597613 -0.07660075 0.021177122 -0.024239525 0.36290756 0.50957054 -0.33451515 -0.117074326 -0.3741848 -0.17960507 0.09698214 0.28505325 0.028951364 -0.05564395 -0.15697473 0.21401545 0.21768309 0.010741761 0.102817446 -0.023366436 0.07686708 0.07035747 -0.087355666 -0.08870913 -0.19415307 0.039578915 -0.122735366 0.15775913 -0.11108199 -0.012948897 0.25390735 0.22717105 -0.087697476 -0.19968536 0.18769906 -0.11925593 0.00086512865 -0.00012243094 0.08234511 0.24270087 0.038369827 -0.11799327 0.36770502 0.13426693 0.4318599 0.125648 0.08550322 0.029151127 -0.05022621 0.32877865 -0.25805417 -0.20230098 -0.2900038 0.08023738
970117882393907201 0.32026225 -0.3087607 0.3785658 0.2096131 -0.37506926 -0.124175236 -0.052526332 -0.03663612 -0.29124376 -0.40284532 0.11351177 0.024858575 0.044651 0.30502033 0.32405627 0.2412299 -0.19556247 0.23933877 -0.5850253 0.007456505 0.018748496 0.2671404 -0.25719795 -0.31075907 -0.039218348 -0.045456104 0.27994677 0.0017720286 0.15358041 0.14845139 -0.13633214 0.2802202 -0.08278976 0.005406913 -0.04100174 -0.0033545406 -0.07690408 0.17221229 0.13307977 0.076881155 0.23863871 0.051299565 0.005538097 0.2915725 -0.20730504 -0.0670494 -0.17544799 0.05842369 0.2115385 0.039057072 0.30232072 -0.41025853 0.26534435 0.043738108 0.35979733 0.42035553 0.177407 0.12999366 -0.18603012 0.47619125 -0.15985817 0.038459368 0.15555602 0.010325971
970189212237508608 0.11886382 -0.100693665 -0.02070272 0.08729269 -0.20866133 -0.31998923 -0.08122835 -0.23096769 -0.54562974 -0.078948766 0.21522091 -0.08098558 -0.15379931 0.12746564 0.15666278 0.24784078 0.10305873 0.105165415 0.22104684 0.35134032 0.10419937 0.14341977 -0.062331166 -0.18661344 -0.049064703 0.17850365 0.23541999 -0.20759232 0.04227162 0.06430601 0.21403229 0.12829074 -0.060882904 0.0591814 -0.20530732 0.051477578 -0.39770126 0.034080904 -0.047070295 0.005521059 -0.1253782 0.18356362 0.020863047 0.10634936 0.09393266 -0.3512096 -0.018911084 -0.09033508 0.060137942 0.033199046 -0.12372739 -0.1977973 0.27553764 0.0092930375 0.20937365 0.11494529 0.28501153 0.084105216 -0.020306064 0.4509907 0.056516808 0.35839477 -0.02817173 0.1963934
970299044072321025 -0.13897455 -0.06023128 0.20607568 0.33030763 0.060561843 0.120756716 -0.10650234 -0.35190845 -0.36998174 0.27432397 0.27037323 0.043273594 -0.1734326 0.06150058 -0.027732646 0.20287763 -0.10122739 -0.039253417 -0.044799633 0.17249908 0.05861345 -0.011173132 -0.48216185 -0.1816504 -0.070907645 -0.10658126 0.5018897 -0.018107755 0.2787922 0.19113256 0.5419948 -0.13171631 -0.2196332 -0.047598377 -0.10597778 -0.20476182 -0.036334444 0.46049485 0.046688884 0.23751956 0.021664677 -0.25754544 -0.029695489 -0.0067130937 0.07693237 0.2780565 0.09200434 -0.118735544 0.12828283 0.21869104 -0.16538286 -0.09134625 -0.11150801 -0.08087426 -0.30832976 -0.24736598 0.29913345 -0.04848049 -0.4245317 -0.1783512 -0.44157782 -0.18928374 -0.04117318 0.30556566
970177693886029824 0.24826579 -0.19635183 0.019450724 0.11793026 0.02361618 -0.18870807 0.08845307 -0.14387514 -0.45785165 -0.23046122 0.1689629 0.034481682 -0.46500942 0.27616382 0.054111507 0.35233358 -0.054956377 0.13699679 0.089133374 0.2186155 0.11900227 0.21342845 -0.1097952 -0.12987368 -0.15573812 0.11847242 0.105371274 -0.26282182 0.024926782 -0.039305262 0.13819128 0.10207753 0.07858573 0.12668197 -0.31695142 0.006570568 -0.31542635 0.038456064 -0.07167371 -0.04053495 0.08202121 0.060189653 0.025754843 0.06635216 -0.14828464 -0.44486076 0.14230515 0.10186295 0.1032543 0.29403132 -0.23301917 -0.13656056 0.21254039 -0.010175742 0.1338751 -0.018751534 0.21721499 -0.09552076 -0.19063069 0.50416934 0.10728381 0.3525918 0.031967517 0.11158642
970093341609156608 -0.034025438 -0.17503399 0.23904416 0.17454696 0.073943436 0.03020849 0.05970677 0.04728463 -0.113897376 -0.03566955 0.38001475 0.1503887 -0.124594055 -0.038346 0.39820978 0.33760443 -0.12662138 0.052252863 0.04850332 0.07381638 0.3873047 0.19987589 -0.0657759 -0.22569184 -0.30481052 -0.15117453 0.21132308 -0.004066853 0.11736149 -0.20671536 0.0013224704 -0.005628079 -0.0039009426 0.024081497 -0.31252232 0.09684192 0.14119661 0.026422577 0.03832024 0.19477282 0.2566401 -0.0066155554 -0.008876303 0.032319367 0.05236924 0.13096878 0.16994819 0.21356538 0.14604482 -0.15754108 -0.093590714 0.48381436 0.06587007 0.19813268 -0.03166099 0.24354193 0.12992828 0.22074762 0.3140884 0.13835701 -0.42744115 0.16911922 -0.09241374 -0.08169429
970195611910791168 -0.0117392205 -0.013017612 0.071365125 0.21990469 0.12577477 -0.34867308 -0.09608946 -0.1979319 -0.29588115 -0.04806093 0.14669518 0.024418365 -0.51015615 0.08820724 0.5226172 0.14116003 -0.04643587 -0.10891801 -0.1174816 0.13715787 -0.06105024 -0.17454948 0.011460488 -0.09910407 0.28041852 -0.23786369 -0.1106193 -0.014105065 0.3325608 -0.06943823 0.52778924 0.19382912 0.13135937 0.18033765 -0.23854117 0.36753353 0.22484711 -0.059533615 -0.023609646 0.20235087 0.2861411 0.4180989 0.18212575 -0.12144676 0.3173644 0.18226998 0.23481065 -0.12887706 0.08229273 0.10293554 0.2054031 -0.12563105 -0.37663606 -0.14355545 0.2567943 0.13467507 0.116981804 0.32518744 -0.115316994 0.060805604 -0.44833523 0.009519801 -0.0064702258 0.14771408
970379049527779328 -0.11654149 -0.115457654 -0.016554145 0.19701537 0.020844197 -0.06170706 -0.2669563 -0.12583199 -0.27588838 -0.07184406 0.22611484 0.25792873 -0.20589344 0.100723185 0.15612084 0.32924455 -0.07454964 -0.11176772 0.0032515721 0.23496616 0.12212395 0.10132244 -0.31405357 -0.13882495 -0.23117802 0.017060606 -0.078574404 -0.1333316 0.39972004 -0.18868324 0.11936296 0.17994326 -0.1261006 0.10695842 -0.12840992 0.054915246 0.16594037 -0.027008234 0.18814166 0.04608547 -0.008455018 0.11477971 0.15538085 -0.016433297 -0.024409983 0.12470764 -0.05742912 0.015085765 -0.0656114 0.10831947 0.007533323 0.13787493 0.17499356 -0.01737203 0.025084887 -0.12248722 0.3325118 -0.03757258 -0.021945974 -0.26117656 -0.054605085 -0.021607168 -0.25414822 -0.10772672
970101886194892800 0.09667756 -0.2328342 0.25315616 0.15531835 0.07276379 -0.10715461 0.065367475 -0.18386634 -0.27273127 0.23981716 0.11093421 -0.115421936 -0.19017725 -0.015636375 0.19828635 0.30356982 -0.18922304 -0.12066549 0.13371997 0.27148685 0.1361029 0.14857005 -0.023415761 -0.085411035 -0.2171719 0.02448423 0.10309656 -0.068643376 0.18702888 -0.013053464 0.1778598 -0.008343098 0.09017471 0.01484444 -0.0031259519 0.06456097 0.04651152 0.11865962 0.053562578 0.35408396 0.24637163 0.059176907 -0.048847742 -0.07578866 0.08688327 -0.08982576 -0.14382102 -0.2751443 0.09607988 0.3112623 0.14138964 -0.114708915 0.20110014 0.12215591 0.098750174 -0.13923699 0.247626 -0.19482028 0.055111635 -0.06928374 -0.19474192 0.108077146 0.0077280775 0.041269764
970177601959444480 0.06551823 -0.29753888 0.009420072 0.19846544 0.13396752 -0.34121376 -0.015875647 -0.007160728 -0.394865 -0.119403996 0.26566255 0.30005658 -0.15729521 0.03687745 0.14728528 0.121509306 -0.2130493 0.009183425 0.026020963 -0.031758025 0.18971899 0.2363577 -0.036868226 -0.17789504 -0.1325982 0.006837566 -0.08050051 0.060022622 0.16875218 -0.09425667 0.14142919 0.19264862 -0.14855964 0.049328685 -0.10751484 -0.18239763 -0.27121493 0.18204473 0.08556232 -0.018662376 -0.028003642 0.11614515 0.47442827 -0.19744104 0.24185506 0.11258889 0.011956964 0.061157506 -0.014151117 -0.034396257 -0.17144804 0.079339065 0.056295216 0.034934744 0.08786414 0.13126497 0.26635957 0.0030956103 -0.19291759 0.080665655 -0.09803727 0.039353777 -0.131567 0.05124354
970185323203371008 -0.015655255 -0.26396894 0.12774378 0.2000063 0.10012264 -0.31556433 -0.19495602 -0.2316335 -0.40888587 0.03521314 0.072833404 -0.0451221 -0.5682887 0.22737806 0.21173136 0.34517264 0.2059903 -0.011839691 -0.066954516 0.10337622 -0.10778939 0.14534177 -0.1052456 0.08927624 0.108641244 -0.19697516 0.13795745 0.042557996 0.17783971 -0.2838784 0.3473354 0.04918963 0.19648929 0.25881812 -0.12756582 0.24886939 0.2459049 0.031045688 0.035121392 -0.10279796 0.0967453 0.6034338 0.19147933 -0.066805914 0.18438458 -0.054083984 0.22947247 -0.19399847 -0.08090589 -0.0022603688 0.22167245 0.08428179 -0.19965295 -0.18610515 0.07901486 0.09542067 0.08794911 0.050821315 -0.37043083 0.055680733 -0.43100446 0.002738851 -0.1710094 -0.07976297
970245141029052416 0.13059129 0.05060396 -0.01143305 0.35522437 -0.070963554 -0.04352049 -0.013783973 -0.35272914 -0.47506964 -0.1506236 0.26714322 0.033241954 0.04939446 -0.2564437 -0.030353097 0.17126544 0.20592344 0.10483548 -0.009383713 -0.018366832 0.21780026 0.052054726 -0.10307374 -0.37391132 -0.14896415 0.1878135 0.035963856 -0.02837435 0.22594944 -0.13025713 0.21458477 0.12766947 0.008172207 -0.007220542 -0.043132566 -0.094420075 0.2555968 0.12888369 0.05002614 0.01665047 0.22063813 0.13675493 0.098621234 -0.07606536 0.08072705 0.14620674 -0.20032005 0.0055923006 0.26559153 0.039106842 -0.051058758 0.04037012 0.10069924 -0.3269249 -0.06321289 -0.22440776 0.11509186 0.041050665 -0.026235174 0.026448838 -0.4349575 -0.48289806 -0.21524562 -0.20349933
970415988532367360 -0.10529041 -0.0064730514 0.10836373 0.23516403 0.006037177 0.13612711 -0.21057342 -0.2926079 -0.45700964 -0.121360786 0.10290565 0.083082624 -0.051255234 -0.09459366 -0.021001134 0.45347124 -0.037195288 -0.17019813 -0.11116112 0.29081154 0.08011678 0.12881984 -0.00857982 -0.22934891 -0.32777774 0.14080547 0.04474709 -0.11636474 0.40449157 -0.08522358 -0.07357135 -0.047998562 -0.004784085 -0.02351066 0.0043576877 0.022368073 0.39992657 0.16488309 0.04425963 -0.03879428 0.07840284 0.24846932 0.16582589 0.081664465 -0.044906054 0.17017204 -0.084732056 -0.36142004 0.097914554 -0.12606846 -0.14778526 0.039816953 0.007356577 -0.013849413 0.0063675595 -0.27562433 0.15463226 -0.017151749 -0.10763037 0.10242392 -0.33917758 -0.11036542 0.15641096 -0.08027781
970178387158319104 0.22834603 -0.019093432 0.120035686 0.020132167 -0.20739287 -0.2429424 -0.023898697 -0.42648715 -0.47169426 -0.17559381 0.26255602 -0.15498069 -0.34320226 0.26608542 -0.16328023 0.13007133 -0.017954089 -0.20461391 0.30578697 0.35438102 0.06169927 0.23814495 -0.052402876 -0.3168965 0.26086885 0.055517323 0.11307244 -0.18426713 0.20152126 0.029783273 -0.08602883 0.023758806 0.22533329 0.065864615 0.008018707 -0.068046644 0.19915944 -0.17272061 -0.3857858 -0.13976873 -0.09089847 -0.18498409 0.055625416 0.05456395 0.069125704 0.03822972 0.18734837 0.19617498 0.04555653 0.39577496 -0.19988458 0.15086895 0.29751238 -0.15491746 0.14445513 0.11591205 -0.021912238 -0.22969018 0.2248211 0.38590893 -0.23412247 0.1265294 -0.2337 0.056232285
970166614803935232 -0.18140447 -0.17232516 0.14604647 0.24504456 -0.20814227 -0.22233137 0.003075828 0.25146234 -0.48454463 0.3221682 0.17652425 -0.07055996 -0.09499421 0.1376778 0.21510331 0.31984487 -0.23510751 -0.27675974 -0.20561399 0.06801624 0.25132096 0.3877647 0.07707817 -0.12453334 -0.12788452 -0.07935886 -0.0035499127 0.06667287 0.31588152 0.2192845 0.23711802 0.23906751 -0.013019536 0.1069368 -0.15917586 -0.21062027 0.03177646 0.11349878 -0.2145548 0.24973047 0.3037001 0.24646923 -0.08585419 -0.14853178 -0.16668238 -0.25065005 0.070890754 0.045730226 -0.105592065 0.16818121 -0.048984636 -0.2698789 0.28256255 -0.04458002 -0.19754404 0.034499716 -0.122915156 0.14576575 -0.013796609 0.24362023 0.055449586 0.06807911 0.09483339 0.1505638
970196932537667585 0.20886914 -0.29896957 0.027548427 -0.12783721 0.057574026 -0.12550962 0.14884093 -0.07977582 -0.07504541 0.06766691 0.19364521 -0.07653134 -0.097839415 -0.050712727 0.12921184 0.17412019 -0.13953987 0.1750452 0.11181146 0.26361766 0.11933591 0.37856454 -0.06574651 -0.16831326 0.05764354 -0.25195712 -0.16401537 0.04965513 0.15011044 0.020000935 0.27546504 0.16774552 -0.15065847 0.10597058 0.11937089 -0.047519606 0.2276777 0.09118153 0.048038792 0.2084118 0.011148864 0.0710402 0.18355235 -0.016156875 0.056093305 -0.08759151 0.23089404 -0.018164959 -0.23434782 0.19695267 -0.08451886 -0.018994024 0.26456448 0.22946893 0.22779168 0.059117377 0.33618015 -0.04141097 0.15219815 0.2313652 -0.29651782 -0.319528 -0.04880372 -0.10100837
970207698573668352 0.30813855 -0.17452195 0.032623626 -0.09954736 0.17018577 0.32253253 -0.08858961 -0.067812085 -0.48364866 -0.038348325 0.22976711 -0.50834537 0.061428066 0.44609788 -0.1563796 0.36909434 -0.36095402 0.047953654 0.2348824 0.31985766 0.11494892 0.5167541 0.19898286 -0.42968616 0.3018343 -0.26324004 -0.25210807 -0.2306617 -0.23633012 0.18022442 0.28881183 0.22518626 -0.12041618 -0.045991078 0.18413809 -0.14966269 0.15238059 0.031339157 -0.007909985 -0.036515515 -0.046186097 -0.10139832 0.15197785 -0.24347706 -0.1518535 -0.31547806 -0.11664281 -0.0025035318 -0.24230047 0.033870686 0.22923096 0.056840867 0.26017058 0.28996992 0.10778876 0.0498866 0.25807258 -0.16066489 0.064585745 0.108610794 -0.35868084 -0.33284488 -0.20847945 0.03370098
970160707244183552 0.32361257 -0.2608564 0.3755812 0.12774205 -0.20967211 0.07444499 0.091945305 0.016540855 -0.014899797 0.18742102 0.07198839 -0.16519858 0.037192047 0.06463535 -0.10870224 0.42340717 -0.3189032 0.018806294 -0.0940122 -0.044441402 0.15858503 0.26014736 -0.17038621 -0.30431205 -0.09605347 0.13998395 0.15500169 0.063314036 0.1166843 -0.03608464 0.018401941 -0.03647878 -0.2058225 -0.045987215 -0.15430416 0.037440296 0.09110669 0.30568188 -0.1705604 -0.10546839 0.07197413 0.22685649 -0.05106395 -0.23951872 0.19269103 -0.020137668 -0.03031877 0.11838958 0.15325218 0.054179918 0.07576974 -0.08995055 0.03477506 0.17127347 0.29493982 0.19898117 0.24302177 0.046168353 -0.039081804 0.36330396 -0.3492398 0.046323974 -0.18132217 -0.021040572
970154269667049472 -0.17269312 -0.14799036 0.058926668 0.106985755 0.033951513 -0.119350664 0.035210185 0.1206736 -0.38668242 0.2399788 0.13847755 -0.06056622 -0.06061338 0.347187 0.055576324 0.1949861 -0.15479736 -0.35726377 0.10075787 0.17287527 0.29444233 0.14483137 -0.04515477 -0.236004 -0.20635019 0.1580245 0.15111317 0.011897415 0.29047564 -0.27657893 0.101901576 0.2860597 0.020357791 0.019674988 -0.12974209 0.02397949 0.13229743 0.24985507 -0.17885543 0.32092512 0.1863141 0.16148423 -0.021695701 -0.30998895 0.015931826 -0.38393283 0.13245197 0.122486494 -0.08209753 0.18924303 -0.13577871 0.037824083 0.26121473 -0.23266488 -0.1854634 0.0721129 0.024672624 0.15628318 -0.18292595 0.2858438 -0.021469215 -0.10062028 0.20350578 0.1565927
970207489307295744 0.41888797 -0.2455877 0.02835596 -0.15459114 0.03814383 0.18856457 -0.15024322 0.037065536 -0.4552282 -0.09122578 0.17000136 -0.46185705 0.13128841 0.20449518 -0.32189283 0.32788423 -0.24799499 0.123752944 0.4150249 0.32656148 0.33253434 0.40794486 0.11327928 -0.2821205 0.2852355 -0.04665481 -0.1800563 -0.029328927 -0.05772005 0.07897526 0.33263537 0.07768541 0.10844096 0.060162988 0.069225326 -0.17430851 0.2696173 -0.13037139 -0.07955069 0.0021986226 0.08064775 -0.07282254 0.11616091 -0.16663867 -0.15021005 -0.1899058 -0.19409415 -0.08907006 -0.28260604 0.22473557 0.2746012 0.021934927 0.29257184 0.4123912 0.11445938 -0.013265266 0.23739855 -0.19578156 0.12663884 0.27515998 -0.46475652 -0.2736103 -0.2162218 0.17282803
970165265043304448 -0.16562882 -0.11403802 0.055168603 0.1968195 -0.105320916 -0.15267967 -0.015990393 -0.24448991 -0.0196409 -0.15250307 0.41118115 -0.110902645 -0.16684338 0.018962214 0.38604796 -0.10379206 -0.19085483 0.040808517 0.023469005 0.09433203 0.36937517 0.32378384 0.06172882 -0.12939888 -0.27639487 -0.20677705 -0.22687376 0.13547327 0.41353232 -0.053704873 0.27691013 0.13620983 -0.011017987 -0.14899665 -0.43825412 -0.0037792472 -0.013815271 0.19218272 0.38846463 -0.09453641 -0.15755413 0.12765466 0.0838594 -0.05439215 0.02438736 -0.16177884 -0.13083297 -0.07429617 -0.23886228 -0.064173646 0.15729438 0.3684609 0.08593586 0.35796556 0.1906447 0.051212687 0.2054098 -0.15885556 0.15270935 0.26617232 -0.32812747 -0.10062562 -0.28426927 -0.11410279
970239298724274176 0.013040598 0.0034836743 -0.006903399 0.26420754 0.015910916 -0.026003359 -0.0069374563 -0.30066827 -0.21043351 0.090438865 0.06423726 0.114173815 -0.09916719 0.1944733 -0.055736344 0.45868886 -0.11329036 -0.2205097 -0.07721375 0.30452275 0.16971198 0.23682393 -0.33378255 -0.17191459 -0.18528618 -0.07207119 0.04134899 -0.10243702 0.2305157 0.23130345 0.18235181 -0.039305322 -0.3728692 0.008454809 -0.18396549 0.0119873425 0.26626813 0.16719086 -0.035235524 0.2265254 0.15576607 0.0779104 -0.03983309 0.07158596 0.27301332 0.36465552 -0.12989931 -0.27810058 0.18222031 -0.26106584 -0.06617822 -0.17222637 0.026086051 0.10189503 -0.12992607 -0.09104977 0.37108362 0.1805926 -0.03148014 0.14164984 -0.20817831 0.01218027 -0.098912954 -0.19743268
970422955581714432 0.27133617 -0.25849482 -0.007298229 -0.2543578 0.11849738 0.39251947 -0.29576385 -0.27297765 -0.54794216 -0.11114482 0.3608556 -0.46024755 -0.015776444 0.28110892 -0.12415558 0.30194643 -0.5220138 0.1891835 0.33577776 0.2886855 0.13904409 0.37639907 0.22308598 -0.31193238 0.31147054 -0.03578924 -0.40956885 -0.041118994 -0.13642639 -0.0007059504 0.23665793 0.11332775 -0.061064154 -0.12615712 0.059663367 -0.02909396 0.2263084 0.1300652 -0.026932525 -0.029640453 0.0906106 -0.08637981 0.029026423 -0.20126921 -0.13542339 -0.21535622 0.028593928 0.0995151 -0.34048662 -0.0016448114 0.22442904 -0.013857708 0.18155122 0.2593675 -0.028344348 0.02431595 0.21568811 -0.2112289 -0.008284347 0.32963634 -0.2980112 -0.44642812 -0.2160635 0.22993812
970111439875670016 0.23856305 -0.05960067 0.08875547 0.46659663 -0.04717771 -0.18631391 0.10098584 0.052003518 -0.21630736 0.043537308 0.39732215 0.077824414 -0.045895472 0.041944373 0.11791815 0.15727763 -0.32340404 0.2591038 0.06915963 0.16291694 0.18473104 0.24170183 -0.06898512 -0.17963775 -0.27560645 0.10811997 -0.030223887 -0.11696813 0.04998536 -0.12349959 0.15443642 0.12677437 -0.14637087 0.07899696 -0.035035174 0.085873 0.040626165 -0.09780614 -0.010665651 0.11875697 0.12647872 0.17790969 0.19121094 -0.024745217 -0.011877596 -0.06526719 0.10293335 -0.05550039 -0.06260086 0.040683646 -0.040482484 0.17746578 0.000481987 0.016039819 0.16040774 0.0514878 0.12565188 -0.021791544 0.26183972 0.08830065 -0.26366466 0.0015284753 0.05152907 -0.06720014
970208308178006017 0.13201885 -0.19339792 0.18932831 0.15610473 -0.12651123 -0.15730359 -0.1571639 0.09261131 -0.16633601 -0.13454284 0.16972536 -0.18466137 -0.14548132 0.09382323 0.15407445 0.118268505 -0.1635533 -0.04605939 0.049559142 0.29144406 0.13542143 0.3990056 0.10454536 -0.26674125 0.04778512 0.060284242 0.15684356 -0.023022156 0.30080882 -0.09343602 0.048682354 0.31498435 -0.021797854 -0.008578842 -0.25526404 -0.077071495 -0.0040868646 -0.061931126 -0.085737094 0.10755452 0.19842511 -0.009669586 0.057625625 -0.0020625945 0.17680262 -0.31534556 -0.017668745 0.08443058 -0.054425325 0.14101413 -0.11127411 -0.04487466 0.29406482 -0.13260664 -0.08912922 0.2286129 0.18774632 0.1513619 -0.25292873 0.08666527 -0.0283582 0.20983788 0.24860458 0.19244279
970235952885940225 0.24211358 -0.25700483 0.22147927 -0.15210979 -0.026426582 0.091550834 -0.062730946 -0.060743622 -0.26380846 0.049630795 0.15960093 0.15197355 -0.23549712 0.027726207 0.42660695 0.5102756 0.005196467 -0.1670755 -0.029795952 0.12761709 0.02601285 -0.08008249 -0.5245323 -0.4734792 0.018666698 -0.11668016 0.012826207 0.026615176 0.18585163 0.025315225 0.16977437 -0.016452437 -0.05553735 -0.12693064 -0.0106078535 0.24546127 0.035801332 -0.017247679 0.13890111 0.32070288 -0.017779514 0.13175711 0.10142881 0.16127262 -0.10525539 0.10105584 0.036732696 -0.004352192 0.11644477 0.039844565 -0.17592105 0.1473406 -0.08476824 -0.009986548 -0.09467114 -0.23512498 0.25019294 -0.11428814 -0.13525252 0.042232472 -0.2382762 -0.18789518 -0.16168714 -0.015070273
970190586538967040 -0.04440663 -0.25764042 0.23217207 0.24189375 -0.14898998 -0.20185734 0.035009895 0.15432674 -0.12635578 -0.12054073 0.4046286 -0.093965344 -0.15030389 0.048861098 0.16111144 0.31129387 -0.17370811 -0.051419728 0.011357359 0.12790984 0.13845333 0.2494633 -0.051866464 -0.05757012 0.005324014 0.16630393 0.17903289 0.16963255 0.31295657 -0.004465954 0.084976465 0.16233423 -0.011829757 0.033386774 -0.22470754 0.1525045 -0.116984524 -0.11910332 -0.043343235 0.14869832 0.08452433 0.38201207 0.020266613 -0.1650533 0.14580537 -0.04987633 -0.3902284 0.10365284 0.023849495 0.29646552 -0.009300194 0.15776032 -0.090876065 0.03229345 0.04418178 0.26123002 0.14021632 0.06401697 -0.08038616 0.11673355 -0.019291036 -0.055084944 -0.11815505 -0.045227762
970244340520923136 -0.024980457 -0.021798681 0.25499722 0.24670134 0.14423825 0.21204887 -0.07074807 -0.3751373 -0.07470103 0.12541416 0.1216466 0.031001728 -0.029249344 0.0521136 0.067324385 0.2872931 0.05898214 -0.107469276 -0.15016142 0.26580918 0.22645424 0.2974988 -0.12970598 -0.21194385 -0.16682604 0.16784625 0.1693457 0.11706158 0.3131164 0.22370602 0.15000439 0.23149236 -0.17643769 0.05675958 0.15731311 0.14773597 0.3533951 0.030601857 -0.050145697 0.26016358 -0.14440948 0.018990846 0.39768538 -0.10147006 -0.041589618 0.16277596 -0.0021655161 -0.22086643 0.15730734 -0.13948807 -0.010409347 0.0986128 0.11641077 -0.279244 -0.31329992 -0.14298587 0.31396022 -0.08183179 -0.13454922 0.20647648 -0.33108005 -0.17675292 -0.007807075 0.008353942
970218572743024641 0.40558895 -0.21426643 0.102068864 -0.13823916 0.15851289 0.24690083 -0.24198763 0.03741208 -0.56990176 -0.041637804 0.23003663 -0.37632594 -0.053644504 0.26433474 -0.02715185 0.3826547 -0.16735922 0.13895795 0.288177 0.40224496 0.3089617 0.34951913 0.30755022 -0.19612344 0.37994325 -0.14449303 -0.21282078 -0.0509238 -0.31224114 0.027089778 0.35420257 0.17676593 -0.004099182 -0.068788245 0.049130473 -0.16454574 0.20480268 -0.007987563 0.019108666 -0.021841481 0.044449463 -0.23327443 0.14986746 -0.102622956 -0.061745234 -0.21796854 -0.36351895 0.07687751 -0.24149565 0.220349 0.30178025 -0.1471148 0.23386638 0.27281433 0.042294797 -0.024784591 0.34895438 -0.16317835 0.013228799 0.12822773 -0.39760312 -0.29454446 -0.3332872 -0.012268063
970275061922807808 0.06159766 -0.3185368 0.08824809 0.14028491 -0.11287297 0.22104643 -0.1945492 -0.2515639 -0.24395391 -0.091758385 0.26712736 0.110479526 -0.14488322 0.04499414 0.28300634 0.37715125 -0.21116923 -0.33064276 -0.14282896 0.19729656 0.18051139 0.20941529 -0.1371259 -0.15034506 -0.18326929 0.03082235 0.13180995 -0.011805111 0.37846744 -0.061600883 0.07396608 -0.031688254 -0.23174727 -0.11742663 -0.18139224 0.118652016 0.09822148 -0.076177515 0.12525022 -0.11639696 0.024338143 0.05554647 0.3382131 -0.057265967 -0.16098972 0.045806054 -0.2009389 -0.3166566 -0.003772235 -0.032263443 -0.18763742 -0.330625 0.03633594 -0.22207804 -0.001550134 -0.2875314 0.09173716 0.07276245 -0.039023116 0.05160358 -0.18722194 -0.009751983 0.101269014 0.17151096
970208977299451905 0.315886 -0.23691134 0.24768701 -0.2171481 0.104404174 0.35678634 -0.090567 -0.13743056 -0.28473714 -0.07478279 0.4199673 -0.5668039 0.037626266 0.24149159 -0.26095542 0.43339893 -0.5176064 0.307364 0.22317153 0.25161368 0.038331322 0.49953073 0.21610424 -0.21015114 0.32449093 -0.10606693 -0.19572991 -0.11277482 -0.047769446 0.066640824 0.39770904 0.20642711 -0.12895438 -0.041155875 0.024307465 -0.09256252 0.23815975 0.087862544 -0.049945712 -0.055052996 -0.07474008 -0.035695978 0.18843901 -0.23339607 -0.17206983 -0.33972317 -0.13939203 0.16950846 -0.17292468 -0.043673746 0.4339986 0.007855234 0.40223226 0.28270224 0.1454257 -0.044602286 0.27579582 -0.27601337 0.055515874 0.05788966 -0.3159525 -0.12534402 -0.27512372 0.07693687
970122744233787392 0.042726062 -0.064914994 -0.050240267 0.17082998 -0.13816005 -0.26361585 0.028633635 0.18016352 -0.0580019 0.0313815 0.32446837 -0.22341861 -0.020073224 -0.037655365 0.39154035 0.1676133 -0.039362423 0.5662783 0.08173605 0.18705063 0.29286945 0.019646503 0.011807731 -0.32929495 -0.06243541 -0.05155926 -0.19431219 -0.30912113 0.27038413 -0.020075496 0.16394676 0.22576594 0.20543437 -0.33326113 -0.24299371 -0.0054028793 0.1987429 0.0040617995 -0.0021008092 -0.18352427 0.06790447 0.32354656 0.25235885 -0.0046298364 0.021725953 0.0740668 -0.20978758 -0.17290008 -0.36821586 0.13585928 0.16143185 0.30837658 0.32201493 0.11451484 0.0028947268 0.009932778 0.20114766 0.0068534343 -0.2169279 0.25800192 -0.46626523 -0.09190462 -0.28642717 -0.17752516
970178291993788416 0.33998412 0.0008936557 0.027969848 0.028493887 0.022155978 0.026169356 -0.09699008 -0.5647352 -0.5250727 -0.059418503 0.11205159 -0.29981676 -0.2793418 0.30084866 -0.15215588 0.11645235 -0.3612824 -0.12227503 0.15558273 0.23860331 0.063539214 0.32112765 -0.13433824 -0.16529818 0.38477018 0.03548606 0.14000916 -0.052184682 0.23227718 0.083823755 -0.107196815 0.040968817 0.27936783 0.13277942 -0.17222266 -0.09941488 0.15973628 -0.03544172 -0.15406683 0.07594894 -0.1825264 0.1430975 -0.05693612 0.11237991 -0.031312294 0.079567954 0.151105 0.059206106 0.13063015 0.32959813 -0.28918964 0.29931274 0.33854306 -0.10090066 0.11056944 -0.06391127 0.0047456133 -0.17152597 0.16912553 0.37597305 -0.08633648 0.27063325 -0.22446778 0.17284986
970191373075755008 -0.33857667 -0.01816796 -0.033485904 0.20788679 -0.1631482 -0.053083215 -0.09752607 0.01139093 -0.48352712 0.07592329 -0.06462599 0.1294691 -0.7322791 0.27503902 0.18202229 0.17649254 0.13851996 -0.2513628 0.017032705 0.34058687 0.0041778334 0.2667613 0.037428837 0.09746301 -0.13707504 -0.13613622 0.14559528 0.0672934 0.22669734 -0.08517675 0.36516818 0.15288821 0.2816973 0.21456476 0.05647839 0.5610546 0.23192677 -0.004958658 0.07995686 0.14432678 0.1616773 0.36152256 0.22739318 -0.15717413 0.25033563 0.027124077 0.3568373 -0.262218 -0.15398636 -0.19969572 0.28207907 -0.049486253 -0.032210268 0.08618267 0.23080972 0.037516892 0.26748893 0.12512867 -0.1558188 -0.09671443 -0.6289515 -0.23199092 0.1593931 0.33891958
970174968016158721 0.13396366 -0.11231604 -0.10753643 -0.06437276 -0.14961474 -0.3420764 -0.07370654 -0.05876999 -0.6329731 -0.01737008 0.1975479 -0.05471799 -0.33165172 -0.054448776 0.21873036 0.3105844 -0.09189495 -0.16073951 0.08878738 0.2039482 0.13656957 0.03585172 0.008087098 -0.18647075 -0.064662285 0.12127636 0.18590045 -0.19729549 0.13180609 0.041716028 -0.03491372 0.06664198 -0.111254655 0.06000931 -0.26573676 0.092899635 -0.37264833 0.22030109 0.009591879 0.053609163 -0.12783267 0.27514187 0.37745544 0.10584397 -0.10858745 -0.49601862 0.15654503 -0.01658635 0.23332445 0.3763563 -0.18590933 -0.1148299 0.21460554 0.16938776 0.028906967 0.08335637 -0.038516082 0.05083636 0.012982294 0.48317426 -0.06500885 0.38096964 -0.13099709 0.046674322
970185193033052162 0.020442372 -0.16642077 0.16864374 0.16440207 -0.13531446 0.009515061 -0.017745385 -0.17049077 -0.2523796 -0.091604866 0.22435035 0.12942241 -0.11280659 0.11634104 0.10908998 0.26285154 0.018782774 -0.081788346 0.0057275495 0.119034156 0.12556292 0.27060348 0.090401284 -0.35321286 -0.020473553 -0.066194504 0.050579846 -0.118525855 0.002412722 -0.012574068 0.22775179 0.1775324 -0.046111386 0.010972842 0.037722923 0.046634827 0.11869794 0.21518387 0.12648815 0.04182582 0.17574278 0.09605904 0.12492307 -0.006209457 0.19113253 0.123563595 0.16736053 0.09107461 0.033478484 0.17341127 -0.08580731 0.120214984 0.11324854 -0.054004233 0.0061542853 0.043068796 0.24764241 0.113465264 0.11424853 0.010701511 -0.081343584 0.005427746 0.07150157 -0.09262413
970448105706373120 -0.033459082 -0.075867444 -0.05174293 0.22628517 -0.043348446 0.17693254 -0.066541776 -0.020664953 -0.29691112 -0.051133998 0.227006 0.29258657 -0.3160514 0.014562416 0.090286076 0.338739 0.009589909 0.063943245 -0.21232843 0.26789898 0.32119116 0.20370868 -0.31975502 -0.42099348 0.030309675 -0.1064964 -0.044071823 -0.11667692 0.25570178 -0.03133717 0.14693262 -0.019243201 -0.24335596 0.18843697 0.0252193 0.063285805 0.21687731 0.012476309 -0.04065026 -0.029824702 0.17654154 0.024037097 0.10303039 0.0768632 0.16763502 0.20189399 -0.16864245 -0.13252075 0.14055832 0.32558838 -0.018598499 -0.2618056 0.06222063 -0.1621387 0.019632043 -0.10489905 0.090485945 0.16346604 0.21250154 -0.10252424 -0.15740126 -0.19208756 -0.14841413 -0.14619792
970287739416424448 -0.2630982 -0.13274622 0.10686145 0.08730694 0.030275797 0.04758593 -0.16178912 -0.24653932 -0.4198716 0.072135456 0.20600075 0.296837 0.08512599 0.14120375 -0.0010777558 0.5174375 0.0732588 -0.24929538 -0.13189746 0.30141222 0.27028975 0.23478301 -0.013709391 -0.11949313 -0.29984114 0.13098466 0.05959472 -0.06798696 0.3736891 -0.0060625677 0.12320748 0.06805033 -0.21309224 0.0001681126 -0.01525652 -0.044835523 0.38943118 0.022010762 -0.09536072 0.18974061 0.05089785 0.1832022 -0.09768862 -0.09303414 -0.14570314 0.21568105 -0.028228942 -0.25905162 0.2917474 -0.007501102 -0.080827184 0.20008387 -0.1318715 -0.022843244 0.17332332 -0.2415219 0.28346157 -0.047887642 -0.2661781 0.058499787 0.13967867 -0.1764331 -0.08143976 -0.05953422
970210840430325760 -0.11045379 -0.056549087 0.34565675 -0.024820546 -0.007716146 -0.24203074 -0.13554643 0.112159096 -0.45601225 0.03870425 0.17163178 -0.18528467 -0.038737662 0.08653395 0.09970424 0.120211154 -0.10584408 -0.10434465 -0.116377555 0.4680291 0.32003516 0.25876492 0.1736127 -0.011384034 0.045134768 0.15096575 0.25692517 -0.003282286 0.28127334 -0.02437379 0.13147567 0.18732537 -0.07554258 -0.04080433 -0.32617033 0.08400721 -0.014885438 0.33268243 -0.17860605 0.050364878 0.08046214 0.0060077105 -0.023825577 -0.10638508 -0.11738408 -0.1645157 0.2503743 -0.15059967 0.14139228 0.44494522 -0.27431762 -0.1187209 0.2666 -0.33887234 -0.1363262 -0.14488755 0.070064954 0.236076 -0.23046936 0.119233854 -0.015037309 0.040594663 -0.11101892 0.24695589
970443770209607680 0.0889106 -0.12021446 0.14447708 0.24260946 -0.13974051 -0.035240635 0.096269146 -0.058455065 -0.39958358 0.11044628 0.029204842 -0.08522728 -0.30524108 0.026019957 0.13890895 -0.033384148 -0.07539948 0.085260086 0.1416548 0.42625007 0.029186523 0.10801214 0.0941516 -0.060481 -0.20598842 0.2160346 0.117360815 0.0041485513 0.43966264 0.059324425 0.12486091 0.2513784 0.36606947 -0.020988569 -0.14212045 -0.017731693 -0.1778142 0.06406295 -0.25397128 0.4243428 -0.059733022 0.22052048 -0.1794268 0.015277099 0.3184855 0.07144965 -0.38295895 0.014412999 0.08635234 0.19706582 -0.38237303 0.15119466 0.38370004 0.067634866 0.13614085 0.36541823 0.011474003 -0.051513918 0.40658018 0.45745248 -0.120879 0.014440119 0.06691758 0.2415246
970117947074134016 -0.092666514 -0.091430485 0.22496994 0.029422298 -0.10002461 -0.13466495 -0.0057830666 -0.085186735 -0.22744253 0.00212962 0.13669243 -0.03345512 -0.079250515 -0.14516774 0.12803663 0.19799046 -0.2922495 -0.13726862 -0.051992696 0.12537125 0.28997797 0.28891197 0.049091388 -0.31675693 -0.13214675 0.090952724 -0.10424732 -0.08789977 0.37881604 -0.067566454 0.17567967 0.14926001 -0.092628054 0.15112418 -0.19133046 -0.23400024 -0.042773467 0.2750341 0.0670129 0.014979859 0.016902424 0.24534743 0.08259604 0.042878892 -0.028673798 0.0026648683 -0.18159118 -0.07270254 -0.030263556 0.11311134 -0.21610118 0.050420992 0.06404856 0.07470551 -0.047129977 0.09233963 0.2559253 0.07808945 -0.106995165 0.14944798 0.023877745 -0.16552967 0.041085113 0.052966088
970124048087728128 0.21698138 -0.26444665 0.14970918 -0.2532927 -0.034405034 0.11639856 -0.14975032 -0.10496836 -0.20901753 -0.17539376 0.29704037 -0.19555995 -0.20097226 0.1687874 -0.072932 0.112539746 -0.17668597 0.14022803 0.13773242 0.47838038 0.28995582 0.21869235 0.0048886524 -0.1403323 0.3002473 -0.24094403 -0.39066193 -0.07006159 -0.05420432 0.03265578 0.18382193 0.30436414 -0.11986579 -0.034135174 0.087003954 -0.36752465 0.21308346 0.13019477 0.103920124 0.0024058516 -0.02097102 0.01639224 0.08032084 -0.14233957 0.09679153 -0.044656932 0.14817728 -0.027356047 -0.102431774 0.41082105 0.15039216 0.22700666 0.29637152 0.09000791 0.23081098 0.24326101 0.31079826 -0.14784895 0.0714367 0.11858586 -0.1701917 -0.501376 -0.056499224 0.11456807
970129015213142017 0.009630925 -0.1384392 0.074684404 0.43832126 0.086090975 -0.3097848 0.20281047 -0.26820895 -0.5833305 0.094844446 0.38723087 -0.12269672 -0.079176374 -0.009132725 -0.035892174 0.049271047 0.05140146 0.031644043 0.053184245 0.3514605 -0.028189192 0.2573953 0.07823605 -0.0870094 0.2740159 0.14201938 0.18966644 0.06684599 0.36687827 -0.2184488 0.11492654 0.05914931 -0.0047042416 0.06367179 -0.11001872 -0.23927474 -0.084973626 0.057246167 -0.136893 0.1910407 0.12459622 0.2051245 0.23153329 -0.11948866 0.046128426 -0.032214426 0.111619204 0.18532205 0.15006275 0.20721154 -0.26648393 -0.06402133 0.09714922 0.00045704824 0.04081057 0.05006354 -0.040424645 0.049580455 -0.012494796 0.08760064 -0.06043455 0.22341366 -0.022750055 -0.07401422
970228487729459200 0.13455355 -0.085652314 -0.073189296 0.16262977 0.13787305 0.114515536 -0.0806176 -0.123171404 -0.39169887 -0.09130214 0.27318984 0.113127984 -0.10032695 -0.08471893 -0.027970973 0.42813364 0.094766356 0.1164762 0.05561385 0.17600794 0.05816831 0.111377314 -0.015424353 -0.37022057 0.042255584 -0.16079973 0.395731 0.029796097 -0.03176654 0.28724778 0.32808 -0.14923315 -0.21625556 -0.02553453 -0.12975818 0.0028805702 0.2104035 0.051941037 0.18233682 0.15270771 0.22294337 0.070964955 0.27084112 -0.11013445 0.27168652 0.26869476 -0.25162885 0.14056118 0.049925014 0.14878607 -0.13808802 -0.06129065 0.12300733 0.00950674 -0.160045 -0.16509025 -0.038901106 -0.04980841 0.034021087 0.13458894 -0.417082 -0.11057735 -0.302276 0.04665771
970208754737152000 -0.20581827 -0.013358932 0.12592879 0.2964208 0.13835235 0.038665537 -0.027484374 -0.13572298 -0.16604976 -0.03630545 0.14822268 -0.011377341 -0.03819364 0.16112727 0.19383627 0.54681903 -0.052926596 -0.20062704 0.10370125 -0.0141486535 0.31151947 0.24582908 0.24247666 -0.3000858 -0.06961495 0.06175535 0.006575622 -0.08779531 0.18107472 -0.004675885 0.21658951 0.06246813 -0.030801704 0.08095492 0.14144956 0.002517814 0.025829053 0.12411756 0.036312707 0.07038985 0.07227123 0.24874341 0.17515983 -0.03376675 0.3383145 0.20546593 -0.07465147 -0.066951536 -0.10159339 0.15948185 -0.03555824 0.00931626 0.2148654 -0.13085529 0.07200969 -0.013424331 0.2641862 0.11288413 0.067318805 0.0066590453 -0.07063552 -0.043587886 -0.02883375 0.057267964
970189545600765952 0.1803202 -0.3575476 0.20763965 0.23257947 -0.11185527 -0.07403237 -0.0047782185 0.28644183 -0.08416634 -0.0059352852 0.57717776 0.022244535 -0.23185946 0.061442517 0.17703834 0.1065445 -0.16955796 -0.10137673 0.02705826 0.31407917 0.08097657 0.14656338 0.13869026 -0.1896267 0.03833716 0.22010364 -0.024070794 0.11427095 0.30505764 -0.24261963 0.20902258 0.18157656 0.05186283 -0.059504572 -0.13471535 -0.12483459 -0.2762766 0.15167588 0.1718326 0.28389207 0.1824059 0.40568238 0.051555518 -0.10334712 0.254017 0.112361126 -0.17264718 0.08032325 -0.11084297 -0.09583935 0.0710228 0.063414 0.08652797 -0.31100246 0.014717465 -0.15373988 0.02449995 0.10196013 0.0034283204 0.22453271 0.053134155 -0.10137369 0.01792612 0.027342504
970403105903853568 0.21372019 -0.0533888 -0.06938798 0.17120458 -0.071567975 0.31794083 -0.15660267 -0.106922716 -0.4326049 0.093961634 -0.03556068 0.115463294 -0.044149876 0.20760892 0.073531464 0.36001354 0.0034137222 0.0440415 -0.020055318 0.23622267 0.3440491 0.25515416 -0.12975106 -0.5263323 0.06301983 0.22143999 0.18174587 0.13284469 0.2593298 0.04591072 0.26492903 -0.13791817 -0.20537691 0.1597877 -0.1263769 0.03406145 -0.008156954 0.0021994126 -0.10080575 -0.06804559 0.028704502 0.24419315 0.19478959 -0.070275314 0.19674553 -0.13513361 -0.14104322 -0.15396395 -0.22163501 0.025364555 0.008092146 -0.17722127 -0.011928535 -0.21586443 -0.09356109 -0.097534515 0.023833912 -0.19715142 -0.027755622 -0.08977476 -0.22946966 0.13193849 -0.14676851 -0.15508783
970135998129582080 0.2598806 -0.13296212 -0.19176209 0.17659955 0.10647569 0.037650168 0.0245041 -0.18440627 -0.3300079 -0.05971392 -0.09687949 0.22118674 0.021031998 -0.019574536 0.2898859 0.2558478 -0.31291747 -0.2853205 -0.17843994 0.16047722 0.15846303 -0.11702168 -0.103172384 -0.18745391 -0.06822098 0.27936447 -0.32400048 0.13441072 0.14096813 0.17133605 0.3222447 0.30513966 0.07238523 -0.5149652 -0.04468627 -0.24962613 0.11005036 0.20887582 -0.11833819 -0.07597059 -0.012894587 0.16620542 0.040291 0.05594791 0.12251448 0.06394177 0.21839984 -0.036135893 -0.27860236 0.19778255 0.18707651 0.5139033 0.19243287 0.0025987544 0.022993028 0.14946863 0.2946829 0.23021024 0.35938805 0.060889665 -0.3770497 -0.041427795 -0.2415929 0.15372716
970186807747887105 -0.27109593 -0.038913716 -0.017416617 0.20541584 -0.12106693 -0.04288602 -0.10839982 0.0088913655 -0.38274005 0.042196162 0.06274962 -0.20144399 -0.48652074 0.40278336 0.19346176 0.34645107 -0.018121399 -0.2845954 -0.17000052 0.23131788 0.07293511 0.0508986 -0.118733935 0.059590526 0.17611082 0.07627286 -0.02900292 0.010213621 0.17765315 -0.2794606 0.3307322 0.008860133 0.23712178 0.03733463 -0.22310407 0.35379192 0.389911 0.037439372 0.1181092 0.18035488 0.16187438 0.2832274 0.09506338 -0.24637994 0.36627275 0.013141927 0.40712038 -0.40008518 0.0012668223 -0.2915382 0.3405525 0.0051804115 -0.034904577 -0.15215254 0.054295957 -0.018487487 0.36953357 0.21831927 -0.15138595 -0.060029544 -0.580661 -0.34282064 0.12859108 0.3676809
970255873292447744 -0.037072383 -0.09857481 0.07574246 0.25474498 0.119767554 0.35863894 0.031700492 -0.18315229 -0.28594464 -0.03574906 0.21638548 0.036971625 0.15520264 0.017401705 0.061037708 0.26567265 0.16435243 -0.23241352 -0.19353037 0.27030623 0.27996418 0.13356286 -0.099541165 -0.20869894 -0.10059286 0.0791555 0.16114645 0.09943357 0.48589438 0.09005987 0.07047723 0.06934911 -0.021133048 0.12417302 0.07780184 0.15056862 0.3124905 0.17752807 0.29585922 0.0409198 0.3422462 0.20852053 0.117819585 -0.10899769 0.014705141 0.039641403 -0.030246906 -0.1538447 0.08150404 -0.012810176 -0.122989036 0.008978397 -0.078961305 -0.15470934 -0.11581581 0.07493435 0.3143705 -0.02875601 -0.1730657 -0.007955145 -0.28651732 -0.03502429 -0.1641551 -0.03676729
970167150643093506 0.064825065 -0.17709501 0.18754312 0.11021478 0.034717344 -0.14310719 0.075286895 0.08548526 -0.27960706 -0.16242175 0.26200017 0.19160567 -0.033702444 0.29883066 -0.065966085 0.17998956 -0.32339278 0.08737554 0.050038625 0.0742875 0.20578872 0.26708317 -0.034851227 -0.329411 -0.18815348 0.14096282 -0.09828443 -0.2337732 0.1763636 0.084879376 0.21585251 0.11050777 0.17430228 0.03172529 -0.16807784 -0.09437098 0.2526672 0.027808286 -0.09840554 0.13109808 0.3093662 0.22772737 0.26380548 -0.40002003 0.010404934 0.1738279 -0.061353102 0.09153583 -0.07694765 0.078940414 -0.025029076 0.25941655 -0.11627391 0.22508246 0.07028342 0.1456398 -0.034389578 0.1633464 0.08729231 0.16585194 -0.179612 0.31528428 -0.13382176 0.08541053
970240269302956038 -0.075529926 -0.103377745 -0.13852525 0.2954372 -0.0065053063 -0.20503168 0.30364138 -0.22043142 -0.4035663 -0.19723177 0.118664525 -0.18216124 -0.12960878 0.0022891415 0.12705898 0.16786999 -0.23348194 -0.00892052 -0.13010883 0.07096345 -0.077751175 0.35651678 -0.29434463 -0.26985636 -0.14652483 -0.17179787 0.23550743 -0.2506676 0.08139909 -0.08824582 0.2603022 -0.108151846 0.092618644 0.07367805 -0.12331102 -0.06178677 -0.13552491 0.1006207 -0.09203481 0.1359894 -0.09725356 0.063733935 0.24284425 0.11481011 0.23656635 0.064338095 0.032680854 -0.18473862 0.046916988 -0.04193089 -0.30295143 -0.025241973 0.29787424 0.039194673 -0.06467018 0.18468955 0.32006666 0.018332759 -0.04754098 0.25690967 -0.29456234 0.15791889 -0.17426556 0.17467862
970433417748729856 -0.011039233 0.10938506 0.20533293 0.12274908 -0.04558996 0.027458785 -0.075130895 -0.28094873 -0.48275876 0.11204604 0.23623502 -0.012365036 -0.085529886 0.049846984 0.06639019 0.18773095 -0.11544581 -0.18643025 0.020098383 0.15127645 0.012096259 0.17778449 0.15405247 -0.40436706 -0.057111695 0.12806246 0.105076514 0.22595337 0.08981556 -0.06993564 0.23605958 0.22904359 0.027510282 -0.029589212 0.05295312 0.10429673 0.06399736 0.018770436 0.08736769 0.107490376 -0.1550416 0.24214813 0.098505996 0.0997153 0.066369385 0.16683973 0.101060644 0.06631172 0.15371466 0.06515288 -0.0937228 0.12142515 -0.049903966 0.034202255 0.053534098 -0.15195557 0.4143312 0.04301047 -0.08657468 -0.048377983 -0.15047942 0.074078664 0.27541152 -0.00030850217
970207358809853952 0.35359344 -0.28325078 0.078028016 -0.064418666 0.11010563 0.2656779 -0.31350031 -0.27277336 -0.43793383 -0.08783852 0.26214823 -0.4383736 -0.049264092 0.110812046 -0.31396922 0.35590902 -0.3369004 0.19245401 0.25325072 0.1939905 0.2512713 0.53673995 0.2656547 -0.21860531 0.23262638 -0.2307743 -0.23546314 -0.04651377 -0.07334208 0.2704648 0.22388081 0.2816243 -0.013398366 0.0979572 0.09397642 -0.01654933 0.350849 -0.10675985 0.06327052 -0.08070175 -0.12170359 -0.15660027 0.13761377 -0.29784387 0.06252841 -0.20853435 -0.19058873 0.14987044 -0.27991423 0.06458087 0.28388926 -0.14769053 0.29814276 0.48134434 0.0029836511 0.23593178 0.27458012 -0.2239711 -0.035076465 0.1143021 -0.30389726 -0.10816645 -0.2677734 0.16589677
970262224718610434 0.42577633 -0.38885435 0.40655917 0.11800912 -0.1947637 -0.095239736 -0.006174117 -0.054916296 0.1189559 0.0363377 0.2188415 0.19683586 -0.162695 -0.16696611 0.1471196 0.1063185 -0.39619112 0.09701218 -0.19300276 0.16731364 0.12380457 0.36175397 0.1832629 -0.3856889 0.028350769 0.20967135 0.14524788 0.13759086 0.32364428 -0.018775467 0.08862115 -0.004619877 -0.25138322 0.105771765 0.006886903 0.12887503 0.10623977 0.1449642 0.09784327 -0.113830365 0.06943144 0.08016915 -0.014693285 -0.0801851 -0.050636783 -0.016740086 -0.0063514006 -0.04138435 0.1736207 -0.08305574 -0.07834715 -0.04597918 0.12114361 0.15558118 0.12685855 0.17167309 0.09990962 0.09281732 -0.12920897 0.25353363 -0.23563716 0.03340666 -0.0739496 0.020449296
970406773692669953 0.049361475 -0.2182984 0.23299438 0.2599742 0.090003595 0.062783845 0.22358431 -0.23009352 -0.3904788 -0.07437307 0.3698279 0.118811704 -0.14313354 -0.24685366 0.09287528 0.26327196 0.20871826 -0.14246993 -0.16175134 0.09343266 0.35129085 0.080636874 -0.3199193 -0.17449526 -0.10622468 0.08941484 0.043464314 0.041425113 0.23868494 -0.056817077 0.38208035 0.046465017 -0.17703468 -0.17823057 0.14685477 0.06161309 0.06791882 0.14577667 0.29062274 0.12166992 -0.22125447 -0.023898942 0.023525268 0.09399462 0.011870121 0.26853532 -0.13046318 -0.09557102 0.12778904 -0.028250625 -0.14565946 -0.22574946 -0.10627494 -0.1783395 -0.03694302 -0.09666891 0.30012047 0.058087032 -0.12942724 0.04588704 -0.341059 -0.1761366 -0.19940452 -0.17099895
970166791023427584 -0.03457143 -0.030903818 0.24603683 0.034941394 -0.11355138 0.045917027 -0.027471835 -0.18873675 -0.44676036 0.042325586 0.23263717 -0.21882515 -0.41396007 -0.05888444 0.10233337 0.13660869 -0.4373938 -0.08518744 0.23306496 0.24416502 -0.048162892 0.20787105 -0.12181067 -0.28076446 -0.06002558 0.45852304 0.1774451 0.013017794 0.16045754 0.22714414 0.35417572 0.1094985 -0.007055523 0.008661028 -0.035197146 -0.024652965 -0.14571722 -0.23630673 0.041967776 0.042936835 -0.29020104 0.20161405 0.007490859 0.11469474 -0.07544698 0.2325097 0.028450415 0.30177256 0.10734843 0.15813912 0.09777323 0.24306223 0.27453768 -0.35486674 0.04104384 0.02945322 -0.005653087 -0.13040265 -0.030503344 0.28454036 -0.095628776 0.047406524 0.105965525 -0.20149158
970397687894986752 -0.13670611 -0.16138937 -0.08582454 0.48570475 0.100770585 0.17115267 -0.4474522 -0.22223915 -0.30819514 -0.058333356 0.027116328 -0.09224032 -0.04050414 -0.043565623 0.14692272 0.12634136 -0.042596243 -0.024667302 -0.034475487 0.2705606 0.15318747 0.35831386 -0.09247867 -0.43266374 -0.08822294 0.29721254 0.00844034 -0.10421671 0.37218887 0.07807839 0.06989554 -0.27014837 0.045120202 0.066549 -0.016597627 -0.05356048 -0.029211737 -0.15785588 -0.12838022 0.18223077 0.13853501 -0.06531221 0.13616863 -0.012454786 0.1735689 0.09926588 -0.14410582 0.22615841 -0.02431159 0.090126 0.09526714 0.26598683 0.08571482 0.0023501315 0.3690462 -0.2684366 0.25197333 -0.08260708 -0.27303353 0.0429228 -0.25883734 -0.09384768 -0.47530168 -0.04350988
970250819823050752 0.23381934 -0.19823267 0.18742198 -0.013702514 -0.06057903 0.06872473 0.35346287 -0.016145341 -0.058891825 -0.017427124 0.37628564 -0.14644045 -0.21636388 -0.11672886 -0.00424979 0.3251734 0.073195845 0.1723833 -0.02625789 0.34406537 0.16612709 0.18558559 -0.11486803 0.002679048 0.14734933 -0.18560654 -0.07401767 0.11779167 0.15469453 -0.030527484 0.13306749 0.24409278 -0.11719684 0.33830622 -0.24468371 -0.18645695 0.29815245 0.13678879 -0.29042467 0.2150128 -0.06851128 0.30117565 -0.15349597 -0.09726567 -0.08734469 -0.004091998 0.31044784 -0.116260216 -0.12345175 0.3491119 -0.3245863 0.354058 0.18688327 0.3809865 0.31435266 0.23275806 0.16332637 0.13271745 0.09769626 0.20092975 0.021072865 -0.4421909 -0.06775328 0.22535264
970252425138286592 0.1684691 -0.11767236 -0.007141014 0.2286196 0.002936311 0.23625 -0.026960732 -0.21765907 -0.31278428 -0.2787538 0.14050491 0.21942852 -0.18480763 -0.28139663 0.16925639 0.1861889 0.014240371 -0.219975 -0.074725024 0.07358618 0.19101112 0.17538895 -0.1392981 -0.37127945 -0.20936492 -0.084435485 0.24431151 0.05981217 0.34895596 0.14687604 0.07500621 0.033925675 -0.23558664 -0.21551065 0.054275468 -0.03678042 0.049414266 0.07375606 0.14202236 0.033155568 0.062164508 0.052685976 0.17932427 -0.029540878 0.249379 0.26922774 -0.046791818 -0.1636002 0.03308625 0.07560489 -0.015891531 0.046221886 0.11644084 -0.24066779 -0.11055076 -0.07121422 0.191221 -0.07472463 -0.25457233 0.075810656 -0.23021425 -0.121509634 -0.18797018 -0.051220823
970104677483167745 0.07056977 -0.18808065 0.075080976 0.20431195 -0.32935932 0.1442343 0.123331234 -0.084980145 -0.36427224 0.07102907 0.23187962 -0.047114868 -0.08317928 -0.0069933347 -0.15435864 0.268848 -0.07055394 -0.0024574634 0.019524455 0.21385422 -0.19435419 0.03894081 0.009049147 -0.25083396 0.07912223 0.06790462 0.13199018 0.17173243 0.123747945 -0.02917681 0.3562895 0.13816461 0.017398808 0.27810767 0.0011960722 0.20396066 0.08426415 0.16516049 0.07888156 0.028388577 0.07442712 0.20915587 0.13406004 0.09592132 0.069834396 0.25725752 0.0027512994 0.07135942 -0.026741935 0.021976907 -0.14308618 0.25364766 0.10403602 -0.045396473 0.21936277 -0.06332497 0.31347775 -0.012269612 0.095197774 0.2738176 -0.027458008 -0.12300708 -0.12468741 0.19032231
970193865566167042 0.14750576 -0.0566811 0.043440044 0.025041971 0.11185694 -0.29422286 0.004738064 -0.15356967 -0.34307253 0.094611585 0.09001633 0.35134152 -0.6680008 0.09542523 0.33411622 0.20619583 -0.17662154 -0.046939347 0.0239176 -0.035460446 -0.16676855 -0.022071818 0.1658764 -0.10011633 0.030372856 -0.007456064 0.0616125 0.11059659 0.26308635 -0.18697248 0.37258333 0.04774909 0.15133679 0.32255468 -0.17960313 0.3552748 0.18239318 0.014804925 -0.08963893 0.31380433 0.24014789 0.51990557 0.24405749 -0.14392783 0.22575605 0.117309466 0.043611858 -0.18680984 0.17851871 0.028354827 0.2959352 0.05333489 -0.109480634 -0.18089326 0.18635839 0.2345963 0.06511493 0.34655312 -0.22012454 -0.16431716 -0.50947404 -0.087894246 -0.032759476 0.20457509
