352 64
969782528780283905 -0.13501315 -0.2520996 0.57913744 0.16540572 -0.23801611 -0.12641491 -0.059062548 -0.15406413 -0.40141618 0.07280784 0.33668655 -0.101537496 0.08649646 -0.2963048 -0.061050158 0.0049898243 0.079459466 -0.067486055 -0.16387042 0.339754 0.24035983 0.19351439 0.39219415 -0.20901516 -0.0010166201 0.16363671 -0.14324555 0.058038898 -0.049573906 -0.27963027 0.035224147 0.069610044 0.03878949 0.09683471 -0.02807948 -0.0668136 0.12007737 -0.07951639 0.26161736 -0.15086302 0.19106245 0.17792414 -0.19874877 -0.08406054 0.08459088 0.113868915 0.090963066 -0.19011037 0.065993614 0.15857439 -0.04436131 0.123660624 0.005156012 0.15985997 -0.10031064 -0.06514195 -0.2198499 -0.10802583 -0.17071252 0.09755215 0.017738355 -0.31331125 -0.012447896 -0.06290375
970053164643770368 -0.032978117 -0.28663522 0.58040905 0.21467207 -0.21710998 -0.18951045 -0.02493228 -0.26434574 -0.3562907 0.122824736 0.1343814 -0.12653115 0.21249285 -0.34917644 -0.11814148 -0.0063257837 0.0234751 -0.0034972257 -0.19206615 0.3042121 -0.13071893 0.21047114 0.42547658 -0.19615893 0.059171814 0.09366877 -0.036158472 0.06796671 -0.03816202 -0.39696687 0.052021746 0.12046784 0.007080195 0.10070581 -0.13063267 -0.15969706 0.014897117 -0.18214132 0.14691378 -0.17340168 0.05955501 0.11789177 -0.093787946 -0.12123643 0.036271773 -0.0069516697 0.088063456 -0.072659716 -0.13671778 -0.019378934 0.001484263 0.111495025 0.072336145 0.1647535 -0.1960481 0.023385854 -0.13035288 -0.023299007 -0.07261862 -0.013285301 0.034159012 -0.15787712 -0.027924132 0.0043649566
969772046627385344 -0.2800763 -0.27738687 0.55425894 0.13831083 -0.11139334 -0.3248962 -0.13379622 -0.2655805 -0.36901075 0.14152904 0.27404094 0.045954548 0.14604825 -0.2658518 -0.14444797 0.08419424 0.12769316 -0.0024526753 -0.06150299 0.36099482 -0.031562414 0.2670838 0.4195616 -0.34768906 -0.0028952796 0.09672074 -0.006432014 -0.09391892 -0.021680612 -0.24637543 0.03976661 0.015910814 -0.024751205 0.0650731 0.022032438 -0.11329539 -0.08877172 -0.3145206 0.26089558 0.014794867 0.13526928 0.15039088 -0.095958285 -0.006125225 0.123658076 0.039354067 0.1394087 -0.28403118 0.08000673 0.09829284 0.006321757 0.11032846 -0.10312802 0.18198541 -0.09035438 0.023448162 -0.06915559 -0.09816495 -0.16319464 0.101477236 -0.015973877 -0.15406379 0.052876733 0.014284806
970055101682302977 -0.077634685 -0.14597484 0.4976586 0.24071065 -0.25138402 -0.2530282 -0.09426794 -0.15821506 -0.33584514 0.20536323 0.27548322 0.066398494 0.19406751 -0.4399444 -0.11178629 0.05678136 0.08475295 -0.08555746 -0.123843275 0.29129738 0.011918659 0.24088496 0.35931993 -0.35302758 -0.032136474 0.046904124 0.03971403 0.08615039 0.068144776 -0.2663974 0.014417746 0.07864172 -0.14384 -0.038092993 0.053351983 -0.1165279 0.09475984 -0.1861288 0.13796982 -0.009911083 0.04070864 0.24379583 -0.030246627 -0.09417148 0.1123297 0.048531756 0.18284336 -0.199886 0.0897406 0.082283854 0.03651193 0.07637064 0.06092452 0.1741658 -0.18834643 0.1088158 -0.27238402 0.044448912 -0.07872853 0.09712209 0.049932826 -0.15169807 -0.054067526 0.018007133
969802399886921728 -0.20432392 -0.24431123 0.4649994 0.19632952 -0.14511548 -0.33721054 -0.12648757 -0.22547813 -0.35332632 0.22466357 0.36375389 -0.034091663 0.10166787 -0.28816247 -0.18516372 0.13036425 0.071998216 -0.12285396 -0.16344883 0.34206504 0.06099086 0.23376891 0.3535348 -0.081253834 -0.0068596783 0.07863275 -0.008104771 0.14727436 -0.12200088 -0.39186382 0.115258865 0.104765244 -0.105049916 -0.04487563 -0.061255198 -0.07059234 0.01170975 -0.11502185 0.29677537 -0.015973195 0.015733879 0.15427701 -0.22004196 -0.04726946 0.054959964 0.020657297 0.15326291 -0.12704223 -0.029990768 0.12145659 -0.054248333 0.08044462 0.059379794 0.18339378 -0.1687584 0.09623746 -0.24667266 -0.05463787 -0.17040853 -0.071473576 0.01377316 -0.2117868 0.023946643 -0.10593519
969773662499827715 -0.04199587 -0.23611747 0.5591384 0.20597799 -0.22429714 -0.3139784 -0.11300636 -0.23785585 -0.2128056 0.18068177 0.31575233 0.03588365 0.08002544 -0.21909253 -0.17245123 0.11634035 0.15523978 -0.04162565 -0.21813379 0.50641096 0.039688867 0.18502168 0.2846206 -0.22076362 0.1053541 0.17594385 -0.04071537 -0.062488206 -0.04183757 -0.25749084 -0.0028431609 0.1220103 -0.08874345 -0.10155063 -0.05153554 -0.12594609 0.013053647 -0.18762147 0.13360645 -0.07468216 0.018508168 0.19959958 -0.066515446 -0.026069416 0.08003471 0.10332629 0.14930369 -0.19930293 0.17439894 -0.03881588 -0.09979196 0.034088723 0.067900725 0.08502551 -0.20882615 0.03509751 -0.18439402 -0.100993164 -0.10943611 0.0041228584 -0.024364337 -0.09461462 0.12065567 -0.17694008
969797017286266880 -0.18617228 -0.23604816 0.5945369 0.16668373 -0.11433562 -0.10368788 -0.23913711 -0.18753149 -0.3235731 0.13397062 0.2629961 -0.040918957 0.2093537 -0.3556569 -0.009546255 0.011716378 0.022268655 -0.09344784 -0.03860949 0.37121278 0.15705189 0.30301005 0.3438409 -0.16731319 0.03207489 0.23723024 0.047597818 -0.08227519 -0.07348062 -0.19723995 0.0062415665 0.060780555 -0.0088365935 -0.006181648 -0.08357319 -0.07115091 0.15231223 -0.19963497 0.15884085 -0.07231709 0.09208257 0.27078354 -0.10632343 -0.1057572 0.17985791 0.10569807 0.10045363 -0.2220945 0.049002178 0.12953202 -0.015168724 0.14261954 0.11289344 0.29184508 0.008843011 0.1786459 -0.31258333 -0.07268824 -0.12978028 -0.010961942 0.058533613 -0.31739473 0.17394932 -0.119184606
969900243767603200 -0.17656028 -0.2303378 0.48695183 0.23719187 -0.16800563 -0.17978528 -0.117978565 -0.14739178 -0.37026414 0.11134275 0.13117148 -0.17522904 0.0863272 -0.28361413 -0.031784464 -0.033181924 0.21570933 -0.12372234 -0.19958359 0.30470058 0.026275296 0.3415291 0.36409757 -0.294268 0.15152769 0.15442595 -0.10622304 -0.010807229 -0.027068412 -0.27911156 0.019116731 0.12968816 -0.08559196 0.084130764 -0.02846255 -0.04203786 0.042048823 -0.29169726 0.09663352 -0.044896122 0.18128891 0.041875474 -0.08263602 -0.038201272 0.07506416 -0.0051097902 0.20638815 -0.1379443 0.01828863 0.2747103 -0.052932486 0.11741405 0.1402656 0.2230314 -0.14618345 0.12709409 -0.30487174 0.015294597 -0.118434 0.029454455 0.13336429 -0.111407354 0.046250463 -0.19784392
969894861510815744 -0.12804306 -0.2662873 0.530249 0.13105457 -0.1008585 -0.22156999 -0.19905934 -0.10690729 -0.45255694 0.15074001 0.23796682 0.04279003 0.23050982 -0.28201193 -0.16119626 -0.06823058 -0.02059474 -0.10312655 -0.014510083 0.3203743 0.06794999 0.2885627 0.31433225 -0.26918665 0.12756552 0.20511378 -0.019198801 -0.05015533 0.039004568 -0.28013873 -0.060528282 0.07536196 -0.16892262 0.0073881303 0.06528708 -0.016284915 0.12560734 -0.14195296 0.057041973 -0.12834747 0.13216192 0.24341269 -0.118949935 -0.200987 0.15388678 0.07522716 0.22708036 -0.20127162 0.057487413 0.0401366 -0.10949639 0.050742473 0.07471361 0.27640945 -0.019151654 0.11355504 -0.28674126 -0.0701517 -0.11668012 -0.01637313 0.019945888 -0.03610923 -0.008965918 -0.18604869
969771804863508480 0.013823371 -0.097769886 0.4539964 0.29452685 -0.09571679 -0.36445874 -0.1683232 -0.30641633 -0.29568982 0.18776411 0.120372914 -0.10101344 0.22686757 -0.33381394 -0.17097512 0.07121762 0.12771201 -0.07066878 -0.14554392 0.3194687 -0.05427745 0.27331746 0.33548558 -0.25759462 0.014698044 0.15546905 -0.1851777 -0.032047085 -0.099956885 -0.34448978 0.06764271 0.13087337 -0.041714687 -0.004693567 -0.059215613 -0.018358229 0.06986205 -0.11700013 0.26121962 0.08316245 -0.02470633 0.0489958 -0.1861346 -0.061136186 0.13801296 -0.0013674811 0.0059309704 -0.04461951 -0.033346206 -0.025541423 -0.07851592 0.049824152 0.061320957 0.08495131 -0.052590083 0.067234434 -0.28024337 0.1285538 -0.06867533 0.22675891 0.04232715 -0.17588517 -0.006040185 -0.06422244
969840195242622976 0.04660587 -0.2738665 0.59458494 0.12310354 -0.43858218 -0.1172568 -0.3421186 -0.24565127 -0.1011216 -0.11972081 0.15647803 -0.05334278 0.49369067 -0.13355038 -0.09151236 0.28263396 0.0017279756 -0.3793885 -0.23563395 0.4016535 0.011262818 0.17377938 0.3773445 -0.22171597 0.053811636 0.030821938 -0.084227555 -0.3110646 -0.31547725 -0.46244985 0.14174722 0.2764066 -0.027349709 -0.15243131 0.2210127 -0.0047075097 0.092209876 0.08594177 1.2552948e-05 -0.16426411 -0.0336878 0.19308588 -0.059076086 0.089765795 0.21370366 0.08650387 0.16797706 0.2070527 0.00929668 0.1277909 -0.097141296 0.3139109 -0.18841738 0.15560713 0.082073875 0.33920047 0.03252279 0.11323736 0.06401654 0.090541035 -0.06330464 -0.12844561 0.00047586104 0.004915702
969895435396509696 -0.039341573 -0.11438423 0.36674768 0.28587618 -0.30967656 0.28636405 -0.04105148 -0.15361093 -0.23443516 0.08985529 0.2773869 -0.28475976 -0.21799353 -0.19781443 -0.3844735 0.0694488 0.043185007 0.044806074 0.17148161 0.15664396 -0.08432816 0.11552734 -0.012280875 -0.23091897 -0.057611603 0.24155307 0.06834539 0.07889809 0.13086697 -0.32679597 0.085431665 0.09519868 -0.115205936 0.21773069 0.019883426 0.021157121 -0.026062641 -0.015230876 -0.11183577 -0.044047307 -0.072159335 0.13388216 -0.14550336 -0.40038913 0.3991571 -0.38670915 -0.11286884 -0.029222563 0.001205409 -0.10140955 -0.21966563 0.052972164 0.07681614 0.0954699 -0.028987447 0.04867433 -0.14360069 0.0074953972 -0.073645726 0.15392774 0.15566647 -0.16744138 -0.08033697 -0.0066295266
969898943667515392 -0.11973619 -0.27688292 0.29024205 0.21906878 -0.18345816 0.19443932 -0.012584368 -0.18723929 -0.36468646 0.10514525 0.2890898 -0.112473026 -0.11089757 -0.38708577 -0.35796082 0.06464968 0.12335644 0.036603082 0.058800504 0.3343571 0.060699284 0.0070699705 -0.08018391 -0.2241487 -0.12166592 0.16303761 0.16595946 0.238158 -0.011660875 -0.13183244 0.0470473 0.10260353 -0.21700291 0.18953052 0.13447613 0.033674583 -0.06967208 -0.055225816 -0.18288308 0.010454955 -0.30354124 0.15764205 0.06958368 -0.44535553 0.3986441 -0.284066 0.026077071 0.11216059 0.056965083 -0.16238368 -0.2808397 -0.04831329 0.03822334 0.03724366 0.15470332 0.11258134 -0.121335804 0.1550064 -0.107396506 0.074193574 0.05916801 -0.12054652 -0.109996445 -0.08662978
969900290253012992 0.09645757 -0.06330519 0.30915958 0.31586242 -0.20722185 0.3070043 0.11705711 -0.10413832 -0.2891914 0.16060983 0.25579256 -0.020730013 -0.3121252 -0.1829283 -0.13309494 -0.082004495 0.09175332 -0.010958272 0.084355146 0.1957925 -0.014500063 0.12612675 0.07744078 -0.37118545 -0.21403512 0.13117053 0.008387888 0.049446736 -0.0017552549 -0.30493182 0.07039006 0.037313696 -0.036771324 0.0787929 0.11251622 -0.024322666 -0.20374727 -0.1266125 -0.3277978 0.09008592 -0.016581658 0.032374226 0.12519604 -0.47722495 0.31535104 -0.3474944 -0.1366614 0.004413606 0.047456134 -0.22973366 -0.255557 0.254538 0.111742795 0.07618793 0.3391743 0.05792638 -0.12428968 0.2631364 -0.20256211 0.20165755 0.05146544 -0.2909159 -0.09648674 -0.021533497
969841019628830722 -0.038818303 -0.11058671 0.4230952 0.14608309 -0.22396716 -0.1559732 -0.16071697 -0.01279191 -0.24708825 0.09022917 0.2724841 -0.05205835 0.37375984 -0.2097111 -0.002803966 0.17453794 -0.04921013 -0.356447 -0.25386146 0.5317613 0.03754493 0.15726385 0.6650476 -0.021551406 0.030632744 0.004921829 -0.11589588 -0.21598466 -0.24907473 -0.5279827 0.040436633 0.34602496 -0.048929527 -0.16490164 0.25484625 -0.28566578 0.13123202 0.052867815 -0.1578234 -0.031156827 -0.03409698 0.24141681 0.06486108 -0.036885004 0.14526874 0.08060805 0.18011533 0.17954652 0.2987724 0.37441245 -0.20796058 0.2239548 -0.17238732 0.2197442 0.07656097 0.30309674 0.056170933 0.12736726 0.14236224 0.08602002 0.009092106 -0.049446106 -0.089869335 -0.050156515
969859654166528001 0.21868606 0.076954514 0.19528006 0.12086914 0.061113343 0.076120414 -0.10489205 -0.19475546 -0.46034074 -0.106452025 0.37704027 -0.36189827 -0.16787101 0.042532526 0.18318768 0.045155816 0.12175217 -0.2645876 0.14027408 0.19114645 -0.02453929 0.29915285 0.024840036 -0.095305234 -0.08372619 0.055221282 0.2499252 0.34261996 0.121486984 -0.20285597 0.28071588 0.30323255 -0.1557818 0.10042717 -0.44624335 0.023032406 0.1542997 0.35358053 0.064967975 -0.16657194 -0.028888501 0.20138487 0.22899991 -0.27371058 0.4668653 -0.06402561 -0.005179938 0.14341263 0.42903158 -0.18334393 -0.05172966 -0.09905648 -0.015771184 -0.24603267 -0.0037301786 -0.02629609 0.103897974 -0.060870554 -0.10846464 0.058809236 -0.35003343 0.083191544 -0.005444935 -0.17066453
969861147468824576 -0.01691655 -0.2280691 0.574167 0.16575855 -0.21934095 -0.059556663 -0.32420903 -0.08833694 -0.083728544 0.16681665 0.122909 -0.09791781 0.53455436 -0.09922926 -0.059361883 0.2033418 -0.026558263 -0.41808197 -0.1286819 0.4779942 -0.011348938 0.2262468 0.40272185 -0.20881645 0.13695294 0.11974588 0.060608633 -0.11823242 -0.058984227 -0.45265564 0.11526341 0.2077895 -0.1969971 -0.027046388 0.33427933 -0.10587697 0.11530673 0.11977452 -0.061009705 0.05467313 -0.046082202 0.2059487 0.020939091 -0.077372685 0.118043385 0.053214982 0.2725449 0.08872629 0.20917077 0.25760376 -0.09383248 0.22185038 -0.21352191 0.1855307 0.22318779 0.27456114 0.0048060217 0.34092063 0.23489554 0.24044722 0.06415075 -0.048795007 0.14854178 0.0009959968
970062495925743616 0.036078632 -0.09270572 0.52611595 0.23546207 -0.1847359 -0.053335514 -0.22919637 -0.29073113 -0.21204199 0.11198699 0.28513762 0.014055221 0.38672605 -0.2004888 -0.08967078 0.07512524 0.0039106277 -0.4174572 -0.19523343 0.4742392 -0.107399926 0.2100129 0.5202865 -0.11264664 0.12425622 -0.0346715 -0.08862755 -0.33942518 -0.12936337 -0.5281047 0.13974987 0.2932439 -0.16710201 -0.30373847 0.19084474 -0.19091664 0.16610193 0.21000208 -0.08425719 0.15348054 -0.0059922594 0.2079995 0.11819307 0.10538662 0.10549504 0.04835824 0.2536085 0.23420997 0.18776831 0.1696648 -0.07635054 0.28465623 -0.14158504 0.13289922 0.21584293 0.4232017 -0.08972449 0.21302481 0.11787357 0.01629267 -0.032015458 0.022687964 -0.027798725 -0.021431034
969824940789608448 -0.0034117207 -0.18020262 0.15566975 0.1920394 -0.204136 -0.23965007 0.20945002 0.034817625 -0.25852278 -0.04725518 0.10096765 -0.2925371 -0.27732414 0.006696076 0.099772125 0.3958051 -0.14886738 0.1471657 0.11658952 0.2102248 0.3762627 0.42639515 0.057849806 -0.11508214 -0.046149336 0.31740895 -0.124688484 0.21229582 -0.18041012 -0.26590523 0.25848505 0.13831507 0.0019785783 0.038280208 -0.18909939 -0.14794202 0.031180583 0.05092453 -0.027669631 -0.10527881 0.0832358 0.26117995 -0.20802052 0.05373201 0.015529511 0.10016645 -0.20095448 -0.03269978 -0.002544875 0.098201096 -0.2547803 -0.07249723 0.032257505 -0.05433962 0.034054592 -0.032316208 0.0881028 0.18110722 0.035019714 0.056681883 -0.11717755 0.21381907 -0.12023752 0.089482345
969909385651605510 -0.039848536 -0.15207896 0.55180407 0.21301611 -0.2507282 -0.1422701 -0.31188914 -0.2013572 -0.3000567 0.12303389 0.1965777 -0.20534611 0.47513914 -0.35404265 -0.052333865 0.20012197 -0.09937742 -0.48887652 -0.38821912 0.33039153 -0.1113927 0.10917932 0.36745572 -0.24697645 0.035844825 -0.018315272 -0.09835026 -0.27170432 -0.17216688 -0.48314676 0.06950149 0.23999877 -0.1802407 -0.13675644 0.28708088 -0.0055104014 0.15819761 0.12120037 -0.04694593 0.064877264 -0.036225915 0.18181138 0.20392965 0.1174404 0.12783647 0.07883577 0.20138377 0.21851069 0.064032815 0.21088783 -0.060185347 0.3599156 -0.11977794 0.084656976 0.062160235 0.32844433 0.021906102 0.2542641 0.1390812 0.14539897 0.19194266 0.096738555 0.013901214 0.18371353
969839657088294917 -0.032091875 -0.28869474 0.48626766 0.15525249 -0.3099673 -0.27249458 -0.20288105 -0.13498908 -0.21603124 -0.023625186 0.18478562 -0.15042976 0.56399286 -0.21358864 -0.053709786 0.10798107 -0.11871278 -0.37994325 -0.2771582 0.44505024 -0.1288421 0.06874905 0.38396153 -0.21477118 0.078420214 0.046524238 -0.15007758 -0.25459808 -0.07154955 -0.45470485 0.060938343 0.23862638 -0.2520828 0.030463316 0.22527568 -0.20848048 0.16425888 0.26723972 0.013673192 -0.08033235 -0.040474076 0.23544313 -0.07571937 0.027500138 0.21458295 0.06103857 0.11571249 0.110966854 0.17688373 0.20986792 -0.18156648 0.2476264 -0.12091945 0.0967644 0.23171395 0.2872238 -0.016961252 0.17077829 0.015738608 -0.033856407 -0.11855232 -0.12841374 0.029357348 0.10578199
970020271808692224 0.20242132 -0.4723397 0.23463807 -0.023280244 0.11548354 -0.16620542 -0.12297384 -0.058803927 -0.3429219 0.06919697 0.16364516 0.04278645 0.09086624 -0.11254936 -0.017101042 0.46465832 -0.009307098 0.04561337 0.08262173 0.3085474 0.069726795 0.06403325 0.20560852 -0.1934664 0.30057737 0.112846024 0.18027419 -0.15581341 -0.09375231 -0.09070666 0.06766889 0.088741355 -0.16339596 -0.12518944 -0.100420356 -0.2699717 0.16222294 0.038164712 0.07420179 0.041398615 0.066218294 0.116247475 0.11166915 -0.083657995 0.31049648 -0.061916955 0.15944694 -0.17189696 -0.3060488 0.11415232 -0.20939149 -0.123908244 0.1134886 -0.00089756626 -0.16215155 0.14515507 -0.3652288 0.25231007 -0.016646836 0.09437966 -0.1404049 -0.10243064 0.21821566 -0.008544926
969839760964382720 0.028617539 -0.09215715 0.49203813 0.26323113 -0.30255294 -0.14467864 -0.19498311 -0.14241903 -0.20462088 0.094369814 0.15096073 -0.08635478 0.4238201 -0.27551514 -0.16567762 0.2052679 -0.049005646 -0.4513551 -0.25013578 0.35624465 -0.07424346 0.21250005 0.43952015 -0.2948762 0.0042843497 0.08645527 -0.21773343 -0.3214804 -0.17313239 -0.4278978 0.093297265 0.29419687 -0.028646342 -0.1826665 0.16365808 -0.03712006 0.2955135 0.32671434 -0.045633476 -0.06028303 -0.090876915 0.088672586 -0.05281641 -0.017231483 0.088347204 0.090929 0.10910824 0.17716536 0.25244203 0.16696085 -0.14294548 0.2683557 -0.14536111 0.09089852 0.18494487 0.39047337 -0.10409603 0.29483643 0.08065671 -0.025599035 -0.09742425 -0.13337721 -0.085466005 0.04393505
969842169455394816 -0.13179368 -0.038986284 0.46704066 0.14412265 -0.2693888 -0.29515946 -0.3142004 0.020750567 -0.27401683 -0.09639165 0.072437495 -0.04702123 0.47571024 -0.15344618 -0.17691714 0.28981277 -0.073968254 -0.42853352 -0.24722089 0.43884906 -0.21203403 0.19553415 0.46314096 -0.12622617 0.044865865 0.05963251 -0.07783278 -0.3359754 -0.1293873 -0.36519018 0.14257607 0.34609798 -0.053956043 -0.15025294 0.23617832 -0.017648837 0.0177135 0.11610099 -0.11041092 -0.015740713 0.06453336 0.17937684 -0.13983038 -0.020634012 0.2872417 0.108999476 0.32696196 0.17294322 0.16667959 0.20945767 -0.21118467 0.3296714 -0.19571471 0.18256687 0.12716642 0.45609704 -0.1653865 0.17249951 0.11857988 0.09718024 -0.018051948 -0.022540238 -0.01461037 -0.07178339
970054868399345664 0.19649586 -0.44089693 0.2078073 0.1811876 0.047241956 -0.048849862 -0.19611795 0.08343268 -0.28414005 0.028191589 0.1466785 -0.05792832 0.09829565 -0.3269013 -0.048226517 0.2322749 0.0169125 -0.09881376 0.08061356 0.2823403 0.071363434 0.12661983 0.23931544 -0.2169083 0.14691213 0.09119431 -0.0471318 0.0028450666 -0.027603406 -0.24248281 0.16291182 0.1407728 -0.19833317 -0.10467723 0.034705833 -0.17606314 0.31899974 0.09604794 0.09867714 0.056047592 0.1331293 0.07680597 0.11104707 -0.09526057 0.1474804 0.10564878 0.2629913 -0.278259 -0.15384138 -0.10522336 -0.2593438 -0.15010959 0.17208166 -0.2633265 -0.17872003 0.3108106 -0.2059875 0.13749908 -0.036533568 0.14650875 -0.27680397 0.010184195 0.0839917 0.12556155
970082829173313536 0.087449335 -0.28109926 0.3066277 0.055832148 -0.104796655 -0.26221558 0.048271127 -0.0022280444 -0.3658357 -0.024928968 0.051750485 -0.43751237 -0.42408088 0.076847725 0.18561728 0.23578945 -0.21312444 0.37989268 0.11292334 0.08617893 0.30256656 0.11805909 0.12136225 -0.1209198 -0.10653082 0.31989154 -0.13648528 -0.013178424 -0.048103184 -0.24937807 0.09698597 0.18823771 -0.22652061 0.24524929 -0.106613055 -0.23289645 0.15043397 0.15230381 -0.11269011 -0.021717753 0.04818621 0.2922347 -0.0898489 0.04743005 0.13884951 0.10976937 0.05103225 -0.12578195 0.23301761 0.14306387 -0.2012546 0.07376986 0.0019777608 -0.13435553 -0.029037269 -0.15180135 0.057438485 0.09687803 -0.32330108 0.06011001 -0.07926419 0.031117914 -0.0037198623 0.13685839
969861371906048004 0.11186962 -0.115164585 0.01343527 0.089058116 0.23529519 -0.1589125 0.16338502 -0.20137304 -0.3703675 -0.12470546 0.36634097 -0.27672178 -0.29173347 0.078590065 0.3069698 0.070415094 0.06968293 -0.41508403 0.14591499 0.2911524 -0.0542879 0.1369707 0.09761387 -0.18477078 -0.18263513 0.035923634 0.25952932 0.29683325 0.17467369 -0.13790876 0.17616695 0.3465607 -0.21426168 0.16982259 -0.36034715 0.07475316 0.11926486 0.2998407 0.06792531 -0.15871128 0.103681155 0.12526643 0.12866831 -0.33992493 0.6801267 0.06038676 -0.028793432 0.14332095 0.29820836 -0.115548454 -0.12034339 -0.02557672 0.06543227 -0.31760633 -0.0043020225 0.01199903 0.051394813 -0.01608498 0.08189649 -0.11994622 -0.23748341 -0.14065874 0.041350145 -0.075600475
969854975982489600 0.042033993 -0.14273378 0.45336616 0.15946326 -0.2821103 -0.23041406 -0.28886783 -0.09522925 -0.24292985 0.09234263 0.22378726 -0.11321772 0.28226528 -0.2481595 -0.035858314 0.15090372 0.017861865 -0.5562405 -0.28956315 0.5019996 -0.18670098 0.13916737 0.33651793 -0.23289861 0.21165627 0.035585664 -0.033687115 -0.32984436 -0.08206724 -0.37018093 0.16086467 0.2143012 -0.16870952 -0.10263667 0.23295283 -0.041735087 0.107104994 0.13037458 0.10560174 0.03819848 -0.123484515 0.17405052 -0.0024671548 0.07246761 0.21931964 0.18015954 0.11502143 0.21429695 0.20222983 0.20399581 -0.15795489 0.38092053 -0.22370161 0.1622445 0.070549205 0.41756934 -0.0053432034 0.22005248 0.24988729 0.0136770895 -0.001213488 0.01928142 0.073919706 -0.03326323
970032838161477632 0.36568585 -0.3344448 0.27959913 0.13499254 0.08535745 0.033244364 -0.27045795 -0.038893133 -0.20658195 -0.062363695 0.22501032 0.013984705 0.19797313 -0.2568512 0.010020871 0.2426815 0.021871168 0.009519348 0.0134967305 0.41674218 0.06688255 0.14703748 0.29617986 -0.17295879 0.067413 0.20844366 0.019915994 -0.124932535 -0.01437855 -0.16873014 0.10975388 0.05217983 0.027455438 -0.06924106 0.033628684 -0.11550398 0.14119925 -0.072268724 0.024734374 0.024410736 0.12055355 -0.056859095 0.04812505 -0.13214691 0.3155711 0.13739866 0.23839526 -0.12951924 -0.41386077 0.06233332 -0.18375745 -0.13496248 -0.15163836 -0.18983972 -0.11450725 0.45067328 -0.26277366 -0.16266319 -0.059038118 0.3512678 -0.19353461 -0.18177727 0.06506302 0.25933504
969901000906522629 -0.00010168727 -0.1380287 0.28463575 0.36795065 -0.2517529 0.2588003 0.027202232 -0.05673544 -0.30070198 -0.057177424 0.38308737 -0.063466065 -0.19924615 -0.1816835 -0.30493638 -0.011521914 0.109232865 -0.10463506 0.066676006 0.14829545 -0.02648728 -0.079541616 0.052772053 -0.30196747 -0.07602966 0.18191202 0.13928981 0.117312975 -0.0801711 -0.37240115 0.10539192 0.13877551 -0.086087905 0.1245035 0.05841811 -0.068311974 -0.036190826 -0.11740343 -0.10957923 0.0638275 -0.18501669 0.23832802 0.001409372 -0.4432023 0.40549946 -0.28628385 -0.10667786 0.17186186 -0.1200389 -0.11812462 -0.2051846 0.02415544 0.11792001 0.18425 0.23582211 0.19237281 -0.019289834 0.06587499 -0.06247781 0.1683509 0.14594296 -0.23887716 -0.1575607 0.046526108
970023668087537664 -0.072865255 -0.0722424 0.4620329 0.22297989 -0.19186401 -0.19233815 -0.22694327 -0.109724216 -0.13940574 0.13488498 0.16127382 -0.1774649 0.49494222 -0.23085064 -0.21603614 0.09079108 -0.06119473 -0.5218012 -0.26261804 0.5160049 -0.13475809 0.13521352 0.37072062 -0.31442946 0.05504597 0.09679009 -0.076901615 -0.25323197 -0.18946943 -0.4231956 -0.06403204 0.31046325 0.09055937 -0.082671545 0.20241556 -0.120916106 0.16436356 0.16437541 -0.07193343 -0.0720057 -0.028596802 0.1683667 -0.091500595 -0.060106505 0.061305102 0.20519447 0.1565147 0.12531668 0.30019617 0.17469506 -0.20710674 0.3973011 -0.08864406 0.026156139 0.14193244 0.40204164 -0.03125655 0.17294556 0.1237953 0.02763061 -0.10395687 -0.16513631 0.06572823 0.1653747
970071392807919616 -0.07459057 -0.0932311 0.350095 0.2076732 -0.052439425 -0.11666913 -0.06353485 -0.0648137 -0.26412222 0.13145094 0.17714493 -0.03896462 0.097666755 -0.23878776 -0.09839877 0.099509686 -0.004242434 -0.046811685 -0.103887975 0.30830953 0.030656485 0.13696755 0.27791494 -0.17113611 0.14380297 0.18151636 -0.04784781 0.13164443 0.15029982 -0.373864 0.303512 0.23307365 -0.1274635 0.060779374 -0.05083996 0.031157872 0.010103941 -0.06490798 0.055880073 -0.041206084 -0.07152454 0.23024832 -0.1480608 -0.13893913 0.22059476 -0.07488773 0.09284378 0.07035939 0.29118997 0.008419495 -0.08099383 0.12322163 -0.12639481 0.046414465 0.06959507 -0.15991332 0.01924221 0.04264337 -0.19262186 -0.09380873 0.13620917 -0.029747266 -0.0016026563 -0.07967143
969844757408043008 0.052618522 -0.0996637 0.329138 0.21920104 0.019255124 -0.21945806 0.043847706 -0.17104906 -0.36404315 0.104446515 0.17973666 0.07842652 -0.013406137 -0.14222518 0.08939386 0.18192792 -0.043183938 -0.16542238 -0.059216753 0.30786216 0.412176 0.057904962 -0.013090917 -0.16184929 -0.06876844 -0.074099034 0.25739792 0.039397776 0.045317233 -0.057630654 0.076332554 0.1829812 0.17081784 0.5051156 -0.18237402 0.108654976 0.20603935 0.15464328 -0.025022207 0.19059157 -0.14308155 0.032973725 -0.18221778 -0.17768826 0.23785242 -0.028944876 0.2549121 0.018651718 0.011725158 -0.12595291 -0.21662608 -0.035986964 -0.034544088 0.10723136 0.038086757 0.028457606 -0.22695346 0.049292024 -0.26149803 0.11707763 0.014700573 0.059807763 -0.18182349 -0.04434987
970053439798431744 0.22753869 -0.39338467 0.27593303 0.077585444 0.045053147 -0.20102085 -0.18497743 0.05229966 -0.28899643 -0.046711784 0.07878539 0.14329259 0.05220878 -0.18191078 -0.0051364326 0.44201794 0.09621924 0.01955509 0.0113122035 0.27713895 -0.047522433 0.09906892 0.32298845 -0.15649174 0.09987913 0.15992859 -0.075938724 -0.16522504 -0.18224731 -0.2239897 0.17498936 -0.0074959905 -0.06457601 -0.09722158 -0.2577426 -0.27330598 0.2331225 0.055928487 0.11819725 0.06269041 0.302115 0.021226728 0.079562545 -0.21567746 0.3513438 -0.029941022 0.16830076 -0.22495599 -0.18379152 0.019908043 -0.31747764 -0.035454065 0.018480098 -0.006704045 -0.23916551 0.33420292 -0.3031464 -0.04890087 0.07732304 0.22357498 -0.19782758 -0.13971771 -0.024096096 0.12869097
969866431843069953 0.2590527 -0.0233804 0.074462205 0.09770124 -0.05099644 0.11806707 0.12707126 -0.3212682 -0.65736336 -0.017463297 0.18288003 -0.15216097 -0.2102774 0.11016508 0.30748925 0.12121145 0.17226157 -0.19060332 0.017893123 0.15260002 0.0062710983 0.29648346 0.020731002 -0.141586 -0.1714638 0.09560438 0.27796263 0.35906693 0.19252716 -0.22832215 0.1469323 0.25941244 -0.26439518 0.17298192 -0.3549745 -0.02016786 0.10154137 0.28328338 0.19559097 -0.10653128 -0.09384 0.17257473 0.1303661 -0.2304609 0.527213 -0.024987068 0.063896656 0.22036937 0.43783537 0.0396284 -0.21127395 -0.038593777 -0.03525952 -0.24618478 -0.040602267 -0.039999735 0.095798545 0.15868823 0.038134757 -0.114110574 0.1277054 -0.15930854 -0.099942766 0.04503423
969859230906793985 0.23317587 -0.029998789 0.14649421 0.19852214 0.095129766 0.094693094 0.10665557 -0.31649056 -0.63731647 0.058669835 0.41905636 -0.27280527 -0.21669462 0.26282218 0.10396879 0.093391545 0.22234702 -0.26703414 0.0011233577 0.14189829 -0.001774779 0.30738285 -0.044475112 -0.020177085 -0.05255388 0.068882935 0.2000189 0.2366478 0.2572828 -0.03764871 0.20907743 0.14481862 -0.13688445 0.055525687 -0.46093196 0.058493476 0.047918815 0.19526346 -0.010989152 0.009418609 -0.00795596 0.093143374 0.1878298 -0.24658702 0.54921806 0.15365058 0.17615195 0.26138458 0.46696103 -0.07427763 -0.19346 -0.019674959 -0.089814246 -0.15558742 -0.1143912 -0.14937292 0.08318477 0.026501698 0.01432186 -0.056746144 -0.1506237 -0.17898555 0.123534136 0.022170959
969842169086320641 -0.017097492 -0.105814934 0.34353235 0.27754238 -0.10082919 -0.16513672 -0.17764485 -0.045154393 -0.32533994 0.04434329 0.33428863 -0.09616253 0.28754482 -0.2285787 -0.04599958 0.15446123 0.03844796 -0.16119312 -0.060683936 0.3228555 -0.07318163 0.22159113 0.1721987 -0.2186423 0.08905708 0.10815117 -0.034886025 -0.06616872 -0.2276599 -0.29420263 0.23916426 0.1522065 -0.09859547 0.00713385 0.10820292 -0.017324075 0.13471039 0.2120354 -0.066831574 -0.15043382 -0.12999047 0.00041202735 0.15205805 -0.07902168 0.24443194 0.018523725 -0.02891208 0.22363104 0.16809115 0.24025658 -0.21451528 0.27070463 0.058609616 -0.014535079 -0.11197044 -0.021545641 -0.07502892 -0.051893655 -0.10322304 0.1438614 0.039929427 -0.38003805 0.11840124 -0.066565774
969734446105600000 0.0045575 -0.1438233 0.19587854 0.13672248 -0.07290414 -0.017708853 0.0055066096 -0.0810406 -0.3348133 -0.25587478 0.5219856 -0.053229056 0.026860995 -0.32410437 -0.01548474 0.33199763 -0.1451925 0.024303263 0.14818715 0.34509194 0.04660253 -0.002749806 0.038320452 -0.3665838 -0.27676225 0.036710694 0.25906235 -0.045370147 -0.030093156 -0.26252928 0.016239937 0.10467731 0.09172668 0.17601776 -0.32679182 -0.080165654 -0.22465612 0.15862507 -0.020220622 -0.045981992 -0.11478683 0.056087416 -0.14412528 0.28908527 0.05638797 0.18447709 -0.04238393 -0.087106176 0.023529183 0.40215465 -0.20424959 -0.05141135 -0.24811935 0.027264614 -0.061016895 -0.048904877 -0.09144954 0.3117321 0.06206777 0.0006639789 0.0031797532 0.13154857 0.0056963647 0.09030658
969738093120008192 0.16593085 -0.25334433 0.3030514 0.10588738 0.048830323 -0.10033809 -0.14339854 0.25320438 -0.116914354 -0.17689203 0.50920665 -0.19060063 0.03495228 -0.33012214 0.009652522 0.31561944 -0.11541019 0.0789936 0.2574594 0.21415994 0.06442452 0.055158418 0.07687913 -0.35235858 -0.157082 -0.02256867 0.16930741 -0.03271437 0.12423268 -0.28418708 0.36537498 0.07334775 0.115072496 0.17331463 -0.39642474 -0.065412454 -0.28941387 0.26390353 0.05570307 -0.02302271 -0.03352686 0.06990269 -0.2040284 0.22773263 -0.019763594 0.1340151 0.15182811 -0.07641471 0.119455166 0.15718967 -0.4404195 0.003987914 -0.14400622 0.19186541 -0.0051377784 -0.054966014 -0.07505922 0.2957534 -0.083440505 0.10205819 0.11053421 0.20050727 0.013414974 -0.050558843
969741011718057984 0.27808687 -0.37110305 0.54529124 0.17724425 0.07564847 -0.20424892 0.02622608 -0.3702293 -0.21920235 0.15178971 0.21724543 -0.12676527 0.20793636 -0.018014247 -0.41649005 -0.022565173 -0.025852941 0.089381866 -0.116758525 0.5436216 0.17615375 0.15118456 0.2862481 -0.41142324 -0.108916335 0.22980833 -0.112724334 -0.18362279 0.019631578 -0.14373405 -0.10283675 0.11782177 0.047545824 0.16362366 0.05026568 -0.22371125 -0.116158284 -0.1699401 0.02289374 -0.09524484 0.083437495 0.25924996 -0.14639807 -0.108702965 -0.08501083 -0.35586312 0.48409548 -0.102886826 0.09877424 -0.078907825 0.018917188 -0.18209441 -0.015583167 0.10986069 -0.24007739 -0.09001268 -0.40322962 0.060859233 -0.11794165 0.11408517 -0.048106816 -0.14994536 -0.19368935 -0.1615622
969894904204685312 0.23471037 -0.055979136 0.1497192 0.21997954 0.03610879 0.021023566 0.13121223 -0.17478703 -0.5798172 -0.040789597 0.21835272 -0.30635974 -0.2686902 0.04346781 0.3216461 0.05228556 -0.15054636 -0.15821965 0.21644843 0.18495479 0.08585994 0.15077217 0.027762821 -0.22552264 -0.2059752 0.09959158 0.07930508 0.26334321 -0.06663236 -0.24666567 0.10019234 -0.11946141 0.022552798 -0.009147604 -0.24853529 -0.022785746 -0.24038723 0.35119334 -0.09341024 -0.23767294 -0.058750074 0.31351754 0.07636148 -0.024551531 0.4092184 0.24230115 0.06748389 0.056597095 0.20132214 -0.023935745 -0.05186858 0.027331177 0.08566435 -0.2914398 -0.21741754 -0.12257401 0.18132135 -0.045718595 0.040282004 0.02636943 -0.17060816 -0.11310259 0.01276084 -0.1410581
969792433935368192 0.12813124 -0.43078232 0.23420005 0.09712911 0.03809979 0.10254792 0.06257537 -0.2999497 -0.15837862 0.26059005 -0.090944566 0.032095116 -0.20864603 -0.021169882 -0.21437609 0.1166498 0.022392962 -0.30560318 0.20606904 0.158188 -0.11669162 0.36093965 0.19638053 -0.18211047 0.012004303 0.114436835 0.048116706 0.037458863 -0.22759564 -0.3245084 0.016490145 0.119619444 0.066245325 0.041708466 -0.33573565 -0.026515238 -0.05839068 -0.051899478 -0.0472181 0.014051381 -0.051972855 0.16188695 -0.20371889 0.07207726 0.21623868 0.06467104 -0.014170653 0.21217804 0.24429037 0.12649438 -0.13798639 -0.124134935 0.24375542 0.09903534 -0.23024888 0.007510414 0.12939021 0.13942638 -0.28761262 -0.23976274 -0.3115639 0.19553003 -0.18892942 0.077462666
969797624181096449 0.23177773 -0.2873856 0.6194581 0.17145334 0.0814592 -0.20799029 0.042699073 -0.23864032 -0.14531216 0.11588854 0.13722625 -0.24521899 -0.002080197 -0.16035198 -0.14500849 0.23792695 0.122716464 -0.255443 -0.1671513 0.33596703 0.111293525 0.08877466 0.32357332 -0.5145848 -0.034803294 0.19887365 -0.12167829 -0.061244022 0.15033127 -0.20397831 -0.29326385 0.30965826 0.07731905 -0.07599652 0.01913131 -0.17965017 -0.15193261 -0.2369361 0.026589122 -0.07253235 0.08894469 0.031446718 -0.28977507 -0.12962286 -0.27042758 -0.23085245 0.41618323 0.029024977 -0.2729552 0.115789816 -0.036115136 -0.025760181 -0.05030421 0.12716906 -0.22228289 -0.27543864 -0.5460626 0.25701398 -0.038057376 0.11256312 -0.15880013 -0.2301167 -0.054408956 -0.20298485
969732229881413632 0.08785663 -0.2375473 0.2052517 0.23306745 0.08969447 -0.051135086 -0.09998984 0.05970071 -0.31651464 -0.28201976 0.51866996 -0.12047372 -0.06734262 -0.2908799 0.06299784 0.23311551 -0.13730623 -0.0231456 0.23012257 0.33132416 0.07527799 0.001166003 -0.011744091 -0.2609418 -0.2375615 -0.04455968 0.05102374 0.045634776 0.016580673 -0.31869665 0.1666789 0.009589615 0.31762254 0.13182157 -0.353068 -0.1353341 -0.18523985 0.19360061 0.013526004 -0.021103432 0.025253346 0.040805094 -0.15231064 0.14496584 -0.024847455 0.032132123 0.02086516 -0.108125865 0.12856941 0.096587665 -0.46954674 0.10685247 0.058401737 0.305677 0.11660363 -0.16103026 -0.1888202 0.16301198 0.046558883 0.15391047 0.22742122 0.047907855 -0.13096608 -0.05288302
970071049617391617 0.00641071 -0.2837138 0.29336086 0.18888646 0.017436597 0.09427134 0.005645631 -0.07506985 -0.06714843 0.04415938 -0.023578152 -0.25727952 0.08881278 0.059592795 0.03671423 0.22274844 -0.1446814 -0.21257105 0.007312788 0.3895702 0.21138112 -0.01482955 0.023831185 -0.05864767 0.19940926 0.2661838 0.16686592 0.0359818 0.16349275 -0.40836877 0.2589328 0.07786316 0.25943303 0.18134318 -0.019721592 -0.22254871 0.21613926 0.1933307 -0.27856475 0.061170567 0.13026424 -0.050674826 -0.0531295 0.017283808 0.3347798 0.09059003 0.17609115 0.15720922 -0.19391465 -0.025340209 -0.013804341 -0.19714327 0.12158661 -0.11054595 0.13160469 0.18986526 0.004492873 -0.02963765 -0.051287025 -0.1690925 0.015669193 -0.08925234 -0.07725354 0.20247649
969835199239344128 0.29345828 -0.1468396 0.35729253 0.16878246 -0.0018552521 -0.06921272 0.104902975 -0.3255829 -0.29028365 -0.031436067 0.3055808 -0.035873726 -0.048351932 0.035569996 -0.18454447 0.023335196 -0.1988595 -0.12637445 -0.10084772 0.41049471 0.22065413 0.10777746 0.0816282 -0.22032669 0.08818224 0.0628285 -0.030055793 -0.22465385 0.0684961 -0.11840983 -0.13686652 0.17640565 0.1064903 0.2119935 0.2371095 -0.30863956 0.18711011 0.07683806 -0.3185114 0.06951251 0.08505435 -0.07068678 -0.22389796 -0.047041815 0.22433826 0.09582363 0.18276371 0.29122213 0.07766587 0.22872144 -0.08695924 0.09849715 0.04031286 -0.04351037 -0.02724527 -0.058416598 -0.20319028 -0.022768877 0.09392087 -0.06858144 -0.10357852 -0.06777179 0.120526545 0.14450625
969898778873352192 0.20730661 -0.044772774 0.1716763 0.26580262 0.19305438 -0.08314247 0.041409183 -0.13039069 -0.42660493 0.04476442 0.3692291 -0.4856963 -0.2467201 -0.035462953 0.21908039 0.16468073 -0.07519456 -0.28644753 0.31149673 0.14641625 0.07175844 0.24044062 0.0148870675 -0.19498667 -0.27149296 0.3570974 0.22062144 0.25820172 0.053278424 -0.0873133 0.12006727 0.039703056 -0.08336858 0.045380197 -0.25707716 -0.18237332 -0.20381889 0.34238812 -0.0039708726 -0.104839005 -0.060573194 0.21670157 0.13773827 0.09291601 0.314211 0.06266398 -0.028592117 -0.016697342 -0.015572453 -0.09708444 0.03170071 0.10801493 -0.045425072 -0.24943575 -0.19848047 -0.013904135 0.124219485 -0.042500332 -0.019871144 -0.18570828 0.05073338 0.03369194 0.16669616 -0.16946915
969866168574947329 -0.12136662 -0.008495707 0.58191746 0.2922647 -0.36943302 -0.20982857 -0.35671222 -0.4158569 -0.17921793 0.105563 0.44632402 -0.18481283 0.032163482 -0.28793237 -0.3340327 0.19401449 -0.011570758 0.016512828 -0.24242385 0.4708398 -0.06891032 0.0022672908 0.49542212 -0.26644656 0.005620151 0.28531885 -0.101310074 -0.27129745 0.16950968 -0.13977456 -0.16840085 0.3740612 -0.063031755 -0.00027486007 0.28863075 0.0035852985 -0.07596086 -0.10959457 -0.07803339 -0.17171903 -0.1630852 0.016969575 0.09300076 -0.014368806 0.2812629 -0.21492809 0.095819995 0.038134772 -0.030892214 0.15080401 -0.14536545 0.13509506 0.10682699 0.061352715 0.083749965 0.18871826 -0.36041248 0.16209677 0.2186853 0.13849108 0.14708102 -0.24041213 -0.12605004 -0.086467914
969740723632226304 0.38981104 -0.20890072 0.42422405 0.18588467 0.0873972 -0.27645546 0.020559406 -0.40018773 -0.122009516 -0.07117114 0.16169886 -0.10642052 0.13715285 -0.21815085 -0.1507491 -0.11921883 -0.04623602 -0.086836465 -0.17955229 0.46918908 0.10116248 0.19773023 0.30711344 -0.5255761 -0.107055984 0.22658728 -0.07361404 -0.11990754 -0.029018642 -0.12661068 -0.15003823 0.078089185 -0.024768025 0.09752985 0.009049641 -0.34737158 -0.09160484 -0.2880061 0.15025944 -0.019566461 0.16976207 0.35309696 -0.21769358 -0.14311515 0.00832633 -0.2298288 0.49550995 0.007623401 0.0065356395 0.02307023 -0.03606886 -0.17941925 0.11262925 0.146603 -0.325098 -0.100546844 -0.5432044 0.047276292 -0.16272186 0.07784358 0.124128655 -0.29867673 -0.19805627 0.07765237
969801027938533376 0.1102723 -0.044453762 0.14553931 -0.019929463 0.23868887 0.13098505 0.025098044 -0.28208655 -0.07481477 0.14080614 -0.081811056 -0.008325521 -0.23746563 -0.039878182 -0.07666001 0.2463438 -0.06075595 -0.30899775 0.042293277 0.3821522 -0.30820632 0.41396558 0.35855705 -0.17205058 0.075148076 0.09457828 0.14438404 0.09443422 -0.06690415 -0.18291087 0.14794376 0.036425885 -0.04633563 0.051973235 -0.30564168 0.056174904 0.05535174 -0.056821134 -0.06163596 0.14167161 0.21111691 0.24238437 -0.3091925 0.13984057 0.23263812 0.06666556 -0.03786017 0.018839534 0.024058506 0.058038432 -0.2662707 0.1191435 0.1384867 0.131609 -0.1210318 -0.029969264 -0.08467624 0.12781757 -0.154278 -0.060751352 -0.19668044 0.23699857 -0.21142522 -0.078027286
969775874093457409 0.11495533 -0.29393727 0.24009153 0.32507515 0.00917197 -0.18333533 -0.15363002 0.010257686 -0.35149103 -0.13180412 0.47376573 -0.029144142 -0.016055916 -0.306558 0.15905179 0.21138181 -0.10208903 0.045104995 0.26472947 0.30841506 0.14617762 0.054257605 0.0500647 -0.32721534 -0.16598879 -0.08103761 0.039323285 -0.066351704 0.032483917 -0.21240523 0.17907703 -0.08561757 0.18313667 0.21205378 -0.19525489 -0.17240594 -0.37068555 0.3454164 0.104175776 -0.13682902 -0.080313 0.0035517593 -0.2573934 0.18744302 0.074659996 0.011603013 -0.075802885 -0.05233112 0.007042674 0.18079461 -0.35211962 -0.0017015126 0.044814605 0.18266062 0.1307706 -0.19130526 -0.030862268 0.24548124 0.090610124 0.24084122 0.17401385 0.13767143 0.041982125 0.007905263
969797649955110912 -0.047185596 -0.19933075 0.43093804 0.16374275 -0.38318908 -0.095956534 -0.52791095 -0.15481459 -0.21406 0.18393233 0.4519745 -0.2524874 0.2939827 -0.2586904 -0.2959381 0.109524906 -0.0910711 -0.17575091 -0.08521708 0.43232217 0.025661822 0.16943146 0.54841757 -0.20178314 -0.06570579 0.09477219 -0.15053003 -0.08607495 0.036822706 -0.33408454 -0.27936095 0.26136518 -0.05673233 -0.03294934 0.3169842 -0.08013274 0.06069368 -0.13863334 -0.06408279 -0.16866086 -0.18497045 0.16933385 0.20109957 -0.2496025 0.28876257 -0.12144596 0.14211848 -0.0772378 0.076990776 0.1685075 -0.23010176 -0.06670366 0.19060986 0.20992099 -0.04771183 0.07179968 -0.5128151 0.22824639 0.16929162 0.19153039 0.1563718 -0.23863357 -0.1371985 -0.010971089
969881427880767488 0.25185823 -0.064287774 0.053520907 0.26717854 0.16330615 -0.12812704 0.018137319 -0.09989466 -0.5034244 0.10440204 0.18287905 -0.4081783 -0.31876513 -0.030149017 0.32792243 0.12236716 -0.13467425 -0.14559144 0.11647468 0.31218415 0.0049955104 0.124244586 0.22131835 -0.017170457 -0.2789976 -0.010258216 0.12285596 0.21636274 -0.013944652 -0.44609016 0.34097752 -0.027400907 -0.036755525 0.03713823 -0.19958133 -0.10201566 -0.1476097 0.34875232 0.030664409 -0.11147905 -0.11208072 0.1974953 -0.009257856 -0.05228225 0.23270684 0.124980405 -0.0032436973 0.08571185 0.22532742 -0.0019984473 -0.09224465 0.088415965 0.079885595 -0.3897361 -0.3064704 -0.09679644 0.16658872 -0.06525406 0.090237446 -0.045238465 -0.004725255 -0.07004451 -0.0843876 -0.21351273
970061812442923008 0.11797649 0.09726263 0.14411534 0.41777503 -0.14025715 -0.0056429454 -0.08430895 0.025481371 -0.27119988 0.22260267 0.08416792 -0.11491137 0.19566666 -0.20604868 -0.104652934 0.2800648 -0.104413226 -0.19764689 -0.26182213 0.22894903 0.027114077 0.24979778 0.26450542 -0.2868096 0.044020362 -0.083716534 -0.054662775 -0.022558533 -0.17441887 -0.17855063 0.20386311 0.17401321 -0.07972317 0.06169648 0.24123956 -0.17029206 0.13354634 0.17519817 -0.27021915 0.13171668 0.086492 0.028138956 -0.14876978 0.15503582 0.18582298 -0.21199216 0.22633953 0.2798204 0.021429874 0.21700501 -0.07234053 0.3508071 -0.1423689 -0.1874188 0.11535395 0.14372012 0.13488322 0.24861097 -0.11105513 0.03913813 -0.1619695 0.023094473 0.07281856 -0.0053195423
969859093467836416 0.07894121 0.05136481 0.18972012 0.12105608 -0.0014448911 0.027347358 0.05879465 -0.2157625 -0.6430377 -0.081137836 0.12844136 -0.34808314 -0.102126956 0.10060116 0.30213493 0.1344231 0.006237903 -0.43031478 0.25132173 0.24321562 -0.035163265 0.2083234 -0.02057773 -0.077518374 -0.17909434 0.08941643 0.18144329 0.5058626 0.11916063 0.0067570754 0.24472584 0.15171191 -0.17679557 0.18673855 -0.25305468 0.0057251966 -0.1756317 0.29243764 -0.08290468 0.0675239 0.048222497 0.057054017 0.106979825 -0.19953324 0.53313416 0.06454978 0.17247216 0.2108842 0.3932568 -0.052286267 -0.057238936 -0.015039399 0.13659172 -0.25423682 -0.21604218 -0.13259116 0.04563897 0.3284367 0.19357873 0.22241332 -0.10887063 0.040902343 0.05729927 -0.10341443
969733682117328898 -0.0244573 -0.12261123 0.04720931 0.28658164 -0.04184297 -0.07315572 0.15518703 -0.13283303 -0.5344009 0.122982495 0.010912342 -0.12924407 0.079512596 -0.31518775 0.2500052 0.2487549 -0.21958137 -0.04940873 0.06846511 0.2616251 -0.15569404 0.15201557 -0.06617202 -0.05631351 0.26315975 0.30739915 0.11273952 -0.03925761 0.19139235 -0.25027952 0.37133086 0.17143494 0.008525013 -0.33923465 -0.06277417 -0.072115004 -0.22342443 -0.089939885 -0.3574435 -0.017982626 -0.011963341 0.099476315 -0.0036801845 -0.22592193 0.022991914 -0.022126144 0.08755284 0.33310995 0.049001858 0.13502312 -0.1340729 -0.016280783 0.37583676 0.3193637 -0.033939544 0.1400449 0.04851656 -0.15428583 -0.3165465 0.08661574 -0.17546 0.04099091 -0.2739301 0.28512394
969740353216507904 0.0391316 0.045524016 0.5058284 0.03482766 -0.28842267 -0.06146891 -0.3464068 -0.38446033 -0.20532845 0.058321234 0.5908044 -0.24383649 0.14103341 -0.26287496 -0.31478447 0.122097015 0.112251736 -0.099499255 -0.12719597 0.36588585 -0.08103221 0.061936405 0.57882416 -0.36324397 -0.038233332 0.4069815 -0.14682646 -0.12455598 -0.013662491 -0.19004479 0.014929981 0.15717207 0.026984908 -0.16580209 0.16239238 -0.008975882 -0.18872306 0.03133812 0.045698192 -0.106732525 -0.07083065 0.10360034 -0.038563147 -0.17793687 0.30977306 -0.17188798 0.052243304 0.029317547 -0.049756646 0.08242607 -0.09576846 0.19119862 0.069059364 0.3487779 -0.047333423 0.25791797 -0.32882795 0.19452548 0.07495898 0.31608635 0.25104165 -0.32234567 -0.1954056 0.07706909
969763253134880768 0.14988366 -0.27247083 0.50584924 0.14443624 0.06447752 -0.13318674 -0.03620676 -0.46341845 -0.02874915 -0.117580645 0.19901313 -0.07224786 -0.031212997 -0.23307486 -0.28532028 0.1495075 -0.07649495 -0.1328034 -0.20069733 0.3253649 0.3197394 0.097015105 0.47540495 -0.33523357 -0.23564951 0.1436626 -0.16079083 -0.07263478 -0.031581983 -0.1861867 -0.057137337 0.18380517 0.2551346 0.09801603 0.0984894 -0.25713187 -0.09594888 -0.25020358 0.00674464 -0.1629184 0.12706919 0.17725413 -0.3534302 -0.16305268 0.040030055 -0.23133986 0.45445386 0.1765752 -0.08334372 -0.13118644 -0.037525907 -0.12087793 0.07320925 0.08902123 -0.33967295 -0.102889836 -0.46041292 0.009957144 -0.10399951 0.14517827 -0.07801452 -0.34330186 -0.155056 -0.042351462
969825886957592576 0.32867992 -0.24239221 0.5843934 0.2637171 0.34584862 -0.38543326 -0.20745458 -0.31752744 -0.14217192 -0.0048852772 0.2701629 -0.30269256 0.03259437 -0.00729839 -0.22328934 0.058469415 0.07994739 -0.16898574 -0.20409077 0.4575731 0.17596082 0.19554354 0.26543805 -0.32455668 -0.12962459 0.144712 -0.18214133 -0.17328697 0.14677805 -0.15240036 -0.20004837 0.21072608 0.142631 0.16290116 0.16144668 -0.2639 -0.18229339 -0.20969707 0.03141988 -0.022944275 0.13411841 0.10724694 -0.18594813 -0.26044634 -0.11005713 -0.13299057 0.36570972 -0.0077097137 0.009775952 -0.040481444 0.07855472 -0.16914716 0.061089545 0.085635796 -0.28088626 -0.057619672 -0.5140606 0.014109159 -0.26173 0.009207863 -0.049909133 -0.2732784 -0.12223997 0.018556783
969756327919538177 -0.14186434 0.00327648 0.48423856 0.22748859 -0.03766552 -0.16857907 -0.50534695 -0.41687512 -0.16849825 0.13048135 0.50529575 -0.24902542 0.09958036 -0.40570334 -0.27246264 0.0014570863 0.077110365 -0.36059812 -0.0010738665 0.4400348 0.13769983 -0.0709819 0.45506766 -0.20628901 -0.08362777 0.3868816 -0.17159067 -0.16016407 0.06324793 -0.23857658 -0.04963262 0.17358229 -0.008596163 -0.017613955 0.27133176 -0.10308009 0.06832657 -0.31009036 0.069070145 -0.16275536 -0.23424159 0.15786342 0.0825166 -0.0079138335 0.2541387 -0.24054961 0.16528495 0.012220227 -0.05961462 0.13987108 -0.15452015 0.015665174 0.1509934 0.1502479 0.12137562 0.099052764 -0.4125042 0.21943808 0.19990948 0.13469402 0.09230656 -0.30893221 -0.06363629 -0.07533849
969756980041547776 0.059202753 0.18969229 0.47499388 0.30306807 -0.2062462 -0.1554576 -0.5106686 -0.33956733 -0.2504788 0.11526817 0.33907682 -0.15765141 0.3136042 -0.17597717 -0.26176858 -0.060628053 -0.13706332 -0.024305988 -0.07535641 0.41533417 0.11256188 0.21014163 0.4479088 -0.37686262 -0.047392834 0.20145188 -0.16283962 -0.15003246 0.14753738 -0.2567525 -0.14613819 0.106025964 -0.06454102 0.043513086 0.2547028 -0.07035778 -0.025292901 -0.12587729 0.053622514 -0.21432216 -0.2669818 0.12952755 0.04536197 -0.077788055 0.43389067 -0.1126826 0.19903031 0.037310056 0.21140835 0.13595563 -0.11704189 0.025990127 0.07250289 0.141861 -0.009772241 0.32747626 -0.4300292 0.17612495 0.20413785 0.29838884 0.16026025 -0.26510894 -0.23445785 0.10821698
969728785338720256 -0.21254726 -0.10930019 -0.12691191 0.18852629 0.09424245 0.00789664 0.23069426 -0.09618524 -0.3763491 0.3083995 -0.010619428 0.010352058 0.0029692121 -0.29221246 0.2289424 0.27854714 -0.285063 -0.132486 0.017550204 0.47461867 -0.08879677 0.31598225 -0.1496513 -0.13231361 0.09254716 0.07147556 0.028843766 -0.052735876 0.0805077 -0.21430372 0.280805 0.25292933 -0.040984336 -0.37901345 -0.017065655 -0.2477618 -0.07819583 0.036249135 -0.2888085 -0.08488677 -0.014826398 0.114880025 0.036203984 -0.37155432 0.2596931 0.013583765 0.069150925 0.36415073 -0.15729994 0.28390262 -0.17835355 -0.02378405 0.25735903 0.090267986 -0.016571471 -0.15698345 -0.062496584 -0.06624747 -0.27899534 0.15237531 -0.0695277 0.04448116 -0.04018675 0.26608905
969831332447600640 -0.012800909 0.014936394 0.25802347 0.10571154 -0.1829701 -0.15445094 0.10407937 0.0415204 -0.551629 0.038558353 0.08784357 -0.5220191 -0.44369802 0.15567653 0.021139167 0.31223193 -0.027805759 0.3044354 0.1858772 0.22403477 0.13779831 0.14502129 -0.064590834 0.016115295 -0.017444363 0.30498084 -0.023208842 0.054642342 -0.15578331 -0.38389665 0.06846045 0.20866342 -0.12968127 0.064931124 -0.18339725 -0.32185924 0.119997576 -0.08103044 -0.28506395 -0.15491572 0.11746085 0.032169595 -0.25640666 -0.12470538 0.18102784 0.080057986 0.12655883 0.12928984 0.067314446 0.11247221 -0.17759192 -0.09213695 -0.11591669 0.0444781 0.048118535 -0.12600611 0.05667821 0.0081800595 -0.011277389 -0.020464255 -0.07316457 0.09478038 0.07943351 -0.03452865
969894900257890304 -0.0027426553 -0.08143815 0.28434452 0.18832007 -0.29142398 0.2900361 0.16710564 -0.13559082 -0.32119244 0.10971902 0.17494254 -0.31796148 -0.33171314 -0.34233737 -0.23892152 -0.046760425 0.17860624 0.058154847 0.057415146 0.14779846 0.042282205 0.08582168 0.1980164 -0.1902138 -0.15903795 0.17049888 -0.015747478 0.22294076 0.09532053 -0.31315118 0.072815746 -0.109084554 0.21945149 -0.082995184 0.12333751 -0.31957224 -0.15966232 -0.051770214 -0.34874895 0.1575421 -0.2695724 0.2351645 -0.0067259828 -0.23644213 0.40269879 -0.30278087 -0.15062922 0.07142103 -0.063224554 -0.010557731 -0.14879398 0.032506257 0.12285653 -0.008754686 0.17450725 0.204161 -0.09026496 0.11655939 -0.05837546 0.120171055 0.20017795 -0.2529704 -0.01102453 0.06993164
969786057116958720 0.17423987 -0.14544517 -0.06589488 0.32277802 -0.11632776 -0.06977077 -0.14296389 -0.12375092 -0.4236743 0.080855735 0.16905461 -0.18838531 -0.07898092 -0.17763281 0.08870748 0.12541589 0.07235206 -0.10311398 -0.1006681 0.17685361 -0.009090867 -0.0719083 -0.0016451568 -0.27050287 0.12106519 0.009010008 0.05266728 0.01899892 0.06650751 -0.28831497 0.14991964 0.27723914 0.18485844 0.34029847 -0.21044633 0.36039913 -0.11499393 -0.04409251 -0.12734519 0.09700411 -0.015508903 -0.08820786 0.25312537 -0.28498045 0.41692224 -0.05889228 0.1308471 -0.22126465 0.079177305 -0.038433313 -0.13318896 -0.027451336 -0.061944894 0.05159773 -0.052445963 -0.020198783 -0.19950943 0.17183173 -0.11274791 0.14167906 -0.10294589 -0.02425486 0.09750067 0.09338598
969878515712577538 0.27430865 -0.068764865 0.1503607 0.3681088 0.10579618 0.05051836 -0.028968273 -0.24073657 -0.4492215 0.047647648 0.17093338 -0.37821993 -0.3412602 0.04055795 0.36063406 0.042801857 0.13019368 -0.23861381 0.03550156 0.027903834 0.071602106 0.3257924 0.056942873 -0.13592212 -0.1980179 0.18824041 0.15101258 0.16598545 0.04826923 -0.19596489 0.20835012 0.098981656 0.13778087 -0.12992834 -0.3580354 0.042894717 -0.21181464 0.26844466 -0.035914324 -0.049838673 0.2366545 0.2985511 0.095455505 -0.16092439 0.28518662 0.25551975 0.038186308 0.16617572 0.2560174 0.09648489 -0.01738481 -0.0751589 -0.06987114 -0.24656579 -0.16330403 0.053942595 0.15272047 0.12693268 -0.06397091 0.017856035 -0.030571302 -0.17731066 0.1195299 -0.18211609
969739226978820097 0.33990505 -0.3561105 0.53925973 0.28682813 0.07166353 -0.29777756 0.052537024 -0.3449285 -0.14757666 0.1301946 0.2739346 -0.2824011 0.10723097 -0.13860092 -0.10856894 0.0067353244 -0.062322203 -0.068328485 -0.0583979 0.334821 0.20822194 0.20370004 0.3430368 -0.44232175 0.13040407 0.16344811 -0.14620607 -0.17706332 0.11378707 -0.085591085 -0.06448773 0.23150744 0.035445675 0.031890627 0.051207893 -0.07212789 -0.24133478 -0.32607713 -0.0117705 -0.032984648 0.11044094 0.23483661 -0.27433005 -0.061896995 -0.12640582 -0.21792379 0.23232658 -0.021986518 -0.10552956 0.06279069 -0.022416636 -0.1568031 -0.040802978 0.03512383 -0.40560678 -0.016902965 -0.43614691 0.033733495 0.025282934 0.14239906 0.14088391 -0.21761431 -0.20000511 0.078911126
970084851440271360 -0.22560097 -0.27976823 0.15624708 0.11938633 -0.004915956 -0.003930362 -0.13842832 -0.25801876 -0.4416544 0.15347399 0.07732415 0.036343213 0.08868275 0.1437239 -0.08965193 0.08006564 -0.17546074 -0.18660396 -0.07094415 0.08894418 -0.1629176 -0.055572446 0.19720928 -0.7315593 -0.055210706 0.04953101 0.031694565 0.36901805 -0.041759606 -0.20990479 -0.028433446 -0.3901422 0.35750994 0.06822721 -0.07870176 -0.2506868 -0.23210801 -0.2478769 -0.40771964 -0.24520186 0.2537075 0.32432336 -0.38351187 -0.0027623815 0.09392966 0.18644337 0.15769017 -0.13001251 0.090265565 0.066493414 0.20734644 -0.013401593 -0.45321876 0.108769685 -0.08265287 -0.03831637 -0.44413224 0.16937177 -0.038099844 0.15663683 -0.31769744 0.11426461 0.3781612 0.01356339
969828996358725632 -0.21948478 0.10135146 0.26107365 0.2621541 0.08893953 0.20244034 -0.015578335 -0.2149126 -0.24852921 -0.1709735 0.22551176 -0.19287588 -0.32619604 -0.18418206 0.04404064 0.34241846 0.15657066 -0.27172726 -0.089278124 0.0754041 0.04823802 0.37855554 0.088243544 -0.24090967 0.037248872 0.24019907 0.036691703 0.17864281 -0.095430665 -0.04874986 0.18166535 0.07754341 0.12746082 0.33067164 -0.056715775 0.058820743 0.2637411 0.09114604 -0.13294415 0.16309875 -0.20674077 0.027109513 -0.08723727 -0.15423784 0.36540926 -0.006601156 0.21657032 0.046371035 0.13099839 -0.20035401 0.051427554 0.28053695 0.24821697 0.14933126 -0.17183304 -0.13404475 -0.18080361 -0.12802239 -0.19276987 0.047110803 0.08369186 -0.1422063 0.06211373 0.1990541
969740585576816640 -0.09892197 0.095736764 0.5832018 0.19266424 -0.14559843 0.016741952 -0.39698607 -0.52836865 -0.069585115 0.11928778 0.52044475 -0.08372003 0.09323746 -0.33495015 -0.26936525 0.1833034 -0.15656435 -0.0510935 -0.07635673 0.55900353 0.13045226 -0.012275446 0.37372875 -0.3893427 0.09715441 0.12453362 -0.2116882 -0.242818 -0.061538685 -0.3297192 -0.06590757 0.28331456 -0.16059193 -0.13501467 0.22955486 0.07584071 -0.1380931 -0.04503389 -0.12775677 -0.14369445 -0.07484171 0.19108675 0.09350552 -0.041892815 0.17111912 -0.094416894 -0.0014479277 0.05144146 0.12048169 -0.078869306 -0.15412065 -0.008610683 0.021930357 0.14460954 -0.082159705 0.20290431 -0.409003 0.24455121 0.14087416 0.2422155 0.15586022 -0.2570955 0.07990536 -0.077424355
970061204835090432 0.41013455 -0.1395804 0.086384125 0.31582755 -0.054397583 -0.15033013 -0.3103542 -0.12635827 -0.32965258 -0.07803172 0.0015429127 -0.21892887 0.04116705 -0.026037695 -0.25337705 0.25439036 -0.23472157 -0.0875865 -0.014078334 0.19920045 -0.017713308 0.10695238 0.009520269 -0.40532476 0.22209202 -0.026596481 0.12700166 0.024606287 -0.37567735 -0.17518076 0.25405788 0.21193631 -0.05536069 0.26211536 0.39559186 -0.18743703 0.03241635 0.1367093 -0.13892323 0.087360725 0.19657487 0.0765665 -0.09599234 -0.016744856 0.109686315 0.117285825 0.2517618 0.32768828 0.061758086 0.24616809 0.015890285 0.24384171 -0.0042070677 0.07528293 0.25824064 0.13097954 0.22520486 -0.14867336 -0.09481841 0.014994779 -0.24699284 -0.07997695 -0.0063826474 0.21134639
970046810105393152 0.036284 -0.28196806 0.3819377 0.12618616 -0.12899838 -0.3954254 0.12075881 0.015548649 -0.26737815 -0.0786408 -0.0024402097 -0.19631512 -0.105446376 -0.24569556 -0.10333454 0.12786731 0.011175109 0.04549318 0.2770057 0.27700382 -0.07599101 0.406261 0.21220316 -0.17068563 -0.017015316 0.24386135 -0.16515024 0.1459273 -0.16510837 -0.30149886 0.039741322 0.12093331 0.20328508 -0.08826672 -0.1900291 -0.15990987 -0.1359946 -0.0076274266 -0.031262737 0.17674826 0.37592664 0.07073723 0.09658924 0.22076407 0.078056574 -0.01207561 0.068986505 0.06738571 -0.046684667 -0.118959635 -0.4175391 0.20067672 -0.05779183 0.34179392 0.07241008 -0.098622166 0.07002449 -0.023031613 -0.13856709 -0.08155984 0.24566075 0.13370004 0.016986988 0.07030998
970059678360072192 0.20742054 0.020855213 0.22313173 0.33839828 -0.06992661 -0.22698458 -0.089571245 -0.08819565 -0.038808886 -0.15909664 0.26555845 -0.041504003 0.16402264 -0.23487246 -0.02014068 0.37259263 -0.071216494 -0.13506836 -0.25415194 0.2861252 -0.13157606 -0.015858654 0.099764355 -0.3158392 0.14070839 -0.07534992 -0.21462443 -0.1447194 -0.08791981 -0.09894124 0.031056445 0.249352 -0.07269042 0.22734511 0.18072957 -0.0074895723 0.15960123 0.24862365 -0.35357422 0.12091706 0.23398101 0.22111182 -0.11613302 0.0336127 0.33250538 0.07731975 0.1326955 0.31850374 0.1808813 0.22526382 -0.08489215 0.39993557 0.057583913 0.038764514 -0.07303661 0.16784702 0.02556556 0.065744594 -0.24862827 -0.058011558 -0.30331513 0.0312229 0.06694517 0.2077563
969785114166149121 0.16424066 -0.26470554 0.17194773 0.009942224 -0.06971887 -0.2658713 -0.085331246 -0.0840462 -0.44344753 0.0073547317 0.181358 -0.13858868 -0.17616557 0.0110267885 -0.101327375 0.25317118 0.10919198 0.00809665 -0.3511245 0.2860785 0.2404302 0.07252263 -0.14405349 -0.04637777 0.051978055 -0.013377356 0.45800823 -0.05131737 0.24950922 -0.27558273 0.09671132 -0.10094481 0.218011 0.2745133 -0.22880204 0.07696843 0.11132129 0.098977715 -0.24242245 0.22672504 0.040437702 0.10957129 0.14764433 0.22409157 0.16933298 -0.12735915 0.07017722 -0.22537406 -0.25902987 0.33729005 0.0074147265 0.13713278 -0.14973943 -0.07414896 0.18876536 -0.037698958 -0.08170063 0.2145033 -0.11616047 0.18681692 -0.28181034 0.11476082 -0.06672098 0.063755274
969726354638888960 0.07690198 -0.2727993 0.4150067 0.19547307 0.06496776 -0.26803303 0.19195913 0.10263023 -0.29583618 -0.006250875 0.056166552 -0.3107427 -0.39778915 -0.20179473 0.09693197 0.0802189 -0.041747406 -0.013724476 0.13417023 0.20311956 -0.058584515 0.23522349 -0.122557774 -0.21228167 0.08454415 0.23073773 -0.11565056 -0.06799899 -0.2450513 -0.24001437 0.029654706 0.04302188 0.08689818 0.18845437 -0.2927606 0.016238805 -0.0826301 0.1063619 -0.416478 -0.031166514 0.16998534 0.11442899 -0.17800178 0.046214413 0.15396434 -0.10224909 -0.019128978 0.14428058 -0.045067027 0.009327834 -0.19078092 0.05176681 0.0049675987 0.101930015 0.11349465 0.02501603 0.17884228 0.043914706 0.016657159 -0.19044793 -0.022375306 0.13086815 -0.037289076 0.04026368
969851434228330496 0.14193179 0.013613822 0.34146118 0.073667035 0.024059527 -0.21658362 -0.032011233 -0.15350325 -0.12660612 0.21402523 0.061284162 0.019129468 0.057986125 0.009170758 0.14385302 0.28331986 -0.060778715 -0.11945243 0.13737917 0.40117007 0.010216474 0.08789369 0.038178835 -0.2434668 0.08522798 0.06756999 -0.16086778 0.05583317 0.31216344 -0.13603696 0.15372582 0.09561707 0.0092927525 -0.01323714 0.0018084327 -0.33478948 0.35509977 0.0033159307 -0.28279096 0.01822681 -0.09084163 0.23392487 0.025706975 -0.040157754 0.33409336 -0.059069574 -0.1942975 0.12345436 -0.14652243 0.12875426 -0.24679399 -0.17892276 0.08556155 -0.038683485 -0.13505767 0.122274466 -0.02487561 0.00027322312 -0.064266175 -0.019179465 -0.11847488 0.04429178 0.11491036 -0.03749654
970050201984450560 -0.19493236 -0.40573806 0.43569377 0.13368942 -0.12856378 0.026972154 0.008957121 -0.22093353 -0.28252673 0.19489431 0.08244732 0.1394705 -0.16470662 -0.2135115 -0.06671964 0.03532795 0.11838295 -0.31777245 -0.34600532 0.18620557 -0.3927353 0.1967887 -0.033539765 -0.20746824 0.32372725 0.3020262 -0.020543585 0.3093737 -0.107542686 -0.06672815 -0.076527335 0.14685439 -0.018231748 0.15174387 0.03406126 0.07654739 0.06887143 0.2695693 -0.32355884 -0.31185222 0.08672619 0.45229053 -0.2677429 0.0735886 0.046549447 0.10811431 0.22483584 -0.1693301 -0.15417364 0.45086792 -0.016245622 -0.05277869 -0.07144724 0.034621056 -0.13994393 0.3538211 -0.27642897 0.2076572 -0.41841853 0.2314215 -0.31438923 0.098203324 -0.0076743127 -0.16450411
970071453994373120 0.10344711 -0.39599672 0.07933002 -0.050933696 -0.19822794 -0.4248328 0.29417822 -0.38243026 -0.37817258 -0.19814497 -0.061623767 -0.1643734 -0.21116355 0.019154651 0.041679088 0.49643603 0.14806977 -0.07247518 0.05986563 0.15223117 0.21209122 0.6909783 0.083375975 -0.26244885 0.094575934 0.19674401 -0.09539369 -0.17694466 -0.0018850224 -0.56052357 0.015465585 -0.2653664 0.303522 0.23458034 0.10585152 -0.183763 0.041557234 -0.11149981 -0.29637158 -0.09374727 -0.12886576 0.115259424 -0.059447505 -0.11569171 -0.010941842 -0.059509188 -0.28630272 -0.06055633 0.41498944 0.028233046 -0.04477897 -0.14932378 -0.01433923 0.23556283 0.028223377 0.07812032 0.11943238 -0.47880962 -0.3519441 0.23617218 0.0053414637 0.21915017 -0.038781844 -0.07069748
970053366599397376 -0.020007545 -0.5813548 0.2164181 0.05998643 0.008556167 0.104319185 -0.06684132 -0.15131405 -0.34064108 0.1417927 0.10446775 0.055122428 -0.14125602 -0.3469346 -0.06154433 -0.17623252 0.052885916 -0.1001913 -0.17372376 0.21680592 -0.30366775 0.29619035 0.024722101 -0.12309691 0.42170438 0.030680252 -0.07408968 0.3789489 -0.019311566 -0.14563777 -0.06620127 0.22987275 0.14690375 0.11395979 -0.00429082 -0.09518915 0.043354824 0.08152519 -0.109249294 -0.124880746 0.09528982 0.560281 -0.35479057 0.17091833 0.17098784 -0.043634333 0.38462713 -0.2593942 0.02526174 0.22936015 -0.009365604 -0.15627255 0.030212177 0.1622627 -0.08892739 0.44940197 -0.19525957 0.38041824 -0.45593953 0.15969293 -0.14415546 -0.07974641 0.19659783 -0.10677662
970060693025128448 0.26794124 0.13105404 0.14615975 0.4221955 -0.11272415 -0.18801312 -0.13740034 -0.2144846 -0.32035068 -0.012317462 -0.071997486 -0.13997918 -0.1795605 -0.13158773 -0.14688544 0.12070456 -0.19351089 -0.19816248 0.050577693 0.3011025 0.10430195 0.14404818 -0.05862265 -0.37231484 0.19886911 -0.08536985 0.032702424 -0.18008335 -0.31599143 -0.25258294 0.44028798 0.05099262 -0.06869162 0.10494314 0.28437987 -0.19685341 0.06071326 0.0004998643 -0.21022691 -0.21840075 0.108677156 -0.06414639 -0.021293646 0.0008697944 -0.07341676 -0.02861097 0.42927665 0.35816324 -0.057976186 0.10417763 -0.19216399 0.36963576 -0.07891057 -0.24974224 0.2431143 0.08674505 0.17962453 0.114957176 0.06498451 0.031210883 -0.46173775 0.05429639 0.00030665498 0.06473961
969819873315405824 0.089645274 -0.16306418 0.21943553 0.018623978 -0.05058745 -0.11782099 0.0803444 0.05210655 -0.117091276 0.16207735 -0.082071394 -0.19919391 -0.39153698 0.063924335 -0.003918858 0.29322782 -0.089216985 0.037351143 0.096758254 0.29914078 0.23693182 0.34339368 0.009010323 0.019881202 0.004752799 0.41623208 0.27528504 0.21073325 -0.15955415 -0.2513493 0.105869316 0.30020005 -0.097417295 0.14921844 -0.14898491 -0.4035522 0.05348449 -0.060920462 -0.055859283 0.05149832 0.11854242 0.20692246 -0.14002459 -0.06663624 0.20718075 0.14208904 0.041991424 0.05777035 0.14488743 -0.033354778 -0.16836694 0.05686129 -0.30502775 0.053811077 0.09374114 -0.23058234 0.14305022 0.3063375 -0.14617021 0.13278611 -0.24827315 0.07554243 0.0633654 0.15475897
969830857790824449 0.14708602 -0.25743136 0.1810093 0.13428104 0.037499245 -0.17275305 -0.011892914 0.10215622 -0.4445306 -0.21612713 -0.10849192 -0.21293879 -0.41102654 -0.11409358 -0.09536686 0.2872819 0.04293989 -0.08892515 0.15826808 0.19842483 -0.08123221 0.20011623 -0.019028438 -0.22691654 -0.21925299 0.20427686 0.006319248 -0.047507636 -0.1564646 -0.2839476 0.17169632 0.1640097 -0.016191501 0.010565541 -0.2757928 0.22575812 -0.13533908 0.22321004 -0.12581478 0.07255587 0.34234232 0.15010414 0.09414863 0.30049738 0.13223119 -0.047994394 0.074506 0.04481583 0.119086616 0.17414595 -0.2630503 0.036701277 -0.27887526 -0.06522906 0.12995918 0.06976941 -0.12182825 0.14895885 -0.057917215 -0.2238484 0.060110252 0.088922255 -0.13419981 0.06505546
970059357852352512 0.30759135 -0.21865538 0.10472683 -0.017004067 0.007021305 -0.35773185 0.19098693 -0.21276546 -0.06971251 -0.20654523 -0.11779076 -0.20295058 -0.26787508 -0.24310185 -0.020157 0.39937255 -0.16191633 -0.1649974 0.011201525 0.38597894 0.037535943 0.86199605 0.012573255 -0.44269234 0.004553618 0.2244511 -0.07286334 0.03889533 0.05397958 -0.384201 0.09854391 -0.0015724052 -0.050058175 0.36796644 0.19878305 -0.108239286 0.03782488 -0.4818879 -0.19238187 0.064316794 -0.12769742 -0.06795894 -0.033116627 -0.17414986 -0.066227384 0.088473246 -0.16766824 -0.4017628 0.23773359 0.06328952 -0.053230852 -0.14671148 -0.06951327 0.077689074 0.16294293 0.17215104 0.15808612 -0.2684141 -0.28353965 0.24949397 0.21016693 0.412814 -0.023271529 -0.10428688
970048904954720256 -0.20012037 -0.3814843 0.38315117 0.16390227 -0.1371518 0.09701153 0.0843585 -0.38737246 -0.31432608 0.37197644 0.046482 0.221484 -0.389064 -0.17467052 -0.029839236 -0.15125237 0.1355362 -0.3642186 -0.29379869 0.23125154 -0.2546338 0.20075676 -0.012893341 -0.17468973 0.40619665 0.21920826 -0.15049478 0.0148204155 -0.124788724 -0.08670525 -0.14962688 0.11571315 0.058185652 0.17394379 -0.13819657 -0.052974008 0.019035699 0.12672208 -0.06587762 -0.15506902 0.25080174 0.5187975 -0.29193494 0.10835099 0.1795081 -0.02069319 0.3146842 -0.2530058 -0.1923474 0.19449134 -0.25818953 -0.04250667 -0.005500151 0.086562455 -0.11122622 0.32839012 -0.072360784 0.13080424 -0.28586668 0.22602548 -0.1465734 -0.06546255 0.28165922 0.020344313
970057619795689472 0.361267 0.027870422 0.24001597 0.046708167 0.01700857 -0.17955863 -0.053808674 -0.24207579 -0.2855917 -0.06392451 0.14406581 -0.2121525 -0.10281738 -0.07180128 -0.06871038 0.26932466 -0.22660172 -0.073520534 -0.03932644 0.26106542 -0.15285149 0.21667786 0.015339247 -0.38966498 0.15557817 -0.24514568 0.11027194 -0.07248566 -0.3768749 -0.19836318 0.20048326 0.17570102 0.013098231 0.06682271 0.3692305 -0.12774277 0.15653507 -0.004791915 -0.19591816 0.17902108 0.07283672 0.19626735 -0.08054582 -0.0670962 0.2080683 0.15726882 0.19492972 0.32021683 0.14654383 0.37584952 0.010435176 0.30095756 -0.08172943 -0.00053519034 0.11426193 0.13963397 -0.019894473 0.0050149355 0.10614512 0.072106436 -0.22199667 -0.09317779 -0.14739005 0.25225753
970058462678859776 0.26557294 0.009633105 -0.10305341 -0.051114347 -0.08324921 -0.3876141 0.19689041 -0.27201486 -0.25179735 -0.33573622 -0.0031639251 -0.18256545 -0.21965413 -0.06779617 -0.15266395 0.4237272 0.046959158 -0.2568113 0.062140346 0.3926018 0.10122944 0.7535798 -0.014696665 -0.24238668 0.15306717 0.3747188 0.08802835 0.07586168 -0.18942112 -0.47299886 0.048373945 -0.105079666 0.05242124 0.24175574 -0.04667841 -0.3389463 0.13543825 -0.3679161 -0.30733973 0.0033292926 -0.10635509 0.02603969 -0.035108466 -0.015541196 -0.055542335 -0.15272883 -0.03785535 -0.18196598 0.1514718 0.08657659 0.122423925 -0.09721177 0.096380845 0.30843222 -0.05862412 -0.007585694 0.13141811 -0.26617417 -0.43218717 0.11677903 0.030327156 0.15362868 0.18729784 -0.17954142
969794033307459584 0.053401884 -0.07128975 0.21991391 0.27752975 -0.041761056 0.078935914 -0.27396718 -0.11471866 -0.38551196 0.10450827 0.22388408 -0.13151619 -0.20719817 0.25722775 0.17622215 0.30405256 -0.04200592 -0.2084232 0.10623037 0.14350192 0.036464676 -0.018705156 0.119221084 -0.26798955 -0.020111175 0.17484546 -0.14562467 -0.06941309 0.18381801 -0.15830028 0.13385132 0.039447356 0.091225214 0.10928668 0.06217875 -0.13063955 -0.10023261 0.15049976 0.017800398 -0.25560388 -0.06094367 -0.061738513 0.26938578 -0.11682685 0.6426436 -0.093108416 -0.023801293 0.03353365 -0.11183132 0.16091461 -0.037599683 0.055217624 0.057635132 -0.011256649 -0.026292015 0.05261858 0.06917567 0.26299852 0.012307856 -0.024798175 -0.20080364 0.4399419 0.0065145483 0.03082949
970054451355566080 -0.2650369 -0.27229396 0.28856862 0.09423295 0.024026817 0.0032036195 0.03061864 -0.13762496 -0.29951972 0.27229542 -0.031672906 0.10807618 -0.22662123 -0.21916832 -0.121841125 -0.09622364 -0.041506033 -0.27974552 -0.11723744 0.27791014 -0.43096912 0.40341765 0.10095315 -0.28920394 0.22425225 0.07895411 0.031417843 0.2111758 0.11513677 -0.07143489 -0.09809896 0.19990543 0.14452943 0.08792378 0.024878308 -0.23346215 0.11985319 0.1180647 -0.07632187 -0.062124576 0.19267699 0.4757969 -0.35331872 0.07526549 0.11607789 -0.09740072 0.27398083 -0.34867164 -0.02626201 0.053946044 -0.042840578 -0.011606716 -0.13116409 0.13390912 -0.022090826 0.421511 -0.09721808 0.277425 -0.41205475 0.25295946 -0.28258944 0.027334325 0.24657409 -0.15764996
969878531483185152 0.123306654 -0.26228157 0.11709191 0.2520269 -0.019309562 -0.20128866 -0.08892412 -0.304758 -0.308147 0.11886457 -0.03927737 0.085051276 -0.39104283 0.029223742 -0.2558526 0.17035806 -0.0008532135 -0.0342083 0.35459805 0.4823154 0.015336377 0.036862846 -0.07403074 -0.084884204 0.079436675 0.14999002 -0.02549207 -0.103693746 0.19505592 -0.27064142 0.24637444 0.06436379 0.10442477 0.026842166 0.075006425 -0.10295498 -0.16746885 -0.15894164 -0.34118432 0.22051816 0.13559538 0.080842726 -0.033751525 0.008738932 0.17707211 0.13581757 -0.048958533 0.21916279 0.11412837 0.054017305 0.16233772 -0.0518165 -0.003988793 0.15410066 -0.15129209 0.02641801 -0.016529627 -0.010192299 -0.18269572 0.09298852 -0.1743099 -0.047251564 0.11298664 -0.2029666
969726179186941953 -0.13521653 -0.21482402 0.030218828 0.2554448 0.043207522 -0.02400985 0.22645454 -0.16198322 -0.30373052 0.078302845 0.007830164 0.051727805 -0.17393212 -0.376305 0.32859758 -0.058690548 -0.24118865 -0.31137657 0.14578259 0.1572218 0.05315031 0.31635553 0.046753626 -0.10713675 0.14316396 0.420609 -0.057800137 -0.03552974 0.114888735 -0.23722042 0.26824734 0.37775087 0.08951583 -0.20087557 -0.09683628 -0.124525964 -0.112115994 0.056399547 -0.22975744 0.21854363 0.23595208 0.13747011 -0.09992446 -0.023622705 0.06440504 -0.20797387 0.07589351 0.2742916 -0.16218063 0.16219513 -0.17529427 0.080296285 0.3157308 0.085638896 0.02796163 0.09220638 0.05350356 -0.24006629 -0.20825113 0.07336512 -0.2667429 0.14947881 -0.054336354 0.40919003
969825743902466048 0.11199211 -0.070553586 -0.048813164 0.1153842 -0.22139865 -0.089796245 0.06630228 -0.1180008 -0.56925166 0.10225178 -0.1049863 -0.35853446 -0.09213173 0.05336256 0.15928955 0.1318714 -0.06489609 0.0623371 0.27618852 0.32511112 0.40826964 0.14664984 -0.057222176 0.046200328 -0.12263651 0.29226664 -0.09385434 0.11794393 -0.08202063 -0.24200098 0.11939409 0.32007825 -0.18413842 0.25878155 0.09410449 -0.03613054 -0.0016448555 -0.0160835 -0.011440347 -0.035809316 0.1339967 0.25936043 -0.056657486 -0.01874911 0.4627762 0.036003444 0.13415876 0.08009198 -0.011752291 -0.18865308 -0.10751582 -0.015491679 0.023703646 -0.08626439 0.0742486 -0.10553654 0.05245463 0.20990427 -0.41481063 0.18782182 -0.17453514 0.25711673 0.110443965 -0.0048937886
969840895578161153 0.10627013 -0.1975004 0.14568758 0.10569759 0.19526426 -0.03330065 -0.02548659 -0.08175917 -0.065405756 0.2721932 0.004323102 -0.15890186 0.13926896 -0.057861958 0.25728402 0.26352167 0.07385548 0.0032725504 0.25178954 0.35566846 0.081357926 0.31316113 -0.1816193 -0.26981714 -0.18831567 0.020749018 0.081962995 -0.03396704 0.12911922 -0.23100144 0.03354276 0.087289944 0.3990808 -0.16051795 -0.07739865 -0.07591911 0.012284464 -0.28113008 -0.2778561 -0.19500005 -0.014803316 0.12879169 -0.124809586 0.013684945 0.4003862 -0.100190446 -0.05275029 0.1165343 0.15327452 0.12175376 -0.36439532 0.17922881 0.18274267 0.020214912 -0.2997055 -0.118044384 0.09873257 -0.3526591 -0.37163496 0.15873642 -0.16280998 0.021030668 0.2548252 -0.050473295
969867426702680064 0.007358759 -0.15104607 0.047183484 0.5218056 0.052102655 -0.3208331 -0.01181241 0.027344776 -0.19355656 0.057128888 0.039798602 -0.1382434 -0.37717867 -0.026194738 0.030367948 0.29130393 -0.15351622 0.2614175 0.20724903 0.1291649 0.045469917 0.18953012 0.014895366 -0.2731625 -0.015709953 0.0014899016 -0.01437674 0.15425526 -0.1430883 -0.2593039 0.18687324 0.23112406 0.062095053 0.15608357 -0.1321426 -0.023093292 0.0037692266 0.20161131 -0.14760208 0.08392094 -0.10307387 0.092067264 -0.30510035 0.20062904 0.35510418 -0.2595332 0.054068338 -0.020391073 -0.06417719 0.07594031 -0.30872092 -0.023233337 -0.014194382 -0.028638635 -0.24708606 0.054448705 0.08848079 0.085916504 0.18152532 -0.16063233 0.14873904 0.19063422 -0.16926014 0.03966184
969813251738382337 0.048035603 -0.14810547 0.23319836 0.113100946 0.043016385 -0.022659782 -0.0138762435 0.1895376 -0.38745865 0.00091757596 -0.01584574 -0.09962595 -0.20259255 -0.30226517 -0.009349417 0.1553899 0.18434055 -0.21033545 0.20834331 0.47618413 -0.14881778 0.08200987 -0.037517976 -0.3409291 -0.13708292 0.04782601 0.19351277 0.081087925 0.09560188 -0.35550472 0.072345376 0.25680822 0.16921866 0.005770888 -0.24998082 0.37419826 0.13510057 -0.043161735 0.043968324 0.09774867 0.19201894 0.13775016 -0.20975804 0.059939254 0.1072753 -0.172271 -0.015466232 -0.058453605 0.17890464 -0.25745195 -0.05840153 0.12044809 0.003774362 -0.03348956 -0.030654509 -0.16407801 -0.122347966 -0.012260537 -0.12133318 -0.21003726 -0.16497901 -0.057620488 0.11205598 0.2087794
969834311624015872 0.13708365 -0.4248185 0.2879813 0.18821219 0.0041634133 -0.042183265 0.0019792183 -0.15733352 -0.43741003 0.196554 0.22664331 -0.06895324 -0.06300437 -0.22514072 -0.003313938 0.20121427 0.17542213 0.010762666 0.14857616 0.05630222 0.06059503 0.111904524 0.12177786 -0.16928558 -0.014627686 -0.11893217 0.24666908 0.19291736 0.14161731 -0.28945166 0.14783911 0.012863359 -0.08782342 0.02585037 -0.0135349175 0.09886688 0.2242441 0.099702395 0.0024936516 0.047645006 0.19124928 0.18063988 -0.057171635 -0.27849054 0.3995113 -0.25285774 0.21537991 0.06229107 0.116238356 0.027784307 0.19803429 0.1508072 0.040147867 -0.19429454 -0.038696148 -0.052085996 -0.34404764 -0.04712827 0.12304948 0.27223834 -0.037236728 0.030689713 -0.1289846 0.0033465691
969840164590698496 0.48780933 -0.03129109 0.029053673 0.13642421 0.23027398 -0.09071075 -0.23296553 0.69003767 -0.24976169 0.038259305 0.4556596 0.21681921 -0.27328128 0.062127914 -0.049584415 0.6062072 0.038080707 -0.079925 -0.14249144 0.48244384 0.23120272 0.088249855 -0.1699632 -0.22960636 -0.29929635 0.38103676 0.23561914 -0.09948621 0.2929663 -0.066385336 -0.02622374 0.17215806 0.22145335 -0.029273693 -0.039209086 -0.08424907 0.16325174 -0.00863177 -0.23947431 0.026404997 0.39659005 0.25323206 -0.32404396 0.06432706 0.4617823 -0.03034439 -0.118232355 -0.31012353 0.18075594 0.11554245 0.07559308 0.25583997 -0.013540025 -0.0024129613 0.2367381 -0.09599977 0.32549217 0.42397296 0.10401444 0.27382025 -0.46902397 -0.09958567 -0.33214304 0.17364132
969803911799259136 0.050519355 -0.2318625 0.4194758 0.23452677 0.10061975 0.13936487 -0.15208763 -0.108267136 -0.283529 0.0189757 0.12423715 -0.06361953 -0.14450163 -0.11520325 0.083413124 0.11838901 0.15511265 -0.0972516 0.11184598 0.23753735 0.019254271 0.17275824 0.055906773 -0.109748095 0.10167888 0.039463874 0.06480844 0.26857042 -0.14318742 -0.21575955 0.12206719 0.16043803 0.01604494 0.27322477 -0.0828808 0.09756222 0.26696488 0.03293104 -0.08727012 -0.060206503 0.1358401 -0.07631368 -0.0018246425 -0.3424928 0.34308505 -0.080424435 0.13726084 -0.03678149 0.26954123 -0.09364539 -0.18349653 0.021699987 0.20384258 -0.14536536 0.104166605 -0.12978227 -0.08355363 0.056182064 -0.059186455 0.085568465 -0.14663655 -0.07111435 0.014916441 0.34809026
969862839669178368 0.4850463 -0.21191204 0.08619585 0.039734717 -0.02596941 0.1255054 -0.14046581 -0.02587059 -0.44780353 -0.061142772 0.25604144 -0.21302976 -0.14830154 0.02663094 0.054040767 0.28665257 -0.36870778 0.01571489 0.16101407 0.052096866 0.039529797 -0.038286638 0.124995254 -0.20701121 0.08585782 -0.028115032 -0.04874676 0.02820044 -0.10722048 -0.40383315 0.31985655 -0.07351662 0.14246254 0.103569366 -0.2609013 0.041155133 -0.19659999 0.07287801 -0.31666735 0.008280855 -0.22678299 0.13251387 -0.09020694 0.17292455 0.31450835 -0.1335445 -0.106464155 -0.13574389 -0.22080751 -0.04414877 -0.33667758 0.028566934 -0.1635653 0.011122752 0.13856886 0.075368494 0.08835809 -0.061889097 -0.13425146 -0.007473907 0.20767657 -0.18163654 0.18021089 0.040960234
970080090955501568 0.2422213 -0.16627692 -0.12258017 0.046729695 -0.066758424 -0.011192695 -0.34709743 -0.0049459226 -0.3571362 0.055229478 -0.02544864 -0.08621844 -0.024398118 -0.097580396 -0.12367512 0.3688146 -0.34206492 -0.25147963 0.11884997 0.25753835 -0.015524305 0.08573094 0.2695273 -0.2629595 0.22132236 -0.070519395 0.12247623 -0.02144804 0.08686766 -0.21089898 0.2190678 -0.15630494 0.09564533 0.21091166 -0.24666685 -0.088315226 -0.024490807 0.07259465 -0.05866971 -0.16989824 0.20448975 0.3069469 -0.06847627 -0.07528421 0.28340974 -0.17600818 0.13748264 -0.040792912 -0.35119838 0.19925411 0.06906106 -0.022225672 0.120939694 -0.12471356 0.20759818 0.048677646 0.030592088 0.3246516 -0.119244486 0.17900555 -0.07361873 -0.0857153 -0.08654481 0.045489736
969785395293470721 -0.13188589 -0.22443733 0.055152636 0.42651072 0.19252063 0.03631428 0.11456182 -0.14567737 -0.19188648 0.052686702 -0.017077055 -0.3630681 -0.26640904 -0.050056253 -0.15914807 0.04280384 -0.018466959 -0.076773986 -0.15179043 0.45085302 -0.044033293 0.003273823 0.5326988 -0.43399233 0.19182177 -0.027939245 -0.17798126 0.016858077 0.0061910767 -0.22874662 0.019195875 -0.24646676 0.00079439953 0.03297912 -0.40727842 -0.12640989 -0.03134333 -0.13649304 -0.22138898 -0.10971574 0.16696489 -0.0037020466 -0.075929366 -0.08817052 0.27419388 0.43948153 -0.15350279 0.34392735 -0.20844227 -0.16088809 0.047860336 0.12546885 0.21778607 0.02268605 0.19428156 0.09168113 -0.17750208 0.20703226 -0.15003006 -0.1249396 -0.13334782 0.32178602 -0.15852338 0.15007494
969817583196160002 -0.2640626 -0.12713645 0.017597497 0.3488011 0.078326695 -0.25508836 -0.0002640535 0.17965586 -0.36680526 -0.48139486 0.27867427 -0.33001727 -0.43075317 0.05426649 -0.08650979 0.28035694 -0.072110884 0.029918937 0.20461337 0.19696118 -0.040227693 0.41507503 -0.07182307 -0.28016737 -0.10798692 0.19847472 -0.30599266 0.23686963 -0.04165107 -0.27345812 0.2687552 0.19393359 0.16898786 0.16808283 0.08841659 0.111933805 -0.2825939 -0.049692813 -0.2852565 -0.09837252 -0.6132945 0.20604251 0.072115645 0.13423349 0.3347536 -0.0061541973 0.18094946 -0.009053431 -0.03856872 0.1471208 -0.06760181 -0.1259551 0.24911052 0.17043516 -0.22996859 -0.113105275 -0.019712573 0.18338919 0.26485062 0.2222416 0.29038808 -0.24654087 -0.051960737 -0.21026568
969779101471932416 0.024816824 -0.2790631 -0.030332185 0.13571493 0.22344394 0.23908812 -0.1844447 -0.3991409 -0.17980993 0.006388015 0.10837189 -0.09658631 -0.22936393 0.3280313 0.13517687 0.102131516 0.13455719 -0.16252851 -0.111945614 0.35684088 0.031677075 0.22123833 0.18214685 -0.46921507 -0.06614601 -0.050812308 0.26985016 -0.33006698 -0.1697503 -0.083986156 0.19457674 0.45160428 0.055372577 -0.19496103 -0.13369495 -0.077112764 -0.122685626 -0.2423063 -0.16821367 -0.11726879 0.18741466 0.2791974 -0.35183266 -0.077546045 0.10692377 0.27475318 0.23622341 -0.02710305 -0.009334288 -0.0645311 -0.3894516 -0.1353464 -0.20191844 -0.1918228 -0.081919566 -0.1028102 -0.28633332 -0.0330623 -0.22691561 0.041961383 0.005384315 0.103580624 -0.36085737 -0.073415905
969783716145868800 -0.319496 -0.5179999 0.13451587 0.28602523 -0.036245026 0.13789251 0.036675308 -0.21721338 -0.0032252313 -0.06921591 0.038969174 -0.2678837 -0.21759968 0.19151585 0.074610874 0.06876652 0.03519559 0.043385748 0.09033443 0.43916905 -0.030997055 0.36213169 0.23450352 -0.38491172 -0.05920176 -0.058079377 -0.099744685 -0.06648597 0.09437481 -0.1219226 0.086629055 -0.20164275 0.12576866 0.09394156 -0.35340035 0.060424063 0.055041533 -0.103795156 -0.28501722 -0.032630548 0.15444386 0.08434596 -0.2602379 0.013194144 0.41526076 0.35038218 0.11355468 0.3732977 -0.37228784 -0.17268446 0.09590369 0.05134785 0.08687972 0.0055495333 0.21420386 -0.039149903 -0.18803628 0.062835775 0.066911355 -0.032779854 -0.33900464 0.3691109 -0.119706966 0.33207864
969851248320028672 0.6180824 -0.14073928 -0.08615033 0.3290588 0.15472558 -0.18170932 -0.109066285 0.15329203 -0.5968993 0.061636716 0.37247863 0.12594396 0.010519943 -0.25890628 -0.30792797 0.35010636 -0.12888364 -0.347764 -0.09383474 0.24654257 0.48469374 0.08848862 -0.11057778 -0.31699544 0.09880334 -0.23403716 0.29679987 -0.13824826 0.13400963 -0.35126033 -0.083793364 -0.20146616 0.3014693 0.2643168 -0.690894 0.04877549 0.27143487 -0.18124363 -0.38906628 0.16950801 -0.28313625 0.014310685 0.41117552 0.3643725 -0.0261546 -0.07319968 0.041961823 -0.7012915 -0.037501875 0.13938034 -0.13275069 -0.04674596 0.23130512 -0.113820754 0.13947967 -0.013326149 0.16909623 0.18321793 0.025817676 0.205397 0.15546742 0.35328063 0.09164723 0.2669405
969907028607959046 0.08584182 -0.1371263 0.09717324 0.18246207 -0.12039436 -0.13587375 0.073971614 -0.10491505 -0.62218976 0.08506715 0.26049432 0.057294413 -0.06628518 -0.39559147 0.1972111 0.12196525 -0.12357994 -0.22148551 -0.14225511 0.24388666 -0.04872836 0.24318609 0.03892401 -0.12912035 -0.009224142 -0.16099909 0.056321464 0.08270893 0.16242012 -0.43696025 0.28220952 0.1816658 0.26853764 0.19078703 -0.3390597 0.29529262 0.017726153 -0.27959058 0.09615121 -0.070386544 -0.05381096 0.12930018 0.103920914 -0.10215371 0.097740665 -0.17964168 -0.14678723 -0.034416046 -0.011145776 -0.17814519 -0.15890408 -0.018459111 -0.1400673 -0.0100542 0.21240081 -0.18491548 -0.24522328 -0.10808485 -0.036346264 -0.107213795 0.01286047 -0.20723371 0.07426118 0.09122877
970053594874462208 0.1275673 -0.054126676 0.11396608 0.2454677 -0.1997773 -0.33717367 0.3284006 -0.35698524 -0.24300912 -0.124238275 0.26320663 -0.37832564 -0.06702889 -0.08079831 0.18119934 0.26835546 0.08798277 -0.19130336 -0.034801524 0.47613013 -0.0034964196 -0.016030896 -0.19523272 0.057243887 -0.30695218 0.18151137 0.22728483 0.57430583 0.122482754 -0.19104627 0.0444487 0.38612658 0.13745779 0.29248816 -0.5516308 -0.21527931 0.08625519 0.12804525 0.11847995 -0.019976923 0.08706269 0.1876919 0.2329878 0.097178616 0.14155245 0.13527851 -0.06525093 0.14071937 0.27479583 0.13906741 -0.13907064 -0.17054999 0.04300007 -0.22292416 0.16017185 -0.22826347 -0.057299502 0.10344499 -0.036729027 0.22233325 -0.16413575 0.13297747 0.0665771 -0.030466309
969816022487244801 -0.38996518 0.15194076 0.1547261 0.20113234 0.21011446 -0.1246227 0.044873647 -0.083456695 -0.15700653 -0.05560406 0.27069077 -0.36193344 -0.432907 -0.063090734 -0.07290826 0.029288968 -0.1369903 -0.054934517 0.19564047 0.08575391 0.18102612 0.18876119 0.10463425 -0.36665767 -0.056153625 0.4871099 -0.07637886 0.0037806567 0.00856305 -0.503633 0.29912812 0.012034079 0.011517036 0.23868842 -0.025253804 -0.065027826 -0.013572363 0.31342062 -0.5325938 -0.11168343 -0.30594248 0.1701209 -0.011595892 0.34748882 0.27465868 0.11683597 0.19777246 -0.16474041 0.2015986 -0.016753733 -0.13452692 -0.27772644 0.042962804 0.24468249 -0.048587076 -0.047978062 0.14197709 -0.05011364 0.16271257 0.5552106 0.23336326 -0.038153864 0.19536236 -0.037270132
969940503012638720 0.13828158 0.19751784 0.30754578 -0.093216285 -0.11553524 -0.5474025 0.11287116 -0.48310965 -0.4687545 -0.06417429 0.32942334 -0.48149475 -0.19450939 0.13809761 0.18715599 -0.12474455 0.07303153 -0.17884564 0.01875978 0.29035822 0.0074610882 -0.015656626 0.18104397 -0.06835926 -0.13196331 0.038856987 0.09171127 0.37205526 0.2607778 0.00038955887 0.3109937 0.26096997 -0.10669015 0.25229445 -0.5696687 -0.12619165 0.056185942 0.1654167 -0.2021196 -0.033120003 0.091299854 0.01924123 0.084963165 0.07098488 0.41422462 -0.03570513 -0.08744914 -0.024695834 0.4044149 0.15289238 -0.20583634 -0.024074407 -0.041678604 -0.14263873 0.11769577 -0.18793336 -0.10307495 -0.072999544 -0.06319264 0.115836605 0.008419367 0.2779282 -0.009210989 0.0064753434
969877901733650432 0.37963587 0.05378005 -0.01896195 0.35844305 -0.11362537 0.20077923 -0.0808003 0.025167374 -0.25713307 0.20842136 0.10400055 0.045558203 -0.28831664 -0.1232345 -0.291204 0.66030544 -0.14124008 -0.08860234 -0.06592933 0.13647538 0.17059344 -0.19310744 0.08998328 -0.43742856 0.12949352 -0.23454356 -0.05706648 0.07103829 0.12574361 -0.26944423 0.19798338 -0.058840748 0.26095918 0.16385148 -0.38697946 0.01661501 0.14637765 -0.014074025 -0.032789715 -0.12958457 0.07666448 0.16581702 0.1323604 -0.18600185 0.26828557 0.12067261 0.17978503 -0.04603328 -0.30573493 0.32537514 0.026639398 0.04312169 0.051654313 0.08201467 0.3433945 -0.1841317 0.12435715 0.14165606 -0.16759408 0.14238837 -0.12959117 0.22659567 -0.11915532 0.16798869
969889576230596608 -0.004113964 -0.06220932 0.39105502 0.05447859 -0.076661594 0.13835602 0.060493022 -0.10542459 -0.22334005 -0.020396288 0.1762756 -0.038306117 -0.14271349 -0.07891012 -0.092724234 0.15420046 -0.1772411 -0.13901432 -0.057702262 0.39552146 0.0083911605 0.23215726 -0.14572413 -0.14024918 -0.15095626 0.20646842 0.013866478 -0.060896628 0.10741596 -0.25396585 0.38141772 0.15534946 -0.087045506 0.19630772 0.11057422 -0.15893432 0.19749232 0.12976773 -0.22518891 0.08717773 -0.15103708 0.12889327 -0.14962892 -0.13046105 0.16996415 0.021291407 0.08125149 0.24644639 -0.11368353 0.063198075 0.009979731 -0.026774323 0.034259375 0.017922807 0.06998753 0.07499101 -0.058345873 0.05992892 -0.118639834 -0.04853358 -0.15422806 0.050144117 0.061265033 -0.009087037
969781122841247744 -0.04336636 -0.34924695 -0.009528258 0.33567378 0.06637599 0.082233876 -0.07628158 -0.20041473 -0.17912112 -0.06310579 0.060983423 -0.17898677 -0.3960177 -0.00740878 0.096088715 -0.078728184 -0.07868519 0.021549191 0.020290582 0.10681054 0.06477523 0.35727292 0.33303353 -0.3717676 0.056942664 -0.060995724 0.12609714 0.15149942 -0.014153255 -0.37501583 0.007884122 -0.052553356 0.16339897 -0.20565838 -0.29960978 -0.20871015 -0.029131696 -0.3087637 -0.28914082 -0.12823108 -0.003717994 0.07333789 -0.13812648 0.16601233 0.3373634 0.16028665 0.03450839 0.4429641 -0.039725292 -0.05712482 0.32201508 -0.06480893 0.13041623 -0.028938508 0.18512851 0.16642639 -0.26401195 0.19781747 -0.17560056 -0.3255783 -0.37130612 0.35669515 -0.17265752 0.29720074
970064344372228096 -0.133362 -0.31243834 0.35636353 0.374133 -0.13434604 0.00089900254 0.034342304 -0.2177882 -0.25717697 0.020050839 0.13675466 -0.051405314 0.016634585 -0.34608105 0.0011805214 0.25411537 0.25301903 -0.08785151 0.108421214 0.052685454 0.003988712 0.16762169 -0.0032105886 -0.22463885 -0.0006937992 -0.052022934 0.23821734 -0.08521 0.07885381 -0.16033627 0.14176153 0.122175284 -0.05133206 0.16059586 -0.051279634 -0.23508376 -0.12279499 -0.029817794 -0.13042633 0.001897574 -0.10378678 0.31741586 0.061625052 -0.08691183 0.19668028 -0.08566499 -0.09785826 0.02350715 0.023314089 0.07285346 -0.14375699 0.028191494 0.1344911 0.17835563 0.14030086 0.028244492 -0.08046998 0.10448941 -0.17458385 0.03997278 0.03456138 -0.035269633 0.06906215 0.07319693
969840121628442624 0.12677492 -0.106755726 -0.025545686 0.2643989 -0.13494259 0.0021941331 0.15483497 -0.049997527 -0.29967397 0.04676431 0.21498859 -0.076358624 -0.044767536 -0.11709764 -0.036886286 0.2735302 -0.055000957 0.11804776 0.08489129 0.2200647 0.009246355 -0.21784678 0.12799735 -0.41885042 -0.028268924 -0.16372128 0.05291014 0.1083557 0.024031594 -0.35820806 0.4019908 0.23942208 0.27170148 0.1579423 -0.4689557 -0.064221725 0.3392379 -0.12281916 -0.059255637 0.109764844 0.07659753 -0.004491273 0.18613362 -0.1105859 0.14901206 -0.21273687 -0.03111349 0.026453232 -0.0821796 -0.26239157 -0.15641294 0.27239102 -0.06208473 -0.097727135 -0.097448096 0.48204327 -0.12613517 0.09920662 -0.28151533 0.047921572 -0.09468525 0.00035935847 0.023618108 0.03288473
969725427110432768 0.29488018 -0.2472312 0.19685742 0.19784138 -0.12615776 0.11914624 -0.14312977 0.0845196 -0.32985348 0.14801861 0.06598205 -0.33795285 -0.040144242 0.24846101 -0.02063357 0.21695793 -0.11306197 0.1211701 -0.0032344095 0.5743407 0.011261324 0.03125237 -0.018118806 -0.5119451 -0.013323091 -0.070947036 0.22726445 0.29232672 -0.0033465421 0.23784734 0.4606057 0.05912436 -0.123210706 0.38589305 0.03851048 -0.17199738 -0.26055294 0.06982732 -0.00016309519 0.19760068 -0.14924285 0.2177865 0.10004767 0.046713855 -0.08572698 0.21008654 -0.2223506 0.04959224 -0.075498275 0.07049204 -0.43379375 -0.093393154 0.10838187 -0.023702879 0.120293275 0.08429125 0.042992156 0.020268705 0.10338561 0.084945574 -0.37094468 0.008665704 0.5618754 0.29783285
969802759322009600 0.034042355 -0.3037674 0.10402738 0.3959602 0.060549024 0.047942914 0.06956988 -0.102259815 -0.016289698 -0.11982836 -0.14992142 -0.07260793 -0.11949099 0.22677824 -0.13691393 0.30749714 0.0466439 -0.28618753 0.096458934 0.13028455 -0.08570812 0.21252887 0.5484042 -0.22672419 0.14481767 -0.0013233465 0.36896536 0.23138309 -0.021367306 -0.099414244 0.20878667 -0.10018004 0.24398468 -0.03660121 -0.1182078 0.022559425 0.11169324 0.17660375 -0.08186529 0.11346917 -0.19350258 -0.04939046 -0.20195253 0.04512125 0.48642373 0.13563529 0.14346722 0.015359292 0.08470503 0.16692519 -0.39342034 0.023340384 0.12499468 -0.2470456 -0.059720147 -0.15622765 -0.20086046 0.04129196 -0.34312522 -0.10619924 -0.10110207 0.1756566 -0.032866508 -0.20273696
969768116086435840 0.21901292 -0.068030946 0.02544256 0.18255194 0.20857643 0.089664936 -0.16990566 -0.2292931 -0.21397835 0.08795108 0.1074595 0.119598344 -0.6589777 -0.18927285 -0.29268205 0.24058527 0.39847574 -0.1753797 0.11242132 0.29893014 0.059161384 -0.044589017 0.2646561 -0.19041811 0.17802884 0.1926432 0.082906306 0.010930333 0.13944381 -0.14950514 0.42495394 0.10451676 0.10934059 -0.065953694 0.13867287 -0.110785834 0.07087272 0.013945405 -0.080694646 0.26973662 0.003477483 0.13574636 0.08762544 0.14114758 0.3423004 0.10732615 -0.21260357 0.20714775 -0.02183541 0.3070931 -0.08907103 -0.09877869 -0.0952954 -0.08442882 -0.3172159 -0.094720885 -0.11178293 0.13575415 -0.052649453 -0.009969872 -0.100616165 0.024962245 -0.093934596 -0.18543766
969882692882857984 -0.03249449 -0.07132684 0.19137445 0.25293058 0.16468088 -0.16311438 -0.11025559 -0.2583721 -0.33891326 0.098278895 -0.13406165 -0.1454023 0.022180358 -0.17131299 -0.035021193 0.12799457 -0.020812156 0.027248258 -0.008655824 0.4042514 0.2193863 0.3346931 0.1944548 -0.31404573 0.2405494 0.21632598 0.060192734 0.38255274 -0.06629515 -0.19292504 -0.21282619 0.18808809 0.30957302 -0.10436062 -0.037479136 -0.22164993 0.023860577 0.19624561 -0.15673813 0.101244755 0.040813733 0.010621374 -0.28504598 -0.23060773 0.2402662 -0.16185546 -0.20980017 0.050638996 0.034728184 -0.057152793 0.14791438 0.0008371542 -0.029119596 0.02974844 -0.0877307 -0.15092044 0.22341034 -0.100310996 -0.25445783 -0.124224536 -0.04560445 0.34287098 0.10174956 0.27581024
969777234843021312 -0.3379259 -0.30176508 0.35746998 0.28299198 -0.08213091 -0.114126876 0.2514816 -0.03234061 -0.023742458 0.20673418 0.17590809 -0.11012732 0.09739827 0.32682052 -0.17114481 0.07849419 -0.0810344 0.078543864 -0.035026282 0.2879876 0.051213548 0.26601642 -0.027271593 -0.39091262 -0.042231917 0.22271852 -0.16749768 0.14811596 0.34417373 -0.23471554 0.19866519 0.18316801 0.17176239 0.10799701 -0.07607053 -0.31790796 -0.06559354 0.22513543 -0.39720175 0.351355 0.08676139 -0.105456024 -0.12743978 0.01750023 0.27554536 0.17152601 0.14106898 0.08899472 -0.33274558 -0.12505737 -0.32559106 -0.05123572 0.1437612 0.103219695 -0.063416295 0.21902731 0.055455983 -0.11087603 0.052925035 -0.32395083 -0.060463876 0.108205855 -0.0644301 0.10811062
969847984631328768 0.08506557 -0.081075765 0.2967551 0.38865995 0.113311306 0.39673677 -0.31556487 0.008981561 -0.17799205 -0.26010042 0.09190274 -0.1464961 0.024105428 0.09675188 0.18865947 0.38182276 -0.2862187 -0.40244588 0.29927903 0.13176097 0.006709778 0.13017572 0.2565766 -0.34388667 -0.19971472 -0.22213608 0.0177918 0.17762688 0.12770113 -0.25384715 -0.1885737 -0.33232886 0.029671274 0.04341982 -0.18795398 -0.15553011 0.07329091 -0.058370538 -0.11068049 -0.13913058 0.2043397 -0.0644733 -0.09863195 -0.047801137 0.636656 0.16536278 0.1792232 0.32531548 -0.37498125 0.17462589 -0.046668146 -0.02703073 -0.12283044 0.33278632 -0.015918376 0.20683804 -0.07333942 0.24457015 -0.105353504 -0.005418768 -0.21263373 0.37350112 0.44339702 0.12937981
970082870881497088 -0.08159191 0.039094325 0.2594623 0.14959471 -0.034553785 0.08211163 -0.13705848 -0.09200238 -0.35979697 0.27785596 0.11043314 -0.2493724 0.042208053 -0.010184646 -0.115093246 -0.08528919 -0.084177375 -0.16562976 -0.11067194 -0.032729235 0.14624904 0.12891102 0.09029885 -0.75563544 -0.03276755 0.31953633 -0.0358089 0.4892468 0.15893139 -0.25246507 -0.08094144 -0.28591502 0.12753117 -0.096115515 0.14748406 0.04025311 -0.18719733 -0.10876824 -0.24289311 -0.4212456 0.2585411 0.4675618 -0.10393595 -0.22775964 0.085370645 0.225622 0.27410313 -0.2533483 -0.059174795 0.094786204 -0.12571365 -0.058489844 -0.32774296 0.0568635 0.005725984 0.09691536 -0.16865139 0.35792553 -0.3083955 -0.017088372 -0.45555627 0.34396806 0.46851644 0.0060512703
969784459607158784 -0.21445069 -0.05332674 0.18265049 0.23901486 0.20495713 -0.030845523 0.0040500117 -0.09860197 -0.2754133 -0.1996401 -0.114890344 0.034918256 -0.22263645 -0.053320076 0.2645436 0.40591452 0.21991657 -0.06745651 -0.13249157 0.2166851 0.24743071 0.47378698 0.14618781 -0.39214548 -0.22255956 -0.044653863 0.23202872 0.07286442 0.06159063 -0.12569478 0.27869344 0.07660564 -0.0032947906 0.24485731 -0.010218512 0.07042246 0.002194016 0.059407458 -0.17065476 0.017990274 -0.579371 -0.111067005 -0.21500781 -0.10174878 0.39651123 -0.23807925 0.2435425 0.046329755 0.101473 -0.17444335 -0.003703656 0.0036371923 0.2943554 0.10119681 -0.11585149 -0.019410701 -0.067364894 -0.0958722 -0.29663008 -0.013069508 0.016734954 -0.1300336 0.11847756 -0.036030218
970055579753304065 0.18077154 -0.25320667 0.17107548 0.054854587 0.072635055 0.016100667 -0.009380226 -0.043065365 -0.28704044 0.120133035 0.061440043 -0.03549397 -0.17786436 -0.054884773 -0.15471645 0.27601033 0.07901186 0.110121824 -0.019802745 0.27860278 0.19547388 0.14986196 0.14433603 -0.15529701 -0.008628022 0.12888525 0.174858 0.13759688 -0.029839545 -0.1981192 0.124384776 0.16876568 -0.12514243 0.2284298 0.109220035 -0.20895162 0.14047159 0.021967396 -0.05661163 -0.12573798 0.11160734 0.15775308 -0.2540385 -0.20589593 0.18035345 -0.03887795 0.11063347 0.045641806 -0.11011537 0.20571202 -0.14975762 -0.008458939 0.014765596 0.10361231 -0.13759741 0.107845694 -0.005322895 0.3566227 -0.0461763 0.033884063 -0.22640729 0.105387636 0.096725196 0.23440742
970052951455686656 0.25849873 -0.23771624 0.27932864 0.022827 -0.081295095 0.1269645 -0.27386966 -0.073304 -0.4252605 0.2285922 0.07904062 -0.3764429 -0.12080207 0.31982872 0.06836112 0.24900316 -0.3537346 0.03027514 0.17131089 0.29309902 -0.0782801 0.112381145 0.043916434 -0.38439536 -0.034814533 -0.2308263 0.3421328 0.2959945 -0.029162211 0.07737005 0.51784164 0.047131523 0.09129181 0.084061705 -0.041649178 -0.17241135 -0.003077548 0.053074177 -0.0739076 0.17753167 -0.21630652 0.23673335 0.03987787 0.12431967 -0.021405734 -0.065182894 -0.17862935 -0.074773446 -0.16905682 0.17776519 -0.30475986 -0.08038034 0.2335555 0.011291024 0.13427423 -0.09942613 -0.13584226 -0.033600938 0.3452617 0.096003205 -0.19211729 0.03618765 0.2357969 0.25501975
969794750520860672 0.22150943 -0.37114382 0.3982571 0.22584385 0.1569324 0.03206924 -0.060738984 -0.096707225 -0.33072677 0.08586166 -0.016950652 -0.018148845 -0.111771286 -0.17695 -0.05919613 0.17540477 0.027917048 0.07522449 -0.023954784 0.34552658 0.04275156 -0.19254275 0.338946 -0.37189978 -0.4118735 0.14811288 0.36950767 -0.079653315 -0.0646923 -0.12723175 -0.0074231485 0.14865041 0.057676647 0.0006552218 -0.13963564 -0.42702898 0.10456146 -0.28663948 -0.081276536 -0.43993908 0.3116474 0.17418689 -0.13664705 0.14677608 0.09007866 0.050025996 0.09841274 0.1859213 -0.13068374 0.030342296 0.18562816 -0.12375991 -0.044732932 0.09015631 0.3401597 0.07966848 -0.25535953 0.059528515 -0.15183342 -0.19440809 -0.0052622864 0.1768693 0.004008951 0.063726015
969849840380256256 -0.11111183 0.1517204 0.5597996 0.43081993 0.123344086 -0.2619285 -0.06224192 -0.10980295 -0.3424718 0.047842603 0.07175313 -0.19250959 -0.25811532 -0.31005925 0.045722064 0.054347884 0.27182505 0.012837887 -0.12942502 0.07556818 -0.0685566 0.11297381 0.038602334 -0.26672244 -0.10322703 0.08206557 0.21330294 0.17576833 0.0329244 -0.17172202 0.1846807 0.071561314 0.018308464 0.14859219 -0.07042514 -0.005361795 -0.16524434 0.22307202 -0.0836231 0.16452219 -0.030569987 0.03548333 0.21135882 0.08849576 0.2641652 -0.26345497 0.20768194 0.254337 0.1682525 -0.006385645 -0.20972602 -0.109748654 0.07185118 0.02695145 -0.007930476 -0.015757117 -0.04323123 -0.024393752 -0.16314404 -0.09267815 -0.09718599 0.018160852 -0.08347194 0.1328653
969780329375399936 0.2990815 -0.14954746 0.37203252 0.034621216 -0.0032209072 -0.18525343 -0.1776728 0.08519345 -0.14549065 0.026084585 0.09676342 -0.20998538 0.036711726 0.019019062 -0.03694268 0.12397922 -0.19846727 -0.08386756 0.08027324 0.41331437 0.15477492 0.1104164 -0.1772956 -0.40861437 -0.0422026 0.07388814 -0.009199363 0.1747713 0.10306322 -0.083514504 0.16623874 0.110827945 0.086733095 -0.017230337 0.05255547 -0.36336333 0.24879812 -0.08100603 -0.1655603 0.027681457 0.07112737 -0.06618468 -0.119431295 0.025802106 0.26279932 -0.30049688 0.2197505 0.21823461 0.22599587 0.21530649 -0.005903771 0.11729823 0.105755664 0.10574333 0.21176094 0.12045827 -0.08765041 0.0048289946 -0.111698635 0.17402482 -0.15730554 -0.030182838 0.05595891 -0.0696929
969801454520123392 0.25318557 -0.2010899 0.098336175 0.1379494 0.0060175727 0.21395434 -0.09585362 -0.036070786 -0.3062626 -0.18035987 0.056835905 -0.21871406 -0.009008024 0.4122105 0.20832843 -0.006988442 0.13664576 -0.32847965 -0.12417709 0.3643066 -0.07570421 0.02143994 0.42830634 -0.42850018 -0.08346563 -0.043576512 0.35912445 -0.08999855 -0.45427603 -0.0037871646 0.0907692 0.13984999 0.12195462 -0.01546935 -0.0106060915 -0.018204281 -0.23195247 -0.13862035 -0.33978307 -0.002583389 0.002250906 0.274723 -0.008590402 0.20724462 0.39168227 0.047810107 -0.20631485 0.13247555 0.23154624 0.016667904 -0.33440676 0.022873262 0.04589313 0.044159632 0.11904179 -0.22037806 -0.13273887 0.1874856 -0.15005292 -0.04575612 -0.4082352 0.39376634 0.019738171 -0.08923704
970048734338797569 0.008789595 -0.3217652 0.21297425 0.039738487 0.053913843 0.14756 0.12451102 -0.10087327 -0.25679424 0.15163736 0.09099012 -0.010615469 -0.2541391 -0.13567032 -0.06839992 -0.18928203 -0.020622373 -0.19618554 -0.33993834 0.4297564 -0.48920843 0.3623234 0.105639994 -0.16645807 0.46930236 0.13136576 0.017771302 0.13043122 -0.011391875 -0.11147194 -0.14325488 0.18065241 0.10327498 -0.047449876 -0.054917652 -0.24386191 0.078283705 0.25934213 -0.17841898 -0.16026245 0.20036313 0.43100443 -0.1370676 0.118659824 0.24391587 -0.21190377 0.23825862 -0.408303 -0.19130889 0.3072275 -0.12117365 0.034898266 0.009612768 0.21468987 0.0061632446 0.13521385 -0.3311398 0.2970244 -0.37623796 0.068327844 -0.13711254 0.06280235 0.25209036 -0.055308394
969725801976487936 0.121063784 -0.018525332 0.062168304 0.17467642 -0.06507278 0.003083989 0.18636248 -0.15272826 -0.32914913 -0.2129472 0.03959277 -0.07250047 -0.10914946 -0.0075672916 -0.20712605 0.16754092 -0.1581704 -0.21869734 0.01374341 0.2716734 -0.20278752 0.027653484 0.27125356 0.07303284 -0.08250637 0.049603343 0.39984155 0.22414431 0.026509471 -0.12645511 0.1897666 0.06340828 0.2971771 0.42661405 -0.21196423 -0.015018817 0.045944605 -0.09225152 -0.27232888 0.31562957 -0.051506434 0.25218812 -0.21024391 0.11153309 0.32011768 -0.04186825 0.16279988 -0.123336166 -0.041873366 0.405682 -0.18900275 -0.023209402 -0.0073177307 0.1151497 0.060292523 -0.023653008 -0.124557555 -0.10068543 -0.056180093 0.15254016 -0.15973857 0.23914635 -0.047263306 0.04062316
969761818657792000 0.18399963 -0.31870028 -0.06945869 0.21984582 -0.07709235 -0.07744176 -0.35024744 -0.27247262 -0.32038856 0.07653081 -0.014636588 0.118860416 -0.333494 0.1654744 -0.18509987 0.07415664 0.17453112 -0.118513845 0.33336574 0.3539998 0.2057577 0.021993823 0.08503857 -0.25538868 -0.11482407 0.21167068 -0.13392931 0.20727289 0.12373577 -0.23709698 0.45377496 0.16698547 0.048665017 -0.0524561 0.29277924 0.18616705 -0.13940713 0.15725766 -0.08148886 0.1647698 -0.0027722812 -0.17080037 0.047765937 -0.11607302 0.36154446 0.09599826 0.026500164 0.030758072 0.014076982 0.17317419 -0.14766306 -0.25842103 0.13787244 0.0921378 -0.27853665 -0.06355501 0.032833092 0.3239623 -0.3079862 0.028099978 -0.22263615 0.055819556 -0.12986127 -0.15139174
970052734408785920 0.3814852 -0.08006785 -0.116084196 -0.017277246 -0.25382712 -0.0042235292 -0.15532838 -0.22407843 -0.44484973 0.3115032 0.2229553 -0.08693857 -0.047982354 0.08307483 -0.17002237 0.12456921 0.12157896 -0.008908112 0.3830739 0.10829538 -0.1276995 -0.10243365 -0.10030949 -0.59357 0.12058923 -0.06386914 0.25549746 -0.0068776715 -0.10228569 -0.43640798 0.46111155 -0.069392 0.23677185 0.13816488 -0.26213738 0.04474391 0.2523178 0.050520636 -0.051026613 0.45879042 0.09672702 -0.081640445 0.089802705 -0.07452198 0.2921048 -0.23516777 -0.0058839223 0.07552806 -0.061629426 -0.06528117 -0.21240263 0.015730062 -0.15343997 -0.112903595 -0.024766821 0.2607165 -0.022448534 0.037310842 -0.060679693 -0.2546528 -0.344257 -0.35489854 -0.020713303 0.10576607
